genomestart 6189
trait 1 0.436151 0.00393121 0.540901 0.0781992 0.526931 0.147856 0.325444 0.388808
node 1 1 1 1 0
node 2 1 1 1 0
node 3 1 1 1 0
node 4 1 1 1 0
node 5 1 1 1 0
node 6 1 1 1 0
node 7 1 1 1 0
node 8 1 1 1 0
node 9 1 1 1 0
node 10 1 1 1 0
node 11 1 1 1 0
node 12 1 1 1 0
node 13 1 1 1 0
node 14 1 1 1 0
node 15 1 1 1 0
node 16 1 1 1 0
node 17 1 1 1 0
node 18 1 1 1 0
node 19 1 1 3 0
node 20 1 0 2 0
node 21 1 0 2 0
node 24 1 0 0 0
node 26 1 0 0 0
node 28 1 0 0 0
node 29 1 0 0 0
node 33 1 0 0 0
node 36 1 0 0 0
node 54 1 0 0 0
node 56 1 0 0 0
node 66 1 0 0 0
gene 1 1 20 1.77135 0 1 1.77135 1
gene 1 2 20 0.177018 0 2 0.177018 1
gene 1 3 20 0.135944 0 3 0.135944 1
gene 1 4 20 0.388763 0 4 0.388763 1
gene 1 5 20 1.63875 0 5 1.63875 1
gene 1 6 20 -0.950754 0 6 -0.950754 1
gene 1 7 20 0.477437 0 7 0.477437 1
gene 1 8 20 0.218754 0 8 0.218754 1
gene 1 9 20 0.710747 0 9 0.710747 1
gene 1 10 20 -0.581501 0 10 -0.581501 1
gene 1 11 20 1.08936 0 11 1.08936 1
gene 1 12 20 -1.22823 0 12 -1.22823 1
gene 1 13 20 0.208418 0 13 0.208418 1
gene 1 14 20 0.778581 0 14 0.778581 1
gene 1 15 20 0.184423 0 15 0.184423 1
gene 1 16 20 0.200929 0 16 0.200929 1
gene 1 17 20 0.2718 0 17 0.2718 1
gene 1 18 20 -0.526166 0 18 -0.526166 1
gene 1 19 20 0.472543 0 19 0.472543 1
gene 1 1 21 -0.0830828 0 20 -0.0830828 1
gene 1 2 21 1.51709 0 21 1.51709 1
gene 1 3 21 0.200031 0 22 0.200031 1
gene 1 4 21 -0.31072 0 23 -0.31072 1
gene 1 5 21 -0.618794 0 24 -0.618794 0
gene 1 6 21 -0.196232 0 25 -0.196232 1
gene 1 7 21 0.21974 0 26 0.21974 1
gene 1 8 21 0.451898 0 27 0.451898 1
gene 1 9 21 0.174423 0 28 0.174423 1
gene 1 10 21 0.420514 0 29 0.420514 1
gene 1 11 21 0.83536 0 30 0.83536 1
gene 1 12 21 0.372064 0 31 0.372064 1
gene 1 13 21 0.170288 0 32 0.170288 1
gene 1 14 21 -0.726867 0 33 -0.726867 1
gene 1 15 21 -1.37751 0 34 -1.37751 1
gene 1 16 21 0.262755 0 35 0.262755 1
gene 1 17 21 0.132615 0 36 0.132615 1
gene 1 18 21 0.658324 0 37 0.658324 1
gene 1 19 21 -0.511313 0 38 -0.511313 1
gene 1 5 24 0.801482 0 49 0.801482 1
gene 1 24 21 -0.529652 0 50 -0.529652 1
gene 1 5 26 -0.336355 0 54 -0.336355 1
gene 1 26 20 0.255982 0 55 0.255982 1
gene 1 10 28 -0.49106 0 58 -0.49106 1
gene 1 28 20 -0.261224 0 59 -0.261224 1
gene 1 6 26 -1.93623 0 64 -1.93623 1
gene 1 11 29 0.726459 0 67 0.726459 1
gene 1 29 21 0.347876 0 68 0.347876 0
gene 1 1 33 0.856229 0 76 0.856229 1
gene 1 33 21 -0.884368 0 77 -0.884368 1
gene 1 7 36 1.19793 0 87 1.19793 1
gene 1 36 21 -0.0274137 0 88 -0.0274137 1
gene 1 7 26 0.412704 0 94 0.412704 1
gene 1 20 20 0.628839 1 95 0.628839 1
gene 1 29 29 -0.155158 1 108 -0.155158 1
gene 1 7 28 -0.593599 0 123 -0.593599 1
gene 1 2 28 0.527587 0 124 0.527587 1
gene 1 17 28 -0.0500944 0 135 -0.0500944 1
gene 1 4 26 -0.390904 0 150 -0.390904 1
gene 1 13 28 -0.654686 0 152 -0.654686 1
gene 1 16 26 0.358862 0 159 0.358862 1
gene 1 26 29 0.0442509 0 169 0.0442509 1
gene 1 28 28 0.676882 1 170 0.676882 1
gene 1 6 29 -0.309177 0 173 -0.309177 1
gene 1 5 54 0.273716 0 174 0.273716 1
gene 1 54 26 -0.451618 0 175 -0.451618 1
gene 1 6 33 -0.0130484 0 185 -0.0130484 1
gene 1 3 26 0.308411 0 192 0.308411 1
gene 1 29 56 -0.386518 1 196 -0.386518 1
gene 1 56 29 0.137086 0 197 0.137086 1
gene 1 28 24 0.442388 0 217 0.442388 1
gene 1 18 28 0.432524 0 246 0.432524 1
gene 1 29 66 0.149555 0 251 0.149555 1
gene 1 66 21 -0.0206443 0 252 -0.0206443 1
gene 1 4 33 0.820682 0 254 0.820682 1
gene 1 8 28 -0.0665151 0 266 -0.0665151 1
gene 1 3 56 0.867817 0 350 0.867817 1
genomeend 6189
genomestart 6337
trait 1 0.37042 0.00786242 0.395999 0.0781992 0.14581 0.607234 0 0.363182
node 1 1 1 1 0
node 2 1 1 1 0
node 3 1 1 1 0
node 4 1 1 1 0
node 5 1 1 1 0
node 6 1 1 1 0
node 7 1 1 1 0
node 8 1 1 1 0
node 9 1 1 1 0
node 10 1 1 1 0
node 11 1 1 1 0
node 12 1 1 1 0
node 13 1 1 1 0
node 14 1 1 1 0
node 15 1 1 1 0
node 16 1 1 1 0
node 17 1 1 1 0
node 18 1 1 1 0
node 19 1 1 3 0
node 20 1 0 2 0
node 21 1 0 2 0
node 24 1 0 0 0
node 25 1 0 0 0
node 26 1 0 0 0
node 28 1 0 0 0
node 29 1 0 0 0
node 33 1 0 0 0
node 54 1 0 0 0
node 56 1 0 0 0
gene 1 1 20 1.82281 0 1 1.82281 1
gene 1 2 20 0.0122989 0 2 0.0122989 1
gene 1 3 20 0.814453 0 3 0.814453 1
gene 1 4 20 0.315958 0 4 0.315958 1
gene 1 5 20 0.551622 0 5 0.551622 1
gene 1 6 20 0.58716 0 6 0.58716 1
gene 1 7 20 0.123447 0 7 0.123447 1
gene 1 8 20 -0.244382 0 8 -0.244382 1
gene 1 9 20 0.627964 0 9 0.627964 1
gene 1 10 20 0.638755 0 10 0.638755 0
gene 1 11 20 0.176071 0 11 0.176071 1
gene 1 12 20 -0.990215 0 12 -0.990215 1
gene 1 13 20 -1.35135 0 13 -1.35135 1
gene 1 14 20 0.66995 0 14 0.66995 1
gene 1 15 20 -1.48339 0 15 -1.48339 1
gene 1 16 20 -0.207976 0 16 -0.207976 1
gene 1 17 20 -0.725528 0 17 -0.725528 1
gene 1 18 20 -1.65693 0 18 -1.65693 1
gene 1 19 20 0.0987965 0 19 0.0987965 1
gene 1 1 21 0.0334329 0 20 0.0334329 1
gene 1 2 21 1.04404 0 21 1.04404 1
gene 1 3 21 -0.171088 0 22 -0.171088 1
gene 1 4 21 -0.88791 0 23 -0.88791 1
gene 1 5 21 -0.276669 0 24 -0.276669 0
gene 1 6 21 -0.360644 0 25 -0.360644 1
gene 1 7 21 0.865043 0 26 0.865043 1
gene 1 8 21 -0.352079 0 27 -0.352079 1
gene 1 9 21 -0.171308 0 28 -0.171308 1
gene 1 10 21 0.0460065 0 29 0.0460065 1
gene 1 11 21 0.190955 0 30 0.190955 1
gene 1 12 21 0.752655 0 31 0.752655 1
gene 1 13 21 -0.128495 0 32 -0.128495 1
gene 1 14 21 0.542813 0 33 0.542813 1
gene 1 15 21 -0.981221 0 34 -0.981221 1
gene 1 16 21 -0.463709 0 35 -0.463709 0
gene 1 17 21 0.575901 0 36 0.575901 1
gene 1 18 21 0.508624 0 37 0.508624 1
gene 1 19 21 0.0340361 0 38 0.0340361 1
gene 1 5 24 0.309574 0 49 0.309574 1
gene 1 24 21 -0.0883157 0 50 -0.0883157 1
gene 1 16 25 1 0 51 0 1
gene 1 25 21 -0.139113 0 52 0 1
gene 1 5 26 0.288443 0 54 0.288443 1
gene 1 26 20 0.167326 0 55 0.167326 1
gene 1 10 28 -0.564157 0 58 -0.564157 1
gene 1 28 20 -0.0631855 0 59 -0.0631855 1
gene 1 6 26 -2.20374 0 64 -2.20374 1
gene 1 11 29 -0.532814 0 67 -0.532814 1
gene 1 29 21 -0.0141679 0 68 -0.0141679 1
gene 1 1 33 -0.371902 0 76 -0.371902 1
gene 1 33 21 -0.730114 0 77 -0.730114 1
gene 1 3 28 0.335352 0 82 0 1
gene 1 7 26 1.35221 0 94 1.35221 1
gene 1 20 20 1.11458 1 95 1.11458 1
gene 1 29 29 -0.773207 1 108 -0.773207 1
gene 1 7 28 -1.40271 0 123 -1.40271 1
gene 1 2 28 -0.600481 0 124 -0.600481 1
gene 1 17 28 1.26301 0 135 1.26301 1
gene 1 4 26 -1.0829 0 150 -1.0829 1
gene 1 13 28 0.185846 0 152 0.185846 1
gene 1 16 26 0.238611 0 159 0.238611 1
gene 1 26 29 0.0732402 0 169 0.0732402 1
gene 1 28 28 -0.214646 1 170 -0.214646 1
gene 1 6 29 0.158131 0 173 0.158131 1
gene 1 5 54 -0.427797 0 174 -0.427797 1
gene 1 54 26 -0.0873784 0 175 -0.0873784 1
gene 1 6 33 -0.17359 0 185 -0.17359 1
gene 1 3 26 -0.346777 0 192 -0.346777 1
gene 1 29 56 2.04512 1 196 2.04512 1
gene 1 56 29 -0.165679 0 197 -0.165679 1
gene 1 28 24 0.0490936 0 217 0.0490936 1
gene 1 10 54 0.31108 0 243 0.31108 1
gene 1 8 26 -0.555693 0 260 -0.555693 1
gene 1 24 29 0.128156 0 262 0.128156 1
genomeend 6337
genomestart 6452
trait 1 0.341945 0.00737102 0.395999 0.084274 0.145655 0.828165 0.465441 0.399061
node 1 1 1 1 0
node 2 1 1 1 0
node 3 1 1 1 0
node 4 1 1 1 0
node 5 1 1 1 0
node 6 1 1 1 0
node 7 1 1 1 0
node 8 1 1 1 0
node 9 1 1 1 0
node 10 1 1 1 0
node 11 1 1 1 0
node 12 1 1 1 0
node 13 1 1 1 0
node 14 1 1 1 0
node 15 1 1 1 0
node 16 1 1 1 0
node 17 1 1 1 0
node 18 1 1 1 0
node 19 1 1 3 0
node 20 1 0 2 0
node 21 1 0 2 0
node 24 1 0 0 0
node 25 1 0 0 0
node 26 1 0 0 0
node 28 1 0 0 0
node 29 1 0 0 0
node 33 1 0 0 0
node 54 1 0 0 0
node 56 1 0 0 0
gene 1 1 20 0.22181 0 1 0.22181 1
gene 1 2 20 0.168556 0 2 0.168556 1
gene 1 3 20 1.34595 0 3 1.34595 1
gene 1 4 20 0.946273 0 4 0.946273 1
gene 1 5 20 1.22103 0 5 1.22103 1
gene 1 6 20 -0.110276 0 6 -0.110276 1
gene 1 7 20 0.587999 0 7 0.587999 1
gene 1 8 20 -0.204511 0 8 -0.204511 1
gene 1 9 20 0.754196 0 9 0.754196 1
gene 1 10 20 0.413164 0 10 0.413164 0
gene 1 11 20 0.928817 0 11 0.928817 1
gene 1 12 20 -0.494897 0 12 -0.494897 1
gene 1 13 20 0.225554 0 13 0.225554 1
gene 1 14 20 0.152759 0 14 0.152759 1
gene 1 15 20 -1.08982 0 15 -1.08982 1
gene 1 16 20 -0.594519 0 16 -0.594519 1
gene 1 17 20 0.159218 0 17 0.159218 1
gene 1 18 20 -0.0436712 0 18 -0.0436712 1
gene 1 19 20 -0.611416 0 19 -0.611416 1
gene 1 1 21 -0.16575 0 20 -0.16575 1
gene 1 2 21 1.38958 0 21 1.38958 1
gene 1 3 21 -0.257679 0 22 -0.257679 1
gene 1 4 21 -0.843726 0 23 -0.843726 1
gene 1 5 21 -0.508991 0 24 -0.508991 0
gene 1 6 21 -0.271939 0 25 -0.271939 1
gene 1 7 21 -0.175032 0 26 -0.175032 1
gene 1 8 21 0.441188 0 27 0.441188 1
gene 1 9 21 0.822795 0 28 0.822795 1
gene 1 10 21 0.409117 0 29 0.409117 1
gene 1 11 21 1.07083 0 30 1.07083 1
gene 1 12 21 1.61297 0 31 1.61297 1
gene 1 13 21 -0.00959269 0 32 -0.00959269 1
gene 1 14 21 -0.319448 0 33 -0.319448 1
gene 1 15 21 -1.67746 0 34 -1.67746 1
gene 1 16 21 -0.911238 0 35 -0.911238 0
gene 1 17 21 0.505693 0 36 0.505693 1
gene 1 18 21 0.188447 0 37 0.188447 1
gene 1 19 21 -0.841982 0 38 -0.841982 1
gene 1 5 24 0.20731 0 49 0.20731 1
gene 1 24 21 0.0453592 0 50 0.0453592 1
gene 1 16 25 -0.0997815 0 51 -0.0997815 1
gene 1 25 21 -0.342314 0 52 -0.342314 1
gene 1 5 26 0.608062 0 54 0.608062 1
gene 1 26 20 0.206063 0 55 0.206063 1
gene 1 10 28 0.0196038 0 58 0.0196038 1
gene 1 28 20 0.848571 0 59 0.848571 1
gene 1 6 26 -2.81676 0 64 -2.81676 1
gene 1 11 29 0.0371555 0 67 0.0371555 1
gene 1 29 21 -0.556019 0 68 -0.556019 1
gene 1 1 33 -0.140108 0 76 -0.140108 1
gene 1 33 21 -0.272361 0 77 -0.272361 1
gene 1 7 26 -0.163685 0 94 -0.163685 1
gene 1 20 20 0.214185 1 95 0.214185 1
gene 1 29 29 -1.16523 1 108 -1.16523 1
gene 1 7 28 -0.892632 0 123 -0.892632 1
gene 1 2 28 -0.298075 0 124 -0.298075 1
gene 1 17 28 1.20206 0 135 1.20206 1
gene 1 4 26 -0.560241 0 150 -0.560241 1
gene 1 13 28 -0.375479 0 152 -0.375479 1
gene 1 16 26 0.0482066 0 159 0.0482066 1
gene 1 26 29 0.350836 0 169 0.350836 1
gene 1 28 28 0.818763 1 170 0.818763 1
gene 1 6 29 -0.127206 0 173 -0.127206 1
gene 1 5 54 0.0570797 0 174 0.0570797 1
gene 1 54 26 -0.261014 0 175 -0.261014 1
gene 1 6 33 -0.575988 0 185 -0.575988 1
gene 1 3 26 -0.454157 0 192 -0.454157 1
gene 1 29 56 -0.723715 1 196 -0.723715 1
gene 1 56 29 -0.162664 0 197 -0.162664 1
gene 1 28 24 -0.428508 0 217 -0.428508 1
gene 1 10 54 -0.423895 0 243 -0.423895 1
gene 1 8 26 0.00940493 0 260 0.00940493 1
gene 1 24 29 -0.632631 0 262 -0.632631 1
genomeend 6452
genomestart 6550
trait 1 0.37042 0.00786242 0.395999 0.0781992 0.14581 0.607234 0 0.363182
node 1 1 1 1 0
node 2 1 1 1 0
node 3 1 1 1 0
node 4 1 1 1 0
node 5 1 1 1 0
node 6 1 1 1 0
node 7 1 1 1 0
node 8 1 1 1 0
node 9 1 1 1 0
node 10 1 1 1 0
node 11 1 1 1 0
node 12 1 1 1 0
node 13 1 1 1 0
node 14 1 1 1 0
node 15 1 1 1 0
node 16 1 1 1 0
node 17 1 1 1 0
node 18 1 1 1 0
node 19 1 1 3 0
node 20 1 0 2 0
node 21 1 0 2 0
node 24 1 0 0 0
node 25 1 0 0 0
node 26 1 0 0 0
node 28 1 0 0 0
node 29 1 0 0 0
node 33 1 0 0 0
node 54 1 0 0 0
node 56 1 0 0 0
gene 1 1 20 1.82281 0 1 1.82281 1
gene 1 2 20 0.0122989 0 2 0.0122989 1
gene 1 3 20 0.814453 0 3 0.814453 1
gene 1 4 20 0.315958 0 4 0.315958 1
gene 1 5 20 0.551622 0 5 0.551622 1
gene 1 6 20 0.58716 0 6 0.58716 1
gene 1 7 20 0.123447 0 7 0.123447 1
gene 1 8 20 -0.244382 0 8 -0.244382 1
gene 1 9 20 0.627964 0 9 0.627964 1
gene 1 10 20 0.638755 0 10 0.638755 0
gene 1 11 20 0.176071 0 11 0.176071 1
gene 1 12 20 -0.990215 0 12 -0.990215 1
gene 1 13 20 -1.35135 0 13 -1.35135 1
gene 1 14 20 0.66995 0 14 0.66995 1
gene 1 15 20 -1.48339 0 15 -1.48339 1
gene 1 16 20 -0.207976 0 16 -0.207976 1
gene 1 17 20 -0.725528 0 17 -0.725528 1
gene 1 18 20 -1.65693 0 18 -1.65693 1
gene 1 19 20 0.0987965 0 19 0.0987965 1
gene 1 1 21 0.0334329 0 20 0.0334329 1
gene 1 2 21 1.04404 0 21 1.04404 1
gene 1 3 21 -0.171088 0 22 -0.171088 1
gene 1 4 21 -0.88791 0 23 -0.88791 1
gene 1 5 21 -0.276669 0 24 -0.276669 0
gene 1 6 21 -0.360644 0 25 -0.360644 1
gene 1 7 21 0.865043 0 26 0.865043 1
gene 1 8 21 -0.352079 0 27 -0.352079 1
gene 1 9 21 -0.171308 0 28 -0.171308 1
gene 1 10 21 0.0460065 0 29 0.0460065 1
gene 1 11 21 0.190955 0 30 0.190955 1
gene 1 12 21 0.752655 0 31 0.752655 1
gene 1 13 21 -0.128495 0 32 -0.128495 1
gene 1 14 21 0.542813 0 33 0.542813 1
gene 1 15 21 -0.981221 0 34 -0.981221 1
gene 1 16 21 -0.463709 0 35 -0.463709 0
gene 1 17 21 0.575901 0 36 0.575901 1
gene 1 18 21 0.508624 0 37 0.508624 1
gene 1 19 21 0.0340361 0 38 0.0340361 1
gene 1 5 24 0.309574 0 49 0.309574 1
gene 1 24 21 -0.0883157 0 50 -0.0883157 1
gene 1 16 25 1 0 51 0 1
gene 1 25 21 -0.139113 0 52 0 1
gene 1 5 26 0.288443 0 54 0.288443 1
gene 1 26 20 0.167326 0 55 0.167326 1
gene 1 10 28 -0.564157 0 58 -0.564157 1
gene 1 28 20 -0.0631855 0 59 -0.0631855 1
gene 1 6 26 -2.20374 0 64 -2.20374 1
gene 1 11 29 -0.532814 0 67 -0.532814 1
gene 1 29 21 -0.0141679 0 68 -0.0141679 1
gene 1 1 33 -0.371902 0 76 -0.371902 1
gene 1 33 21 -0.730114 0 77 -0.730114 1
gene 1 3 28 0.335352 0 82 0 1
gene 1 7 26 1.35221 0 94 1.35221 1
gene 1 20 20 1.11458 1 95 1.11458 1
gene 1 29 29 -0.773207 1 108 -0.773207 1
gene 1 7 28 -1.40271 0 123 -1.40271 1
gene 1 2 28 -0.600481 0 124 -0.600481 1
gene 1 17 28 1.26301 0 135 1.26301 1
gene 1 4 26 -1.0829 0 150 -1.0829 1
gene 1 13 28 0.185846 0 152 0.185846 1
gene 1 16 26 0.238611 0 159 0.238611 1
gene 1 26 29 0.0732402 0 169 0.0732402 1
gene 1 28 28 -0.214646 1 170 -0.214646 1
gene 1 6 29 0.158131 0 173 0.158131 1
gene 1 5 54 -0.427797 0 174 -0.427797 1
gene 1 54 26 -0.0873784 0 175 -0.0873784 1
gene 1 6 33 -0.17359 0 185 -0.17359 1
gene 1 3 26 -0.346777 0 192 -0.346777 1
gene 1 29 56 2.04512 1 196 2.04512 1
gene 1 56 29 -0.165679 0 197 -0.165679 1
gene 1 28 24 0.0490936 0 217 0.0490936 1
gene 1 10 54 0.31108 0 243 0.31108 1
gene 1 8 26 -0.555693 0 260 -0.555693 1
gene 1 24 29 0.128156 0 262 0.128156 1
genomeend 6550
genomestart 6550
trait 1 0.37042 0.00786242 0.395999 0.0781992 0.14581 0.607234 0 0.363182
node 1 1 1 1 0
node 2 1 1 1 0
node 3 1 1 1 0
node 4 1 1 1 0
node 5 1 1 1 0
node 6 1 1 1 0
node 7 1 1 1 0
node 8 1 1 1 0
node 9 1 1 1 0
node 10 1 1 1 0
node 11 1 1 1 0
node 12 1 1 1 0
node 13 1 1 1 0
node 14 1 1 1 0
node 15 1 1 1 0
node 16 1 1 1 0
node 17 1 1 1 0
node 18 1 1 1 0
node 19 1 1 3 0
node 20 1 0 2 0
node 21 1 0 2 0
node 24 1 0 0 0
node 25 1 0 0 0
node 26 1 0 0 0
node 28 1 0 0 0
node 29 1 0 0 0
node 33 1 0 0 0
node 54 1 0 0 0
node 56 1 0 0 0
gene 1 1 20 1.82281 0 1 1.82281 1
gene 1 2 20 0.0122989 0 2 0.0122989 1
gene 1 3 20 0.814453 0 3 0.814453 1
gene 1 4 20 0.315958 0 4 0.315958 1
gene 1 5 20 0.551622 0 5 0.551622 1
gene 1 6 20 0.58716 0 6 0.58716 1
gene 1 7 20 0.123447 0 7 0.123447 1
gene 1 8 20 -0.244382 0 8 -0.244382 1
gene 1 9 20 0.627964 0 9 0.627964 1
gene 1 10 20 0.638755 0 10 0.638755 0
gene 1 11 20 0.176071 0 11 0.176071 1
gene 1 12 20 -0.990215 0 12 -0.990215 1
gene 1 13 20 -1.35135 0 13 -1.35135 1
gene 1 14 20 0.66995 0 14 0.66995 1
gene 1 15 20 -1.48339 0 15 -1.48339 1
gene 1 16 20 -0.207976 0 16 -0.207976 1
gene 1 17 20 -0.725528 0 17 -0.725528 1
gene 1 18 20 -1.65693 0 18 -1.65693 1
gene 1 19 20 0.0987965 0 19 0.0987965 1
gene 1 1 21 0.0334329 0 20 0.0334329 1
gene 1 2 21 1.04404 0 21 1.04404 1
gene 1 3 21 -0.171088 0 22 -0.171088 1
gene 1 4 21 -0.88791 0 23 -0.88791 1
gene 1 5 21 -0.276669 0 24 -0.276669 0
gene 1 6 21 -0.360644 0 25 -0.360644 1
gene 1 7 21 0.865043 0 26 0.865043 1
gene 1 8 21 -0.352079 0 27 -0.352079 1
gene 1 9 21 -0.171308 0 28 -0.171308 1
gene 1 10 21 0.0460065 0 29 0.0460065 1
gene 1 11 21 0.190955 0 30 0.190955 1
gene 1 12 21 0.752655 0 31 0.752655 1
gene 1 13 21 -0.128495 0 32 -0.128495 1
gene 1 14 21 0.542813 0 33 0.542813 1
gene 1 15 21 -0.981221 0 34 -0.981221 1
gene 1 16 21 -0.463709 0 35 -0.463709 0
gene 1 17 21 0.575901 0 36 0.575901 1
gene 1 18 21 0.508624 0 37 0.508624 1
gene 1 19 21 0.0340361 0 38 0.0340361 1
gene 1 5 24 0.309574 0 49 0.309574 1
gene 1 24 21 -0.0883157 0 50 -0.0883157 1
gene 1 16 25 1 0 51 0 1
gene 1 25 21 -0.139113 0 52 0 1
gene 1 5 26 0.288443 0 54 0.288443 1
gene 1 26 20 0.167326 0 55 0.167326 1
gene 1 10 28 -0.564157 0 58 -0.564157 1
gene 1 28 20 -0.0631855 0 59 -0.0631855 1
gene 1 6 26 -2.20374 0 64 -2.20374 1
gene 1 11 29 -0.532814 0 67 -0.532814 1
gene 1 29 21 -0.0141679 0 68 -0.0141679 1
gene 1 1 33 -0.371902 0 76 -0.371902 1
gene 1 33 21 -0.730114 0 77 -0.730114 1
gene 1 3 28 0.335352 0 82 0 1
gene 1 7 26 1.35221 0 94 1.35221 1
gene 1 20 20 1.11458 1 95 1.11458 1
gene 1 29 29 -0.773207 1 108 -0.773207 1
gene 1 7 28 -1.40271 0 123 -1.40271 1
gene 1 2 28 -0.600481 0 124 -0.600481 1
gene 1 17 28 1.26301 0 135 1.26301 1
gene 1 4 26 -1.0829 0 150 -1.0829 1
gene 1 13 28 0.185846 0 152 0.185846 1
gene 1 16 26 0.238611 0 159 0.238611 1
gene 1 26 29 0.0732402 0 169 0.0732402 1
gene 1 28 28 -0.214646 1 170 -0.214646 1
gene 1 6 29 0.158131 0 173 0.158131 1
gene 1 5 54 -0.427797 0 174 -0.427797 1
gene 1 54 26 -0.0873784 0 175 -0.0873784 1
gene 1 6 33 -0.17359 0 185 -0.17359 1
gene 1 3 26 -0.346777 0 192 -0.346777 1
gene 1 29 56 2.04512 1 196 2.04512 1
gene 1 56 29 -0.165679 0 197 -0.165679 1
gene 1 28 24 0.0490936 0 217 0.0490936 1
gene 1 10 54 0.31108 0 243 0.31108 1
gene 1 8 26 -0.555693 0 260 -0.555693 1
gene 1 24 29 0.128156 0 262 0.128156 1
genomeend 6550
genomestart 6551
trait 1 0.436151 0.00393121 0.540901 0.0781992 0.526931 0.147856 0.325444 0.388808
node 1 1 1 1 0
node 2 1 1 1 0
node 3 1 1 1 0
node 4 1 1 1 0
node 5 1 1 1 0
node 6 1 1 1 0
node 7 1 1 1 0
node 8 1 1 1 0
node 9 1 1 1 0
node 10 1 1 1 0
node 11 1 1 1 0
node 12 1 1 1 0
node 13 1 1 1 0
node 14 1 1 1 0
node 15 1 1 1 0
node 16 1 1 1 0
node 17 1 1 1 0
node 18 1 1 1 0
node 19 1 1 3 0
node 20 1 0 2 0
node 21 1 0 2 0
node 24 1 0 0 0
node 26 1 0 0 0
node 28 1 0 0 0
node 29 1 0 0 0
node 33 1 0 0 0
node 36 1 0 0 0
node 54 1 0 0 0
node 56 1 0 0 0
node 66 1 0 0 0
node 86 1 0 0 0
gene 1 1 20 0.812737 0 1 0.812737 1
gene 1 2 20 -0.316328 0 2 -0.316328 1
gene 1 3 20 0.183759 0 3 0.183759 1
gene 1 4 20 0.878506 0 4 0.878506 1
gene 1 5 20 2.03085 0 5 2.03085 1
gene 1 6 20 -0.593502 0 6 -0.593502 1
gene 1 7 20 0.802319 0 7 0.802319 1
gene 1 8 20 0.413061 0 8 0.413061 1
gene 1 9 20 0.807308 0 9 0.807308 1
gene 1 10 20 -0.459177 0 10 -0.459177 1
gene 1 11 20 1.02568 0 11 1.02568 1
gene 1 12 20 -0.862118 0 12 -0.862118 1
gene 1 13 20 0.546692 0 13 0.546692 1
gene 1 14 20 1.0226 0 14 1.0226 1
gene 1 15 20 0.0227716 0 15 0.0227716 1
gene 1 16 20 -0.215924 0 16 -0.215924 1
gene 1 17 20 0.326719 0 17 0.326719 1
gene 1 18 20 -0.956168 0 18 -0.956168 1
gene 1 19 20 0.284999 0 19 0.284999 1
gene 1 1 21 -0.0175594 0 20 -0.0175594 1
gene 1 2 21 1.79175 0 21 1.79175 1
gene 1 3 21 -0.549081 0 22 -0.549081 1
gene 1 4 21 -0.0362459 0 23 -0.0362459 1
gene 1 5 21 -0.750934 0 24 -0.750934 0
gene 1 6 21 -0.443358 0 25 -0.443358 1
gene 1 7 21 -0.813608 0 26 -0.813608 0
gene 1 8 21 0.30082 0 27 0.30082 1
gene 1 9 21 0.336123 0 28 0.336123 1
gene 1 10 21 0.131353 0 29 0.131353 1
gene 1 11 21 1.21218 0 30 1.21218 1
gene 1 12 21 0.0804918 0 31 0.0804918 1
gene 1 13 21 -0.10514 0 32 -0.10514 1
gene 1 14 21 -0.713514 0 33 -0.713514 1
gene 1 15 21 -2.19117 0 34 -2.19117 1
gene 1 16 21 -0.0730514 0 35 -0.0730514 1
gene 1 17 21 -0.348278 0 36 -0.348278 1
gene 1 18 21 0.240851 0 37 0.240851 1
gene 1 19 21 0.0741329 0 38 0.0741329 1
gene 1 5 24 0.356313 0 49 0.356313 1
gene 1 24 21 -0.983351 0 50 -0.983351 1
gene 1 5 26 -0.330581 0 54 -0.330581 1
gene 1 26 20 0.0807916 0 55 0.0807916 1
gene 1 10 28 -0.725871 0 58 -0.725871 1
gene 1 28 20 -0.262076 0 59 -0.262076 1
gene 1 6 26 -2.16734 0 64 -2.16734 1
gene 1 11 29 1.02135 0 67 1.02135 1
gene 1 29 21 0.605517 0 68 0.605517 0
gene 1 1 33 0.83344 0 76 0.83344 1
gene 1 33 21 -0.897266 0 77 -0.897266 1
gene 1 7 36 0.801836 0 87 0.801836 1
gene 1 36 21 0.0986556 0 88 0.0986556 1
gene 1 7 26 0.638794 0 94 0.638794 1
gene 1 20 20 0.858794 1 95 0.858794 1
gene 1 29 29 -0.0660493 1 108 -0.0660493 1
gene 1 7 28 -0.901904 0 123 -0.901904 1
gene 1 2 28 0.519261 0 124 0.519261 1
gene 1 17 28 0.65367 0 135 0.65367 1
gene 1 4 26 -0.766918 0 150 -0.766918 1
gene 1 13 28 -0.0706144 0 152 -0.0706144 1
gene 1 16 26 -0.0515125 0 159 -0.0515125 1
gene 1 26 29 0.512228 0 169 0.512228 1
gene 1 28 28 0.302894 1 170 0.302894 1
gene 1 6 29 -0.319766 0 173 -0.319766 1
gene 1 5 54 0.234538 0 174 0.234538 1
gene 1 54 26 -0.363719 0 175 -0.363719 1
gene 1 6 33 0.297185 0 185 0.297185 1
gene 1 3 26 0.308411 0 192 0.308411 1
gene 1 29 56 -0.386518 1 196 -0.386518 1
gene 1 56 29 0.435237 0 197 0.435237 0
gene 1 28 24 0.517492 0 217 0.517492 1
gene 1 18 28 0.459615 0 246 0.459615 1
gene 1 29 66 0.145442 0 251 0.145442 1
gene 1 66 21 0.225059 0 252 0.225059 1
gene 1 4 33 0.698078 0 254 0.698078 1
gene 1 8 28 -0.523084 0 266 -0.523084 1
gene 1 3 56 -0.218174 0 350 -0.218174 1
gene 1 10 33 0.729891 0 360 0.729891 1
gene 1 28 33 -0.220512 0 371 -0.220512 1
gene 1 56 86 1.34276 0 374 1.34276 1
gene 1 86 29 0.0402926 0 375 0.0402926 1
genomeend 6551
genomestart 6622
trait 1 0.436151 0.00393121 0.540901 0.0781992 0.526931 0.147856 0.325444 0.388808
node 1 1 1 1 0
node 2 1 1 1 0
node 3 1 1 1 0
node 4 1 1 1 0
node 5 1 1 1 0
node 6 1 1 1 0
node 7 1 1 1 0
node 8 1 1 1 0
node 9 1 1 1 0
node 10 1 1 1 0
node 11 1 1 1 0
node 12 1 1 1 0
node 13 1 1 1 0
node 14 1 1 1 0
node 15 1 1 1 0
node 16 1 1 1 0
node 17 1 1 1 0
node 18 1 1 1 0
node 19 1 1 3 0
node 20 1 0 2 0
node 21 1 0 2 0
node 24 1 0 0 0
node 26 1 0 0 0
node 28 1 0 0 0
node 29 1 0 0 0
node 33 1 0 0 0
node 36 1 0 0 0
node 54 1 0 0 0
node 56 1 0 0 0
node 66 1 0 0 0
node 86 1 0 0 0
gene 1 1 20 1.65265 0 1 1.65265 1
gene 1 2 20 0.377597 0 2 0.377597 1
gene 1 3 20 0.372684 0 3 0.372684 1
gene 1 4 20 0.697998 0 4 0.697998 1
gene 1 5 20 1.28081 0 5 1.28081 1
gene 1 6 20 -0.688882 0 6 -0.688882 1
gene 1 7 20 0.136362 0 7 0.136362 1
gene 1 8 20 0.459728 0 8 0.459728 1
gene 1 9 20 0.33788 0 9 0.33788 1
gene 1 10 20 -0.582359 0 10 -0.582359 1
gene 1 11 20 0.895289 0 11 0.895289 1
gene 1 12 20 -1.07307 0 12 -1.07307 1
gene 1 13 20 0.432826 0 13 0.432826 1
gene 1 14 20 0.963639 0 14 0.963639 1
gene 1 15 20 -0.15265 0 15 -0.15265 1
gene 1 16 20 0.553887 0 16 0.553887 1
gene 1 17 20 0.231943 0 17 0.231943 1
gene 1 18 20 -0.544928 0 18 -0.544928 1
gene 1 19 20 0.375201 0 19 0.375201 1
gene 1 1 21 0.0925641 0 20 0.0925641 1
gene 1 2 21 1.59406 0 21 1.59406 1
gene 1 3 21 0.136514 0 22 0.136514 1
gene 1 4 21 -0.0576843 0 23 -0.0576843 1
gene 1 5 21 -0.645168 0 24 -0.645168 0
gene 1 6 21 0.268196 0 25 0.268196 1
gene 1 7 21 0.363205 0 26 0.363205 1
gene 1 8 21 0.378687 0 27 0.378687 1
gene 1 9 21 -0.510129 0 28 -0.510129 1
gene 1 10 21 0.536617 0 29 0.536617 1
gene 1 11 21 0.627954 0 30 0.627954 1
gene 1 12 21 0.257575 0 31 0.257575 1
gene 1 13 21 0.458443 0 32 0.458443 1
gene 1 14 21 -0.557601 0 33 -0.557601 1
gene 1 15 21 -1.73795 0 34 -1.73795 1
gene 1 16 21 0.496995 0 35 0.496995 1
gene 1 17 21 0.136136 0 36 0.136136 1
gene 1 18 21 0.841277 0 37 0.841277 1
gene 1 19 21 -0.800739 0 38 -0.800739 1
gene 1 5 24 0.361681 0 49 0.361681 1
gene 1 24 21 -0.819279 0 50 -0.819279 1
gene 1 5 26 -0.287213 0 54 -0.287213 1
gene 1 26 20 0.226501 0 55 0.226501 1
gene 1 10 28 -0.748586 0 58 -0.748586 1
gene 1 28 20 -0.329661 0 59 -0.329661 1
gene 1 6 26 -1.85802 0 64 -1.85802 1
gene 1 11 29 0.4322 0 67 0.4322 1
gene 1 29 21 0.607815 0 68 0.607815 0
gene 1 1 33 1.01916 0 76 1.01916 1
gene 1 33 21 -0.857738 0 77 -0.857738 1
gene 1 7 36 1.31253 0 87 1.31253 1
gene 1 36 21 0.245371 0 88 0.245371 1
gene 1 7 26 0.875801 0 94 0.875801 1
gene 1 20 20 0.731608 1 95 0.731608 1
gene 1 29 29 -0.222001 1 108 -0.222001 1
gene 1 7 28 -0.217335 0 123 -0.217335 1
gene 1 2 28 0.359464 0 124 0.359464 1
gene 1 17 28 -0.409874 0 135 -0.409874 1
gene 1 4 26 -0.25977 0 150 -0.25977 1
gene 1 13 28 -0.150941 0 152 -0.150941 1
gene 1 16 26 0.424298 0 159 0.424298 1
gene 1 26 29 -0.133492 0 169 -0.133492 1
gene 1 28 28 0.431023 1 170 0.431023 1
gene 1 6 29 0.0850571 0 173 0.0850571 1
gene 1 5 54 -0.0721279 0 174 -0.0721279 1
gene 1 54 26 -0.138254 0 175 -0.138254 1
gene 1 6 33 -0.307457 0 185 -0.307457 1
gene 1 3 26 0.333969 0 192 0.333969 1
gene 1 29 56 -0.453746 1 196 -0.453746 1
gene 1 56 29 0.139473 0 197 0.139473 1
gene 1 28 24 0.388923 0 217 0.388923 1
gene 1 18 28 0.338908 0 246 0.338908 1
gene 1 29 66 -0.0618966 0 251 -0.0618966 1
gene 1 66 21 0.163078 0 252 0.163078 1
gene 1 4 33 0.857676 0 254 0.857676 1
gene 1 8 28 -0.238582 0 266 -0.238582 1
gene 1 20 29 0.56113 0 287 0 1
gene 1 3 56 0.773665 0 350 0.773665 1
gene 1 10 33 0.530748 0 360 0.530748 1
gene 1 56 86 1 0 374 0 1
gene 1 86 29 0.0411258 0 375 0 1
genomeend 6622
genomestart 6627
trait 1 0.36913 0.00786242 0.395999 0.0781992 0.14581 0.65633 0.112228 0.366904
node 1 1 1 1 0
node 2 1 1 1 0
node 3 1 1 1 0
node 4 1 1 1 0
node 5 1 1 1 0
node 6 1 1 1 0
node 7 1 1 1 0
node 8 1 1 1 0
node 9 1 1 1 0
node 10 1 1 1 0
node 11 1 1 1 0
node 12 1 1 1 0
node 13 1 1 1 0
node 14 1 1 1 0
node 15 1 1 1 0
node 16 1 1 1 0
node 17 1 1 1 0
node 18 1 1 1 0
node 19 1 1 3 0
node 20 1 0 2 0
node 21 1 0 2 0
node 24 1 0 0 0
node 25 1 0 0 0
node 26 1 0 0 0
node 28 1 0 0 0
node 29 1 0 0 0
node 33 1 0 0 0
node 54 1 0 0 0
node 56 1 0 0 0
gene 1 1 20 1.82281 0 1 1.82281 1
gene 1 2 20 0.0122989 0 2 0.0122989 1
gene 1 3 20 0.814453 0 3 0.814453 1
gene 1 4 20 0.315958 0 4 0.315958 1
gene 1 5 20 0.551622 0 5 0.551622 1
gene 1 6 20 0.58716 0 6 0.58716 1
gene 1 7 20 0.14326 0 7 0.14326 1
gene 1 8 20 -0.0812615 0 8 -0.0812615 1
gene 1 9 20 0.627964 0 9 0.627964 1
gene 1 10 20 0.1161 0 10 0.1161 0
gene 1 11 20 0.846557 0 11 0.846557 1
gene 1 12 20 -0.990215 0 12 -0.990215 1
gene 1 13 20 -1.32336 0 13 -1.32336 1
gene 1 14 20 0.66995 0 14 0.66995 1
gene 1 15 20 -1.48339 0 15 -1.48339 1
gene 1 16 20 -0.587008 0 16 -0.587008 1
gene 1 17 20 -0.725528 0 17 -0.725528 1
gene 1 18 20 -1.65693 0 18 -1.65693 1
gene 1 19 20 0.0987965 0 19 0.0987965 1
gene 1 1 21 -0.202584 0 20 -0.202584 1
gene 1 2 21 1.04404 0 21 1.04404 1
gene 1 3 21 -0.171088 0 22 -0.171088 1
gene 1 4 21 -1.23251 0 23 -1.23251 1
gene 1 5 21 -0.259015 0 24 -0.259015 0
gene 1 6 21 -0.360644 0 25 -0.360644 1
gene 1 7 21 0.467325 0 26 0.467325 1
gene 1 8 21 -0.352079 0 27 -0.352079 1
gene 1 9 21 -0.171308 0 28 -0.171308 1
gene 1 10 21 0.0308849 0 29 0.0308849 1
gene 1 11 21 -0.0320185 0 30 -0.0320185 1
gene 1 12 21 0.752655 0 31 0.752655 1
gene 1 13 21 -0.267289 0 32 -0.267289 1
gene 1 14 21 0.542813 0 33 0.542813 1
gene 1 15 21 -0.68596 0 34 -0.68596 1
gene 1 16 21 -0.463709 0 35 -0.463709 0
gene 1 17 21 0.566216 0 36 0.566216 1
gene 1 18 21 0.674837 0 37 0.674837 1
gene 1 19 21 -0.00402426 0 38 -0.00402426 1
gene 1 5 24 0.309574 0 49 0.309574 1
gene 1 24 21 0.360711 0 50 0.360711 1
gene 1 16 25 1 0 51 0 1
gene 1 25 21 0.271496 0 52 0.271496 1
gene 1 5 26 0.288443 0 54 0.288443 1
gene 1 26 20 -0.204657 0 55 -0.204657 1
gene 1 10 28 -0.564157 0 58 -0.564157 1
gene 1 28 20 -0.0631855 0 59 -0.0631855 1
gene 1 6 26 -2.02601 0 64 -2.02601 1
gene 1 11 29 -0.532814 0 67 -0.532814 1
gene 1 29 21 -0.0141679 0 68 -0.0141679 1
gene 1 1 33 -0.755166 0 76 -0.755166 1
gene 1 33 21 -1.11792 0 77 -1.11792 1
gene 1 3 28 0.7649 0 82 0.7649 1
gene 1 7 26 1.25932 0 94 1.25932 1
gene 1 20 20 1.11458 1 95 1.11458 1
gene 1 29 29 -0.574842 1 108 -0.574842 1
gene 1 7 28 -1.40271 0 123 -1.40271 1
gene 1 2 28 -0.600481 0 124 -0.600481 1
gene 1 17 28 1.19563 0 135 1.19563 1
gene 1 4 26 -1.0829 0 150 -1.0829 1
gene 1 13 28 0.333962 0 152 0.333962 1
gene 1 16 26 0.238611 0 159 0.238611 1
gene 1 26 29 0.130436 0 169 0.130436 1
gene 1 28 28 0.111474 1 170 0.111474 1
gene 1 6 29 0.168912 0 173 0.168912 1
gene 1 5 54 -0.478656 0 174 -0.478656 1
gene 1 54 26 -0.0873784 0 175 -0.0873784 1
gene 1 6 33 -0.32283 0 185 -0.32283 1
gene 1 3 26 -0.346777 0 192 -0.346777 1
gene 1 29 56 2.04512 1 196 2.04512 1
gene 1 56 29 -0.165679 0 197 -0.165679 1
gene 1 28 24 0.0860188 0 217 0.0860188 1
gene 1 10 54 0.31108 0 243 0.31108 1
gene 1 8 26 -0.555693 0 260 -0.555693 1
gene 1 24 29 0.128156 0 262 0.128156 1
genomeend 6627
genomestart 6627
trait 1 0.36913 0.00786242 0.395999 0.0781992 0.14581 0.65633 0.112228 0.366904
node 1 1 1 1 0
node 2 1 1 1 0
node 3 1 1 1 0
node 4 1 1 1 0
node 5 1 1 1 0
node 6 1 1 1 0
node 7 1 1 1 0
node 8 1 1 1 0
node 9 1 1 1 0
node 10 1 1 1 0
node 11 1 1 1 0
node 12 1 1 1 0
node 13 1 1 1 0
node 14 1 1 1 0
node 15 1 1 1 0
node 16 1 1 1 0
node 17 1 1 1 0
node 18 1 1 1 0
node 19 1 1 3 0
node 20 1 0 2 0
node 21 1 0 2 0
node 24 1 0 0 0
node 25 1 0 0 0
node 26 1 0 0 0
node 28 1 0 0 0
node 29 1 0 0 0
node 33 1 0 0 0
node 54 1 0 0 0
node 56 1 0 0 0
gene 1 1 20 1.82281 0 1 1.82281 1
gene 1 2 20 0.0122989 0 2 0.0122989 1
gene 1 3 20 0.814453 0 3 0.814453 1
gene 1 4 20 0.315958 0 4 0.315958 1
gene 1 5 20 0.551622 0 5 0.551622 1
gene 1 6 20 0.58716 0 6 0.58716 1
gene 1 7 20 0.14326 0 7 0.14326 1
gene 1 8 20 -0.0812615 0 8 -0.0812615 1
gene 1 9 20 0.627964 0 9 0.627964 1
gene 1 10 20 0.1161 0 10 0.1161 0
gene 1 11 20 0.846557 0 11 0.846557 1
gene 1 12 20 -0.990215 0 12 -0.990215 1
gene 1 13 20 -1.32336 0 13 -1.32336 1
gene 1 14 20 0.66995 0 14 0.66995 1
gene 1 15 20 -1.48339 0 15 -1.48339 1
gene 1 16 20 -0.587008 0 16 -0.587008 1
gene 1 17 20 -0.725528 0 17 -0.725528 1
gene 1 18 20 -1.65693 0 18 -1.65693 1
gene 1 19 20 0.0987965 0 19 0.0987965 1
gene 1 1 21 -0.202584 0 20 -0.202584 1
gene 1 2 21 1.04404 0 21 1.04404 1
gene 1 3 21 -0.171088 0 22 -0.171088 1
gene 1 4 21 -1.23251 0 23 -1.23251 1
gene 1 5 21 -0.259015 0 24 -0.259015 0
gene 1 6 21 -0.360644 0 25 -0.360644 1
gene 1 7 21 0.467325 0 26 0.467325 1
gene 1 8 21 -0.352079 0 27 -0.352079 1
gene 1 9 21 -0.171308 0 28 -0.171308 1
gene 1 10 21 0.0308849 0 29 0.0308849 1
gene 1 11 21 -0.0320185 0 30 -0.0320185 1
gene 1 12 21 0.752655 0 31 0.752655 1
gene 1 13 21 -0.267289 0 32 -0.267289 1
gene 1 14 21 0.542813 0 33 0.542813 1
gene 1 15 21 -0.68596 0 34 -0.68596 1
gene 1 16 21 -0.463709 0 35 -0.463709 0
gene 1 17 21 0.566216 0 36 0.566216 1
gene 1 18 21 0.674837 0 37 0.674837 1
gene 1 19 21 -0.00402426 0 38 -0.00402426 1
gene 1 5 24 0.309574 0 49 0.309574 1
gene 1 24 21 0.360711 0 50 0.360711 1
gene 1 16 25 1 0 51 0 1
gene 1 25 21 0.271496 0 52 0.271496 1
gene 1 5 26 0.288443 0 54 0.288443 1
gene 1 26 20 -0.204657 0 55 -0.204657 1
gene 1 10 28 -0.564157 0 58 -0.564157 1
gene 1 28 20 -0.0631855 0 59 -0.0631855 1
gene 1 6 26 -2.02601 0 64 -2.02601 1
gene 1 11 29 -0.532814 0 67 -0.532814 1
gene 1 29 21 -0.0141679 0 68 -0.0141679 1
gene 1 1 33 -0.755166 0 76 -0.755166 1
gene 1 33 21 -1.11792 0 77 -1.11792 1
gene 1 3 28 0.7649 0 82 0.7649 1
gene 1 7 26 1.25932 0 94 1.25932 1
gene 1 20 20 1.11458 1 95 1.11458 1
gene 1 29 29 -0.574842 1 108 -0.574842 1
gene 1 7 28 -1.40271 0 123 -1.40271 1
gene 1 2 28 -0.600481 0 124 -0.600481 1
gene 1 17 28 1.19563 0 135 1.19563 1
gene 1 4 26 -1.0829 0 150 -1.0829 1
gene 1 13 28 0.333962 0 152 0.333962 1
gene 1 16 26 0.238611 0 159 0.238611 1
gene 1 26 29 0.130436 0 169 0.130436 1
gene 1 28 28 0.111474 1 170 0.111474 1
gene 1 6 29 0.168912 0 173 0.168912 1
gene 1 5 54 -0.478656 0 174 -0.478656 1
gene 1 54 26 -0.0873784 0 175 -0.0873784 1
gene 1 6 33 -0.32283 0 185 -0.32283 1
gene 1 3 26 -0.346777 0 192 -0.346777 1
gene 1 29 56 2.04512 1 196 2.04512 1
gene 1 56 29 -0.165679 0 197 -0.165679 1
gene 1 28 24 0.0860188 0 217 0.0860188 1
gene 1 10 54 0.31108 0 243 0.31108 1
gene 1 8 26 -0.555693 0 260 -0.555693 1
gene 1 24 29 0.128156 0 262 0.128156 1
genomeend 6627
genomestart 6627
trait 1 0.36913 0.00786242 0.395999 0.0781992 0.14581 0.65633 0.112228 0.366904
node 1 1 1 1 0
node 2 1 1 1 0
node 3 1 1 1 0
node 4 1 1 1 0
node 5 1 1 1 0
node 6 1 1 1 0
node 7 1 1 1 0
node 8 1 1 1 0
node 9 1 1 1 0
node 10 1 1 1 0
node 11 1 1 1 0
node 12 1 1 1 0
node 13 1 1 1 0
node 14 1 1 1 0
node 15 1 1 1 0
node 16 1 1 1 0
node 17 1 1 1 0
node 18 1 1 1 0
node 19 1 1 3 0
node 20 1 0 2 0
node 21 1 0 2 0
node 24 1 0 0 0
node 25 1 0 0 0
node 26 1 0 0 0
node 28 1 0 0 0
node 29 1 0 0 0
node 33 1 0 0 0
node 54 1 0 0 0
node 56 1 0 0 0
gene 1 1 20 1.82281 0 1 1.82281 1
gene 1 2 20 0.0122989 0 2 0.0122989 1
gene 1 3 20 0.814453 0 3 0.814453 1
gene 1 4 20 0.315958 0 4 0.315958 1
gene 1 5 20 0.551622 0 5 0.551622 1
gene 1 6 20 0.58716 0 6 0.58716 1
gene 1 7 20 0.14326 0 7 0.14326 1
gene 1 8 20 -0.0812615 0 8 -0.0812615 1
gene 1 9 20 0.627964 0 9 0.627964 1
gene 1 10 20 0.1161 0 10 0.1161 0
gene 1 11 20 0.846557 0 11 0.846557 1
gene 1 12 20 -0.990215 0 12 -0.990215 1
gene 1 13 20 -1.32336 0 13 -1.32336 1
gene 1 14 20 0.66995 0 14 0.66995 1
gene 1 15 20 -1.48339 0 15 -1.48339 1
gene 1 16 20 -0.587008 0 16 -0.587008 1
gene 1 17 20 -0.725528 0 17 -0.725528 1
gene 1 18 20 -1.65693 0 18 -1.65693 1
gene 1 19 20 0.0987965 0 19 0.0987965 1
gene 1 1 21 -0.202584 0 20 -0.202584 1
gene 1 2 21 1.04404 0 21 1.04404 1
gene 1 3 21 -0.171088 0 22 -0.171088 1
gene 1 4 21 -1.23251 0 23 -1.23251 1
gene 1 5 21 -0.259015 0 24 -0.259015 0
gene 1 6 21 -0.360644 0 25 -0.360644 1
gene 1 7 21 0.467325 0 26 0.467325 1
gene 1 8 21 -0.352079 0 27 -0.352079 1
gene 1 9 21 -0.171308 0 28 -0.171308 1
gene 1 10 21 0.0308849 0 29 0.0308849 1
gene 1 11 21 -0.0320185 0 30 -0.0320185 1
gene 1 12 21 0.752655 0 31 0.752655 1
gene 1 13 21 -0.267289 0 32 -0.267289 1
gene 1 14 21 0.542813 0 33 0.542813 1
gene 1 15 21 -0.68596 0 34 -0.68596 1
gene 1 16 21 -0.463709 0 35 -0.463709 0
gene 1 17 21 0.566216 0 36 0.566216 1
gene 1 18 21 0.674837 0 37 0.674837 1
gene 1 19 21 -0.00402426 0 38 -0.00402426 1
gene 1 5 24 0.309574 0 49 0.309574 1
gene 1 24 21 0.360711 0 50 0.360711 1
gene 1 16 25 1 0 51 0 1
gene 1 25 21 0.271496 0 52 0.271496 1
gene 1 5 26 0.288443 0 54 0.288443 1
gene 1 26 20 -0.204657 0 55 -0.204657 1
gene 1 10 28 -0.564157 0 58 -0.564157 1
gene 1 28 20 -0.0631855 0 59 -0.0631855 1
gene 1 6 26 -2.02601 0 64 -2.02601 1
gene 1 11 29 -0.532814 0 67 -0.532814 1
gene 1 29 21 -0.0141679 0 68 -0.0141679 1
gene 1 1 33 -0.755166 0 76 -0.755166 1
gene 1 33 21 -1.11792 0 77 -1.11792 1
gene 1 3 28 0.7649 0 82 0.7649 1
gene 1 7 26 1.25932 0 94 1.25932 1
gene 1 20 20 1.11458 1 95 1.11458 1
gene 1 29 29 -0.574842 1 108 -0.574842 1
gene 1 7 28 -1.40271 0 123 -1.40271 1
gene 1 2 28 -0.600481 0 124 -0.600481 1
gene 1 17 28 1.19563 0 135 1.19563 1
gene 1 4 26 -1.0829 0 150 -1.0829 1
gene 1 13 28 0.333962 0 152 0.333962 1
gene 1 16 26 0.238611 0 159 0.238611 1
gene 1 26 29 0.130436 0 169 0.130436 1
gene 1 28 28 0.111474 1 170 0.111474 1
gene 1 6 29 0.168912 0 173 0.168912 1
gene 1 5 54 -0.478656 0 174 -0.478656 1
gene 1 54 26 -0.0873784 0 175 -0.0873784 1
gene 1 6 33 -0.32283 0 185 -0.32283 1
gene 1 3 26 -0.346777 0 192 -0.346777 1
gene 1 29 56 2.04512 1 196 2.04512 1
gene 1 56 29 -0.165679 0 197 -0.165679 1
gene 1 28 24 0.0860188 0 217 0.0860188 1
gene 1 10 54 0.31108 0 243 0.31108 1
gene 1 8 26 -0.555693 0 260 -0.555693 1
gene 1 24 29 0.128156 0 262 0.128156 1
genomeend 6627
genomestart 6627
trait 1 0.36913 0.00786242 0.395999 0.0781992 0.14581 0.65633 0.112228 0.366904
node 1 1 1 1 0
node 2 1 1 1 0
node 3 1 1 1 0
node 4 1 1 1 0
node 5 1 1 1 0
node 6 1 1 1 0
node 7 1 1 1 0
node 8 1 1 1 0
node 9 1 1 1 0
node 10 1 1 1 0
node 11 1 1 1 0
node 12 1 1 1 0
node 13 1 1 1 0
node 14 1 1 1 0
node 15 1 1 1 0
node 16 1 1 1 0
node 17 1 1 1 0
node 18 1 1 1 0
node 19 1 1 3 0
node 20 1 0 2 0
node 21 1 0 2 0
node 24 1 0 0 0
node 25 1 0 0 0
node 26 1 0 0 0
node 28 1 0 0 0
node 29 1 0 0 0
node 33 1 0 0 0
node 54 1 0 0 0
node 56 1 0 0 0
gene 1 1 20 1.82281 0 1 1.82281 1
gene 1 2 20 0.0122989 0 2 0.0122989 1
gene 1 3 20 0.814453 0 3 0.814453 1
gene 1 4 20 0.315958 0 4 0.315958 1
gene 1 5 20 0.551622 0 5 0.551622 1
gene 1 6 20 0.58716 0 6 0.58716 1
gene 1 7 20 0.14326 0 7 0.14326 1
gene 1 8 20 -0.0812615 0 8 -0.0812615 1
gene 1 9 20 0.627964 0 9 0.627964 1
gene 1 10 20 0.1161 0 10 0.1161 0
gene 1 11 20 0.846557 0 11 0.846557 1
gene 1 12 20 -0.990215 0 12 -0.990215 1
gene 1 13 20 -1.32336 0 13 -1.32336 1
gene 1 14 20 0.66995 0 14 0.66995 1
gene 1 15 20 -1.48339 0 15 -1.48339 1
gene 1 16 20 -0.587008 0 16 -0.587008 1
gene 1 17 20 -0.725528 0 17 -0.725528 1
gene 1 18 20 -1.65693 0 18 -1.65693 1
gene 1 19 20 0.0987965 0 19 0.0987965 1
gene 1 1 21 -0.202584 0 20 -0.202584 1
gene 1 2 21 1.04404 0 21 1.04404 1
gene 1 3 21 -0.171088 0 22 -0.171088 1
gene 1 4 21 -1.23251 0 23 -1.23251 1
gene 1 5 21 -0.259015 0 24 -0.259015 0
gene 1 6 21 -0.360644 0 25 -0.360644 1
gene 1 7 21 0.467325 0 26 0.467325 1
gene 1 8 21 -0.352079 0 27 -0.352079 1
gene 1 9 21 -0.171308 0 28 -0.171308 1
gene 1 10 21 0.0308849 0 29 0.0308849 1
gene 1 11 21 -0.0320185 0 30 -0.0320185 1
gene 1 12 21 0.752655 0 31 0.752655 1
gene 1 13 21 -0.267289 0 32 -0.267289 1
gene 1 14 21 0.542813 0 33 0.542813 1
gene 1 15 21 -0.68596 0 34 -0.68596 1
gene 1 16 21 -0.463709 0 35 -0.463709 0
gene 1 17 21 0.566216 0 36 0.566216 1
gene 1 18 21 0.674837 0 37 0.674837 1
gene 1 19 21 -0.00402426 0 38 -0.00402426 1
gene 1 5 24 0.309574 0 49 0.309574 1
gene 1 24 21 0.360711 0 50 0.360711 1
gene 1 16 25 1 0 51 0 1
gene 1 25 21 0.271496 0 52 0.271496 1
gene 1 5 26 0.288443 0 54 0.288443 1
gene 1 26 20 -0.204657 0 55 -0.204657 1
gene 1 10 28 -0.564157 0 58 -0.564157 1
gene 1 28 20 -0.0631855 0 59 -0.0631855 1
gene 1 6 26 -2.02601 0 64 -2.02601 1
gene 1 11 29 -0.532814 0 67 -0.532814 1
gene 1 29 21 -0.0141679 0 68 -0.0141679 1
gene 1 1 33 -0.755166 0 76 -0.755166 1
gene 1 33 21 -1.11792 0 77 -1.11792 1
gene 1 3 28 0.7649 0 82 0.7649 1
gene 1 7 26 1.25932 0 94 1.25932 1
gene 1 20 20 1.11458 1 95 1.11458 1
gene 1 29 29 -0.574842 1 108 -0.574842 1
gene 1 7 28 -1.40271 0 123 -1.40271 1
gene 1 2 28 -0.600481 0 124 -0.600481 1
gene 1 17 28 1.19563 0 135 1.19563 1
gene 1 4 26 -1.0829 0 150 -1.0829 1
gene 1 13 28 0.333962 0 152 0.333962 1
gene 1 16 26 0.238611 0 159 0.238611 1
gene 1 26 29 0.130436 0 169 0.130436 1
gene 1 28 28 0.111474 1 170 0.111474 1
gene 1 6 29 0.168912 0 173 0.168912 1
gene 1 5 54 -0.478656 0 174 -0.478656 1
gene 1 54 26 -0.0873784 0 175 -0.0873784 1
gene 1 6 33 -0.32283 0 185 -0.32283 1
gene 1 3 26 -0.346777 0 192 -0.346777 1
gene 1 29 56 2.04512 1 196 2.04512 1
gene 1 56 29 -0.165679 0 197 -0.165679 1
gene 1 28 24 0.0860188 0 217 0.0860188 1
gene 1 10 54 0.31108 0 243 0.31108 1
gene 1 8 26 -0.555693 0 260 -0.555693 1
gene 1 24 29 0.128156 0 262 0.128156 1
genomeend 6627
genomestart 6627
trait 1 0.36913 0.00786242 0.395999 0.0781992 0.14581 0.65633 0.112228 0.366904
node 1 1 1 1 0
node 2 1 1 1 0
node 3 1 1 1 0
node 4 1 1 1 0
node 5 1 1 1 0
node 6 1 1 1 0
node 7 1 1 1 0
node 8 1 1 1 0
node 9 1 1 1 0
node 10 1 1 1 0
node 11 1 1 1 0
node 12 1 1 1 0
node 13 1 1 1 0
node 14 1 1 1 0
node 15 1 1 1 0
node 16 1 1 1 0
node 17 1 1 1 0
node 18 1 1 1 0
node 19 1 1 3 0
node 20 1 0 2 0
node 21 1 0 2 0
node 24 1 0 0 0
node 25 1 0 0 0
node 26 1 0 0 0
node 28 1 0 0 0
node 29 1 0 0 0
node 33 1 0 0 0
node 54 1 0 0 0
node 56 1 0 0 0
gene 1 1 20 1.82281 0 1 1.82281 1
gene 1 2 20 0.0122989 0 2 0.0122989 1
gene 1 3 20 0.814453 0 3 0.814453 1
gene 1 4 20 0.315958 0 4 0.315958 1
gene 1 5 20 0.551622 0 5 0.551622 1
gene 1 6 20 0.58716 0 6 0.58716 1
gene 1 7 20 0.14326 0 7 0.14326 1
gene 1 8 20 -0.0812615 0 8 -0.0812615 1
gene 1 9 20 0.627964 0 9 0.627964 1
gene 1 10 20 0.1161 0 10 0.1161 0
gene 1 11 20 0.846557 0 11 0.846557 1
gene 1 12 20 -0.990215 0 12 -0.990215 1
gene 1 13 20 -1.32336 0 13 -1.32336 1
gene 1 14 20 0.66995 0 14 0.66995 1
gene 1 15 20 -1.48339 0 15 -1.48339 1
gene 1 16 20 -0.587008 0 16 -0.587008 1
gene 1 17 20 -0.725528 0 17 -0.725528 1
gene 1 18 20 -1.65693 0 18 -1.65693 1
gene 1 19 20 0.0987965 0 19 0.0987965 1
gene 1 1 21 -0.202584 0 20 -0.202584 1
gene 1 2 21 1.04404 0 21 1.04404 1
gene 1 3 21 -0.171088 0 22 -0.171088 1
gene 1 4 21 -1.23251 0 23 -1.23251 1
gene 1 5 21 -0.259015 0 24 -0.259015 0
gene 1 6 21 -0.360644 0 25 -0.360644 1
gene 1 7 21 0.467325 0 26 0.467325 1
gene 1 8 21 -0.352079 0 27 -0.352079 1
gene 1 9 21 -0.171308 0 28 -0.171308 1
gene 1 10 21 0.0308849 0 29 0.0308849 1
gene 1 11 21 -0.0320185 0 30 -0.0320185 1
gene 1 12 21 0.752655 0 31 0.752655 1
gene 1 13 21 -0.267289 0 32 -0.267289 1
gene 1 14 21 0.542813 0 33 0.542813 1
gene 1 15 21 -0.68596 0 34 -0.68596 1
gene 1 16 21 -0.463709 0 35 -0.463709 0
gene 1 17 21 0.566216 0 36 0.566216 1
gene 1 18 21 0.674837 0 37 0.674837 1
gene 1 19 21 -0.00402426 0 38 -0.00402426 1
gene 1 5 24 0.309574 0 49 0.309574 1
gene 1 24 21 0.360711 0 50 0.360711 1
gene 1 16 25 1 0 51 0 1
gene 1 25 21 0.271496 0 52 0.271496 1
gene 1 5 26 0.288443 0 54 0.288443 1
gene 1 26 20 -0.204657 0 55 -0.204657 1
gene 1 10 28 -0.564157 0 58 -0.564157 1
gene 1 28 20 -0.0631855 0 59 -0.0631855 1
gene 1 6 26 -2.02601 0 64 -2.02601 1
gene 1 11 29 -0.532814 0 67 -0.532814 1
gene 1 29 21 -0.0141679 0 68 -0.0141679 1
gene 1 1 33 -0.755166 0 76 -0.755166 1
gene 1 33 21 -1.11792 0 77 -1.11792 1
gene 1 3 28 0.7649 0 82 0.7649 1
gene 1 7 26 1.25932 0 94 1.25932 1
gene 1 20 20 1.11458 1 95 1.11458 1
gene 1 29 29 -0.574842 1 108 -0.574842 1
gene 1 7 28 -1.40271 0 123 -1.40271 1
gene 1 2 28 -0.600481 0 124 -0.600481 1
gene 1 17 28 1.19563 0 135 1.19563 1
gene 1 4 26 -1.0829 0 150 -1.0829 1
gene 1 13 28 0.333962 0 152 0.333962 1
gene 1 16 26 0.238611 0 159 0.238611 1
gene 1 26 29 0.130436 0 169 0.130436 1
gene 1 28 28 0.111474 1 170 0.111474 1
gene 1 6 29 0.168912 0 173 0.168912 1
gene 1 5 54 -0.478656 0 174 -0.478656 1
gene 1 54 26 -0.0873784 0 175 -0.0873784 1
gene 1 6 33 -0.32283 0 185 -0.32283 1
gene 1 3 26 -0.346777 0 192 -0.346777 1
gene 1 29 56 2.04512 1 196 2.04512 1
gene 1 56 29 -0.165679 0 197 -0.165679 1
gene 1 28 24 0.0860188 0 217 0.0860188 1
gene 1 10 54 0.31108 0 243 0.31108 1
gene 1 8 26 -0.555693 0 260 -0.555693 1
gene 1 24 29 0.128156 0 262 0.128156 1
genomeend 6627
genomestart 6627
trait 1 0.36913 0.00786242 0.395999 0.0781992 0.14581 0.65633 0.112228 0.366904
node 1 1 1 1 0
node 2 1 1 1 0
node 3 1 1 1 0
node 4 1 1 1 0
node 5 1 1 1 0
node 6 1 1 1 0
node 7 1 1 1 0
node 8 1 1 1 0
node 9 1 1 1 0
node 10 1 1 1 0
node 11 1 1 1 0
node 12 1 1 1 0
node 13 1 1 1 0
node 14 1 1 1 0
node 15 1 1 1 0
node 16 1 1 1 0
node 17 1 1 1 0
node 18 1 1 1 0
node 19 1 1 3 0
node 20 1 0 2 0
node 21 1 0 2 0
node 24 1 0 0 0
node 25 1 0 0 0
node 26 1 0 0 0
node 28 1 0 0 0
node 29 1 0 0 0
node 33 1 0 0 0
node 54 1 0 0 0
node 56 1 0 0 0
gene 1 1 20 1.82281 0 1 1.82281 1
gene 1 2 20 0.0122989 0 2 0.0122989 1
gene 1 3 20 0.814453 0 3 0.814453 1
gene 1 4 20 0.315958 0 4 0.315958 1
gene 1 5 20 0.551622 0 5 0.551622 1
gene 1 6 20 0.58716 0 6 0.58716 1
gene 1 7 20 0.14326 0 7 0.14326 1
gene 1 8 20 -0.0812615 0 8 -0.0812615 1
gene 1 9 20 0.627964 0 9 0.627964 1
gene 1 10 20 0.1161 0 10 0.1161 0
gene 1 11 20 0.846557 0 11 0.846557 1
gene 1 12 20 -0.990215 0 12 -0.990215 1
gene 1 13 20 -1.32336 0 13 -1.32336 1
gene 1 14 20 0.66995 0 14 0.66995 1
gene 1 15 20 -1.48339 0 15 -1.48339 1
gene 1 16 20 -0.587008 0 16 -0.587008 1
gene 1 17 20 -0.725528 0 17 -0.725528 1
gene 1 18 20 -1.65693 0 18 -1.65693 1
gene 1 19 20 0.0987965 0 19 0.0987965 1
gene 1 1 21 -0.202584 0 20 -0.202584 1
gene 1 2 21 1.04404 0 21 1.04404 1
gene 1 3 21 -0.171088 0 22 -0.171088 1
gene 1 4 21 -1.23251 0 23 -1.23251 1
gene 1 5 21 -0.259015 0 24 -0.259015 0
gene 1 6 21 -0.360644 0 25 -0.360644 1
gene 1 7 21 0.467325 0 26 0.467325 1
gene 1 8 21 -0.352079 0 27 -0.352079 1
gene 1 9 21 -0.171308 0 28 -0.171308 1
gene 1 10 21 0.0308849 0 29 0.0308849 1
gene 1 11 21 -0.0320185 0 30 -0.0320185 1
gene 1 12 21 0.752655 0 31 0.752655 1
gene 1 13 21 -0.267289 0 32 -0.267289 1
gene 1 14 21 0.542813 0 33 0.542813 1
gene 1 15 21 -0.68596 0 34 -0.68596 1
gene 1 16 21 -0.463709 0 35 -0.463709 0
gene 1 17 21 0.566216 0 36 0.566216 1
gene 1 18 21 0.674837 0 37 0.674837 1
gene 1 19 21 -0.00402426 0 38 -0.00402426 1
gene 1 5 24 0.309574 0 49 0.309574 1
gene 1 24 21 0.360711 0 50 0.360711 1
gene 1 16 25 1 0 51 0 1
gene 1 25 21 0.271496 0 52 0.271496 1
gene 1 5 26 0.288443 0 54 0.288443 1
gene 1 26 20 -0.204657 0 55 -0.204657 1
gene 1 10 28 -0.564157 0 58 -0.564157 1
gene 1 28 20 -0.0631855 0 59 -0.0631855 1
gene 1 6 26 -2.02601 0 64 -2.02601 1
gene 1 11 29 -0.532814 0 67 -0.532814 1
gene 1 29 21 -0.0141679 0 68 -0.0141679 1
gene 1 1 33 -0.755166 0 76 -0.755166 1
gene 1 33 21 -1.11792 0 77 -1.11792 1
gene 1 3 28 0.7649 0 82 0.7649 1
gene 1 7 26 1.25932 0 94 1.25932 1
gene 1 20 20 1.11458 1 95 1.11458 1
gene 1 29 29 -0.574842 1 108 -0.574842 1
gene 1 7 28 -1.40271 0 123 -1.40271 1
gene 1 2 28 -0.600481 0 124 -0.600481 1
gene 1 17 28 1.19563 0 135 1.19563 1
gene 1 4 26 -1.0829 0 150 -1.0829 1
gene 1 13 28 0.333962 0 152 0.333962 1
gene 1 16 26 0.238611 0 159 0.238611 1
gene 1 26 29 0.130436 0 169 0.130436 1
gene 1 28 28 0.111474 1 170 0.111474 1
gene 1 6 29 0.168912 0 173 0.168912 1
gene 1 5 54 -0.478656 0 174 -0.478656 1
gene 1 54 26 -0.0873784 0 175 -0.0873784 1
gene 1 6 33 -0.32283 0 185 -0.32283 1
gene 1 3 26 -0.346777 0 192 -0.346777 1
gene 1 29 56 2.04512 1 196 2.04512 1
gene 1 56 29 -0.165679 0 197 -0.165679 1
gene 1 28 24 0.0860188 0 217 0.0860188 1
gene 1 10 54 0.31108 0 243 0.31108 1
gene 1 8 26 -0.555693 0 260 -0.555693 1
gene 1 24 29 0.128156 0 262 0.128156 1
genomeend 6627
genomestart 6627
trait 1 0.36913 0.00786242 0.395999 0.0781992 0.14581 0.65633 0.112228 0.366904
node 1 1 1 1 0
node 2 1 1 1 0
node 3 1 1 1 0
node 4 1 1 1 0
node 5 1 1 1 0
node 6 1 1 1 0
node 7 1 1 1 0
node 8 1 1 1 0
node 9 1 1 1 0
node 10 1 1 1 0
node 11 1 1 1 0
node 12 1 1 1 0
node 13 1 1 1 0
node 14 1 1 1 0
node 15 1 1 1 0
node 16 1 1 1 0
node 17 1 1 1 0
node 18 1 1 1 0
node 19 1 1 3 0
node 20 1 0 2 0
node 21 1 0 2 0
node 24 1 0 0 0
node 25 1 0 0 0
node 26 1 0 0 0
node 28 1 0 0 0
node 29 1 0 0 0
node 33 1 0 0 0
node 54 1 0 0 0
node 56 1 0 0 0
gene 1 1 20 1.82281 0 1 1.82281 1
gene 1 2 20 0.0122989 0 2 0.0122989 1
gene 1 3 20 0.814453 0 3 0.814453 1
gene 1 4 20 0.315958 0 4 0.315958 1
gene 1 5 20 0.551622 0 5 0.551622 1
gene 1 6 20 0.58716 0 6 0.58716 1
gene 1 7 20 0.14326 0 7 0.14326 1
gene 1 8 20 -0.0812615 0 8 -0.0812615 1
gene 1 9 20 0.627964 0 9 0.627964 1
gene 1 10 20 0.1161 0 10 0.1161 0
gene 1 11 20 0.846557 0 11 0.846557 1
gene 1 12 20 -0.990215 0 12 -0.990215 1
gene 1 13 20 -1.32336 0 13 -1.32336 1
gene 1 14 20 0.66995 0 14 0.66995 1
gene 1 15 20 -1.48339 0 15 -1.48339 1
gene 1 16 20 -0.587008 0 16 -0.587008 1
gene 1 17 20 -0.725528 0 17 -0.725528 1
gene 1 18 20 -1.65693 0 18 -1.65693 1
gene 1 19 20 0.0987965 0 19 0.0987965 1
gene 1 1 21 -0.202584 0 20 -0.202584 1
gene 1 2 21 1.04404 0 21 1.04404 1
gene 1 3 21 -0.171088 0 22 -0.171088 1
gene 1 4 21 -1.23251 0 23 -1.23251 1
gene 1 5 21 -0.259015 0 24 -0.259015 0
gene 1 6 21 -0.360644 0 25 -0.360644 1
gene 1 7 21 0.467325 0 26 0.467325 1
gene 1 8 21 -0.352079 0 27 -0.352079 1
gene 1 9 21 -0.171308 0 28 -0.171308 1
gene 1 10 21 0.0308849 0 29 0.0308849 1
gene 1 11 21 -0.0320185 0 30 -0.0320185 1
gene 1 12 21 0.752655 0 31 0.752655 1
gene 1 13 21 -0.267289 0 32 -0.267289 1
gene 1 14 21 0.542813 0 33 0.542813 1
gene 1 15 21 -0.68596 0 34 -0.68596 1
gene 1 16 21 -0.463709 0 35 -0.463709 0
gene 1 17 21 0.566216 0 36 0.566216 1
gene 1 18 21 0.674837 0 37 0.674837 1
gene 1 19 21 -0.00402426 0 38 -0.00402426 1
gene 1 5 24 0.309574 0 49 0.309574 1
gene 1 24 21 0.360711 0 50 0.360711 1
gene 1 16 25 1 0 51 0 1
gene 1 25 21 0.271496 0 52 0.271496 1
gene 1 5 26 0.288443 0 54 0.288443 1
gene 1 26 20 -0.204657 0 55 -0.204657 1
gene 1 10 28 -0.564157 0 58 -0.564157 1
gene 1 28 20 -0.0631855 0 59 -0.0631855 1
gene 1 6 26 -2.02601 0 64 -2.02601 1
gene 1 11 29 -0.532814 0 67 -0.532814 1
gene 1 29 21 -0.0141679 0 68 -0.0141679 1
gene 1 1 33 -0.755166 0 76 -0.755166 1
gene 1 33 21 -1.11792 0 77 -1.11792 1
gene 1 3 28 0.7649 0 82 0.7649 1
gene 1 7 26 1.25932 0 94 1.25932 1
gene 1 20 20 1.11458 1 95 1.11458 1
gene 1 29 29 -0.574842 1 108 -0.574842 1
gene 1 7 28 -1.40271 0 123 -1.40271 1
gene 1 2 28 -0.600481 0 124 -0.600481 1
gene 1 17 28 1.19563 0 135 1.19563 1
gene 1 4 26 -1.0829 0 150 -1.0829 1
gene 1 13 28 0.333962 0 152 0.333962 1
gene 1 16 26 0.238611 0 159 0.238611 1
gene 1 26 29 0.130436 0 169 0.130436 1
gene 1 28 28 0.111474 1 170 0.111474 1
gene 1 6 29 0.168912 0 173 0.168912 1
gene 1 5 54 -0.478656 0 174 -0.478656 1
gene 1 54 26 -0.0873784 0 175 -0.0873784 1
gene 1 6 33 -0.32283 0 185 -0.32283 1
gene 1 3 26 -0.346777 0 192 -0.346777 1
gene 1 29 56 2.04512 1 196 2.04512 1
gene 1 56 29 -0.165679 0 197 -0.165679 1
gene 1 28 24 0.0860188 0 217 0.0860188 1
gene 1 10 54 0.31108 0 243 0.31108 1
gene 1 8 26 -0.555693 0 260 -0.555693 1
gene 1 24 29 0.128156 0 262 0.128156 1
genomeend 6627
genomestart 6645
trait 1 0.436151 0.00393121 0.540901 0.0781992 0.526931 0.147856 0.325444 0.388808
node 1 1 1 1 0
node 2 1 1 1 0
node 3 1 1 1 0
node 4 1 1 1 0
node 5 1 1 1 0
node 6 1 1 1 0
node 7 1 1 1 0
node 8 1 1 1 0
node 9 1 1 1 0
node 10 1 1 1 0
node 11 1 1 1 0
node 12 1 1 1 0
node 13 1 1 1 0
node 14 1 1 1 0
node 15 1 1 1 0
node 16 1 1 1 0
node 17 1 1 1 0
node 18 1 1 1 0
node 19 1 1 3 0
node 20 1 0 2 0
node 21 1 0 2 0
node 24 1 0 0 0
node 26 1 0 0 0
node 28 1 0 0 0
node 29 1 0 0 0
node 33 1 0 0 0
node 36 1 0 0 0
node 54 1 0 0 0
node 56 1 0 0 0
node 66 1 0 0 0
node 86 1 0 0 0
gene 1 1 20 1.69364 0 1 1.69364 1
gene 1 2 20 -0.319598 0 2 -0.319598 1
gene 1 3 20 -0.159686 0 3 -0.159686 1
gene 1 4 20 0.591191 0 4 0.591191 1
gene 1 5 20 2.11179 0 5 2.11179 1
gene 1 6 20 -1.79435 0 6 -1.79435 1
gene 1 7 20 0.65368 0 7 0.65368 1
gene 1 8 20 -0.176461 0 8 -0.176461 1
gene 1 9 20 0.477651 0 9 0.477651 1
gene 1 10 20 -0.653639 0 10 -0.653639 1
gene 1 11 20 1.01471 0 11 1.01471 1
gene 1 12 20 -1.39527 0 12 -1.39527 1
gene 1 13 20 0.277169 0 13 0.277169 1
gene 1 14 20 0.837975 0 14 0.837975 1
gene 1 15 20 0.563349 0 15 0.563349 1
gene 1 16 20 0.785962 0 16 0.785962 1
gene 1 17 20 0.583305 0 17 0.583305 1
gene 1 18 20 -0.0374643 0 18 -0.0374643 1
gene 1 19 20 0.245931 0 19 0.245931 1
gene 1 1 21 0.26788 0 20 0.26788 1
gene 1 2 21 1.47736 0 21 1.47736 1
gene 1 3 21 0.574392 0 22 0.574392 1
gene 1 4 21 -0.456114 0 23 -0.456114 1
gene 1 5 21 -0.985978 0 24 -0.985978 0
gene 1 6 21 -0.383604 0 25 -0.383604 1
gene 1 7 21 0.53622 0 26 0.53622 1
gene 1 8 21 0.487262 0 27 0.487262 1
gene 1 9 21 0.14001 0 28 0.14001 1
gene 1 10 21 0.583358 0 29 0.583358 1
gene 1 11 21 1.33258 0 30 1.33258 1
gene 1 12 21 0.557036 0 31 0.557036 1
gene 1 13 21 0.0936039 0 32 0.0936039 1
gene 1 14 21 -1.21528 0 33 -1.21528 1
gene 1 15 21 -0.880845 0 34 -0.880845 1
gene 1 16 21 0.322525 0 35 0.322525 1
gene 1 17 21 0.467915 0 36 0.467915 1
gene 1 18 21 1.56365 0 37 1.56365 1
gene 1 19 21 -1.09237 0 38 -1.09237 1
gene 1 5 24 0.75356 0 49 0.75356 1
gene 1 24 21 -0.41058 0 50 -0.41058 1
gene 1 5 26 -0.150851 0 54 -0.150851 1
gene 1 26 20 0.270392 0 55 0.270392 1
gene 1 10 28 -0.505302 0 58 -0.505302 1
gene 1 28 20 -0.0190235 0 59 -0.0190235 1
gene 1 6 26 -1.5831 0 64 -1.5831 1
gene 1 11 29 0.142869 0 67 0.142869 1
gene 1 29 21 0.332637 0 68 0.332637 0
gene 1 1 33 1.12299 0 76 1.12299 1
gene 1 33 21 -1.18517 0 77 -1.18517 1
gene 1 7 36 1.14222 0 87 1.14222 1
gene 1 36 21 -0.331703 0 88 -0.331703 1
gene 1 7 26 0.622381 0 94 0.622381 1
gene 1 20 20 0.56605 1 95 0.56605 1
gene 1 29 29 0.0436714 1 108 0.0436714 1
gene 1 7 28 -1.05611 0 123 -1.05611 1
gene 1 2 28 0.897135 0 124 0.897135 1
gene 1 17 28 -0.356041 0 135 -0.356041 1
gene 1 4 26 -0.029749 0 150 -0.029749 1
gene 1 13 28 -1.56477 0 152 -1.56477 1
gene 1 16 26 0.754706 0 159 0.754706 1
gene 1 26 29 -0.138271 0 169 -0.138271 1
gene 1 28 28 0.631044 1 170 0.631044 1
gene 1 6 29 0.33958 0 173 0.33958 1
gene 1 5 54 0.74079 0 174 0.74079 1
gene 1 54 26 -0.201231 0 175 -0.201231 1
gene 1 6 33 0.193457 0 185 0.193457 1
gene 1 3 26 0.345615 0 192 0.345615 1
gene 1 29 56 -0.317275 1 196 -0.317275 1
gene 1 56 29 0.45365 0 197 0.45365 0
gene 1 28 24 0.0999135 0 217 0.0999135 1
gene 1 18 28 0.211607 0 246 0.211607 1
gene 1 29 66 -0.348078 0 251 -0.348078 1
gene 1 66 21 0.239043 0 252 0.239043 1
gene 1 4 33 1.2625 0 254 1.2625 1
gene 1 8 28 0.27059 0 266 0.27059 1
gene 1 3 56 0.647163 0 350 0.647163 1
gene 1 10 33 0.194132 0 360 0.194132 1
gene 1 56 86 1 0 374 1 1
gene 1 86 29 0.203265 0 375 0.203265 1
genomeend 6645
genomestart 6657
trait 1 0.436151 0.00393121 0.540901 0.0781992 0.526931 0.147856 0.325444 0.388808
node 1 1 1 1 0
node 2 1 1 1 0
node 3 1 1 1 0
node 4 1 1 1 0
node 5 1 1 1 0
node 6 1 1 1 0
node 7 1 1 1 0
node 8 1 1 1 0
node 9 1 1 1 0
node 10 1 1 1 0
node 11 1 1 1 0
node 12 1 1 1 0
node 13 1 1 1 0
node 14 1 1 1 0
node 15 1 1 1 0
node 16 1 1 1 0
node 17 1 1 1 0
node 18 1 1 1 0
node 19 1 1 3 0
node 20 1 0 2 0
node 21 1 0 2 0
node 24 1 0 0 0
node 26 1 0 0 0
node 28 1 0 0 0
node 29 1 0 0 0
node 33 1 0 0 0
node 36 1 0 0 0
node 54 1 0 0 0
node 56 1 0 0 0
node 66 1 0 0 0
node 86 1 0 0 0
gene 1 1 20 1.56348 0 1 1.56348 1
gene 1 2 20 -0.11507 0 2 -0.11507 1
gene 1 3 20 0.253523 0 3 0.253523 1
gene 1 4 20 0.239225 0 4 0.239225 1
gene 1 5 20 1.7729 0 5 1.7729 1
gene 1 6 20 -0.950754 0 6 -0.950754 1
gene 1 7 20 0.243554 0 7 0.243554 1
gene 1 8 20 0.218754 0 8 0.218754 1
gene 1 9 20 0.859069 0 9 0.859069 1
gene 1 10 20 -0.665459 0 10 -0.665459 1
gene 1 11 20 1.02207 0 11 1.02207 1
gene 1 12 20 -1.26135 0 12 -1.26135 1
gene 1 13 20 -0.0129953 0 13 -0.0129953 1
gene 1 14 20 0.948124 0 14 0.948124 1
gene 1 15 20 0.20929 0 15 0.20929 1
gene 1 16 20 0.143059 0 16 0.143059 1
gene 1 17 20 0.0819624 0 17 0.0819624 1
gene 1 18 20 -0.303878 0 18 -0.303878 1
gene 1 19 20 0.446067 0 19 0.446067 1
gene 1 1 21 -0.326825 0 20 -0.326825 1
gene 1 2 21 1.35657 0 21 1.35657 1
gene 1 3 21 0.361721 0 22 0.361721 1
gene 1 4 21 -0.550665 0 23 -0.550665 1
gene 1 5 21 -0.618794 0 24 -0.618794 1
gene 1 6 21 -0.189739 0 25 -0.189739 1
gene 1 7 21 0.387761 0 26 0.387761 1
gene 1 8 21 0.467958 0 27 0.467958 1
gene 1 9 21 0.139624 0 28 0.139624 1
gene 1 10 21 0.420514 0 29 0.420514 1
gene 1 11 21 1.05912 0 30 1.05912 1
gene 1 12 21 0.272923 0 31 0.272923 1
gene 1 13 21 0.00819741 0 32 0.00819741 1
gene 1 14 21 -0.726867 0 33 -0.726867 1
gene 1 15 21 -1.37751 0 34 -1.37751 1
gene 1 16 21 0.400885 0 35 0.400885 1
gene 1 17 21 0.315422 0 36 0.315422 1
gene 1 18 21 0.743304 0 37 0.743304 1
gene 1 19 21 -0.393429 0 38 -0.393429 1
gene 1 5 24 0.925764 0 49 0.925764 1
gene 1 24 21 -0.234658 0 50 -0.234658 1
gene 1 5 26 -0.152181 0 54 -0.152181 1
gene 1 26 20 0.286908 0 55 0.286908 1
gene 1 10 28 -0.256351 0 58 -0.256351 1
gene 1 28 20 -0.442751 0 59 -0.442751 1
gene 1 6 26 -1.93623 0 64 -1.93623 1
gene 1 11 29 0.931962 0 67 0.931962 1
gene 1 29 21 0.145058 0 68 0.145058 0
gene 1 1 33 0.856229 0 76 0.856229 1
gene 1 33 21 -0.75922 0 77 -0.75922 1
gene 1 7 36 1.21474 0 87 1.21474 1
gene 1 36 21 -0.0274137 0 88 -0.0274137 1
gene 1 7 26 0.524998 0 94 0.524998 1
gene 1 20 20 0.201973 1 95 0.201973 1
gene 1 29 29 -0.327615 1 108 -0.327615 1
gene 1 7 28 -0.593599 0 123 -0.593599 1
gene 1 2 28 0.527587 0 124 0.527587 1
gene 1 17 28 -0.0715841 0 135 -0.0715841 1
gene 1 4 26 -0.0826267 0 150 -0.0826267 1
gene 1 13 28 -0.587326 0 152 -0.587326 1
gene 1 16 26 0.525985 0 159 0.525985 1
gene 1 26 29 -0.110167 0 169 -0.110167 1
gene 1 28 28 0.273749 1 170 0.273749 1
gene 1 6 29 -0.423669 0 173 -0.423669 1
gene 1 5 54 0.341452 0 174 0.341452 1
gene 1 54 26 -0.575984 0 175 -0.575984 1
gene 1 6 33 0.211129 0 185 0.211129 1
gene 1 3 26 0.308411 0 192 0.308411 1
gene 1 29 56 -0.276633 1 196 -0.276633 1
gene 1 56 29 0.294726 0 197 0.294726 0
gene 1 28 24 0.483167 0 217 0.483167 1
gene 1 18 28 0.483326 0 246 0.483326 1
gene 1 29 66 -0.0334573 0 251 -0.0334573 1
gene 1 66 21 -0.0624033 0 252 -0.0624033 1
gene 1 4 33 0.272731 0 254 0.272731 1
gene 1 8 28 -0.058177 0 266 -0.058177 1
gene 1 3 56 0.8862 0 350 0.8862 1
gene 1 56 86 1 0 374 0 1
gene 1 86 29 0.0411258 0 375 0 1
genomeend 6657
genomestart 6661
trait 1 0.369775 0.00786242 0.395999 0.0586494 0.359358 0.460736 0.25 0.365043
node 1 1 1 1 0
node 2 1 1 1 0
node 3 1 1 1 0
node 4 1 1 1 0
node 5 1 1 1 0
node 6 1 1 1 0
node 7 1 1 1 0
node 8 1 1 1 0
node 9 1 1 1 0
node 10 1 1 1 0
node 11 1 1 1 0
node 12 1 1 1 0
node 13 1 1 1 0
node 14 1 1 1 0
node 15 1 1 1 0
node 16 1 1 1 0
node 17 1 1 1 0
node 18 1 1 1 0
node 19 1 1 3 0
node 20 1 0 2 0
node 21 1 0 2 0
node 24 1 0 0 0
node 25 1 0 0 0
node 26 1 0 0 0
node 28 1 0 0 0
node 29 1 0 0 0
node 33 1 0 0 0
node 54 1 0 0 0
node 56 1 0 0 0
gene 1 1 20 2.21332 0 1 2.21332 1
gene 1 2 20 -0.482436 0 2 -0.482436 1
gene 1 3 20 0.776087 0 3 0.776087 1
gene 1 4 20 0.374787 0 4 0.374787 1
gene 1 5 20 0.865275 0 5 0.865275 1
gene 1 6 20 0.40675 0 6 0.40675 1
gene 1 7 20 0.321668 0 7 0.321668 1
gene 1 8 20 -0.254775 0 8 -0.254775 1
gene 1 9 20 0.679297 0 9 0.679297 1
gene 1 10 20 0.526978 0 10 0.526978 1
gene 1 11 20 0.0474509 0 11 0.0474509 1
gene 1 12 20 -1.13448 0 12 -1.13448 1
gene 1 13 20 -1.38898 0 13 -1.38898 1
gene 1 14 20 0.601554 0 14 0.601554 1
gene 1 15 20 -1.98691 0 15 -1.98691 1
gene 1 16 20 0.150899 0 16 0.150899 1
gene 1 17 20 -0.215713 0 17 -0.215713 1
gene 1 18 20 -1.95984 0 18 -1.95984 1
gene 1 19 20 0.517704 0 19 0.517704 1
gene 1 1 21 0.585415 0 20 0.585415 1
gene 1 2 21 0.626974 0 21 0.626974 1
gene 1 3 21 -0.855173 0 22 -0.855173 1
gene 1 4 21 -0.846846 0 23 -0.846846 1
gene 1 5 21 -0.264315 0 24 -0.264315 0
gene 1 6 21 -0.0633145 0 25 -0.0633145 1
gene 1 7 21 0.950801 0 26 0.950801 1
gene 1 8 21 -0.254826 0 27 -0.254826 1
gene 1 9 21 -0.506943 0 28 -0.506943 1
gene 1 10 21 0.330697 0 29 0.330697 1
gene 1 11 21 0.413549 0 30 0.413549 1
gene 1 12 21 1.1252 0 31 1.1252 1
gene 1 13 21 -0.365386 0 32 -0.365386 1
gene 1 14 21 0.636003 0 33 0.636003 1
gene 1 15 21 -0.974081 0 34 -0.974081 1
gene 1 16 21 -0.133398 0 35 -0.133398 1
gene 1 17 21 0.236815 0 36 0.236815 1
gene 1 18 21 1.03445 0 37 1.03445 1
gene 1 19 21 0.11772 0 38 0.11772 1
gene 1 5 24 0.270354 0 49 0.270354 1
gene 1 24 21 0.186125 0 50 0.186125 1
gene 1 16 25 0.89459 0 51 0.89459 1
gene 1 25 21 -0.246571 0 52 -0.246571 1
gene 1 5 26 -0.162519 0 54 -0.162519 1
gene 1 26 20 0.518668 0 55 0.518668 1
gene 1 10 28 -0.0192397 0 58 -0.0192397 1
gene 1 28 20 -0.415809 0 59 -0.415809 1
gene 1 6 26 -2.63936 0 64 -2.63936 1
gene 1 11 29 -0.786377 0 67 -0.786377 1
gene 1 29 21 -0.295762 0 68 -0.295762 1
gene 1 1 33 -0.424239 0 76 -0.424239 1
gene 1 33 21 -0.294833 0 77 -0.294833 1
gene 1 3 28 0.513701 0 82 0.513701 1
gene 1 7 26 1.76239 0 94 1.76239 1
gene 1 20 20 1.45056 1 95 1.45056 1
gene 1 29 29 -0.883128 1 108 -0.883128 1
gene 1 7 28 -0.893941 0 123 -0.893941 1
gene 1 2 28 -0.174638 0 124 -0.174638 1
gene 1 17 28 1.27235 0 135 1.27235 1
gene 1 4 26 -1.3604 0 150 -1.3604 1
gene 1 13 28 0.416502 0 152 0.416502 1
gene 1 16 26 0.49091 0 159 0.49091 1
gene 1 26 29 -0.000648032 0 169 -0.000648032 1
gene 1 28 28 0.170761 1 170 0.170761 1
gene 1 6 29 0.385253 0 173 0.385253 1
gene 1 5 54 0.346156 0 174 0.346156 1
gene 1 54 26 -0.41938 0 175 -0.41938 1
gene 1 6 33 0.274163 0 185 0.274163 1
gene 1 3 26 -0.827423 0 192 -0.827423 1
gene 1 29 56 2.09393 1 196 2.09393 1
gene 1 56 29 -0.22469 0 197 -0.22469 1
gene 1 28 24 -0.172916 0 217 -0.172916 1
gene 1 10 54 -0.0749661 0 243 -0.0749661 1
gene 1 8 26 -0.0890026 0 260 -0.0890026 1
gene 1 24 29 -0.154219 0 262 -0.154219 1
genomeend 6661
genomestart 6679
trait 1 0.436151 0.00393121 0.540901 0.0781992 0.526931 0.147856 0.325444 0.388808
node 1 1 1 1 0
node 2 1 1 1 0
node 3 1 1 1 0
node 4 1 1 1 0
node 5 1 1 1 0
node 6 1 1 1 0
node 7 1 1 1 0
node 8 1 1 1 0
node 9 1 1 1 0
node 10 1 1 1 0
node 11 1 1 1 0
node 12 1 1 1 0
node 13 1 1 1 0
node 14 1 1 1 0
node 15 1 1 1 0
node 16 1 1 1 0
node 17 1 1 1 0
node 18 1 1 1 0
node 19 1 1 3 0
node 20 1 0 2 0
node 21 1 0 2 0
node 24 1 0 0 0
node 26 1 0 0 0
node 28 1 0 0 0
node 29 1 0 0 0
node 33 1 0 0 0
node 36 1 0 0 0
node 54 1 0 0 0
node 56 1 0 0 0
node 66 1 0 0 0
node 86 1 0 0 0
gene 1 1 20 1.57288 0 1 1.57288 1
gene 1 2 20 0.207073 0 2 0.207073 1
gene 1 3 20 0.416695 0 3 0.416695 1
gene 1 4 20 0.829049 0 4 0.829049 1
gene 1 5 20 2.05101 0 5 2.05101 1
gene 1 6 20 -0.50897 0 6 -0.50897 1
gene 1 7 20 0.441558 0 7 0.441558 1
gene 1 8 20 0.466867 0 8 0.466867 1
gene 1 9 20 1.23115 0 9 1.23115 1
gene 1 10 20 -0.177041 0 10 -0.177041 1
gene 1 11 20 1.41079 0 11 1.41079 1
gene 1 12 20 -0.816251 0 12 -0.816251 1
gene 1 13 20 0.467103 0 13 0.467103 1
gene 1 14 20 0.63324 0 14 0.63324 1
gene 1 15 20 -0.386261 0 15 -0.386261 1
gene 1 16 20 0.425377 0 16 0.425377 1
gene 1 17 20 -0.181334 0 17 -0.181334 1
gene 1 18 20 -1.11426 0 18 -1.11426 1
gene 1 19 20 0.785877 0 19 0.785877 1
gene 1 1 21 -0.420431 0 20 -0.420431 1
gene 1 2 21 1.17277 0 21 1.17277 1
gene 1 3 21 -0.200782 0 22 -0.200782 1
gene 1 4 21 -0.0853653 0 23 -0.0853653 1
gene 1 5 21 -1.07479 0 24 -1.07479 0
gene 1 6 21 -0.475291 0 25 -0.475291 1
gene 1 7 21 -0.261486 0 26 -0.261486 0
gene 1 8 21 0.137239 0 27 0.137239 1
gene 1 9 21 0.722266 0 28 0.722266 1
gene 1 10 21 -0.0672689 0 29 -0.0672689 1
gene 1 11 21 1.32558 0 30 1.32558 1
gene 1 12 21 0.514323 0 31 0.514323 1
gene 1 13 21 0.20919 0 32 0.20919 1
gene 1 14 21 -1.05425 0 33 -1.05425 1
gene 1 15 21 -1.52984 0 34 -1.52984 1
gene 1 16 21 0.313929 0 35 0.313929 1
gene 1 17 21 0.137983 0 36 0.137983 1
gene 1 18 21 0.194689 0 37 0.194689 1
gene 1 19 21 0.141601 0 38 0.141601 1
gene 1 5 24 0.333062 0 49 0.333062 1
gene 1 24 21 -1.05143 0 50 -1.05143 1
gene 1 5 26 -0.277738 0 54 -0.277738 1
gene 1 26 20 -0.185883 0 55 -0.185883 1
gene 1 10 28 -0.704835 0 58 -0.704835 1
gene 1 28 20 -0.128633 0 59 -0.128633 1
gene 1 6 26 -2.51558 0 64 -2.51558 1
gene 1 11 29 0.509933 0 67 0.509933 1
gene 1 29 21 0.42287 0 68 0.42287 0
gene 1 1 33 0.538552 0 76 0.538552 1
gene 1 33 21 -0.831802 0 77 -0.831802 1
gene 1 7 36 0.764698 0 87 0.764698 1
gene 1 36 21 -0.287311 0 88 -0.287311 1
gene 1 7 26 0.152623 0 94 0.152623 1
gene 1 20 20 0.88871 1 95 0.88871 1
gene 1 29 29 0.0729813 1 108 0.0729813 1
gene 1 7 28 -1.04827 0 123 -1.04827 1
gene 1 2 28 0.0299486 0 124 0.0299486 1
gene 1 17 28 0.25584 0 135 0.25584 1
gene 1 4 26 -0.373287 0 150 -0.373287 1
gene 1 13 28 0.0174914 0 152 0.0174914 1
gene 1 16 26 0.53144 0 159 0.53144 1
gene 1 26 29 0.359053 0 169 0.359053 1
gene 1 28 28 0.634801 1 170 0.634801 1
gene 1 6 29 -0.750008 0 173 -0.750008 1
gene 1 5 54 -0.0879421 0 174 -0.0879421 1
gene 1 54 26 -0.682878 0 175 -0.682878 1
gene 1 6 33 0.234347 0 185 0.234347 1
gene 1 3 26 -0.201789 0 192 -0.201789 1
gene 1 29 56 -0.386518 1 196 -0.386518 1
gene 1 56 29 0.190966 0 197 0.190966 0
gene 1 28 24 0.606496 0 217 0.606496 1
gene 1 18 28 0.44607 0 246 0.44607 1
gene 1 29 66 0.147498 0 251 0.147498 1
gene 1 66 21 0.552308 0 252 0.552308 1
gene 1 4 33 0.75938 0 254 0.75938 1
gene 1 8 28 -0.512969 0 266 -0.512969 1
gene 1 3 56 -0.425865 0 350 -0.425865 1
gene 1 10 33 0.729891 0 360 0.729891 1
gene 1 28 33 -0.649461 0 371 -0.649461 1
gene 1 56 86 1.17138 0 374 1.17138 1
gene 1 86 29 0.0407092 0 375 0.0407092 1
genomeend 6679
genomestart 6680
trait 1 0.184565 0.449735 0.395999 0.0195498 0.286453 0.460736 0.25 0.504366
node 1 1 1 1 0
node 2 1 1 1 0
node 3 1 1 1 0
node 4 1 1 1 0
node 5 1 1 1 0
node 6 1 1 1 0
node 7 1 1 1 0
node 8 1 1 1 0
node 9 1 1 1 0
node 10 1 1 1 0
node 11 1 1 1 0
node 12 1 1 1 0
node 13 1 1 1 0
node 14 1 1 1 0
node 15 1 1 1 0
node 16 1 1 1 0
node 17 1 1 1 0
node 18 1 1 1 0
node 19 1 1 3 0
node 20 1 0 2 0
node 21 1 0 2 0
node 24 1 0 0 0
node 25 1 0 0 0
node 26 1 0 0 0
node 28 1 0 0 0
node 29 1 0 0 0
node 33 1 0 0 0
node 54 1 0 0 0
node 56 1 0 0 0
gene 1 1 20 1.82281 0 1 1.82281 1
gene 1 2 20 0.0122989 0 2 0.0122989 1
gene 1 3 20 0.770858 0 3 0.770858 1
gene 1 4 20 0.315958 0 4 0.315958 1
gene 1 5 20 0.855758 0 5 0.855758 1
gene 1 6 20 0.58716 0 6 0.58716 1
gene 1 7 20 0.234672 0 7 0.234672 1
gene 1 8 20 -0.244382 0 8 -0.244382 1
gene 1 9 20 0.638282 0 9 0.638282 1
gene 1 10 20 0.928344 0 10 0.928344 0
gene 1 11 20 0.176071 0 11 0.176071 1
gene 1 12 20 -1.19531 0 12 -1.19531 1
gene 1 13 20 -1.35135 0 13 -1.35135 1
gene 1 14 20 0.66995 0 14 0.66995 1
gene 1 15 20 -1.48339 0 15 -1.48339 1
gene 1 16 20 -0.207976 0 16 -0.207976 1
gene 1 17 20 -0.458528 0 17 -0.458528 1
gene 1 18 20 -1.85388 0 18 -1.85388 1
gene 1 19 20 0.0537046 0 19 0.0537046 1
gene 1 1 21 0.0334329 0 20 0.0334329 1
gene 1 2 21 1.04404 0 21 1.04404 1
gene 1 3 21 -0.171088 0 22 -0.171088 1
gene 1 4 21 -0.88791 0 23 -0.88791 1
gene 1 5 21 -0.697525 0 24 -0.697525 0
gene 1 6 21 -0.360644 0 25 -0.360644 1
gene 1 7 21 0.865043 0 26 0.865043 1
gene 1 8 21 -0.717979 0 27 -0.717979 1
gene 1 9 21 -0.32021 0 28 -0.32021 1
gene 1 10 21 0.0168356 0 29 0.0168356 1
gene 1 11 21 0.190955 0 30 0.190955 1
gene 1 12 21 0.752655 0 31 0.752655 1
gene 1 13 21 -0.128495 0 32 -0.128495 1
gene 1 14 21 0.952437 0 33 0.952437 1
gene 1 15 21 -0.981221 0 34 -0.981221 1
gene 1 16 21 -0.463709 0 35 -0.463709 0
gene 1 17 21 0.575901 0 36 0.575901 1
gene 1 18 21 0.508624 0 37 0.508624 1
gene 1 19 21 -0.397522 0 38 -0.397522 1
gene 1 5 24 0.256491 0 49 0.256491 1
gene 1 24 21 0.419353 0 50 0.419353 1
gene 1 16 25 1 0 51 0 1
gene 1 25 21 -0.139113 0 52 0 1
gene 1 5 26 0.288443 0 54 0.288443 1
gene 1 26 20 0.167326 0 55 0.167326 1
gene 1 10 28 -0.144525 0 58 -0.144525 1
gene 1 28 20 -0.388882 0 59 -0.388882 1
gene 1 6 26 -2.20374 0 64 -2.20374 1
gene 1 11 29 -0.680476 0 67 -0.680476 1
gene 1 29 21 -0.0141679 0 68 -0.0141679 1
gene 1 1 33 -0.401681 0 76 -0.401681 1
gene 1 33 21 -0.730114 0 77 -0.730114 1
gene 1 3 28 0.335352 0 82 0 1
gene 1 7 26 1.35221 0 94 1.35221 1
gene 1 20 20 1.11458 1 95 1.11458 1
gene 1 29 29 -0.773207 1 108 -0.773207 1
gene 1 7 28 -1.13198 0 123 -1.13198 1
gene 1 2 28 -0.327781 0 124 -0.327781 1
gene 1 17 28 1.26301 0 135 1.26301 1
gene 1 4 26 -1.0829 0 150 -1.0829 1
gene 1 13 28 0.185794 0 152 0.185794 1
gene 1 16 26 0.258504 0 159 0.258504 1
gene 1 26 29 0.0732402 0 169 0.0732402 1
gene 1 28 28 -0.214646 1 170 -0.214646 1
gene 1 6 29 0.242161 0 173 0.242161 1
gene 1 5 54 -0.246702 0 174 -0.246702 1
gene 1 54 26 -0.0873784 0 175 -0.0873784 1
gene 1 6 33 -0.17359 0 185 -0.17359 1
gene 1 3 26 -0.412079 0 192 -0.412079 1
gene 1 29 56 2.04512 1 196 2.04512 1
gene 1 56 29 -0.283702 0 197 -0.283702 1
gene 1 28 24 0.0490936 0 217 0.0490936 1
gene 1 10 54 0.137222 0 243 0.137222 1
gene 1 8 26 -0.405138 0 260 -0.405138 1
gene 1 24 29 0.128156 0 262 0.128156 1
genomeend 6680
genomestart 6680
trait 1 0.184565 0.449735 0.395999 0.0195498 0.286453 0.460736 0.25 0.504366
node 1 1 1 1 0
node 2 1 1 1 0
node 3 1 1 1 0
node 4 1 1 1 0
node 5 1 1 1 0
node 6 1 1 1 0
node 7 1 1 1 0
node 8 1 1 1 0
node 9 1 1 1 0
node 10 1 1 1 0
node 11 1 1 1 0
node 12 1 1 1 0
node 13 1 1 1 0
node 14 1 1 1 0
node 15 1 1 1 0
node 16 1 1 1 0
node 17 1 1 1 0
node 18 1 1 1 0
node 19 1 1 3 0
node 20 1 0 2 0
node 21 1 0 2 0
node 24 1 0 0 0
node 25 1 0 0 0
node 26 1 0 0 0
node 28 1 0 0 0
node 29 1 0 0 0
node 33 1 0 0 0
node 54 1 0 0 0
node 56 1 0 0 0
gene 1 1 20 1.82281 0 1 1.82281 1
gene 1 2 20 0.0122989 0 2 0.0122989 1
gene 1 3 20 0.770858 0 3 0.770858 1
gene 1 4 20 0.315958 0 4 0.315958 1
gene 1 5 20 0.855758 0 5 0.855758 1
gene 1 6 20 0.58716 0 6 0.58716 1
gene 1 7 20 0.234672 0 7 0.234672 1
gene 1 8 20 -0.244382 0 8 -0.244382 1
gene 1 9 20 0.638282 0 9 0.638282 1
gene 1 10 20 0.928344 0 10 0.928344 0
gene 1 11 20 0.176071 0 11 0.176071 1
gene 1 12 20 -1.19531 0 12 -1.19531 1
gene 1 13 20 -1.35135 0 13 -1.35135 1
gene 1 14 20 0.66995 0 14 0.66995 1
gene 1 15 20 -1.48339 0 15 -1.48339 1
gene 1 16 20 -0.207976 0 16 -0.207976 1
gene 1 17 20 -0.458528 0 17 -0.458528 1
gene 1 18 20 -1.85388 0 18 -1.85388 1
gene 1 19 20 0.0537046 0 19 0.0537046 1
gene 1 1 21 0.0334329 0 20 0.0334329 1
gene 1 2 21 1.04404 0 21 1.04404 1
gene 1 3 21 -0.171088 0 22 -0.171088 1
gene 1 4 21 -0.88791 0 23 -0.88791 1
gene 1 5 21 -0.697525 0 24 -0.697525 0
gene 1 6 21 -0.360644 0 25 -0.360644 1
gene 1 7 21 0.865043 0 26 0.865043 1
gene 1 8 21 -0.717979 0 27 -0.717979 1
gene 1 9 21 -0.32021 0 28 -0.32021 1
gene 1 10 21 0.0168356 0 29 0.0168356 1
gene 1 11 21 0.190955 0 30 0.190955 1
gene 1 12 21 0.752655 0 31 0.752655 1
gene 1 13 21 -0.128495 0 32 -0.128495 1
gene 1 14 21 0.952437 0 33 0.952437 1
gene 1 15 21 -0.981221 0 34 -0.981221 1
gene 1 16 21 -0.463709 0 35 -0.463709 0
gene 1 17 21 0.575901 0 36 0.575901 1
gene 1 18 21 0.508624 0 37 0.508624 1
gene 1 19 21 -0.397522 0 38 -0.397522 1
gene 1 5 24 0.256491 0 49 0.256491 1
gene 1 24 21 0.419353 0 50 0.419353 1
gene 1 16 25 1 0 51 0 1
gene 1 25 21 -0.139113 0 52 0 1
gene 1 5 26 0.288443 0 54 0.288443 1
gene 1 26 20 0.167326 0 55 0.167326 1
gene 1 10 28 -0.144525 0 58 -0.144525 1
gene 1 28 20 -0.388882 0 59 -0.388882 1
gene 1 6 26 -2.20374 0 64 -2.20374 1
gene 1 11 29 -0.680476 0 67 -0.680476 1
gene 1 29 21 -0.0141679 0 68 -0.0141679 1
gene 1 1 33 -0.401681 0 76 -0.401681 1
gene 1 33 21 -0.730114 0 77 -0.730114 1
gene 1 3 28 0.335352 0 82 0 1
gene 1 7 26 1.35221 0 94 1.35221 1
gene 1 20 20 1.11458 1 95 1.11458 1
gene 1 29 29 -0.773207 1 108 -0.773207 1
gene 1 7 28 -1.13198 0 123 -1.13198 1
gene 1 2 28 -0.327781 0 124 -0.327781 1
gene 1 17 28 1.26301 0 135 1.26301 1
gene 1 4 26 -1.0829 0 150 -1.0829 1
gene 1 13 28 0.185794 0 152 0.185794 1
gene 1 16 26 0.258504 0 159 0.258504 1
gene 1 26 29 0.0732402 0 169 0.0732402 1
gene 1 28 28 -0.214646 1 170 -0.214646 1
gene 1 6 29 0.242161 0 173 0.242161 1
gene 1 5 54 -0.246702 0 174 -0.246702 1
gene 1 54 26 -0.0873784 0 175 -0.0873784 1
gene 1 6 33 -0.17359 0 185 -0.17359 1
gene 1 3 26 -0.412079 0 192 -0.412079 1
gene 1 29 56 2.04512 1 196 2.04512 1
gene 1 56 29 -0.283702 0 197 -0.283702 1
gene 1 28 24 0.0490936 0 217 0.0490936 1
gene 1 10 54 0.137222 0 243 0.137222 1
gene 1 8 26 -0.405138 0 260 -0.405138 1
gene 1 24 29 0.128156 0 262 0.128156 1
genomeend 6680
genomestart 6682
trait 1 0.369775 0.00786242 0.395999 0.0781992 0.14581 0.631782 0.0561142 0.365043
node 1 1 1 1 0
node 2 1 1 1 0
node 3 1 1 1 0
node 4 1 1 1 0
node 5 1 1 1 0
node 6 1 1 1 0
node 7 1 1 1 0
node 8 1 1 1 0
node 9 1 1 1 0
node 10 1 1 1 0
node 11 1 1 1 0
node 12 1 1 1 0
node 13 1 1 1 0
node 14 1 1 1 0
node 15 1 1 1 0
node 16 1 1 1 0
node 17 1 1 1 0
node 18 1 1 1 0
node 19 1 1 3 0
node 20 1 0 2 0
node 21 1 0 2 0
node 24 1 0 0 0
node 25 1 0 0 0
node 26 1 0 0 0
node 28 1 0 0 0
node 29 1 0 0 0
node 33 1 0 0 0
node 54 1 0 0 0
node 56 1 0 0 0
gene 1 1 20 1.82281 0 1 1.82281 1
gene 1 2 20 0.0122989 0 2 0.0122989 1
gene 1 3 20 0.814453 0 3 0.814453 1
gene 1 4 20 0.315958 0 4 0.315958 1
gene 1 5 20 0.551622 0 5 0.551622 1
gene 1 6 20 0.58716 0 6 0.58716 1
gene 1 7 20 0.133354 0 7 0.133354 1
gene 1 8 20 -0.162822 0 8 -0.162822 1
gene 1 9 20 0.627964 0 9 0.627964 1
gene 1 10 20 0.377427 0 10 0.377427 0
gene 1 11 20 0.511314 0 11 0.511314 1
gene 1 12 20 -0.990215 0 12 -0.990215 1
gene 1 13 20 -1.33736 0 13 -1.33736 1
gene 1 14 20 0.66995 0 14 0.66995 1
gene 1 15 20 -1.48339 0 15 -1.48339 1
gene 1 16 20 -0.397492 0 16 -0.397492 1
gene 1 17 20 -0.725528 0 17 -0.725528 1
gene 1 18 20 -1.65693 0 18 -1.65693 1
gene 1 19 20 0.0987965 0 19 0.0987965 1
gene 1 1 21 -0.0845754 0 20 -0.0845754 1
gene 1 2 21 1.04404 0 21 1.04404 1
gene 1 3 21 -0.171088 0 22 -0.171088 1
gene 1 4 21 -1.06021 0 23 -1.06021 1
gene 1 5 21 -0.267842 0 24 -0.267842 0
gene 1 6 21 -0.360644 0 25 -0.360644 1
gene 1 7 21 0.666184 0 26 0.666184 1
gene 1 8 21 -0.352079 0 27 -0.352079 1
gene 1 9 21 -0.171308 0 28 -0.171308 1
gene 1 10 21 0.0384457 0 29 0.0384457 1
gene 1 11 21 0.0794681 0 30 0.0794681 1
gene 1 12 21 0.752655 0 31 0.752655 1
gene 1 13 21 -0.197892 0 32 -0.197892 1
gene 1 14 21 0.542813 0 33 0.542813 1
gene 1 15 21 -0.83359 0 34 -0.83359 1
gene 1 16 21 -0.463709 0 35 -0.463709 1
gene 1 17 21 0.571058 0 36 0.571058 1
gene 1 18 21 0.59173 0 37 0.59173 1
gene 1 19 21 0.0150059 0 38 0.0150059 1
gene 1 5 24 0.309574 0 49 0.309574 1
gene 1 24 21 0.136198 0 50 0.136198 1
gene 1 16 25 1 0 51 0 1
gene 1 25 21 0.0661917 0 52 0.135748 1
gene 1 5 26 0.288443 0 54 0.288443 1
gene 1 26 20 -0.0186654 0 55 -0.0186654 1
gene 1 10 28 -0.564157 0 58 -0.564157 1
gene 1 28 20 -0.0631855 0 59 -0.0631855 1
gene 1 6 26 -2.11487 0 64 -2.11487 1
gene 1 11 29 -0.532814 0 67 -0.532814 1
gene 1 29 21 -0.0141679 0 68 -0.0141679 1
gene 1 1 33 -0.563534 0 76 -0.563534 1
gene 1 33 21 -0.924016 0 77 -0.924016 1
gene 1 3 28 0.550126 0 82 0.38245 1
gene 1 7 26 1.30576 0 94 1.30576 1
gene 1 20 20 1.11458 1 95 1.11458 1
gene 1 29 29 -0.674025 1 108 -0.674025 1
gene 1 7 28 -1.40271 0 123 -1.40271 1
gene 1 2 28 -0.600481 0 124 -0.600481 1
gene 1 17 28 1.22932 0 135 1.22932 1
gene 1 4 26 -1.0829 0 150 -1.0829 1
gene 1 13 28 0.259904 0 152 0.259904 1
gene 1 16 26 0.238611 0 159 0.238611 1
gene 1 26 29 0.101838 0 169 0.101838 1
gene 1 28 28 -0.0515858 1 170 -0.0515858 1
gene 1 6 29 0.163522 0 173 0.163522 1
gene 1 5 54 -0.453226 0 174 -0.453226 1
gene 1 54 26 -0.0873784 0 175 -0.0873784 1
gene 1 6 33 -0.24821 0 185 -0.24821 1
gene 1 3 26 -0.346777 0 192 -0.346777 1
gene 1 29 56 2.04512 1 196 2.04512 1
gene 1 56 29 -0.165679 0 197 -0.165679 1
gene 1 28 24 0.0675562 0 217 0.0675562 1
gene 1 10 54 0.31108 0 243 0.31108 1
gene 1 8 26 -0.555693 0 260 -0.555693 1
gene 1 24 29 0.128156 0 262 0.128156 1
genomeend 6682
genomestart 6682
trait 1 0.369775 0.00786242 0.395999 0.0781992 0.14581 0.631782 0.0561142 0.365043
node 1 1 1 1 0
node 2 1 1 1 0
node 3 1 1 1 0
node 4 1 1 1 0
node 5 1 1 1 0
node 6 1 1 1 0
node 7 1 1 1 0
node 8 1 1 1 0
node 9 1 1 1 0
node 10 1 1 1 0
node 11 1 1 1 0
node 12 1 1 1 0
node 13 1 1 1 0
node 14 1 1 1 0
node 15 1 1 1 0
node 16 1 1 1 0
node 17 1 1 1 0
node 18 1 1 1 0
node 19 1 1 3 0
node 20 1 0 2 0
node 21 1 0 2 0
node 24 1 0 0 0
node 25 1 0 0 0
node 26 1 0 0 0
node 28 1 0 0 0
node 29 1 0 0 0
node 33 1 0 0 0
node 54 1 0 0 0
node 56 1 0 0 0
gene 1 1 20 1.82281 0 1 1.82281 1
gene 1 2 20 0.0122989 0 2 0.0122989 1
gene 1 3 20 0.814453 0 3 0.814453 1
gene 1 4 20 0.315958 0 4 0.315958 1
gene 1 5 20 0.551622 0 5 0.551622 1
gene 1 6 20 0.58716 0 6 0.58716 1
gene 1 7 20 0.133354 0 7 0.133354 1
gene 1 8 20 -0.162822 0 8 -0.162822 1
gene 1 9 20 0.627964 0 9 0.627964 1
gene 1 10 20 0.377427 0 10 0.377427 0
gene 1 11 20 0.511314 0 11 0.511314 1
gene 1 12 20 -0.990215 0 12 -0.990215 1
gene 1 13 20 -1.33736 0 13 -1.33736 1
gene 1 14 20 0.66995 0 14 0.66995 1
gene 1 15 20 -1.48339 0 15 -1.48339 1
gene 1 16 20 -0.397492 0 16 -0.397492 1
gene 1 17 20 -0.725528 0 17 -0.725528 1
gene 1 18 20 -1.65693 0 18 -1.65693 1
gene 1 19 20 0.0987965 0 19 0.0987965 1
gene 1 1 21 -0.0845754 0 20 -0.0845754 1
gene 1 2 21 1.04404 0 21 1.04404 1
gene 1 3 21 -0.171088 0 22 -0.171088 1
gene 1 4 21 -1.06021 0 23 -1.06021 1
gene 1 5 21 -0.267842 0 24 -0.267842 0
gene 1 6 21 -0.360644 0 25 -0.360644 1
gene 1 7 21 0.666184 0 26 0.666184 1
gene 1 8 21 -0.352079 0 27 -0.352079 1
gene 1 9 21 -0.171308 0 28 -0.171308 1
gene 1 10 21 0.0384457 0 29 0.0384457 1
gene 1 11 21 0.0794681 0 30 0.0794681 1
gene 1 12 21 0.752655 0 31 0.752655 1
gene 1 13 21 -0.197892 0 32 -0.197892 1
gene 1 14 21 0.542813 0 33 0.542813 1
gene 1 15 21 -0.83359 0 34 -0.83359 1
gene 1 16 21 -0.463709 0 35 -0.463709 1
gene 1 17 21 0.571058 0 36 0.571058 1
gene 1 18 21 0.59173 0 37 0.59173 1
gene 1 19 21 0.0150059 0 38 0.0150059 1
gene 1 5 24 0.309574 0 49 0.309574 1
gene 1 24 21 0.136198 0 50 0.136198 1
gene 1 16 25 1 0 51 0 1
gene 1 25 21 0.0661917 0 52 0.135748 1
gene 1 5 26 0.288443 0 54 0.288443 1
gene 1 26 20 -0.0186654 0 55 -0.0186654 1
gene 1 10 28 -0.564157 0 58 -0.564157 1
gene 1 28 20 -0.0631855 0 59 -0.0631855 1
gene 1 6 26 -2.11487 0 64 -2.11487 1
gene 1 11 29 -0.532814 0 67 -0.532814 1
gene 1 29 21 -0.0141679 0 68 -0.0141679 1
gene 1 1 33 -0.563534 0 76 -0.563534 1
gene 1 33 21 -0.924016 0 77 -0.924016 1
gene 1 3 28 0.550126 0 82 0.38245 1
gene 1 7 26 1.30576 0 94 1.30576 1
gene 1 20 20 1.11458 1 95 1.11458 1
gene 1 29 29 -0.674025 1 108 -0.674025 1
gene 1 7 28 -1.40271 0 123 -1.40271 1
gene 1 2 28 -0.600481 0 124 -0.600481 1
gene 1 17 28 1.22932 0 135 1.22932 1
gene 1 4 26 -1.0829 0 150 -1.0829 1
gene 1 13 28 0.259904 0 152 0.259904 1
gene 1 16 26 0.238611 0 159 0.238611 1
gene 1 26 29 0.101838 0 169 0.101838 1
gene 1 28 28 -0.0515858 1 170 -0.0515858 1
gene 1 6 29 0.163522 0 173 0.163522 1
gene 1 5 54 -0.453226 0 174 -0.453226 1
gene 1 54 26 -0.0873784 0 175 -0.0873784 1
gene 1 6 33 -0.24821 0 185 -0.24821 1
gene 1 3 26 -0.346777 0 192 -0.346777 1
gene 1 29 56 2.04512 1 196 2.04512 1
gene 1 56 29 -0.165679 0 197 -0.165679 1
gene 1 28 24 0.0675562 0 217 0.0675562 1
gene 1 10 54 0.31108 0 243 0.31108 1
gene 1 8 26 -0.555693 0 260 -0.555693 1
gene 1 24 29 0.128156 0 262 0.128156 1
genomeend 6682
genomestart 6693
trait 1 0.436151 0.00393121 0.540901 0.0781992 0.526931 0.147856 0.325444 0.388808
node 1 1 1 1 0
node 2 1 1 1 0
node 3 1 1 1 0
node 4 1 1 1 0
node 5 1 1 1 0
node 6 1 1 1 0
node 7 1 1 1 0
node 8 1 1 1 0
node 9 1 1 1 0
node 10 1 1 1 0
node 11 1 1 1 0
node 12 1 1 1 0
node 13 1 1 1 0
node 14 1 1 1 0
node 15 1 1 1 0
node 16 1 1 1 0
node 17 1 1 1 0
node 18 1 1 1 0
node 19 1 1 3 0
node 20 1 0 2 0
node 21 1 0 2 0
node 24 1 0 0 0
node 26 1 0 0 0
node 28 1 0 0 0
node 29 1 0 0 0
node 33 1 0 0 0
node 36 1 0 0 0
node 54 1 0 0 0
node 56 1 0 0 0
node 66 1 0 0 0
node 86 1 0 0 0
gene 1 1 20 1.712 0 1 1.712 1
gene 1 2 20 0.277308 0 2 0.277308 1
gene 1 3 20 0.254314 0 3 0.254314 1
gene 1 4 20 0.543381 0 4 0.543381 1
gene 1 5 20 1.45978 0 5 1.45978 1
gene 1 6 20 -0.819818 0 6 -0.819818 1
gene 1 7 20 0.3069 0 7 0.3069 1
gene 1 8 20 0.339241 0 8 0.339241 1
gene 1 9 20 0.524313 0 9 0.524313 1
gene 1 10 20 -0.58193 0 10 -0.58193 1
gene 1 11 20 0.992326 0 11 0.992326 1
gene 1 12 20 -1.15065 0 12 -1.15065 1
gene 1 13 20 0.320622 0 13 0.320622 1
gene 1 14 20 0.87111 0 14 0.87111 1
gene 1 15 20 0.0158867 0 15 0.0158867 1
gene 1 16 20 0.377408 0 16 0.377408 1
gene 1 17 20 0.251871 0 17 0.251871 1
gene 1 18 20 -0.535547 0 18 -0.535547 1
gene 1 19 20 0.423872 0 19 0.423872 1
gene 1 1 21 0.00474068 0 20 0.00474068 1
gene 1 2 21 1.55558 0 21 1.55558 1
gene 1 3 21 0.168272 0 22 0.168272 1
gene 1 4 21 -0.184202 0 23 -0.184202 1
gene 1 5 21 -0.631981 0 24 -0.631981 1
gene 1 6 21 0.035982 0 25 0.035982 1
gene 1 7 21 0.291472 0 26 0.291472 1
gene 1 8 21 0.415293 0 27 0.415293 1
gene 1 9 21 -0.167853 0 28 -0.167853 1
gene 1 10 21 0.478565 0 29 0.478565 1
gene 1 11 21 0.731657 0 30 0.731657 1
gene 1 12 21 0.31482 0 31 0.31482 1
gene 1 13 21 0.314366 0 32 0.314366 1
gene 1 14 21 -0.642234 0 33 -0.642234 1
gene 1 15 21 -1.55773 0 34 -1.55773 1
gene 1 16 21 0.379875 0 35 0.379875 1
gene 1 17 21 0.134375 0 36 0.134375 1
gene 1 18 21 0.7498 0 37 0.7498 1
gene 1 19 21 -0.656026 0 38 -0.656026 1
gene 1 5 24 0.581582 0 49 0.581582 1
gene 1 24 21 -0.674466 0 50 -0.674466 1
gene 1 5 26 -0.311784 0 54 -0.311784 1
gene 1 26 20 0.241242 0 55 0.241242 1
gene 1 10 28 -0.619823 0 58 -0.619823 1
gene 1 28 20 -0.295442 0 59 -0.295442 1
gene 1 6 26 -1.89713 0 64 -1.89713 1
gene 1 11 29 0.579329 0 67 0.579329 1
gene 1 29 21 0.477845 0 68 0.477845 1
gene 1 1 33 0.937693 0 76 0.937693 1
gene 1 33 21 -0.871053 0 77 -0.871053 1
gene 1 7 36 1.25523 0 87 1.25523 1
gene 1 36 21 0.108978 0 88 0.108978 1
gene 1 7 26 0.644252 0 94 0.644252 1
gene 1 20 20 0.680223 1 95 0.680223 1
gene 1 29 29 -0.18858 1 108 -0.18858 1
gene 1 7 28 -0.405467 0 123 -0.405467 1
gene 1 2 28 0.443525 0 124 0.443525 1
gene 1 17 28 -0.229984 0 135 -0.229984 1
gene 1 4 26 -0.325337 0 150 -0.325337 1
gene 1 13 28 -0.402813 0 152 -0.402813 1
gene 1 16 26 0.39158 0 159 0.39158 1
gene 1 26 29 -0.0446206 0 169 -0.0446206 1
gene 1 28 28 0.553952 1 170 0.553952 1
gene 1 6 29 -0.11206 0 173 -0.11206 1
gene 1 5 54 0.100794 0 174 0.100794 1
gene 1 54 26 -0.294936 0 175 -0.294936 1
gene 1 6 33 -0.160253 0 185 -0.160253 1
gene 1 3 26 0.32119 0 192 0.32119 1
gene 1 29 56 -0.420132 1 196 -0.420132 1
gene 1 56 29 0.13828 0 197 0.13828 1
gene 1 28 24 0.415655 0 217 0.415655 1
gene 1 18 28 0.385716 0 246 0.385716 1
gene 1 29 66 0.0438291 0 251 0.0438291 1
gene 1 66 21 0.0712166 0 252 0.0712166 1
gene 1 4 33 0.839179 0 254 0.839179 1
gene 1 8 28 -0.152548 0 266 -0.152548 1
gene 1 20 29 0.56113 0 287 0 1
gene 1 3 56 0.820741 0 350 0.820741 1
gene 1 10 33 0.530748 0 360 0.530748 1
gene 1 56 86 1 0 374 0 1
gene 1 86 29 0.0411258 0 375 0 1
gene 1 15 36 -0.644782 0 376 -0.644782 1
genomeend 6693
genomestart 6716
trait 1 0.436151 0.00393121 0.540901 0.0781992 0.526931 0.147856 0.325444 0.388808
node 1 1 1 1 0
node 2 1 1 1 0
node 3 1 1 1 0
node 4 1 1 1 0
node 5 1 1 1 0
node 6 1 1 1 0
node 7 1 1 1 0
node 8 1 1 1 0
node 9 1 1 1 0
node 10 1 1 1 0
node 11 1 1 1 0
node 12 1 1 1 0
node 13 1 1 1 0
node 14 1 1 1 0
node 15 1 1 1 0
node 16 1 1 1 0
node 17 1 1 1 0
node 18 1 1 1 0
node 19 1 1 3 0
node 20 1 0 2 0
node 21 1 0 2 0
node 24 1 0 0 0
node 26 1 0 0 0
node 28 1 0 0 0
node 29 1 0 0 0
node 33 1 0 0 0
node 36 1 0 0 0
node 54 1 0 0 0
node 56 1 0 0 0
node 66 1 0 0 0
node 77 1 0 0 0
node 86 1 0 0 0
gene 1 1 20 1.65265 0 1 1.65265 1
gene 1 2 20 0.377597 0 2 0.377597 1
gene 1 3 20 0.372684 0 3 0.372684 1
gene 1 4 20 0.591191 0 4 0.591191 1
gene 1 5 20 1.28081 0 5 1.28081 1
gene 1 6 20 -1.79435 0 6 -1.79435 1
gene 1 7 20 0.136362 0 7 0.136362 1
gene 1 8 20 -0.176461 0 8 -0.176461 1
gene 1 9 20 0.33788 0 9 0.33788 1
gene 1 10 20 -0.653639 0 10 -0.653639 1
gene 1 11 20 0.895289 0 11 0.895289 1
gene 1 12 20 -1.07307 0 12 -1.07307 1
gene 1 13 20 0.277169 0 13 0.277169 1
gene 1 14 20 0.837975 0 14 0.837975 1
gene 1 15 20 0.563349 0 15 0.563349 1
gene 1 16 20 0.553887 0 16 0.553887 1
gene 1 17 20 0.583305 0 17 0.583305 1
gene 1 18 20 -0.0374643 0 18 -0.0374643 1
gene 1 19 20 0.375201 0 19 0.375201 1
gene 1 1 21 0.0925641 0 20 0.0925641 1
gene 1 2 21 1.59406 0 21 1.59406 1
gene 1 3 21 0.136514 0 22 0.136514 1
gene 1 4 21 -0.456114 0 23 -0.456114 1
gene 1 5 21 -0.645168 0 24 -0.645168 0
gene 1 6 21 -0.383604 0 25 -0.383604 1
gene 1 7 21 0.53622 0 26 0.53622 1
gene 1 8 21 0.487262 0 27 0.487262 1
gene 1 9 21 -0.510129 0 28 -0.510129 1
gene 1 10 21 0.536617 0 29 0.536617 1
gene 1 11 21 1.33258 0 30 1.33258 1
gene 1 12 21 0.257575 0 31 0.257575 1
gene 1 13 21 0.0936039 0 32 0.0936039 1
gene 1 14 21 -1.21528 0 33 -1.21528 1
gene 1 15 21 -1.73795 0 34 -1.73795 1
gene 1 16 21 0.322525 0 35 0.322525 1
gene 1 17 21 0.467915 0 36 0.467915 1
gene 1 18 21 1.56365 0 37 1.56365 1
gene 1 19 21 -0.800739 0 38 -0.800739 1
gene 1 5 24 0.361681 0 49 0.361681 1
gene 1 24 21 -0.41058 0 50 -0.41058 1
gene 1 5 26 -0.287213 0 54 -0.287213 1
gene 1 26 20 0.226501 0 55 0.226501 1
gene 1 10 28 -0.505302 0 58 -0.505302 1
gene 1 28 20 -0.329661 0 59 -0.329661 1
gene 1 6 26 -1.85802 0 64 -1.85802 1
gene 1 11 29 0.142869 0 67 0.142869 1
gene 1 29 21 0.607815 0 68 0.607815 0
gene 1 1 33 1.01916 0 76 1.01916 1
gene 1 33 21 -1.18517 0 77 -1.18517 1
gene 1 7 36 1.14222 0 87 1.14222 1
gene 1 36 21 -0.331703 0 88 -0.331703 1
gene 1 7 26 0.622381 0 94 0.622381 1
gene 1 20 20 0.731608 1 95 0.731608 1
gene 1 29 29 0.0436714 1 108 0.0436714 1
gene 1 7 28 -0.217335 0 123 -0.217335 1
gene 1 2 28 0.897135 0 124 0.897135 1
gene 1 17 28 -0.356041 0 135 -0.356041 1
gene 1 4 26 -0.029749 0 150 -0.029749 1
gene 1 13 28 -1.56477 0 152 -1.56477 1
gene 1 16 26 0.424298 0 159 0.424298 1
gene 1 26 29 -0.138271 0 169 -0.138271 1
gene 1 28 28 0.631044 1 170 0.631044 1
gene 1 6 29 0.33958 0 173 0.33958 1
gene 1 5 54 0.74079 0 174 0.74079 1
gene 1 54 26 -0.138254 0 175 -0.138254 1
gene 1 6 33 -0.307457 0 185 -0.307457 0
gene 1 3 26 0.333969 0 192 0.333969 1
gene 1 29 56 -0.317275 1 196 -0.317275 1
gene 1 56 29 0.139473 0 197 0.139473 0
gene 1 28 24 0.388923 0 217 0.388923 1
gene 1 18 28 0.338908 0 246 0.338908 1
gene 1 29 66 -0.348078 0 251 -0.348078 1
gene 1 66 21 0.163078 0 252 0.163078 1
gene 1 4 33 0.857676 0 254 0.857676 1
gene 1 8 28 0.27059 0 266 0.27059 1
gene 1 20 29 0.56113 0 287 0 1
gene 1 6 77 1 0 316 0 1
gene 1 77 33 -0.092237 0 317 0 1
gene 1 3 56 0.773665 0 350 0.773665 1
gene 1 10 33 0.530748 0 360 0.530748 1
gene 1 56 86 1 0 374 1 1
gene 1 86 29 0.0411258 0 375 0 1
genomeend 6716
genomestart 6732
trait 1 0.436151 0.00393121 0.540901 0.0781992 0.526931 0.147856 0.325444 0.388808
node 1 1 1 1 0
node 2 1 1 1 0
node 3 1 1 1 0
node 4 1 1 1 0
node 5 1 1 1 0
node 6 1 1 1 0
node 7 1 1 1 0
node 8 1 1 1 0
node 9 1 1 1 0
node 10 1 1 1 0
node 11 1 1 1 0
node 12 1 1 1 0
node 13 1 1 1 0
node 14 1 1 1 0
node 15 1 1 1 0
node 16 1 1 1 0
node 17 1 1 1 0
node 18 1 1 1 0
node 19 1 1 3 0
node 20 1 0 2 0
node 21 1 0 2 0
node 24 1 0 0 0
node 26 1 0 0 0
node 28 1 0 0 0
node 29 1 0 0 0
node 33 1 0 0 0
node 36 1 0 0 0
node 54 1 0 0 0
node 56 1 0 0 0
node 66 1 0 0 0
node 86 1 0 0 0
gene 1 1 20 0.812737 0 1 0.812737 1
gene 1 2 20 -0.316328 0 2 -0.316328 1
gene 1 3 20 -0.159686 0 3 -0.159686 1
gene 1 4 20 0.591191 0 4 0.591191 1
gene 1 5 20 2.11179 0 5 2.11179 1
gene 1 6 20 -0.593502 0 6 -0.593502 1
gene 1 7 20 0.65368 0 7 0.65368 1
gene 1 8 20 -0.176461 0 8 -0.176461 1
gene 1 9 20 0.807308 0 9 0.807308 1
gene 1 10 20 -0.459177 0 10 -0.459177 1
gene 1 11 20 1.02568 0 11 1.02568 1
gene 1 12 20 -1.39527 0 12 -1.39527 1
gene 1 13 20 0.546692 0 13 0.546692 1
gene 1 14 20 1.0226 0 14 1.0226 1
gene 1 15 20 0.0227716 0 15 0.0227716 1
gene 1 16 20 -0.215924 0 16 -0.215924 1
gene 1 17 20 0.326719 0 17 0.326719 1
gene 1 18 20 -0.0374643 0 18 -0.0374643 1
gene 1 19 20 0.245931 0 19 0.245931 1
gene 1 1 21 -0.0175594 0 20 -0.0175594 1
gene 1 2 21 1.79175 0 21 1.79175 1
gene 1 3 21 -0.549081 0 22 -0.549081 1
gene 1 4 21 -0.456114 0 23 -0.456114 1
gene 1 5 21 -0.750934 0 24 -0.750934 0
gene 1 6 21 -0.383604 0 25 -0.383604 1
gene 1 7 21 0.53622 0 26 0.53622 0
gene 1 8 21 0.487262 0 27 0.487262 1
gene 1 9 21 0.14001 0 28 0.14001 1
gene 1 10 21 0.583358 0 29 0.583358 1
gene 1 11 21 1.33258 0 30 1.33258 1
gene 1 12 21 0.0804918 0 31 0.0804918 1
gene 1 13 21 -0.10514 0 32 -0.10514 1
gene 1 14 21 -0.713514 0 33 -0.713514 1
gene 1 15 21 -0.880845 0 34 -0.880845 1
gene 1 16 21 0.322525 0 35 0.322525 1
gene 1 17 21 0.467915 0 36 0.467915 1
gene 1 18 21 1.56365 0 37 1.56365 1
gene 1 19 21 -1.09237 0 38 -1.09237 1
gene 1 5 24 0.356313 0 49 0.356313 1
gene 1 24 21 -0.983351 0 50 -0.983351 1
gene 1 5 26 -0.150851 0 54 -0.150851 1
gene 1 26 20 0.0807916 0 55 0.0807916 1
gene 1 10 28 -0.725871 0 58 -0.725871 1
gene 1 28 20 -0.262076 0 59 -0.262076 1
gene 1 6 26 -1.5831 0 64 -1.5831 1
gene 1 11 29 0.142869 0 67 0.142869 1
gene 1 29 21 0.605517 0 68 0.605517 0
gene 1 1 33 0.83344 0 76 0.83344 1
gene 1 33 21 -0.897266 0 77 -0.897266 1
gene 1 7 36 1.14222 0 87 1.14222 1
gene 1 36 21 -0.331703 0 88 -0.331703 1
gene 1 7 26 0.638794 0 94 0.638794 1
gene 1 20 20 0.56605 1 95 0.56605 1
gene 1 29 29 0.0436714 1 108 0.0436714 1
gene 1 7 28 -0.901904 0 123 -0.901904 1
gene 1 2 28 0.897135 0 124 0.897135 1
gene 1 17 28 -0.356041 0 135 -0.356041 1
gene 1 4 26 -0.766918 0 150 -0.766918 1
gene 1 13 28 -1.56477 0 152 -1.56477 1
gene 1 16 26 0.754706 0 159 0.754706 1
gene 1 26 29 0.512228 0 169 0.512228 1
gene 1 28 28 0.631044 1 170 0.631044 1
gene 1 6 29 0.33958 0 173 0.33958 1
gene 1 5 54 0.234538 0 174 0.234538 1
gene 1 54 26 -0.201231 0 175 -0.201231 1
gene 1 6 33 0.193457 0 185 0.193457 1
gene 1 3 26 0.308411 0 192 0.308411 1
gene 1 29 56 -0.317275 1 196 -0.317275 1
gene 1 56 29 0.435237 0 197 0.435237 0
gene 1 28 24 0.517492 0 217 0.517492 1
gene 1 18 28 0.211607 0 246 0.211607 1
gene 1 29 66 -0.348078 0 251 -0.348078 1
gene 1 66 21 0.239043 0 252 0.239043 1
gene 1 4 33 1.2625 0 254 1.2625 1
gene 1 8 28 -0.523084 0 266 -0.523084 1
gene 1 3 56 0.647163 0 350 0.647163 1
gene 1 10 33 0.194132 0 360 0.194132 1
gene 1 28 33 -0.220512 0 371 -0.220512 1
gene 1 56 86 1 0 374 1 1
gene 1 86 29 0.0402926 0 375 0.0402926 1
genomeend 6732
genomestart 6733
trait 1 0.436151 0.00393121 0.683471 0.435374 0.312865 0.118235 0.203403 0.388808
node 1 1 1 1 0
node 2 1 1 1 0
node 3 1 1 1 0
node 4 1 1 1 0
node 5 1 1 1 0
node 6 1 1 1 0
node 7 1 1 1 0
node 8 1 1 1 0
node 9 1 1 1 0
node 10 1 1 1 0
node 11 1 1 1 0
node 12 1 1 1 0
node 13 1 1 1 0
node 14 1 1 1 0
node 15 1 1 1 0
node 16 1 1 1 0
node 17 1 1 1 0
node 18 1 1 1 0
node 19 1 1 3 0
node 20 1 0 2 0
node 21 1 0 2 0
node 24 1 0 0 0
node 26 1 0 0 0
node 28 1 0 0 0
node 29 1 0 0 0
node 33 1 0 0 0
node 54 1 0 0 0
node 56 1 0 0 0
node 66 1 0 0 0
node 83 1 0 0 0
gene 1 1 20 0.926597 0 1 0.926597 1
gene 1 2 20 0.0175238 0 2 0.0175238 1
gene 1 3 20 0.994488 0 3 0.994488 1
gene 1 4 20 0.270388 0 4 0.270388 1
gene 1 5 20 0.233206 0 5 0.233206 1
gene 1 6 20 -0.482357 0 6 -0.482357 1
gene 1 7 20 -0.369915 0 7 -0.369915 1
gene 1 8 20 0.621172 0 8 0.621172 1
gene 1 9 20 0.150583 0 9 0.150583 1
gene 1 10 20 0.300063 0 10 0.300063 1
gene 1 11 20 0.405829 0 11 0.405829 1
gene 1 12 20 -0.990963 0 12 -0.990963 1
gene 1 13 20 -0.476994 0 13 -0.476994 1
gene 1 14 20 0.64033 0 14 0.64033 1
gene 1 15 20 -1.67956 0 15 -1.67956 1
gene 1 16 20 -0.178222 0 16 -0.178222 1
gene 1 17 20 0.0877703 0 17 0.0877703 1
gene 1 18 20 -0.537236 0 18 -0.537236 1
gene 1 19 20 0.247631 0 19 0.247631 1
gene 1 1 21 -0.60899 0 20 -0.60899 1
gene 1 2 21 1.05993 0 21 1.05993 1
gene 1 3 21 -1.27464 0 22 -1.27464 1
gene 1 4 21 -0.360363 0 23 -0.360363 1
gene 1 5 21 -0.0735999 0 24 -0.0735999 0
gene 1 6 21 -0.141331 0 25 -0.141331 1
gene 1 7 21 -0.00555241 0 26 -0.00555241 1
gene 1 8 21 0.880168 0 27 0.880168 1
gene 1 9 21 -0.275458 0 28 -0.275458 1
gene 1 10 21 -0.127042 0 29 -0.127042 1
gene 1 11 21 0.279157 0 30 0.279157 1
gene 1 12 21 0.476385 0 31 0.476385 1
gene 1 13 21 0.714 0 32 0.714 1
gene 1 14 21 -0.0820989 0 33 -0.0820989 1
gene 1 15 21 -0.894025 0 34 -0.894025 1
gene 1 16 21 0.348106 0 35 0.348106 1
gene 1 17 21 -0.0303865 0 36 -0.0303865 1
gene 1 18 21 0.621541 0 37 0.621541 1
gene 1 19 21 -0.266101 0 38 -0.266101 1
gene 1 5 24 0.661767 0 49 0.661767 1
gene 1 24 21 0.126731 0 50 0.126731 1
gene 1 5 26 -0.0361357 0 54 -0.0361357 1
gene 1 26 20 0.702955 0 55 0.702955 1
gene 1 10 28 -0.384589 0 58 -0.384589 1
gene 1 28 20 -0.497947 0 59 -0.497947 1
gene 1 6 26 -1.34341 0 64 -1.34341 1
gene 1 11 29 0.393083 0 67 0.393083 1
gene 1 29 21 -0.375942 0 68 -0.375942 0
gene 1 1 33 -0.307142 0 76 -0.307142 1
gene 1 33 21 -0.156719 0 77 -0.156719 1
gene 1 7 26 -0.0220771 0 94 -0.0220771 1
gene 1 20 20 0.496354 1 95 0.496354 1
gene 1 29 29 0.360562 1 108 0.360562 1
gene 1 7 28 -0.5777 0 123 -0.5777 1
gene 1 2 28 -0.44053 0 124 -0.44053 1
gene 1 17 28 1.00507 0 135 1.00507 1
gene 1 4 26 0.348343 0 150 0.348343 1
gene 1 13 28 0.427201 0 152 0.427201 1
gene 1 16 26 -0.115792 0 159 -0.115792 1
gene 1 26 29 0.120902 0 169 0.120902 1
gene 1 28 28 0.221786 1 170 0.221786 1
gene 1 6 29 0.627008 0 173 0.627008 1
gene 1 5 54 0.270314 0 174 0.270314 1
gene 1 54 26 -0.0259372 0 175 -0.0259372 1
gene 1 6 33 -0.0554351 0 185 -0.0554351 1
gene 1 3 26 0.175738 0 192 0.175738 1
gene 1 29 56 0.937792 1 196 0.937792 1
gene 1 56 29 0.0143165 0 197 0.0143165 1
gene 1 28 24 0.231662 0 217 0.231662 1
gene 1 18 28 0.74755 0 246 0.74755 1
gene 1 29 66 0.548137 0 251 0.548137 1
gene 1 66 21 0.0982899 0 252 0.0982899 1
gene 1 4 33 0.483937 0 254 0.483937 1
gene 1 8 28 -0.324354 0 266 -0.324354 1
gene 1 5 66 -0.359131 0 304 0 1
gene 1 14 33 0.25447 0 348 0.25447 1
gene 1 8 83 1.02375 0 353 1.02375 1
gene 1 83 28 0.0754589 0 354 0.0754589 1
genomeend 6733
genomestart 6734
trait 1 0.436151 0.00393121 0.540901 0.0781992 0.526931 0.147856 0.325444 0.388808
node 1 1 1 1 0
node 2 1 1 1 0
node 3 1 1 1 0
node 4 1 1 1 0
node 5 1 1 1 0
node 6 1 1 1 0
node 7 1 1 1 0
node 8 1 1 1 0
node 9 1 1 1 0
node 10 1 1 1 0
node 11 1 1 1 0
node 12 1 1 1 0
node 13 1 1 1 0
node 14 1 1 1 0
node 15 1 1 1 0
node 16 1 1 1 0
node 17 1 1 1 0
node 18 1 1 1 0
node 19 1 1 3 0
node 20 1 0 2 0
node 21 1 0 2 0
node 24 1 0 0 0
node 26 1 0 0 0
node 28 1 0 0 0
node 29 1 0 0 0
node 33 1 0 0 0
node 36 1 0 0 0
node 54 1 0 0 0
node 56 1 0 0 0
node 66 1 0 0 0
node 74 1 0 0 0
node 86 1 0 0 0
gene 1 1 20 1.77135 0 1 1.77135 1
gene 1 2 20 -0.316328 0 2 -0.316328 1
gene 1 3 20 0.183759 0 3 0.183759 1
gene 1 4 20 0.878506 0 4 0.878506 1
gene 1 5 20 1.63875 0 5 1.63875 1
gene 1 6 20 -0.593502 0 6 -0.593502 1
gene 1 7 20 0.802319 0 7 0.802319 1
gene 1 8 20 0.218754 0 8 0.218754 1
gene 1 9 20 0.807308 0 9 0.807308 1
gene 1 10 20 -0.459177 0 10 -0.459177 1
gene 1 11 20 1.02568 0 11 1.02568 1
gene 1 12 20 -1.22823 0 12 -1.22823 1
gene 1 13 20 0.208418 0 13 0.208418 1
gene 1 14 20 1.0226 0 14 1.0226 1
gene 1 15 20 0.0227716 0 15 0.0227716 1
gene 1 16 20 -0.215924 0 16 -0.215924 1
gene 1 17 20 0.2718 0 17 0.2718 1
gene 1 18 20 -0.956168 0 18 -0.956168 1
gene 1 19 20 0.284999 0 19 0.284999 1
gene 1 1 21 -0.0830828 0 20 -0.0830828 1
gene 1 2 21 1.51709 0 21 1.51709 1
gene 1 3 21 0.200031 0 22 0.200031 1
gene 1 4 21 -0.31072 0 23 -0.31072 1
gene 1 5 21 -0.618794 0 24 -0.618794 0
gene 1 6 21 -0.196232 0 25 -0.196232 1
gene 1 7 21 -0.813608 0 26 -0.813608 0
gene 1 8 21 0.451898 0 27 0.451898 1
gene 1 9 21 0.174423 0 28 0.174423 1
gene 1 10 21 0.131353 0 29 0.131353 1
gene 1 11 21 1.21218 0 30 1.21218 1
gene 1 12 21 0.0804918 0 31 0.0804918 1
gene 1 13 21 0.170288 0 32 0.170288 1
gene 1 14 21 -0.726867 0 33 -0.726867 1
gene 1 15 21 -1.37751 0 34 -1.37751 1
gene 1 16 21 -0.0730514 0 35 -0.0730514 1
gene 1 17 21 -0.348278 0 36 -0.348278 1
gene 1 18 21 0.658324 0 37 0.658324 1
gene 1 19 21 0.0741329 0 38 0.0741329 1
gene 1 5 24 0.801482 0 49 0.801482 1
gene 1 24 21 -0.529652 0 50 -0.529652 1
gene 1 5 26 -0.330581 0 54 -0.330581 1
gene 1 26 20 0.0807916 0 55 0.0807916 1
gene 1 10 28 -0.49106 0 58 -0.49106 1
gene 1 28 20 -0.261224 0 59 -0.261224 1
gene 1 6 26 -2.16734 0 64 -2.16734 1
gene 1 11 29 1.02135 0 67 1.02135 1
gene 1 29 21 0.347876 0 68 0.347876 0
gene 1 1 33 0.83344 0 76 0.83344 1
gene 1 33 21 -0.884368 0 77 -0.884368 1
gene 1 7 36 1.19793 0 87 1.19793 1
gene 1 36 21 0.0986556 0 88 0.0986556 1
gene 1 7 26 0.638794 0 94 0.638794 1
gene 1 20 20 0.628839 1 95 0.628839 1
gene 1 29 29 -0.155158 1 108 -0.155158 1
gene 1 7 28 -0.593599 0 123 -0.593599 1
gene 1 2 28 0.519261 0 124 0.519261 0
gene 1 17 28 0.65367 0 135 0.65367 1
gene 1 4 26 -0.766918 0 150 -0.766918 1
gene 1 13 28 -0.654686 0 152 -0.654686 1
gene 1 16 26 -0.0515125 0 159 -0.0515125 1
gene 1 26 29 0.512228 0 169 0.512228 1
gene 1 28 28 0.676882 1 170 0.676882 1
gene 1 6 29 -0.319766 0 173 -0.319766 1
gene 1 5 54 0.234538 0 174 0.234538 1
gene 1 54 26 -0.451618 0 175 -0.451618 1
gene 1 6 33 -0.0130484 0 185 -0.0130484 1
gene 1 3 26 0.308411 0 192 0.308411 1
gene 1 29 56 -0.386518 1 196 -0.386518 1
gene 1 56 29 0.435237 0 197 0.435237 0
gene 1 28 24 0.517492 0 217 0.517492 1
gene 1 18 28 0.432524 0 246 0.432524 1
gene 1 29 66 0.149555 0 251 0.149555 1
gene 1 66 21 -0.0206443 0 252 -0.0206443 1
gene 1 4 33 0.820682 0 254 0.820682 1
gene 1 8 28 -0.0665151 0 266 -0.0665151 1
gene 1 2 74 1 0 300 0 1
gene 1 74 28 0.155778 0 301 0 1
gene 1 3 56 -0.218174 0 350 -0.218174 1
gene 1 10 33 0.729891 0 360 0.729891 1
gene 1 28 33 -0.220512 0 371 -0.220512 1
gene 1 56 86 1.34276 0 374 1.34276 1
gene 1 86 29 0.0402926 0 375 0.0402926 1
genomeend 6734
genomestart 6741
trait 1 0.369452 0.00786242 0.395999 0.0781992 0.14581 0.644056 0.0841713 0.365974
node 1 1 1 1 0
node 2 1 1 1 0
node 3 1 1 1 0
node 4 1 1 1 0
node 5 1 1 1 0
node 6 1 1 1 0
node 7 1 1 1 0
node 8 1 1 1 0
node 9 1 1 1 0
node 10 1 1 1 0
node 11 1 1 1 0
node 12 1 1 1 0
node 13 1 1 1 0
node 14 1 1 1 0
node 15 1 1 1 0
node 16 1 1 1 0
node 17 1 1 1 0
node 18 1 1 1 0
node 19 1 1 3 0
node 20 1 0 2 0
node 21 1 0 2 0
node 24 1 0 0 0
node 25 1 0 0 0
node 26 1 0 0 0
node 28 1 0 0 0
node 29 1 0 0 0
node 33 1 0 0 0
node 54 1 0 0 0
node 56 1 0 0 0
gene 1 1 20 1.82281 0 1 1.82281 1
gene 1 2 20 0.0122989 0 2 0.0122989 1
gene 1 3 20 0.814453 0 3 0.814453 1
gene 1 4 20 0.315958 0 4 0.315958 1
gene 1 5 20 0.551622 0 5 0.551622 1
gene 1 6 20 0.58716 0 6 0.58716 1
gene 1 7 20 0.14326 0 7 0.14326 1
gene 1 8 20 -0.0812615 0 8 -0.0812615 1
gene 1 9 20 0.627964 0 9 0.627964 1
gene 1 10 20 0.1161 0 10 0.1161 0
gene 1 11 20 0.846557 0 11 0.846557 1
gene 1 12 20 -0.990215 0 12 -0.990215 1
gene 1 13 20 -1.33736 0 13 -1.33736 1
gene 1 14 20 0.66995 0 14 0.66995 1
gene 1 15 20 -1.48339 0 15 -1.48339 1
gene 1 16 20 -0.397492 0 16 -0.397492 1
gene 1 17 20 -0.725528 0 17 -0.725528 1
gene 1 18 20 -1.65693 0 18 -1.65693 1
gene 1 19 20 0.0987965 0 19 0.0987965 1
gene 1 1 21 -0.202584 0 20 -0.202584 1
gene 1 2 21 1.04404 0 21 1.04404 1
gene 1 3 21 -0.171088 0 22 -0.171088 1
gene 1 4 21 -1.06021 0 23 -1.06021 1
gene 1 5 21 -0.267842 0 24 -0.267842 0
gene 1 6 21 -0.360644 0 25 -0.360644 1
gene 1 7 21 0.467325 0 26 0.467325 1
gene 1 8 21 -0.352079 0 27 -0.352079 1
gene 1 9 21 -0.171308 0 28 -0.171308 1
gene 1 10 21 0.0308849 0 29 0.0308849 1
gene 1 11 21 0.0794681 0 30 0.0794681 1
gene 1 12 21 0.752655 0 31 0.752655 1
gene 1 13 21 -0.267289 0 32 -0.267289 1
gene 1 14 21 0.542813 0 33 0.542813 1
gene 1 15 21 -0.83359 0 34 -0.83359 1
gene 1 16 21 -0.463709 0 35 -0.463709 0
gene 1 17 21 0.571058 0 36 0.571058 1
gene 1 18 21 0.674837 0 37 0.674837 1
gene 1 19 21 -0.00402426 0 38 -0.00402426 1
gene 1 5 24 0.309574 0 49 0.309574 1
gene 1 24 21 0.360711 0 50 0.360711 1
gene 1 16 25 1 0 51 0 1
gene 1 25 21 0.0661917 0 52 0.135748 1
gene 1 5 26 0.288443 0 54 0.288443 1
gene 1 26 20 -0.0186654 0 55 -0.0186654 1
gene 1 10 28 -0.564157 0 58 -0.564157 1
gene 1 28 20 -0.0631855 0 59 -0.0631855 1
gene 1 6 26 -2.02601 0 64 -2.02601 1
gene 1 11 29 -0.532814 0 67 -0.532814 1
gene 1 29 21 -0.0141679 0 68 -0.0141679 1
gene 1 1 33 -0.755166 0 76 -0.755166 1
gene 1 33 21 -0.924016 0 77 -0.924016 1
gene 1 3 28 0.7649 0 82 0.7649 1
gene 1 7 26 1.30576 0 94 1.30576 1
gene 1 20 20 1.11458 1 95 1.11458 1
gene 1 29 29 -0.574842 1 108 -0.574842 1
gene 1 7 28 -1.40271 0 123 -1.40271 1
gene 1 2 28 -0.600481 0 124 -0.600481 1
gene 1 17 28 1.19563 0 135 1.19563 1
