genomestart 120
trait 1 0 0.624753 0 0.236051 0 0.0871852 0 0 
node 1 1 1 1 0
node 2 1 1 1 0
node 3 1 1 1 0
node 4 1 1 1 0
node 5 1 1 1 0
node 6 1 1 1 0
node 7 1 1 1 0
node 8 1 1 1 0
node 9 1 1 1 0
node 10 1 1 1 0
node 11 1 1 1 0
node 12 1 1 1 0
node 13 1 1 3 0
node 14 1 0 2 0
node 15 1 0 2 0
gene 1 1 14 1.23329 0 1 1.23329 1
gene 1 2 14 -0.187476 0 2 -0.187476 1
gene 1 3 14 -0.310261 0 3 -0.310261 1
gene 1 4 14 -0.374321 0 4 -0.374321 1
gene 1 5 14 1.15627 0 5 1.15627 1
gene 1 6 14 0.662757 0 6 0.662757 1
gene 1 7 14 -0.0203747 0 7 -0.0203747 1
gene 1 8 14 0.774717 0 8 0.774717 1
gene 1 9 14 0.162231 0 9 0.162231 1
gene 1 10 14 -0.83949 0 10 -0.83949 1
gene 1 11 14 -0.100255 0 11 -0.100255 1
gene 1 12 14 -0.093326 0 12 -0.093326 1
gene 1 13 14 0.158061 0 13 0.158061 1
gene 1 1 15 0.473358 0 14 0.473358 1
gene 1 2 15 -0.72227 0 15 -0.72227 1
gene 1 3 15 0.386554 0 16 0.386554 1
gene 1 4 15 -0.330264 0 17 -0.330264 1
gene 1 5 15 1.84231 0 18 1.84231 1
gene 1 6 15 0.443334 0 19 0.443334 1
gene 1 7 15 0.00244831 0 20 0.00244831 1
gene 1 8 15 0.806985 0 21 0.806985 1
gene 1 9 15 -0.800437 0 22 -0.800437 1
gene 1 10 15 -0.285447 0 23 -0.285447 1
gene 1 11 15 -0.0200627 0 24 -0.0200627 1
gene 1 12 15 -0.0780165 0 25 -0.0780165 1
gene 1 13 15 -0.0510073 0 26 -0.0510073 1
genomeend 120
genomestart 121
trait 1 0 0.249506 0 0.236051 0 0 0 0 
node 1 1 1 1 0
node 2 1 1 1 0
node 3 1 1 1 0
node 4 1 1 1 0
node 5 1 1 1 0
node 6 1 1 1 0
node 7 1 1 1 0
node 8 1 1 1 0
node 9 1 1 1 0
node 10 1 1 1 0
node 11 1 1 1 0
node 12 1 1 1 0
node 13 1 1 3 0
node 14 1 0 2 0
node 15 1 0 2 0
gene 1 1 14 1.18072 0 1 1.18072 1
gene 1 2 14 0.629832 0 2 0.629832 1
gene 1 3 14 -0.489823 0 3 -0.489823 1
gene 1 4 14 0.987235 0 4 0.987235 1
gene 1 5 14 0.977193 0 5 0.977193 1
gene 1 6 14 0.504513 0 6 0.504513 1
gene 1 7 14 -0.111327 0 7 -0.111327 1
gene 1 8 14 0.151446 0 8 0.151446 1
gene 1 9 14 0.095603 0 9 0.095603 1
gene 1 10 14 -0.171957 0 10 -0.171957 1
gene 1 11 14 0.0651748 0 11 0.0651748 1
gene 1 12 14 0.390682 0 12 0.390682 1
gene 1 13 14 0.0438694 0 13 0.0438694 1
gene 1 1 15 -0.229946 0 14 -0.229946 1
gene 1 2 15 -0.186529 0 15 -0.186529 1
gene 1 3 15 0.446161 0 16 0.446161 1
gene 1 4 15 -0.16695 0 17 -0.16695 1
gene 1 5 15 2.12997 0 18 2.12997 1
gene 1 6 15 1.62586 0 19 1.62586 1
gene 1 7 15 0.409159 0 20 0.409159 1
gene 1 8 15 0.230452 0 21 0.230452 1
gene 1 9 15 -0.321213 0 22 -0.321213 1
gene 1 10 15 -0.855858 0 23 -0.855858 1
gene 1 11 15 0.342017 0 24 0.342017 1
gene 1 12 15 0.0127425 0 25 0.0127425 1
gene 1 13 15 0.253442 0 26 0.253442 1
genomeend 121
genomestart 122
trait 1 0.163818 0.187129 0 0.177038 0 0.0447289 0 0 
node 1 1 1 1 0
node 2 1 1 1 0
node 3 1 1 1 0
node 4 1 1 1 0
node 5 1 1 1 0
node 6 1 1 1 0
node 7 1 1 1 0
node 8 1 1 1 0
node 9 1 1 1 0
node 10 1 1 1 0
node 11 1 1 1 0
node 12 1 1 1 0
node 13 1 1 3 0
node 14 1 0 2 0
node 15 1 0 2 0
node 16 1 0 0 0
gene 1 1 14 1.71856 0 1 1.71856 1
gene 1 2 14 0.18327 0 2 0.18327 1
gene 1 3 14 -0.244377 0 3 -0.244377 1
gene 1 4 14 0.255115 0 4 0.255115 1
gene 1 5 14 0.646836 0 5 0.646836 1
gene 1 6 14 0.620653 0 6 0.620653 1
gene 1 7 14 0.426125 0 7 0.426125 1
gene 1 8 14 0.205861 0 8 0.205861 1
gene 1 9 14 0.220946 0 9 0.220946 1
gene 1 10 14 -1.11981 0 10 -1.11981 1
gene 1 11 14 -0.382155 0 11 -0.382155 1
gene 1 12 14 -0.166349 0 12 -0.166349 1
gene 1 13 14 -0.573764 0 13 -0.573764 1
gene 1 1 15 -0.197329 0 14 -0.197329 1
gene 1 2 15 -0.0607673 0 15 -0.0607673 1
gene 1 3 15 -0.0808915 0 16 -0.0808915 1
gene 1 4 15 -0.622827 0 17 -0.622827 1
gene 1 5 15 1.54519 0 18 1.54519 1
gene 1 6 15 0.653441 0 19 0.653441 1
gene 1 7 15 -0.203491 0 20 -0.203491 1
gene 1 8 15 0.193835 0 21 0.193835 1
gene 1 9 15 -0.815225 0 22 -0.815225 1
gene 1 10 15 -0.462561 0 23 -0.462561 0
gene 1 11 15 0.38255 0 24 0.38255 1
gene 1 12 15 -0.0420233 0 25 -0.0420233 1
gene 1 13 15 0.0119081 0 26 0.0119081 1
gene 1 10 16 1 0 27 0 1
gene 1 16 15 -0.138768 0 28 0 1
genomeend 122
genomestart 123
trait 1 0.327636 0.0311882 0 0.0295063 0 0.0894577 0 0 
node 1 1 1 1 0
node 2 1 1 1 0
node 3 1 1 1 0
node 4 1 1 1 0
node 5 1 1 1 0
node 6 1 1 1 0
node 7 1 1 1 0
node 8 1 1 1 0
node 9 1 1 1 0
node 10 1 1 1 0
node 11 1 1 1 0
node 12 1 1 1 0
node 13 1 1 3 0
node 14 1 0 2 0
node 15 1 0 2 0
gene 1 1 14 1.03193 0 1 1.03193 1
gene 1 2 14 0.993329 0 2 0.993329 1
gene 1 3 14 1.11514 0 3 1.11514 1
gene 1 4 14 0.690973 0 4 0.690973 1
gene 1 5 14 1.49737 0 5 1.49737 1
gene 1 6 14 0.283704 0 6 0.283704 1
gene 1 7 14 0.567791 0 7 0.567791 1
gene 1 8 14 -0.544566 0 8 -0.544566 1
gene 1 9 14 0.703599 0 9 0.703599 1
gene 1 10 14 -1.27626 0 10 -1.27626 1
gene 1 11 14 1.44767 0 11 1.44767 1
gene 1 12 14 -1.23287 0 12 -1.23287 1
gene 1 13 14 -0.964977 0 13 -0.964977 1
gene 1 1 15 -0.741862 0 14 -0.741862 1
gene 1 2 15 0.302486 0 15 0.302486 1
gene 1 3 15 -0.279605 0 16 -0.279605 1
gene 1 4 15 0.0232698 0 17 0.0232698 1
gene 1 5 15 0.955993 0 18 0.955993 1
gene 1 6 15 0.997859 0 19 0.997859 1
gene 1 7 15 0.838492 0 20 0.838492 1
gene 1 8 15 -0.0153627 0 21 -0.0153627 1
gene 1 9 15 -1.28171 0 22 -1.28171 1
gene 1 10 15 -0.452561 0 23 -0.452561 1
gene 1 11 15 -0.226913 0 24 -0.226913 1
gene 1 12 15 0.516679 0 25 0.516679 1
gene 1 13 15 -0.0954698 0 26 -0.0954698 1
genomeend 123
genomestart 124
trait 1 0.327636 0.5 0 0.118025 0 0.176643 0 0 
node 1 1 1 1 0
node 2 1 1 1 0
node 3 1 1 1 0
node 4 1 1 1 0
node 5 1 1 1 0
node 6 1 1 1 0
node 7 1 1 1 0
node 8 1 1 1 0
node 9 1 1 1 0
node 10 1 1 1 0
node 11 1 1 1 0
node 12 1 1 1 0
node 13 1 1 3 0
node 14 1 0 2 0
node 15 1 0 2 0
gene 1 1 14 0.79198 0 1 0.79198 1
gene 1 2 14 0.698897 0 2 0.698897 1
gene 1 3 14 1.04749 0 3 1.04749 1
gene 1 4 14 0.021762 0 4 0.021762 1
gene 1 5 14 1.30652 0 5 1.30652 1
gene 1 6 14 0.994201 0 6 0.994201 1
gene 1 7 14 0.534267 0 7 0.534267 1
gene 1 8 14 0.733085 0 8 0.733085 1
gene 1 9 14 -0.1774 0 9 -0.1774 1
gene 1 10 14 0.260096 0 10 0.260096 1
gene 1 11 14 -0.22106 0 11 -0.22106 1
gene 1 12 14 -1.02779 0 12 -1.02779 1
gene 1 13 14 0.060543 0 13 0.060543 1
gene 1 1 15 0.0440347 0 14 0.0440347 1
gene 1 2 15 -0.473867 0 15 -0.473867 1
gene 1 3 15 0.0338683 0 16 0.0338683 1
gene 1 4 15 -0.766799 0 17 -0.766799 1
gene 1 5 15 2.13015 0 18 2.13015 1
gene 1 6 15 0.341765 0 19 0.341765 1
gene 1 7 15 -0.75312 0 20 -0.75312 1
gene 1 8 15 -0.287969 0 21 -0.287969 1
gene 1 9 15 -0.337112 0 22 -0.337112 1
gene 1 10 15 -0.197142 0 23 -0.197142 1
gene 1 11 15 -0.396051 0 24 -0.396051 1
gene 1 12 15 0.195295 0 25 0.195295 1
gene 1 13 15 -0.343473 0 26 -0.343473 1
genomeend 124
genomestart 125
trait 1 0.297717 0.75 0 0.177038 0 0.154278 0.0154602 0 
node 1 1 1 1 0
node 2 1 1 1 0
node 3 1 1 1 0
node 4 1 1 1 0
node 5 1 1 1 0
node 6 1 1 1 0
node 7 1 1 1 0
node 8 1 1 1 0
node 9 1 1 1 0
node 10 1 1 1 0
node 11 1 1 1 0
node 12 1 1 1 0
node 13 1 1 3 0
node 14 1 0 2 0
node 15 1 0 2 0
gene 1 1 14 1.4182 0 1 1.4182 1
gene 1 2 14 0.542055 0 2 0.542055 1
gene 1 3 14 0.695772 0 3 0.695772 1
gene 1 4 14 -0.274868 0 4 -0.274868 1
gene 1 5 14 1.0378 0 5 1.0378 1
gene 1 6 14 0.778104 0 6 0.778104 1
gene 1 7 14 0.552271 0 7 0.552271 1
gene 1 8 14 0.560627 0 8 0.560627 1
gene 1 9 14 -0.0131869 0 9 -0.0131869 1
gene 1 10 14 -1.23307 0 10 -1.23307 1
gene 1 11 14 0.350029 0 11 0.350029 1
gene 1 12 14 0.313665 0 12 0.313665 1
gene 1 13 14 0.280746 0 13 0.280746 1
gene 1 1 15 -0.4883 0 14 -0.4883 1
gene 1 2 15 -0.235317 0 15 -0.235317 1
gene 1 3 15 -0.315095 0 16 -0.315095 1
gene 1 4 15 -0.257823 0 17 -0.257823 1
gene 1 5 15 1.46327 0 18 1.46327 1
gene 1 6 15 0.903107 0 19 0.903107 1
gene 1 7 15 0.658913 0 20 0.658913 1
gene 1 8 15 0.273247 0 21 0.273247 1
gene 1 9 15 -0.650744 0 22 -0.650744 1
gene 1 10 15 -0.254101 0 23 -0.254101 1
gene 1 11 15 0.0357114 0 24 0.0357114 1
gene 1 12 15 -0.0319082 0 25 -0.0319082 1
gene 1 13 15 -0.334034 0 26 -0.334034 1
gene 1 14 14 -0.471007 1 29 -0.471007 1
genomeend 125
genomestart 126
trait 1 0 0.249506 0 0.236051 0 0 0 0 
node 1 1 1 1 0
node 2 1 1 1 0
node 3 1 1 1 0
node 4 1 1 1 0
node 5 1 1 1 0
node 6 1 1 1 0
node 7 1 1 1 0
node 8 1 1 1 0
node 9 1 1 1 0
node 10 1 1 1 0
node 11 1 1 1 0
node 12 1 1 1 0
node 13 1 1 3 0
node 14 1 0 2 0
node 15 1 0 2 0
gene 1 1 14 1.29607 0 1 1.29607 1
gene 1 2 14 -0.215758 0 2 -0.215758 1
gene 1 3 14 -0.434108 0 3 -0.434108 1
gene 1 4 14 0.0841974 0 4 0.0841974 1
gene 1 5 14 0.702886 0 5 0.702886 1
gene 1 6 14 0.185048 0 6 0.185048 1
gene 1 7 14 -0.188995 0 7 -0.188995 1
gene 1 8 14 0.934386 0 8 0.934386 1
gene 1 9 14 1.20483 0 9 1.20483 1
gene 1 10 14 -1.45534 0 10 -1.45534 1
gene 1 11 14 0.303524 0 11 0.303524 1
gene 1 12 14 0.155564 0 12 0.155564 1
gene 1 13 14 -0.0970716 0 13 -0.0970716 1
gene 1 1 15 0.454193 0 14 0.454193 1
gene 1 2 15 -0.306348 0 15 -0.306348 1
gene 1 3 15 0.486305 0 16 0.486305 1
gene 1 4 15 -0.480018 0 17 -0.480018 1
gene 1 5 15 1.23506 0 18 1.23506 1
gene 1 6 15 -0.383346 0 19 -0.383346 1
gene 1 7 15 -0.576456 0 20 -0.576456 1
gene 1 8 15 -0.131665 0 21 -0.131665 1
gene 1 9 15 0.0643191 0 22 0.0643191 1
gene 1 10 15 0.334683 0 23 0.334683 1
gene 1 11 15 0.265485 0 24 0.265485 1
gene 1 12 15 -0.839181 0 25 -0.839181 1
gene 1 13 15 0.259245 0 26 0.259245 1
genomeend 126
genomestart 127
trait 1 0.461534 0.5 0 0.118025 0 0.155415 0.0154602 0 
node 1 1 1 1 0
node 2 1 1 1 0
node 3 1 1 1 0
node 4 1 1 1 0
node 5 1 1 1 0
node 6 1 1 1 0
node 7 1 1 1 0
node 8 1 1 1 0
node 9 1 1 1 0
node 10 1 1 1 0
node 11 1 1 1 0
node 12 1 1 1 0
node 13 1 1 3 0
node 14 1 0 2 0
node 15 1 0 2 0
gene 1 1 14 1.47879 0 1 1.47879 1
gene 1 2 14 0.737066 0 2 0.737066 1
gene 1 3 14 0.366902 0 3 0.366902 1
gene 1 4 14 -0.455283 0 4 -0.455283 1
gene 1 5 14 0.809115 0 5 0.809115 1
gene 1 6 14 0.225347 0 6 0.225347 1
gene 1 7 14 0.364864 0 7 0.364864 1
gene 1 8 14 0.576343 0 8 0.576343 1
gene 1 9 14 -0.148334 0 9 -0.148334 1
gene 1 10 14 -0.740922 0 10 -0.740922 1
gene 1 11 14 0.209107 0 11 0.209107 1
gene 1 12 14 0.226429 0 12 0.226429 1
gene 1 13 14 -0.101771 0 13 -0.101771 1
gene 1 1 15 -0.953013 0 14 -0.953013 1
gene 1 2 15 -0.561463 0 15 -0.561463 1
gene 1 3 15 0.0219983 0 16 0.0219983 1
gene 1 4 15 0.0900636 0 17 0.0900636 1
gene 1 5 15 1.31249 0 18 1.31249 1
gene 1 6 15 0.634326 0 19 0.634326 1
gene 1 7 15 0.954159 0 20 0.954159 1
gene 1 8 15 0.491517 0 21 0.491517 1
gene 1 9 15 -0.560741 0 22 -0.560741 1
gene 1 10 15 -0.0531368 0 23 -0.0531368 1
gene 1 11 15 -0.216988 0 24 -0.216988 1
gene 1 12 15 -0.106129 0 25 -0.106129 1
gene 1 13 15 -0.000781322 0 26 -0.000781322 1
genomeend 127
genomestart 128
trait 1 0.409545 0 0 0 0 0.111822 0 0 
node 1 1 1 1 0
node 2 1 1 1 0
node 3 1 1 1 0
node 4 1 1 1 0
node 5 1 1 1 0
node 6 1 1 1 0
node 7 1 1 1 0
node 8 1 1 1 0
node 9 1 1 1 0
node 10 1 1 1 0
node 11 1 1 1 0
node 12 1 1 1 0
node 13 1 1 3 0
node 14 1 0 2 0
node 15 1 0 2 0
gene 1 1 14 1.31842 0 1 1.31842 1
gene 1 2 14 0.34069 0 2 0.34069 1
gene 1 3 14 1.23025 0 3 1.23025 1
gene 1 4 14 0.124334 0 4 0.124334 1
gene 1 5 14 1.10331 0 5 1.10331 1
gene 1 6 14 0.00517202 0 6 0.00517202 1
gene 1 7 14 0.203161 0 7 0.203161 1
gene 1 8 14 0.0395213 0 8 0.0395213 1
gene 1 9 14 0.514022 0 9 0.514022 1
gene 1 10 14 -0.445563 0 10 -0.445563 1
gene 1 11 14 0.641281 0 11 0.641281 1
gene 1 12 14 0.0486917 0 12 0.0486917 1
gene 1 13 14 -0.133582 0 13 -0.133582 1
gene 1 1 15 -0.737999 0 14 -0.737999 1
gene 1 2 15 -0.52297 0 15 -0.52297 1
gene 1 3 15 -0.55615 0 16 -0.55615 1
gene 1 4 15 0.633984 0 17 0.633984 1
gene 1 5 15 1.09568 0 18 1.09568 1
gene 1 6 15 0.57457 0 19 0.57457 1
gene 1 7 15 0.966658 0 20 0.966658 1
gene 1 8 15 0.352156 0 21 0.352156 1
gene 1 9 15 -0.178237 0 22 -0.178237 1
gene 1 10 15 -0.350155 0 23 -0.350155 1
gene 1 11 15 0.0184739 0 24 0.0184739 1
gene 1 12 15 0.595528 0 25 0.595528 1
gene 1 13 15 -0.420718 0 26 -0.420718 1
genomeend 128
genomestart 129
trait 1 0.163818 0.562376 0 0.177038 0 0.131914 0 0 
node 1 1 1 1 0
node 2 1 1 1 0
node 3 1 1 1 0
node 4 1 1 1 0
node 5 1 1 1 0
node 6 1 1 1 0
node 7 1 1 1 0
node 8 1 1 1 0
node 9 1 1 1 0
node 10 1 1 1 0
node 11 1 1 1 0
node 12 1 1 1 0
node 13 1 1 3 0
node 14 1 0 2 0
node 15 1 0 2 0
node 17 1 0 0 0
gene 1 1 14 1.30499 0 1 1.30499 0
gene 1 2 14 0.0966896 0 2 0.0966896 1
gene 1 3 14 -0.276462 0 3 -0.276462 1
gene 1 4 14 -0.405253 0 4 -0.405253 1
gene 1 5 14 0.894058 0 5 0.894058 1
gene 1 6 14 0.334553 0 6 0.334553 1
gene 1 7 14 0.15216 0 7 0.15216 1
gene 1 8 14 0.603659 0 8 0.603659 1
gene 1 9 14 -0.0934692 0 9 -0.0934692 1
gene 1 10 14 -0.72352 0 10 -0.72352 1
gene 1 11 14 -0.22498 0 11 -0.22498 1
gene 1 12 14 -0.131507 0 12 -0.131507 1
gene 1 13 14 0.00216338 0 13 0.00216338 1
gene 1 1 15 -0.104492 0 14 -0.104492 1
gene 1 2 15 -0.561603 0 15 -0.561603 1
gene 1 3 15 0.324334 0 16 0.324334 1
gene 1 4 15 -0.303185 0 17 -0.303185 1
gene 1 5 15 1.36656 0 18 1.36656 1
gene 1 6 15 0.550538 0 19 0.550538 1
gene 1 7 15 0.242554 0 20 0.242554 1
gene 1 8 15 0.62724 0 21 0.62724 1
gene 1 9 15 -0.641875 0 22 -0.641875 1
gene 1 10 15 -0.262684 0 23 -0.262684 1
gene 1 11 15 -0.214334 0 24 -0.214334 1
gene 1 12 15 -0.361904 0 25 -0.361904 1
gene 1 13 15 0.14338 0 26 0.14338 1
gene 1 1 17 1 0 30 0 1
gene 1 17 14 0.391498 0 31 0 1
genomeend 129
genomestart 130
trait 1 0.327636 0.124753 0 0.118025 0 0.0894577 0 0 
node 1 1 1 1 0
node 2 1 1 1 0
node 3 1 1 1 0
node 4 1 1 1 0
node 5 1 1 1 0
node 6 1 1 1 0
node 7 1 1 1 0
node 8 1 1 1 0
node 9 1 1 1 0
node 10 1 1 1 0
node 11 1 1 1 0
node 12 1 1 1 0
node 13 1 1 3 0
node 14 1 0 2 0
node 15 1 0 2 0
gene 1 1 14 1.47516 0 1 1.47516 1
gene 1 2 14 0.532444 0 2 0.532444 1
gene 1 3 14 0.688378 0 3 0.688378 1
gene 1 4 14 -0.832063 0 4 -0.832063 1
gene 1 5 14 0.0806646 0 5 0.0806646 1
gene 1 6 14 0.721931 0 6 0.721931 1
gene 1 7 14 0.641473 0 7 0.641473 1
gene 1 8 14 -0.0392119 0 8 -0.0392119 1
gene 1 9 14 0.653928 0 9 0.653928 1
gene 1 10 14 -0.654965 0 10 -0.654965 1
gene 1 11 14 0.861058 0 11 0.861058 1
gene 1 12 14 -0.416013 0 12 -0.416013 1
gene 1 13 14 -0.47736 0 13 -0.47736 1
gene 1 1 15 -0.0095527 0 14 -0.0095527 1
gene 1 2 15 -0.0531187 0 15 -0.0531187 1
gene 1 3 15 -0.390121 0 16 -0.390121 1
gene 1 4 15 0.350963 0 17 0.350963 1
gene 1 5 15 0.667093 0 18 0.667093 1
gene 1 6 15 0.416184 0 19 0.416184 1
gene 1 7 15 1.13552 0 20 1.13552 1
gene 1 8 15 0.495762 0 21 0.495762 1
gene 1 9 15 -0.426134 0 22 -0.426134 1
gene 1 10 15 0.000894559 0 23 0.000894559 1
gene 1 11 15 -0.208624 0 24 -0.208624 1
gene 1 12 15 0.632343 0 25 0.632343 1
gene 1 13 15 -0.343429 0 26 -0.343429 1
genomeend 130
genomestart 131
trait 1 0 0.249506 0 0.236051 0 0 0 0 
node 1 1 1 1 0
node 2 1 1 1 0
node 3 1 1 1 0
node 4 1 1 1 0
node 5 1 1 1 0
node 6 1 1 1 0
node 7 1 1 1 0
node 8 1 1 1 0
node 9 1 1 1 0
node 10 1 1 1 0
node 11 1 1 1 0
node 12 1 1 1 0
node 13 1 1 3 0
node 14 1 0 2 0
node 15 1 0 2 0
gene 1 1 14 1.68444 0 1 1.68444 1
gene 1 2 14 -0.318758 0 2 -0.318758 1
gene 1 3 14 0.214458 0 3 0.214458 1
gene 1 4 14 0.473969 0 4 0.473969 1
gene 1 5 14 0.735294 0 5 0.735294 1
gene 1 6 14 0.949062 0 6 0.949062 1
gene 1 7 14 0.266686 0 7 0.266686 1
gene 1 8 14 0.915338 0 8 0.915338 1
gene 1 9 14 0.828068 0 9 0.828068 1
gene 1 10 14 -0.836796 0 10 -0.836796 1
gene 1 11 14 0.168988 0 11 0.168988 1
gene 1 12 14 -0.720974 0 12 -0.720974 1
gene 1 13 14 0.370072 0 13 0.370072 1
gene 1 1 15 0.441315 0 14 0.441315 1
gene 1 2 15 0.0684092 0 15 0.0684092 1
gene 1 3 15 -0.514256 0 16 -0.514256 1
gene 1 4 15 -0.522968 0 17 -0.522968 1
gene 1 5 15 1.25774 0 18 1.25774 1
gene 1 6 15 1.18785 0 19 1.18785 1
gene 1 7 15 0.0825501 0 20 0.0825501 1
gene 1 8 15 -0.078911 0 21 -0.078911 1
gene 1 9 15 -0.103323 0 22 -0.103323 1
gene 1 10 15 -0.446646 0 23 -0.446646 1
gene 1 11 15 0.435705 0 24 0.435705 1
gene 1 12 15 -0.234166 0 25 -0.234166 1
gene 1 13 15 -0.525612 0 26 -0.525612 1
genomeend 131
genomestart 132
trait 1 0 0.437129 0 0.236051 0 0.0435926 0 0 
node 1 1 1 1 0
node 2 1 1 1 0
node 3 1 1 1 0
node 4 1 1 1 0
node 5 1 1 1 0
node 6 1 1 1 0
node 7 1 1 1 0
node 8 1 1 1 0
node 9 1 1 1 0
node 10 1 1 1 0
node 11 1 1 1 0
node 12 1 1 1 0
node 13 1 1 3 0
node 14 1 0 2 0
node 15 1 0 2 0
gene 1 1 14 0.934312 0 1 0.934312 1
gene 1 2 14 0.0540201 0 2 0.0540201 1
gene 1 3 14 -0.115632 0 3 -0.115632 1
gene 1 4 14 -0.760815 0 4 -0.760815 1
gene 1 5 14 1.16927 0 5 1.16927 1
gene 1 6 14 0.38976 0 6 0.38976 1
gene 1 7 14 -0.0203747 0 7 -0.0203747 1
gene 1 8 14 0.121117 0 8 0.121117 1
gene 1 9 14 0.442668 0 9 0.442668 1
gene 1 10 14 -1.3378 0 10 -1.3378 1
gene 1 11 14 0.423374 0 11 0.423374 1
gene 1 12 14 0.0734889 0 12 0.0734889 1
gene 1 13 14 -0.604122 0 13 -0.604122 1
gene 1 1 15 0.053274 0 14 0.053274 1
gene 1 2 15 -0.72227 0 15 -0.72227 1
gene 1 3 15 0.469509 0 16 0.469509 1
gene 1 4 15 0.624149 0 17 0.624149 1
gene 1 5 15 1.94133 0 18 1.94133 1
gene 1 6 15 0.0747406 0 19 0.0747406 1
gene 1 7 15 -0.0486711 0 20 -0.0486711 1
gene 1 8 15 0.708447 0 21 0.708447 1
gene 1 9 15 0.011149 0 22 0.011149 1
gene 1 10 15 -0.107703 0 23 -0.107703 1
gene 1 11 15 -0.0200627 0 24 -0.0200627 1
gene 1 12 15 -0.249304 0 25 -0.249304 1
gene 1 13 15 0.150241 0 26 0.150241 1
genomeend 132
genomestart 133
trait 1 0.461534 0.653803 0 0 0 0.155415 0 0 
node 1 1 1 1 0
node 2 1 1 1 0
node 3 1 1 1 0
node 4 1 1 1 0
node 5 1 1 1 0
node 6 1 1 1 0
node 7 1 1 1 0
node 8 1 1 1 0
node 9 1 1 1 0
node 10 1 1 1 0
node 11 1 1 1 0
node 12 1 1 1 0
node 13 1 1 3 0
node 14 1 0 2 0
node 15 1 0 2 0
gene 1 1 14 1.73409 0 1 1.73409 1
gene 1 2 14 1.35742 0 2 1.35742 1
gene 1 3 14 1.40146 0 3 1.40146 1
gene 1 4 14 -0.635068 0 4 -0.635068 1
gene 1 5 14 1.48244 0 5 1.48244 1
gene 1 6 14 -0.0193855 0 6 -0.0193855 1
gene 1 7 14 0.645707 0 7 0.645707 1
gene 1 8 14 0.317728 0 8 0.317728 1
gene 1 9 14 0.346244 0 9 0.346244 1
gene 1 10 14 -0.645236 0 10 -0.645236 1
gene 1 11 14 -0.20085 0 11 -0.20085 1
gene 1 12 14 1.1142 0 12 1.1142 1
gene 1 13 14 -0.605678 0 13 -0.605678 1
gene 1 1 15 -0.912165 0 14 -0.912165 1
gene 1 2 15 -0.232095 0 15 -0.232095 1
gene 1 3 15 0.718111 0 16 0.718111 1
gene 1 4 15 -0.670315 0 17 -0.670315 1
gene 1 5 15 0.473729 0 18 0.473729 1
gene 1 6 15 0.301054 0 19 0.301054 1
gene 1 7 15 0.194275 0 20 0.194275 1
gene 1 8 15 0.287791 0 21 0.287791 1
gene 1 9 15 -0.483313 0 22 -0.483313 1
gene 1 10 15 0.116057 0 23 0.116057 1
gene 1 11 15 -0.408605 0 24 -0.408605 1
gene 1 12 15 -0.645791 0 25 -0.645791 1
gene 1 13 15 0.800197 0 26 0.800197 1
genomeend 133
genomestart 134
trait 1 0.163818 0.374753 0 0.177038 0 0.0883214 0 0 
node 1 1 1 1 0
node 2 1 1 1 0
node 3 1 1 1 0
node 4 1 1 1 0
node 5 1 1 1 0
node 6 1 1 1 0
node 7 1 1 1 0
node 8 1 1 1 0
node 9 1 1 1 0
node 10 1 1 1 0
node 11 1 1 1 0
node 12 1 1 1 0
node 13 1 1 3 0
node 14 1 0 2 0
node 15 1 0 2 0
gene 1 1 14 1.05719 0 1 1.05719 1
gene 1 2 14 0.37148 0 2 0.37148 1
gene 1 3 14 0.10064 0 3 0.10064 1
gene 1 4 14 -0.0286088 0 4 -0.0286088 1
gene 1 5 14 0.106774 0 5 0.106774 1
gene 1 6 14 0.687677 0 6 0.687677 1
gene 1 7 14 0.590675 0 7 0.590675 1
gene 1 8 14 0.456551 0 8 0.456551 1
gene 1 9 14 -0.368457 0 9 -0.368457 1
gene 1 10 14 -0.451319 0 10 -0.451319 1
gene 1 11 14 -0.468385 0 11 -0.468385 1
gene 1 12 14 -0.571698 0 12 -0.571698 1
gene 1 13 14 -0.11585 0 13 -0.11585 1
gene 1 1 15 -0.0187195 0 14 -0.0187195 1
gene 1 2 15 -0.314883 0 15 -0.314883 1
gene 1 3 15 -0.0915664 0 16 -0.0915664 1
gene 1 4 15 0.0742393 0 17 0.0742393 1
gene 1 5 15 0.746799 0 18 0.746799 1
gene 1 6 15 0.703355 0 19 0.703355 1
gene 1 7 15 -0.0814962 0 20 -0.0814962 1
gene 1 8 15 0.246719 0 21 0.246719 1
gene 1 9 15 -0.854471 0 22 -0.854471 1
gene 1 10 15 -0.574336 0 23 -0.574336 1
gene 1 11 15 0.14964 0 24 0.14964 1
gene 1 12 15 -0.73682 0 25 -0.73682 1
gene 1 13 15 -0.202668 0 26 -0.202668 1
genomeend 134
genomestart 135
trait 1 0 0.624753 0 0.236051 0 0.0871852 0 0 
node 1 1 1 1 0
node 2 1 1 1 0
node 3 1 1 1 0
node 4 1 1 1 0
node 5 1 1 1 0
node 6 1 1 1 0
node 7 1 1 1 0
node 8 1 1 1 0
node 9 1 1 1 0
node 10 1 1 1 0
node 11 1 1 1 0
node 12 1 1 1 0
node 13 1 1 3 0
node 14 1 0 2 0
node 15 1 0 2 0
gene 1 1 14 0.791662 0 1 0.791662 1
gene 1 2 14 0.0710903 0 2 0.0710903 1
gene 1 3 14 -0.479773 0 3 -0.479773 1
gene 1 4 14 -0.241368 0 4 -0.241368 1
gene 1 5 14 1.55224 0 5 1.55224 1
gene 1 6 14 0.946302 0 6 0.946302 1
gene 1 7 14 -0.0352666 0 7 -0.0352666 1
gene 1 8 14 0.223357 0 8 0.223357 1
gene 1 9 14 0.215009 0 9 0.215009 1
gene 1 10 14 -0.40848 0 10 -0.40848 1
gene 1 11 14 -0.497227 0 11 -0.497227 1
gene 1 12 14 -0.0204584 0 12 -0.0204584 1
gene 1 13 14 0.51656 0 13 0.51656 1
gene 1 1 15 0.939743 0 14 0.939743 1
gene 1 2 15 -0.36838 0 15 -0.36838 1
gene 1 3 15 0.763677 0 16 0.763677 1
gene 1 4 15 0.0147895 0 17 0.0147895 1
gene 1 5 15 1.84231 0 18 1.84231 1
gene 1 6 15 0.466608 0 19 0.466608 1
gene 1 7 15 0.230637 0 20 0.230637 1
gene 1 8 15 0.42298 0 21 0.42298 1
gene 1 9 15 -0.638853 0 22 -0.638853 1
gene 1 10 15 0.124411 0 23 0.124411 1
gene 1 11 15 -0.385738 0 24 -0.385738 1
gene 1 12 15 -0.210402 0 25 -0.210402 1
gene 1 13 15 0.169355 0 26 0.169355 1
genomeend 135
genomestart 136
trait 1 0 0.624753 0 0.236051 0 0.0871852 0 0 
node 1 1 1 1 0
node 2 1 1 1 0
node 3 1 1 1 0
node 4 1 1 1 0
node 5 1 1 1 0
node 6 1 1 1 0
node 7 1 1 1 0
node 8 1 1 1 0
node 9 1 1 1 0
node 10 1 1 1 0
node 11 1 1 1 0
node 12 1 1 1 0
node 13 1 1 3 0
node 14 1 0 2 0
node 15 1 0 2 0
gene 1 1 14 0.985408 0 1 0.985408 1
gene 1 2 14 -0.0576516 0 2 -0.0576516 1
gene 1 3 14 -0.482068 0 3 -0.482068 1
gene 1 4 14 -0.289661 0 4 -0.289661 1
gene 1 5 14 1.15627 0 5 1.15627 1
gene 1 6 14 0.420934 0 6 0.420934 1
gene 1 7 14 0.333619 0 7 0.333619 1
gene 1 8 14 0.439803 0 8 0.439803 1
gene 1 9 14 -0.32257 0 9 -0.32257 1
gene 1 10 14 -0.826826 0 10 -0.826826 1
gene 1 11 14 -0.100255 0 11 -0.100255 1
gene 1 12 14 -0.093326 0 12 -0.093326 1
gene 1 13 14 -0.315961 0 13 -0.315961 1
gene 1 1 15 0.4451 0 14 0.4451 1
gene 1 2 15 -1.10931 0 15 -1.10931 1
gene 1 3 15 0.153924 0 16 0.153924 1
gene 1 4 15 -0.30307 0 17 -0.30307 1
gene 1 5 15 1.38378 0 18 1.38378 1
gene 1 6 15 0.0680268 0 19 0.0680268 1
gene 1 7 15 0.00244831 0 20 0.00244831 1
gene 1 8 15 0.717374 0 21 0.717374 1
gene 1 9 15 -0.800437 0 22 -0.800437 1
gene 1 10 15 -0.474504 0 23 -0.474504 1
gene 1 11 15 -0.0329599 0 24 -0.0329599 1
gene 1 12 15 0.0785124 0 25 0.0785124 1
gene 1 13 15 -0.0146158 0 26 -0.0146158 1
genomeend 136
genomestart 137
trait 1 0.163818 0.0304432 0 0.177038 0.107361 0.131914 0 0 
node 1 1 1 1 0
node 2 1 1 1 0
node 3 1 1 1 0
node 4 1 1 1 0
node 5 1 1 1 0
node 6 1 1 1 0
node 7 1 1 1 0
node 8 1 1 1 0
node 9 1 1 1 0
node 10 1 1 1 0
node 11 1 1 1 0
node 12 1 1 1 0
node 13 1 1 3 0
node 14 1 0 2 0
node 15 1 0 2 0
gene 1 1 14 1.25263 0 1 1.25263 1
gene 1 2 14 -0.267635 0 2 -0.267635 1
gene 1 3 14 -0.452686 0 3 -0.452686 1
gene 1 4 14 -0.270577 0 4 -0.270577 1
gene 1 5 14 0.72775 0 5 0.72775 1
gene 1 6 14 0.334553 0 6 0.334553 1
gene 1 7 14 -0.289495 0 7 -0.289495 1
gene 1 8 14 0.850407 0 8 0.850407 1
gene 1 9 14 0.210665 0 9 0.210665 1
gene 1 10 14 -0.761521 0 10 -0.761521 1
gene 1 11 14 -0.507135 0 11 -0.507135 1
gene 1 12 14 -0.107469 0 12 -0.107469 1
gene 1 13 14 0.476133 0 13 0.476133 1
gene 1 1 15 0.395367 0 14 0.395367 1
gene 1 2 15 -0.880148 0 15 -0.880148 1
gene 1 3 15 0.324334 0 16 0.324334 1
gene 1 4 15 -0.224155 0 17 -0.224155 1
gene 1 5 15 1.36656 0 18 1.36656 1
gene 1 6 15 0.24782 0 19 0.24782 1
gene 1 7 15 0.453075 0 20 0.453075 1
gene 1 8 15 0.731126 0 21 0.731126 1
gene 1 9 15 -0.499618 0 22 -0.499618 1
gene 1 10 15 0.145121 0 23 0.145121 1
gene 1 11 15 -0.596788 0 24 -0.596788 1
gene 1 12 15 -0.120613 0 25 -0.120613 1
gene 1 13 15 0.439707 0 26 0.439707 1
genomeend 137
genomestart 138
trait 1 0 0.624753 0 0.236051 0 0.0871852 0 0 
node 1 1 1 1 0
node 2 1 1 1 0
node 3 1 1 1 0
node 4 1 1 1 0
node 5 1 1 1 0
node 6 1 1 1 0
node 7 1 1 1 0
node 8 1 1 1 0
node 9 1 1 1 0
node 10 1 1 1 0
node 11 1 1 1 0
node 12 1 1 1 0
node 13 1 1 3 0
node 14 1 0 2 0
node 15 1 0 2 0
gene 1 1 14 1.23329 0 1 1.23329 1
gene 1 2 14 -0.187476 0 2 -0.187476 1
gene 1 3 14 -0.310261 0 3 -0.310261 1
gene 1 4 14 -0.374321 0 4 -0.374321 1
gene 1 5 14 1.15627 0 5 1.15627 1
gene 1 6 14 0.662757 0 6 0.662757 1
gene 1 7 14 -0.0203747 0 7 -0.0203747 1
gene 1 8 14 0.774717 0 8 0.774717 1
gene 1 9 14 0.162231 0 9 0.162231 1
gene 1 10 14 -0.83949 0 10 -0.83949 1
gene 1 11 14 -0.100255 0 11 -0.100255 1
gene 1 12 14 -0.093326 0 12 -0.093326 1
gene 1 13 14 0.158061 0 13 0.158061 1
gene 1 1 15 0.473358 0 14 0.473358 1
gene 1 2 15 -0.72227 0 15 -0.72227 1
gene 1 3 15 0.386554 0 16 0.386554 1
gene 1 4 15 -0.330264 0 17 -0.330264 1
gene 1 5 15 1.84231 0 18 1.84231 1
gene 1 6 15 0.443334 0 19 0.443334 1
gene 1 7 15 0.00244831 0 20 0.00244831 1
gene 1 8 15 0.806985 0 21 0.806985 1
gene 1 9 15 -0.800437 0 22 -0.800437 1
gene 1 10 15 -0.285447 0 23 -0.285447 1
gene 1 11 15 -0.0200627 0 24 -0.0200627 1
gene 1 12 15 -0.0780165 0 25 -0.0780165 1
gene 1 13 15 -0.0510073 0 26 -0.0510073 1
gene 1 15 14 -0.925361 0 32 -0.925361 1
genomeend 138
genomestart 139
trait 1 0 0.624753 0 0.236051 0 0.0871852 0 0 
node 1 1 1 1 0
node 2 1 1 1 0
node 3 1 1 1 0
node 4 1 1 1 0
node 5 1 1 1 0
node 6 1 1 1 0
node 7 1 1 1 0
node 8 1 1 1 0
node 9 1 1 1 0
node 10 1 1 1 0
node 11 1 1 1 0
node 12 1 1 1 0
node 13 1 1 3 0
node 14 1 0 2 0
node 15 1 0 2 0
gene 1 1 14 0.91361 0 1 0.91361 1
gene 1 2 14 -0.21932 0 2 -0.21932 1
gene 1 3 14 -0.743527 0 3 -0.743527 1
gene 1 4 14 0.0384588 0 4 0.0384588 1
gene 1 5 14 1.24118 0 5 1.24118 1
gene 1 6 14 0.375585 0 6 0.375585 1
gene 1 7 14 -0.0218046 0 7 -0.0218046 1
gene 1 8 14 0.297481 0 8 0.297481 1
gene 1 9 14 -0.120848 0 9 -0.120848 1
gene 1 10 14 -0.71194 0 10 -0.71194 1
gene 1 11 14 -0.470829 0 11 -0.470829 1
gene 1 12 14 -0.479847 0 12 -0.479847 1
gene 1 13 14 0.105635 0 13 0.105635 1
gene 1 1 15 0.415812 0 14 0.415812 1
gene 1 2 15 -0.7771 0 15 -0.7771 1
gene 1 3 15 0.625887 0 16 0.625887 1
gene 1 4 15 -0.192811 0 17 -0.192811 1
gene 1 5 15 2.12112 0 18 2.12112 1
gene 1 6 15 0.615459 0 19 0.615459 1
gene 1 7 15 0.406125 0 20 0.406125 1
gene 1 8 15 0.724239 0 21 0.724239 1
gene 1 9 15 -0.746732 0 22 -0.746732 1
gene 1 10 15 -0.662012 0 23 -0.662012 1
gene 1 11 15 0.318005 0 24 0.318005 1
gene 1 12 15 -0.173711 0 25 -0.173711 1
gene 1 13 15 -0.370338 0 26 -0.370338 1
gene 1 15 14 -0.307651 0 32 -0.307651 1
genomeend 139
