genomestart 3455
trait 1 0.22803 0.73092 0.870188 0.0306687 0.586981 0.110506 0 0.718147 
node 1 1 1 1 0
node 2 1 1 1 0
node 3 1 1 1 0
node 4 1 1 1 0
node 5 1 1 1 0
node 6 1 1 1 0
node 7 1 1 1 0
node 8 1 1 1 0
node 9 1 1 1 0
node 10 1 1 1 0
node 11 1 1 1 0
node 12 1 1 1 0
node 13 1 1 1 0
node 14 1 1 1 0
node 15 1 1 1 0
node 16 1 1 1 0
node 17 1 1 1 0
node 18 1 1 1 0
node 19 1 1 3 0
node 20 1 0 2 0
node 21 1 0 2 0
node 22 1 0 2 0
node 23 1 0 2 0
node 37 1 0 0 0
node 40 1 0 0 0
node 42 1 0 0 0
node 63 1 0 0 0
node 64 1 0 0 0
node 67 1 0 0 0
node 72 1 0 0 0
node 73 1 0 0 0
node 81 1 0 0 0
node 82 1 0 0 0
node 93 1 0 0 0
node 104 1 0 0 0
node 112 1 0 0 0
node 115 1 0 0 0
node 120 1 0 0 0
node 143 1 0 0 0
node 166 1 0 0 0
node 177 1 0 0 0
gene 1 1 20 0.19899 0 1 0.19899 1
gene 1 2 20 -0.0325717 0 2 -0.0325717 1
gene 1 3 20 0.885517 0 3 0.885517 1
gene 1 4 20 0.00646525 0 4 0.00646525 1
gene 1 5 20 0.0577163 0 5 0.0577163 1
gene 1 6 20 0.400495 0 6 0.400495 1
gene 1 7 20 -0.785351 0 7 -0.785351 1
gene 1 8 20 -0.229787 0 8 -0.229787 1
gene 1 9 20 1.94995 0 9 1.94995 1
gene 1 10 20 -0.0166248 0 10 -0.0166248 1
gene 1 11 20 0.0246946 0 11 0.0246946 1
gene 1 12 20 -0.217282 0 12 -0.217282 1
gene 1 13 20 -0.621636 0 13 -0.621636 1
gene 1 14 20 -0.423097 0 14 -0.423097 1
gene 1 15 20 -1.2527 0 15 -1.2527 1
gene 1 16 20 0.107267 0 16 0.107267 0
gene 1 17 20 -0.283807 0 17 -0.283807 1
gene 1 18 20 -0.518903 0 18 -0.518903 1
gene 1 19 20 -0.781514 0 19 -0.781514 1
gene 1 1 21 0.528747 0 20 0.528747 1
gene 1 2 21 0.209181 0 21 0.209181 1
gene 1 3 21 1.44994 0 22 1.44994 1
gene 1 4 21 0.282911 0 23 0.282911 1
gene 1 5 21 0.0536841 0 24 0.0536841 1
gene 1 6 21 -0.211045 0 25 -0.211045 1
gene 1 7 21 0.13059 0 26 0.13059 1
gene 1 8 21 0.26417 0 27 0.26417 1
gene 1 9 21 -0.148389 0 28 -0.148389 1
gene 1 10 21 1.15669 0 29 1.15669 1
gene 1 11 21 0.0597164 0 30 0.0597164 1
gene 1 12 21 0.236801 0 31 0.236801 1
gene 1 13 21 -0.507736 0 32 -0.507736 1
gene 1 14 21 0.52457 0 33 0.52457 1
gene 1 15 21 0.915656 0 34 0.915656 0
gene 1 16 21 -0.602315 0 35 -0.602315 0
gene 1 17 21 -0.104568 0 36 -0.104568 1
gene 1 18 21 0.189843 0 37 0.189843 1
gene 1 19 21 0.0267288 0 38 0.0267288 1
gene 1 1 22 -0.93627 0 39 -0.93627 1
gene 1 2 22 1.23393 0 40 1.23393 1
gene 1 3 22 0.0137835 0 41 0.0137835 0
gene 1 4 22 0.01939 0 42 0.01939 1
gene 1 5 22 0.377578 0 43 0.377578 1
gene 1 6 22 0.412931 0 44 0.412931 1
gene 1 7 22 0.656186 0 45 0.656186 1
gene 1 8 22 0.560169 0 46 0.560169 1
gene 1 9 22 -0.733617 0 47 -0.733617 1
gene 1 10 22 -1.63474 0 48 -1.63474 1
gene 1 11 22 0.265448 0 49 0.265448 1
gene 1 12 22 0.294175 0 50 0.294175 1
gene 1 13 22 0.590354 0 51 0.590354 1
gene 1 14 22 0.384668 0 52 0.384668 1
gene 1 15 22 0.753176 0 53 0.753176 1
gene 1 16 22 0.253555 0 54 0.253555 1
gene 1 17 22 0.631549 0 55 0.631549 1
gene 1 18 22 0.0126251 0 56 0.0126251 1
gene 1 19 22 0.372026 0 57 0.372026 1
gene 1 1 23 0.415324 0 58 0.415324 1
gene 1 2 23 -0.553985 0 59 -0.553985 1
gene 1 3 23 -0.893644 0 60 -0.893644 0
gene 1 4 23 -0.166832 0 61 -0.166832 1
gene 1 5 23 -0.285814 0 62 -0.285814 1
gene 1 6 23 -0.713057 0 63 -0.713057 1
gene 1 7 23 -0.714299 0 64 -0.714299 1
gene 1 8 23 -0.862865 0 65 -0.862865 1
gene 1 9 23 -0.239842 0 66 -0.239842 1
gene 1 10 23 -1.28501 0 67 -1.28501 1
gene 1 11 23 -0.383527 0 68 -0.383527 1
gene 1 12 23 0.0181915 0 69 0.0181915 1
gene 1 13 23 -0.223671 0 70 -0.223671 1
gene 1 14 23 0.284739 0 71 0.284739 1
gene 1 15 23 0.391008 0 72 0.391008 1
gene 1 16 23 -0.0498356 0 73 -0.0498356 1
gene 1 17 23 -1.34662 0 74 -1.34662 1
gene 1 18 23 0.0852853 0 75 0.0852853 1
gene 1 19 23 0.450273 0 76 0.450273 1
gene 1 20 22 -0.0287494 0 78 -0.0287494 1
gene 1 21 23 0.401563 0 80 0.401563 1
gene 1 21 22 0.615112 0 91 0.615112 1
gene 1 21 20 1.06822 0 96 1.06822 1
gene 1 23 20 -0.377349 0 120 -0.377349 1
gene 1 15 37 0.875009 0 125 0.875009 1
gene 1 37 21 -0.628931 0 126 -0.628931 0
gene 1 3 40 0.171676 0 136 0.171676 0
gene 1 40 23 -0.814656 0 137 -0.814656 1
gene 1 17 42 -0.428491 0 141 -0.428491 1
gene 1 42 22 0.478504 0 142 0.478504 1
gene 1 22 22 0.943808 1 153 0.943808 1
gene 1 8 63 -0.0194165 0 215 -0.0194165 1
gene 1 63 20 1.14558 0 216 1.14558 1
gene 1 16 64 -0.011254 0 218 -0.011254 1
gene 1 64 22 0.53232 0 219 0.53232 1
gene 1 7 67 0.330114 0 225 0.330114 1
gene 1 67 23 0.689813 0 226 0.689813 1
gene 1 6 64 0.218426 0 232 0.218426 1
gene 1 23 23 0.526911 1 252 0.526911 1
gene 1 1 63 -0.421539 0 254 -0.421539 1
gene 1 11 72 -0.507882 0 258 -0.507882 1
gene 1 72 21 -0.124404 0 259 -0.124404 1
gene 1 16 63 -1.43433 0 264 -1.43433 1
gene 1 1 67 0.566537 0 265 0.566537 1
gene 1 20 20 -0.350094 1 269 -0.350094 1
gene 1 17 72 -0.832812 0 270 -0.832812 1
gene 1 17 73 0.221983 0 282 0.221983 1
gene 1 73 20 0.848278 0 283 0.848278 1
gene 1 37 37 0.260943 1 284 0.260943 1
gene 1 63 63 0.323644 1 306 0.323644 1
gene 1 3 81 -0.0128887 0 308 -0.0128887 1
gene 1 81 40 -0.488517 0 309 -0.488517 1
gene 1 14 82 1.10999 0 310 1.10999 1
gene 1 82 21 0.209601 0 311 0.209601 1
gene 1 42 82 -0.397438 0 313 -0.397438 1
gene 1 21 21 0.400592 1 322 0.400592 1
gene 1 64 37 -0.103111 0 323 -0.103111 1
gene 1 63 93 -0.514164 1 340 -0.514164 1
gene 1 93 63 0.131505 0 341 0.131505 1
gene 1 10 82 -0.0952865 0 344 -0.0952865 1
gene 1 12 72 -0.6746 0 361 -0.6746 1
gene 1 16 104 -0.20999 0 379 -0.20999 1
gene 1 104 21 0.00467399 0 380 0.00467399 1
gene 1 3 112 0.0181774 0 415 0.0181774 1
gene 1 112 22 0.283654 0 416 0.283654 1
gene 1 93 81 -0.133134 0 426 -0.133134 1
gene 1 63 115 0.500619 1 427 0.500619 1
gene 1 115 93 0.414925 0 428 0.414925 1
gene 1 42 37 -0.188368 0 430 -0.188368 1
gene 1 93 42 -0.0632565 0 437 -0.0632565 1
gene 1 1 120 -0.332298 0 459 -0.332298 1
gene 1 120 21 -0.239205 0 460 -0.239205 1
gene 1 64 93 -0.388599 0 498 -0.388599 1
gene 1 3 143 0.705741 0 542 0.705741 1
gene 1 143 23 -0.199684 0 543 -0.199684 1
gene 1 23 73 0.292568 0 626 0.292568 1
gene 1 37 166 -0.96924 0 630 -0.96924 1
gene 1 166 21 -0.135706 0 631 -0.135706 1
gene 1 42 63 -0.550263 0 662 -0.550263 1
gene 1 17 166 -1.07279 0 665 -1.07279 1
gene 1 16 177 0.237164 0 687 0.237164 1
gene 1 177 20 -0.0425727 0 688 -0.0425727 1
genomeend 3455
genomestart 3569
trait 1 0.511885 0.61824 0.821933 0.725528 0.305749 0.39679 0.858714 0.737262 
node 1 1 1 1 0
node 2 1 1 1 0
node 3 1 1 1 0
node 4 1 1 1 0
node 5 1 1 1 0
node 6 1 1 1 0
node 7 1 1 1 0
node 8 1 1 1 0
node 9 1 1 1 0
node 10 1 1 1 0
node 11 1 1 1 0
node 12 1 1 1 0
node 13 1 1 1 0
node 14 1 1 1 0
node 15 1 1 1 0
node 16 1 1 1 0
node 17 1 1 1 0
node 18 1 1 1 0
node 19 1 1 3 0
node 20 1 0 2 0
node 21 1 0 2 0
node 22 1 0 2 0
node 23 1 0 2 0
node 37 1 0 0 0
node 42 1 0 0 0
node 63 1 0 0 0
node 64 1 0 0 0
node 67 1 0 0 0
node 72 1 0 0 0
node 73 1 0 0 0
node 82 1 0 0 0
node 83 1 0 0 0
node 84 1 0 0 0
node 89 1 0 0 0
node 93 1 0 0 0
node 94 1 0 0 0
node 106 1 0 0 0
node 128 1 0 0 0
node 135 1 0 0 0
node 136 1 0 0 0
node 147 1 0 0 0
node 180 1 0 0 0
gene 1 1 20 0.337152 0 1 0.337152 1
gene 1 2 20 0.0563479 0 2 0.0563479 1
gene 1 3 20 -0.413009 0 3 -0.413009 1
gene 1 4 20 0.0414591 0 4 0.0414591 1
gene 1 5 20 0.880302 0 5 0.880302 1
gene 1 6 20 1.55795 0 6 1.55795 1
gene 1 7 20 -0.128375 0 7 -0.128375 1
gene 1 8 20 -0.123852 0 8 -0.123852 1
gene 1 9 20 -0.344346 0 9 -0.344346 1
gene 1 10 20 -0.801466 0 10 -0.801466 1
gene 1 11 20 -1.19962 0 11 -1.19962 1
gene 1 12 20 -0.177843 0 12 -0.177843 1
gene 1 13 20 0.729858 0 13 0.729858 1
gene 1 14 20 -1.24982 0 14 -1.24982 1
gene 1 15 20 0.551321 0 15 0.551321 1
gene 1 16 20 -0.865384 0 16 -0.865384 1
gene 1 17 20 0.0154186 0 17 0.0154186 1
gene 1 18 20 -0.0734427 0 18 -0.0734427 1
gene 1 19 20 0.904759 0 19 0.904759 1
gene 1 1 21 0.0657821 0 20 0.0657821 1
gene 1 2 21 -0.46432 0 21 -0.46432 1
gene 1 3 21 0.725013 0 22 0.725013 1
gene 1 4 21 -0.280045 0 23 -0.280045 1
gene 1 5 21 -0.787744 0 24 -0.787744 1
gene 1 6 21 -0.031009 0 25 -0.031009 1
gene 1 7 21 0.700608 0 26 0.700608 1
gene 1 8 21 0.0796217 0 27 0.0796217 1
gene 1 9 21 -0.454501 0 28 -0.454501 1
gene 1 10 21 0.288999 0 29 0.288999 1
gene 1 11 21 1.00259 0 30 1.00259 1
gene 1 12 21 -0.564147 0 31 -0.564147 1
gene 1 13 21 -0.0923631 0 32 -0.0923631 1
gene 1 14 21 1.12059 0 33 1.12059 1
gene 1 15 21 0.19831 0 34 0.19831 1
gene 1 16 21 -0.355143 0 35 -0.355143 1
gene 1 17 21 -0.261449 0 36 -0.261449 1
gene 1 18 21 -0.0490043 0 37 -0.0490043 1
gene 1 19 21 -1.30203 0 38 -1.30203 1
gene 1 1 22 -0.428983 0 39 -0.428983 1
gene 1 2 22 0.439434 0 40 0.439434 1
gene 1 3 22 -0.396073 0 41 -0.396073 1
gene 1 4 22 0.723041 0 42 0.723041 1
gene 1 5 22 -0.202543 0 43 -0.202543 1
gene 1 6 22 -0.252792 0 44 -0.252792 1
gene 1 7 22 0.0917764 0 45 0.0917764 1
gene 1 8 22 0.00182338 0 46 0.00182338 1
gene 1 9 22 0.700231 0 47 0.700231 1
gene 1 10 22 -0.42426 0 48 -0.42426 1
gene 1 11 22 0.695873 0 49 0.695873 1
gene 1 12 22 0.735297 0 50 0.735297 1
gene 1 13 22 -1.42231 0 51 -1.42231 1
gene 1 14 22 0.777281 0 52 0.777281 1
gene 1 15 22 0.41933 0 53 0.41933 1
gene 1 16 22 -0.053974 0 54 -0.053974 1
gene 1 17 22 0.19124 0 55 0.19124 1
gene 1 18 22 -1.21841 0 56 -1.21841 1
gene 1 19 22 -0.147394 0 57 -0.147394 1
gene 1 1 23 -0.473429 0 58 -0.473429 1
gene 1 2 23 1.00772 0 59 1.00772 1
gene 1 3 23 -0.705988 0 60 -0.705988 1
gene 1 4 23 0.515032 0 61 0.515032 1
gene 1 5 23 0.543788 0 62 0.543788 1
gene 1 6 23 -0.632498 0 63 -0.632498 1
gene 1 7 23 -0.293953 0 64 -0.293953 0
gene 1 8 23 0.0660794 0 65 0.0660794 1
gene 1 9 23 0.0958333 0 66 0.0958333 1
gene 1 10 23 -0.407291 0 67 -0.407291 1
gene 1 11 23 -0.149057 0 68 -0.149057 0
gene 1 12 23 -0.233619 0 69 -0.233619 1
gene 1 13 23 0.374859 0 70 0.374859 1
gene 1 14 23 0.649033 0 71 0.649033 1
gene 1 15 23 0.139499 0 72 0.139499 1
gene 1 16 23 0.540185 0 73 0.540185 1
gene 1 17 23 -0.25842 0 74 -0.25842 1
gene 1 18 23 0.0411604 0 75 0.0411604 1
gene 1 19 23 -1.7441 0 76 -1.7441 1
gene 1 20 22 0.438197 0 78 0.438197 1
gene 1 21 23 -0.148289 0 80 -0.148289 1
gene 1 21 22 -0.0172178 0 91 -0.0172178 0
gene 1 21 20 0.254535 0 96 0.254535 1
gene 1 23 20 0.250083 0 120 0.250083 1
gene 1 15 37 0.203685 0 125 0.203685 1
gene 1 37 21 -0.734513 0 126 -0.734513 1
gene 1 17 42 1.40449 0 141 1.40449 1
gene 1 42 22 0.187547 0 142 0.187547 1
gene 1 22 22 -0.0184319 1 153 -0.0184319 1
gene 1 8 63 0.508359 0 215 0.508359 1
gene 1 63 20 0.205774 0 216 0.205774 1
gene 1 16 64 -0.0129786 0 218 -0.0129786 1
gene 1 64 22 0.0774229 0 219 0.0774229 1
gene 1 7 67 -0.179271 0 225 -0.179271 1
gene 1 67 23 -0.201399 0 226 -0.201399 1
gene 1 6 64 0.237355 0 232 0.237355 1
gene 1 23 23 -0.282109 1 252 -0.282109 1
gene 1 1 63 -0.316557 0 254 -0.316557 1
gene 1 11 72 0.469538 0 258 0.469538 1
gene 1 72 21 0.345465 0 259 0.345465 1
gene 1 16 63 -0.63005 0 264 -0.63005 1
gene 1 1 67 0.204964 0 265 0.204964 1
gene 1 20 20 -0.288358 1 269 -0.288358 1
gene 1 17 73 -0.206417 0 282 -0.206417 1
gene 1 73 20 0.17043 0 283 0.17043 1
gene 1 37 37 0.00952183 1 284 0.00952183 1
gene 1 67 67 0.0522442 1 305 0.0522442 1
gene 1 63 63 -0.490807 1 306 -0.490807 1
gene 1 14 82 -0.306359 0 310 -0.306359 1
gene 1 82 21 0.214173 0 311 0.214173 1
gene 1 21 83 0.384709 0 314 0.384709 1
gene 1 83 22 0.0631057 0 315 0.0631057 1
gene 1 6 84 0.367383 0 316 0.367383 1
gene 1 84 22 -0.138846 0 317 -0.138846 1
gene 1 11 89 -0.278428 0 331 -0.278428 1
gene 1 89 23 0.181431 0 332 0.181431 1
gene 1 63 93 -0.37173 1 340 -0.37173 1
gene 1 93 63 0.203786 0 341 0.203786 1
gene 1 72 94 -0.127998 0 345 -0.127998 1
gene 1 94 21 0.271046 0 346 0.271046 1
gene 1 16 106 0.103324 0 385 0.103324 1
gene 1 106 63 0.935956 0 386 0.935956 1
gene 1 89 73 0.413214 0 389 0.413214 1
gene 1 67 63 -0.0996072 0 440 -0.0996072 1
gene 1 19 64 -0.000403751 0 467 -0.000403751 1
gene 1 1 128 0.0237129 0 478 0.0237129 1
gene 1 128 20 0.261817 0 479 0.261817 1
gene 1 5 135 0.28889 0 514 0.28889 1
gene 1 135 22 -0.102934 0 515 -0.102934 1
gene 1 72 136 -0.886911 0 519 -0.886911 1
gene 1 136 21 0.474893 0 520 0.474893 1
gene 1 14 84 -0.698495 0 530 -0.698495 1
gene 1 13 147 0.451917 0 558 0.451917 1
gene 1 147 21 0.68272 0 559 0.68272 1
gene 1 10 94 -0.441578 0 570 -0.441578 1
gene 1 9 84 -0.22801 0 573 -0.22801 1
gene 1 18 67 -0.231574 0 574 -0.231574 1
gene 1 106 23 -0.442145 0 576 -0.442145 1
gene 1 73 64 0.271764 0 613 0.271764 1
gene 1 135 21 -0.0266588 0 623 -0.0266588 1
gene 1 11 93 -0.322668 0 658 -0.322668 1
gene 1 18 106 -0.56813 0 674 -0.56813 1
gene 1 15 89 -0.623098 0 675 -0.623098 1
gene 1 67 180 0.566253 0 710 0.566253 1
gene 1 180 63 0.234838 0 711 0.234838 1
genomeend 3569
genomestart 3682
trait 1 0.513861 0.618235 0.822133 0.741423 0.289771 0.351844 0.853429 0.735969 
node 1 1 1 1 0
node 2 1 1 1 0
node 3 1 1 1 0
node 4 1 1 1 0
node 5 1 1 1 0
node 6 1 1 1 0
node 7 1 1 1 0
node 8 1 1 1 0
node 9 1 1 1 0
node 10 1 1 1 0
node 11 1 1 1 0
node 12 1 1 1 0
node 13 1 1 1 0
node 14 1 1 1 0
node 15 1 1 1 0
node 16 1 1 1 0
node 17 1 1 1 0
node 18 1 1 1 0
node 19 1 1 3 0
node 20 1 0 2 0
node 21 1 0 2 0
node 22 1 0 2 0
node 23 1 0 2 0
node 37 1 0 0 0
node 42 1 0 0 0
node 63 1 0 0 0
node 64 1 0 0 0
node 67 1 0 0 0
node 72 1 0 0 0
node 73 1 0 0 0
node 82 1 0 0 0
node 83 1 0 0 0
node 84 1 0 0 0
node 89 1 0 0 0
node 93 1 0 0 0
node 94 1 0 0 0
node 106 1 0 0 0
node 128 1 0 0 0
node 135 1 0 0 0
node 136 1 0 0 0
node 147 1 0 0 0
node 180 1 0 0 0
gene 1 1 20 0.57009 0 1 0.57009 0
gene 1 2 20 0.137236 0 2 0.137236 1
gene 1 3 20 -0.511929 0 3 -0.511929 1
gene 1 4 20 0.398979 0 4 0.398979 1
gene 1 5 20 0.322337 0 5 0.322337 1
gene 1 6 20 0.309394 0 6 0.309394 1
gene 1 7 20 0.144039 0 7 0.144039 1
gene 1 8 20 0.322772 0 8 0.322772 1
gene 1 9 20 -0.356559 0 9 -0.356559 1
gene 1 10 20 -0.357176 0 10 -0.357176 1
gene 1 11 20 0.345224 0 11 0.345224 1
gene 1 12 20 -0.319226 0 12 -0.319226 1
gene 1 13 20 -0.0259867 0 13 -0.0259867 1
gene 1 14 20 -0.457264 0 14 -0.457264 1
gene 1 15 20 -0.281059 0 15 -0.281059 1
gene 1 16 20 -0.457129 0 16 -0.457129 1
gene 1 17 20 -0.126383 0 17 -0.126383 1
gene 1 18 20 -0.319559 0 18 -0.319559 1
gene 1 19 20 0.326678 0 19 0.326678 1
gene 1 1 21 0.0956074 0 20 0.0956074 1
gene 1 2 21 -0.451709 0 21 -0.451709 1
gene 1 3 21 0.946298 0 22 0.946298 1
gene 1 4 21 0.163392 0 23 0.163392 1
gene 1 5 21 -0.972103 0 24 -0.972103 1
gene 1 6 21 0.0362173 0 25 0.0362173 1
gene 1 7 21 0.662902 0 26 0.662902 1
gene 1 8 21 0.139241 0 27 0.139241 1
gene 1 9 21 -0.299585 0 28 -0.299585 1
gene 1 10 21 -0.463735 0 29 -0.463735 1
gene 1 11 21 0.259791 0 30 0.259791 1
gene 1 12 21 -0.161549 0 31 -0.161549 1
gene 1 13 21 -0.120224 0 32 -0.120224 1
gene 1 14 21 0.874183 0 33 0.874183 1
gene 1 15 21 -0.638223 0 34 -0.638223 1
gene 1 16 21 0.0863769 0 35 0.0863769 1
gene 1 17 21 -0.658478 0 36 -0.658478 1
gene 1 18 21 -0.533373 0 37 -0.533373 1
gene 1 19 21 -0.438287 0 38 -0.438287 1
gene 1 1 22 0.173316 0 39 0.173316 1
gene 1 2 22 0.653311 0 40 0.653311 1
gene 1 3 22 -0.148517 0 41 -0.148517 1
gene 1 4 22 1.22935 0 42 1.22935 1
gene 1 5 22 0.0633186 0 43 0.0633186 0
gene 1 6 22 -0.214988 0 44 -0.214988 1
gene 1 7 22 0.3646 0 45 0.3646 1
gene 1 8 22 0.134715 0 46 0.134715 1
gene 1 9 22 0.198697 0 47 0.198697 1
gene 1 10 22 0.926308 0 48 0.926308 1
gene 1 11 22 0.388269 0 49 0.388269 1
gene 1 12 22 0.66093 0 50 0.66093 1
gene 1 13 22 -0.401188 0 51 -0.401188 1
gene 1 14 22 0.705992 0 52 0.705992 1
gene 1 15 22 0.554829 0 53 0.554829 1
gene 1 16 22 -0.075946 0 54 -0.075946 1
gene 1 17 22 0.283405 0 55 0.283405 1
gene 1 18 22 -0.645732 0 56 -0.645732 1
gene 1 19 22 0.115476 0 57 0.115476 1
gene 1 1 23 1.07785 0 58 1.07785 1
gene 1 2 23 0.493842 0 59 0.493842 1
gene 1 3 23 -0.881199 0 60 -0.881199 1
gene 1 4 23 0.0814111 0 61 0.0814111 1
gene 1 5 23 0.414638 0 62 0.414638 1
gene 1 6 23 0.1974 0 63 0.1974 1
gene 1 7 23 -0.588129 0 64 -0.588129 0
gene 1 8 23 0.0918746 0 65 0.0918746 1
gene 1 9 23 0.0310929 0 66 0.0310929 1
gene 1 10 23 -0.0581548 0 67 -0.0581548 1
gene 1 11 23 -0.047343 0 68 -0.047343 1
gene 1 12 23 -0.158036 0 69 -0.158036 1
gene 1 13 23 -0.403397 0 70 -0.403397 1
gene 1 14 23 0.0406611 0 71 0.0406611 1
gene 1 15 23 0.0924137 0 72 0.0924137 1
gene 1 16 23 0.572768 0 73 0.572768 1
gene 1 17 23 -0.0436617 0 74 -0.0436617 1
gene 1 18 23 -0.0467871 0 75 -0.0467871 1
gene 1 19 23 -1.63189 0 76 -1.63189 1
gene 1 20 22 0.467851 0 78 0.467851 1
gene 1 21 23 0.254014 0 80 0.254014 1
gene 1 21 22 -0.312665 0 91 -0.312665 0
gene 1 21 20 -0.101241 0 96 -0.101241 1
gene 1 23 20 0.364004 0 120 0.364004 1
gene 1 15 37 0.0127342 0 125 0.0127342 1
gene 1 37 21 0.214905 0 126 0.214905 1
gene 1 17 42 1.19131 0 141 1.19131 1
gene 1 42 22 0.600123 0 142 0.600123 1
gene 1 22 22 0.00148506 1 153 0.00148506 1
gene 1 8 63 -0.048882 0 215 -0.048882 1
gene 1 63 20 -0.190739 0 216 -0.190739 1
gene 1 16 64 0.278256 0 218 0.278256 1
gene 1 64 22 -0.238907 0 219 -0.238907 1
gene 1 7 67 1.38313 0 225 1.38313 1
gene 1 67 23 -0.522932 0 226 -0.522932 1
gene 1 6 64 -0.206299 0 232 -0.206299 1
gene 1 23 23 0.181122 1 252 0.181122 1
gene 1 1 63 0.194386 0 254 0.194386 1
gene 1 11 72 0.117457 0 258 0.117457 1
gene 1 72 21 0.185099 0 259 0.185099 1
gene 1 16 63 -0.44611 0 264 -0.44611 1
gene 1 1 67 -0.211179 0 265 -0.211179 1
gene 1 20 20 -0.169879 1 269 -0.169879 1
gene 1 17 73 -0.348068 0 282 -0.348068 1
gene 1 73 20 0.163698 0 283 0.163698 1
gene 1 37 37 -0.564133 1 284 -0.564133 1
gene 1 67 67 0.615023 1 305 0.615023 1
gene 1 63 63 -0.485671 1 306 -0.485671 1
gene 1 14 82 0.112687 0 310 0.112687 1
gene 1 82 21 -0.251894 0 311 -0.251894 1
gene 1 21 83 0.62528 0 314 0.62528 1
gene 1 83 22 -0.278925 0 315 -0.278925 1
gene 1 6 84 0.211405 0 316 0.211405 1
gene 1 84 22 0.0413027 0 317 0.0413027 1
gene 1 11 89 -0.0435485 0 331 -0.0435485 1
gene 1 89 23 -0.47403 0 332 -0.47403 1
gene 1 63 93 -0.0640052 1 340 -0.0640052 1
gene 1 93 63 0.156817 0 341 0.156817 1
gene 1 72 94 -0.117289 0 345 -0.117289 1
gene 1 94 21 0.303453 0 346 0.303453 1
gene 1 16 106 0.206212 0 385 0.206212 1
gene 1 106 63 0.241216 0 386 0.241216 1
gene 1 89 73 0.32322 0 389 0.32322 1
gene 1 67 63 -0.00524899 0 440 -0.00524899 1
gene 1 19 64 -0.0814016 0 467 -0.0814016 1
gene 1 1 128 -0.495394 0 478 -0.495394 1
gene 1 128 20 -0.0286691 0 479 -0.0286691 1
gene 1 5 135 0.200981 0 514 0.200981 1
gene 1 135 22 0.369315 0 515 0.369315 1
gene 1 72 136 -0.063655 0 519 -0.063655 1
gene 1 136 21 0.0516965 0 520 0.0516965 1
gene 1 14 84 -0.190279 0 530 -0.190279 1
gene 1 13 147 -0.0564757 0 558 -0.0564757 1
gene 1 147 21 0.106996 0 559 0.106996 1
gene 1 10 94 -0.20814 0 570 -0.20814 1
gene 1 9 84 0.134052 0 573 0.134052 1
gene 1 18 67 -0.282845 0 574 -0.282845 1
gene 1 106 23 0.0935358 0 576 0.0935358 1
gene 1 73 64 -0.262584 0 613 -0.262584 1
gene 1 135 21 -0.608904 0 623 -0.608904 1
gene 1 11 93 -0.716901 0 658 -0.716901 1
gene 1 18 106 -0.0684975 0 674 -0.0684975 1
gene 1 15 89 -0.222396 0 675 -0.222396 1
gene 1 67 180 0.224928 0 710 0.224928 1
gene 1 180 63 0.605168 0 711 0.605168 1
genomeend 3682
genomestart 3706
trait 1 0.106202 0.218554 0.699487 0.816379 0.679771 0.0481836 0.638015 0.370497 
node 1 1 1 1 0
node 2 1 1 1 0
node 3 1 1 1 0
node 4 1 1 1 0
node 5 1 1 1 0
node 6 1 1 1 0
node 7 1 1 1 0
node 8 1 1 1 0
node 9 1 1 1 0
node 10 1 1 1 0
node 11 1 1 1 0
node 12 1 1 1 0
node 13 1 1 1 0
node 14 1 1 1 0
node 15 1 1 1 0
node 16 1 1 1 0
node 17 1 1 1 0
node 18 1 1 1 0
node 19 1 1 3 0
node 20 1 0 2 0
node 21 1 0 2 0
node 22 1 0 2 0
node 23 1 0 2 0
node 63 1 0 0 0
node 67 1 0 0 0
node 73 1 0 0 0
node 117 1 0 0 0
node 118 1 0 0 0
node 120 1 0 0 0
node 138 1 0 0 0
node 173 1 0 0 0
gene 1 1 20 -1.4671 0 1 -1.4671 1
gene 1 2 20 -0.0260962 0 2 -0.0260962 1
gene 1 3 20 0.0947859 0 3 0.0947859 1
gene 1 4 20 0.900013 0 4 0.900013 1
gene 1 5 20 0.354312 0 5 0.354312 1
gene 1 6 20 0.34564 0 6 0.34564 1
gene 1 7 20 -0.284228 0 7 -0.284228 1
gene 1 8 20 0.0861799 0 8 0.0861799 1
gene 1 9 20 -0.736709 0 9 -0.736709 1
gene 1 10 20 0.159604 0 10 0.159604 1
gene 1 11 20 -0.206236 0 11 -0.206236 1
gene 1 12 20 -0.155746 0 12 -0.155746 1
gene 1 13 20 -0.688363 0 13 -0.688363 1
gene 1 14 20 0.190836 0 14 0.190836 1
gene 1 15 20 -0.561734 0 15 -0.561734 0
gene 1 16 20 -0.0964443 0 16 -0.0964443 1
gene 1 17 20 2.36514 0 17 2.36514 1
gene 1 18 20 0.238151 0 18 0.238151 1
gene 1 19 20 -0.259404 0 19 -0.259404 1
gene 1 1 21 -0.659859 0 20 -0.659859 1
gene 1 2 21 1.03213 0 21 1.03213 1
gene 1 3 21 -0.179554 0 22 -0.179554 1
gene 1 4 21 -0.705727 0 23 -0.705727 1
gene 1 5 21 0.803522 0 24 0.803522 1
gene 1 6 21 -0.0505258 0 25 -0.0505258 1
gene 1 7 21 0.0680602 0 26 0.0680602 1
gene 1 8 21 0.93605 0 27 0.93605 1
gene 1 9 21 0.19929 0 28 0.19929 1
gene 1 10 21 -0.953655 0 29 -0.953655 1
gene 1 11 21 0.490123 0 30 0.490123 1
gene 1 12 21 0.538787 0 31 0.538787 1
gene 1 13 21 0.515515 0 32 0.515515 1
gene 1 14 21 1.35716 0 33 1.35716 1
gene 1 15 21 0.161158 0 34 0.161158 1
gene 1 16 21 -0.485259 0 35 -0.485259 1
gene 1 17 21 -0.101608 0 36 -0.101608 1
gene 1 18 21 -0.0630189 0 37 -0.0630189 1
gene 1 19 21 0.831829 0 38 0.831829 1
gene 1 1 22 0.448737 0 39 0.448737 1
gene 1 2 22 -0.815257 0 40 -0.815257 1
gene 1 3 22 -0.252462 0 41 -0.252462 1
gene 1 4 22 -0.230084 0 42 -0.230084 1
gene 1 5 22 0.0785129 0 43 0.0785129 1
gene 1 6 22 -0.281061 0 44 -0.281061 1
gene 1 7 22 -0.267078 0 45 -0.267078 1
gene 1 8 22 -0.931165 0 46 -0.931165 1
gene 1 9 22 0.106946 0 47 0.106946 1
gene 1 10 22 -0.406612 0 48 -0.406612 1
gene 1 11 22 -0.0238501 0 49 -0.0238501 1
gene 1 12 22 0.0133706 0 50 0.0133706 1
gene 1 13 22 1.09977 0 51 1.09977 1
gene 1 14 22 0.296646 0 52 0.296646 1
gene 1 15 22 -0.321392 0 53 -0.321392 1
gene 1 16 22 0.198771 0 54 0.198771 1
gene 1 17 22 1.0194 0 55 1.0194 1
gene 1 18 22 -1.66053 0 56 -1.66053 1
gene 1 19 22 0.29526 0 57 0.29526 1
gene 1 1 23 0.607365 0 58 0.607365 1
gene 1 2 23 -0.00114779 0 59 -0.00114779 1
gene 1 3 23 -1.36917 0 60 -1.36917 1
gene 1 4 23 1.71728 0 61 1.71728 1
gene 1 5 23 -0.318011 0 62 -0.318011 0
gene 1 6 23 0.39622 0 63 0.39622 1
gene 1 7 23 -0.382604 0 64 -0.382604 1
gene 1 8 23 0.24507 0 65 0.24507 1
gene 1 9 23 0.356577 0 66 0.356577 1
gene 1 10 23 -0.782668 0 67 -0.782668 1
gene 1 11 23 0.217659 0 68 0.217659 1
gene 1 12 23 -0.340181 0 69 -0.340181 0
gene 1 13 23 0.555047 0 70 0.555047 1
gene 1 14 23 -0.139949 0 71 -0.139949 1
gene 1 15 23 1.01469 0 72 1.01469 1
gene 1 16 23 0.196575 0 73 0.196575 1
gene 1 17 23 -1.00817 0 74 -1.00817 1
gene 1 18 23 -0.162739 0 75 -0.162739 1
gene 1 19 23 1.16518 0 76 1.16518 1
gene 1 20 22 0.456193 0 78 0.456193 1
gene 1 21 23 -0.204728 0 80 -0.204728 1
gene 1 23 20 -0.373217 0 120 -0.373217 1
gene 1 22 22 -0.196091 1 153 -0.196091 1
gene 1 8 63 1.69422 0 215 1.69422 1
gene 1 63 20 -0.34316 0 216 -0.34316 1
gene 1 7 67 -0.494436 0 225 -0.494436 1
gene 1 67 23 -0.163724 0 226 -0.163724 1
gene 1 1 63 0.146398 0 254 0.146398 1
gene 1 16 63 0.248688 0 264 0.248688 1
gene 1 1 67 -0.487941 0 265 -0.487941 1
gene 1 8 67 0.118226 0 281 0.118226 1
gene 1 17 73 -0.209725 0 282 -0.209725 1
gene 1 73 20 0.341845 0 283 0.341845 1
gene 1 23 23 0.525283 1 320 0.525283 1
gene 1 63 73 0.596356 0 330 0.596356 1
gene 1 18 73 0.251388 0 335 0.251388 1
gene 1 15 73 0.498158 0 387 0.498158 1
gene 1 9 63 -0.123836 0 395 -0.123836 1
gene 1 63 23 0.405355 0 406 0.405355 1
gene 1 15 63 1.39125 0 422 1.39125 1
gene 1 19 63 0.290802 0 423 0.290802 1
gene 1 2 67 -0.675138 0 435 -0.675138 1
gene 1 15 117 -0.541266 0 450 -0.541266 1
gene 1 117 20 0.286248 0 451 0.286248 1
gene 1 12 118 0.452241 0 452 0.452241 1
gene 1 118 23 0.110221 0 453 0.110221 1
gene 1 1 120 0.326122 0 459 0.326122 1
gene 1 120 21 -0.0577828 0 460 -0.0577828 1
gene 1 5 138 -0.0645749 0 525 -0.0645749 1
gene 1 138 23 -0.0784036 0 526 -0.0784036 1
gene 1 7 117 -0.00177201 0 538 -0.00177201 1
gene 1 21 63 0.283347 0 548 0.283347 1
gene 1 118 118 0.127554 1 554 0.127554 1
gene 1 14 118 0.61953 0 557 0.61953 1
gene 1 6 117 -0.382551 0 572 -0.382551 1
gene 1 5 117 -0.729103 0 578 -0.729103 1
gene 1 117 118 0.0796549 0 595 0.0796549 1
gene 1 9 67 1.11226 0 621 1.11226 1
gene 1 118 73 -0.198706 0 636 -0.198706 1
gene 1 7 118 -0.542688 0 649 -0.542688 1
gene 1 21 117 0.224131 0 653 0.224131 1
gene 1 16 173 -0.428555 0 663 -0.428555 1
gene 1 173 22 -0.351641 0 664 -0.351641 1
gene 1 16 73 -0.28747 0 712 -0.28747 1
gene 1 18 118 1.42212 0 714 1.42212 1
genomeend 3706
genomestart 3760
trait 1 0.763881 0.218534 0.699503 0.463851 0.679763 0.324938 0.638015 0 
node 1 1 1 1 0
node 2 1 1 1 0
node 3 1 1 1 0
node 4 1 1 1 0
node 5 1 1 1 0
node 6 1 1 1 0
node 7 1 1 1 0
node 8 1 1 1 0
node 9 1 1 1 0
node 10 1 1 1 0
node 11 1 1 1 0
node 12 1 1 1 0
node 13 1 1 1 0
node 14 1 1 1 0
node 15 1 1 1 0
node 16 1 1 1 0
node 17 1 1 1 0
node 18 1 1 1 0
node 19 1 1 3 0
node 20 1 0 2 0
node 21 1 0 2 0
node 22 1 0 2 0
node 23 1 0 2 0
node 63 1 0 0 0
node 67 1 0 0 0
node 73 1 0 0 0
node 117 1 0 0 0
node 118 1 0 0 0
node 120 1 0 0 0
node 138 1 0 0 0
node 173 1 0 0 0
gene 1 1 20 -1.09873 0 1 -1.09873 1
gene 1 2 20 -0.487911 0 2 -0.487911 1
gene 1 3 20 0.401169 0 3 0.401169 1
gene 1 4 20 1.19393 0 4 1.19393 1
gene 1 5 20 2.1573 0 5 2.1573 1
gene 1 6 20 0.224664 0 6 0.224664 1
gene 1 7 20 0.361496 0 7 0.361496 1
gene 1 8 20 -0.0864533 0 8 -0.0864533 1
gene 1 9 20 -0.598467 0 9 -0.598467 1
gene 1 10 20 1.33243 0 10 1.33243 1
gene 1 11 20 -0.472519 0 11 -0.472519 1
gene 1 12 20 -0.36121 0 12 -0.36121 1
gene 1 13 20 -0.69006 0 13 -0.69006 1
gene 1 14 20 0.222447 0 14 0.222447 1
gene 1 15 20 -0.403267 0 15 -0.403267 0
gene 1 16 20 0.493289 0 16 0.493289 1
gene 1 17 20 2.50718 0 17 2.50718 1
gene 1 18 20 -0.461493 0 18 -0.461493 1
gene 1 19 20 -0.584293 0 19 -0.584293 1
gene 1 1 21 -0.205494 0 20 -0.205494 1
gene 1 2 21 0.734967 0 21 0.734967 1
gene 1 3 21 0.171509 0 22 0.171509 1
gene 1 4 21 0.0298456 0 23 0.0298456 1
gene 1 5 21 0.206464 0 24 0.206464 1
gene 1 6 21 -0.527923 0 25 -0.527923 1
gene 1 7 21 0.253034 0 26 0.253034 1
gene 1 8 21 1.00928 0 27 1.00928 1
gene 1 9 21 0.539549 0 28 0.539549 1
gene 1 10 21 -0.0264847 0 29 -0.0264847 1
gene 1 11 21 0.696966 0 30 0.696966 1
gene 1 12 21 -0.539882 0 31 -0.539882 1
gene 1 13 21 -0.19073 0 32 -0.19073 1
gene 1 14 21 1.37202 0 33 1.37202 1
gene 1 15 21 0.31311 0 34 0.31311 1
gene 1 16 21 0.501031 0 35 0.501031 1
gene 1 17 21 0.479645 0 36 0.479645 1
gene 1 18 21 -0.355445 0 37 -0.355445 1
gene 1 19 21 1.27094 0 38 1.27094 1
gene 1 1 22 0.392692 0 39 0.392692 1
gene 1 2 22 -0.633324 0 40 -0.633324 1
gene 1 3 22 0.3619 0 41 0.3619 1
gene 1 4 22 0.153373 0 42 0.153373 1
gene 1 5 22 -1.10017 0 43 -1.10017 1
gene 1 6 22 -0.490478 0 44 -0.490478 1
gene 1 7 22 0.936677 0 45 0.936677 1
gene 1 8 22 -1.02708 0 46 -1.02708 1
gene 1 9 22 -0.554636 0 47 -0.554636 1
gene 1 10 22 0.69792 0 48 0.69792 1
gene 1 11 22 -0.978956 0 49 -0.978956 1
gene 1 12 22 -1.06911 0 50 -1.06911 1
gene 1 13 22 2.03898 0 51 2.03898 1
gene 1 14 22 -0.206897 0 52 -0.206897 1
gene 1 15 22 -0.548007 0 53 -0.548007 1
gene 1 16 22 -0.399621 0 54 -0.399621 1
gene 1 17 22 1.54093 0 55 1.54093 1
gene 1 18 22 -2.18719 0 56 -2.18719 1
gene 1 19 22 1.71801 0 57 1.71801 1
gene 1 1 23 0.112981 0 58 0.112981 1
gene 1 2 23 -0.193592 0 59 -0.193592 1
gene 1 3 23 -0.732404 0 60 -0.732404 1
gene 1 4 23 1.60429 0 61 1.60429 1
gene 1 5 23 0.521052 0 62 0.521052 0
gene 1 6 23 -1.31045 0 63 -1.31045 1
gene 1 7 23 -0.053793 0 64 -0.053793 1
gene 1 8 23 0.821451 0 65 0.821451 1
gene 1 9 23 0.413972 0 66 0.413972 1
gene 1 10 23 -0.58494 0 67 -0.58494 1
gene 1 11 23 -0.066044 0 68 -0.066044 1
gene 1 12 23 -0.554111 0 69 -0.554111 1
gene 1 13 23 1.10893 0 70 1.10893 1
gene 1 14 23 0.266867 0 71 0.266867 1
gene 1 15 23 0.888271 0 72 0.888271 1
gene 1 16 23 0.414061 0 73 0.414061 1
gene 1 17 23 -1.57842 0 74 -1.57842 1
gene 1 18 23 -0.954643 0 75 -0.954643 1
gene 1 19 23 1.13512 0 76 1.13512 1
gene 1 20 22 0.0317607 0 78 0.0317607 1
gene 1 21 23 -0.874365 0 80 -0.874365 1
gene 1 23 20 0.101394 0 120 0.101394 1
gene 1 22 22 -0.551121 1 153 -0.551121 1
gene 1 8 63 1.28455 0 215 1.28455 1
gene 1 63 20 -1.24212 0 216 -1.24212 1
gene 1 7 67 -0.760425 0 225 -0.760425 1
gene 1 67 23 -0.724463 0 226 -0.724463 1
gene 1 1 63 0.18231 0 254 0.18231 1
gene 1 16 63 1.20524 0 264 1.20524 1
gene 1 1 67 -0.399039 0 265 -0.399039 1
gene 1 8 67 1.139 0 281 1.139 1
gene 1 17 73 -0.29087 0 282 -0.29087 1
gene 1 73 20 1.34188 0 283 1.34188 1
gene 1 23 23 0.161977 1 320 0.161977 1
gene 1 63 73 0.0938748 0 330 0.0938748 1
gene 1 18 73 0.372524 0 335 0.372524 1
gene 1 15 73 0.694045 0 387 0.694045 1
gene 1 9 63 0.822975 0 395 0.822975 1
gene 1 63 23 -0.0194287 0 406 -0.0194287 1
gene 1 15 63 0.938725 0 422 0.938725 1
gene 1 19 63 0.179399 0 423 0.179399 1
gene 1 2 67 0.11783 0 435 0.11783 1
gene 1 15 117 -0.256036 0 450 -0.256036 1
gene 1 117 20 0.674387 0 451 0.674387 1
gene 1 12 118 0.560755 0 452 0.560755 1
gene 1 118 23 0.13629 0 453 0.13629 1
gene 1 1 120 0.432489 0 459 0.432489 1
gene 1 120 21 0.108627 0 460 0.108627 1
gene 1 5 138 0.326678 0 525 0.326678 1
gene 1 138 23 0.1285 0 526 0.1285 1
gene 1 7 117 0.350088 0 538 0.350088 1
gene 1 21 63 -0.181327 0 548 -0.181327 1
gene 1 118 118 0.118061 1 554 0.118061 1
gene 1 14 118 0.567024 0 557 0.567024 1
gene 1 6 117 -0.143677 0 572 -0.143677 1
gene 1 5 117 0.171983 0 578 0.171983 1
gene 1 117 118 -0.17239 0 595 -0.17239 1
gene 1 9 67 0.784174 0 621 0.784174 1
gene 1 118 73 0.120608 0 636 0.120608 1
gene 1 7 118 -0.356972 0 649 -0.356972 1
gene 1 21 117 -0.196075 0 653 -0.196075 1
gene 1 16 173 -0.0409302 0 663 -0.0409302 1
gene 1 173 22 -0.164412 0 664 -0.164412 1
gene 1 16 73 0.223472 0 712 0.223472 1
gene 1 18 118 1.05163 0 714 1.05163 1
genomeend 3760
genomestart 3777
trait 1 0.0730852 0.706708 0.40586 0.043926 0.105473 0.0392997 0.0414293 0.953351 
node 1 1 1 1 0
node 2 1 1 1 0
node 3 1 1 1 0
node 4 1 1 1 0
node 5 1 1 1 0
node 6 1 1 1 0
node 7 1 1 1 0
node 8 1 1 1 0
node 9 1 1 1 0
node 10 1 1 1 0
node 11 1 1 1 0
node 12 1 1 1 0
node 13 1 1 1 0
node 14 1 1 1 0
node 15 1 1 1 0
node 16 1 1 1 0
node 17 1 1 1 0
node 18 1 1 1 0
node 19 1 1 3 0
node 20 1 0 2 0
node 21 1 0 2 0
node 22 1 0 2 0
node 23 1 0 2 0
node 37 1 0 0 0
node 40 1 0 0 0
node 42 1 0 0 0
node 63 1 0 0 0
node 64 1 0 0 0
node 67 1 0 0 0
node 72 1 0 0 0
node 73 1 0 0 0
node 81 1 0 0 0
node 82 1 0 0 0
node 93 1 0 0 0
node 104 1 0 0 0
node 112 1 0 0 0
node 115 1 0 0 0
node 120 1 0 0 0
node 143 1 0 0 0
node 166 1 0 0 0
node 177 1 0 0 0
node 184 1 0 0 0
gene 1 1 20 0.607452 0 1 0.607452 1
gene 1 2 20 -0.415979 0 2 -0.415979 1
gene 1 3 20 -0.143272 0 3 -0.143272 1
gene 1 4 20 0.116619 0 4 0.116619 1
gene 1 5 20 -0.227981 0 5 -0.227981 1
gene 1 6 20 0.124913 0 6 0.124913 1
gene 1 7 20 -0.0240096 0 7 -0.0240096 1
gene 1 8 20 0.2279 0 8 0.2279 1
gene 1 9 20 1.76741 0 9 1.76741 1
gene 1 10 20 -0.104322 0 10 -0.104322 1
gene 1 11 20 -0.138559 0 11 -0.138559 1
gene 1 12 20 -1.73263 0 12 -1.73263 1
gene 1 13 20 -0.299171 0 13 -0.299171 1
gene 1 14 20 -0.933254 0 14 -0.933254 1
gene 1 15 20 -1.07966 0 15 -1.07966 1
gene 1 16 20 -0.691587 0 16 -0.691587 0
gene 1 17 20 -0.188226 0 17 -0.188226 1
gene 1 18 20 -0.0888583 0 18 -0.0888583 1
gene 1 19 20 -0.466701 0 19 -0.466701 1
gene 1 1 21 0.396819 0 20 0.396819 1
gene 1 2 21 -0.536603 0 21 -0.536603 1
gene 1 3 21 0.217463 0 22 0.217463 1
gene 1 4 21 -0.15543 0 23 -0.15543 1
gene 1 5 21 0.144198 0 24 0.144198 1
gene 1 6 21 -0.143521 0 25 -0.143521 1
gene 1 7 21 0.100788 0 26 0.100788 1
gene 1 8 21 0.743542 0 27 0.743542 1
gene 1 9 21 0.137966 0 28 0.137966 1
gene 1 10 21 1.08086 0 29 1.08086 1
gene 1 11 21 0.917635 0 30 0.917635 1
gene 1 12 21 -0.781742 0 31 -0.781742 1
gene 1 13 21 -0.556409 0 32 -0.556409 1
gene 1 14 21 0.265886 0 33 0.265886 1
gene 1 15 21 -0.0569818 0 34 -0.0569818 1
gene 1 16 21 -0.673587 0 35 -0.673587 0
gene 1 17 21 0.497916 0 36 0.497916 1
gene 1 18 21 0.01062 0 37 0.01062 1
gene 1 19 21 0.226407 0 38 0.226407 1
gene 1 1 22 -0.271074 0 39 -0.271074 1
gene 1 2 22 -0.31936 0 40 -0.31936 1
gene 1 3 22 -0.235578 0 41 -0.235578 1
gene 1 4 22 0.441366 0 42 0.441366 1
gene 1 5 22 -0.234174 0 43 -0.234174 1
gene 1 6 22 -0.200885 0 44 -0.200885 1
gene 1 7 22 -0.0751268 0 45 -0.0751268 1
gene 1 8 22 0.228642 0 46 0.228642 1
gene 1 9 22 0.172401 0 47 0.172401 1
gene 1 10 22 -1.29974 0 48 -1.29974 1
gene 1 11 22 0.264573 0 49 0.264573 1
gene 1 12 22 -0.238966 0 50 -0.238966 1
gene 1 13 22 0.386638 0 51 0.386638 1
gene 1 14 22 0.166159 0 52 0.166159 1
gene 1 15 22 0.507376 0 53 0.507376 1
gene 1 16 22 -0.511348 0 54 -0.511348 0
gene 1 17 22 0.19414 0 55 0.19414 1
gene 1 18 22 -0.509063 0 56 -0.509063 1
gene 1 19 22 -0.219688 0 57 -0.219688 1
gene 1 1 23 0.480094 0 58 0.480094 1
gene 1 2 23 -0.40204 0 59 -0.40204 1
gene 1 3 23 -0.623487 0 60 -0.623487 0
gene 1 4 23 0.447135 0 61 0.447135 1
gene 1 5 23 -0.406092 0 62 -0.406092 1
gene 1 6 23 0.00828774 0 63 0.00828774 1
gene 1 7 23 0.407791 0 64 0.407791 0
gene 1 8 23 0.640739 0 65 0.640739 1
gene 1 9 23 0.0456041 0 66 0.0456041 1
gene 1 10 23 -0.0441621 0 67 -0.0441621 1
gene 1 11 23 -0.765757 0 68 -0.765757 1
gene 1 12 23 0.911051 0 69 0.911051 1
gene 1 13 23 -0.0715906 0 70 -0.0715906 1
gene 1 14 23 0.320045 0 71 0.320045 1
gene 1 15 23 0.0713678 0 72 0.0713678 1
gene 1 16 23 -0.0507764 0 73 -0.0507764 1
gene 1 17 23 -0.86878 0 74 -0.86878 1
gene 1 18 23 0.159526 0 75 0.159526 1
gene 1 19 23 0.437476 0 76 0.437476 1
gene 1 20 22 0.628646 0 78 0.628646 1
gene 1 21 23 -0.641594 0 80 -0.641594 1
gene 1 21 22 0.378304 0 91 0.378304 1
gene 1 21 20 0.936624 0 96 0.936624 1
gene 1 23 20 -0.00830866 0 120 -0.00830866 1
gene 1 15 37 0.302091 0 125 0.302091 1
gene 1 37 21 -0.767824 0 126 -0.767824 0
gene 1 3 40 -0.265719 0 136 -0.265719 0
gene 1 40 23 -1.06197 0 137 -1.06197 1
gene 1 17 42 -0.674649 0 141 -0.674649 1
gene 1 42 22 0.112913 0 142 0.112913 1
gene 1 22 22 -0.298514 1 153 -0.298514 1
gene 1 8 63 0.0966972 0 215 0.0966972 1
gene 1 63 20 -0.642551 0 216 -0.642551 1
gene 1 16 64 0.38785 0 218 0.38785 1
gene 1 64 22 0.685198 0 219 0.685198 1
gene 1 7 67 0.651783 0 225 0.651783 1
gene 1 67 23 0.512291 0 226 0.512291 1
gene 1 6 64 -0.200864 0 232 -0.200864 1
gene 1 23 23 -0.00191093 1 252 -0.00191093 1
gene 1 1 63 1.36565 0 254 1.36565 1
gene 1 11 72 0.205898 0 258 0.205898 1
gene 1 72 21 0.151447 0 259 0.151447 1
gene 1 16 63 -1.11899 0 264 -1.11899 1
gene 1 1 67 0.683413 0 265 0.683413 1
gene 1 20 20 -0.0661536 1 269 -0.0661536 1
gene 1 17 72 0.588619 0 270 0.588619 1
gene 1 17 73 -0.214907 0 282 -0.214907 1
gene 1 73 20 0.693097 0 283 0.693097 1
gene 1 37 37 0.906833 1 284 0.906833 1
gene 1 63 63 0.0980511 1 306 0.0980511 1
gene 1 3 81 0.554322 0 308 0.554322 1
gene 1 81 40 -0.0175585 0 309 -0.0175585 1
gene 1 14 82 0.997385 0 310 0.997385 1
gene 1 82 21 0.0936874 0 311 0.0936874 1
gene 1 42 82 -0.539711 0 313 -0.539711 1
gene 1 21 21 -0.23107 1 322 -0.23107 1
gene 1 64 37 0.164293 0 323 0.164293 1
gene 1 63 93 0.384231 1 340 0.384231 0
gene 1 93 63 -1.01087 0 341 -1.01087 1
gene 1 10 82 0.55327 0 344 0.55327 1
gene 1 12 72 0.361741 0 361 0.361741 1
gene 1 16 104 -0.418809 0 379 -0.418809 1
gene 1 104 21 0.199876 0 380 0.199876 1
gene 1 3 112 0.208959 0 415 0.208959 1
gene 1 112 22 0.0598718 0 416 0.0598718 1
gene 1 93 81 -0.311474 0 426 -0.311474 1
gene 1 63 115 0.896183 1 427 0.896183 1
gene 1 115 93 0.0650405 0 428 0.0650405 1
gene 1 42 37 -0.295579 0 430 -0.295579 1
gene 1 93 42 -0.155048 0 437 -0.155048 1
gene 1 1 120 -0.579123 0 459 -0.579123 1
gene 1 120 21 -0.588144 0 460 -0.588144 1
gene 1 64 93 -0.0650575 0 498 -0.0650575 1
gene 1 3 143 0.270808 0 542 0.270808 1
gene 1 143 23 -0.183486 0 543 -0.183486 1
gene 1 23 73 -0.106699 0 626 -0.106699 1
gene 1 37 166 -0.215955 0 630 -0.215955 1
gene 1 166 21 0.388044 0 631 0.388044 1
gene 1 42 63 -0.36866 0 662 -0.36866 1
gene 1 17 166 -0.146321 0 665 -0.146321 1
gene 1 16 177 0.019946 0 687 0.019946 1
gene 1 177 20 -0.0261795 0 688 -0.0261795 1
gene 1 93 104 0.29718 0 697 0.29718 1
gene 1 23 112 0.330843 0 717 0.330843 1
gene 1 19 112 -0.0136549 0 725 -0.0136549 1
gene 1 63 184 -0.0587848 1 726 -0.0587848 1
gene 1 184 93 -0.225721 0 727 -0.225721 1
genomeend 3777
genomestart 3792
trait 1 0.663461 0.429213 0.311829 0.474205 0.287655 0.166781 0.428639 0.527581 
node 1 1 1 1 0
node 2 1 1 1 0
node 3 1 1 1 0
node 4 1 1 1 0
node 5 1 1 1 0
node 6 1 1 1 0
node 7 1 1 1 0
node 8 1 1 1 0
node 9 1 1 1 0
node 10 1 1 1 0
node 11 1 1 1 0
node 12 1 1 1 0
node 13 1 1 1 0
node 14 1 1 1 0
node 15 1 1 1 0
node 16 1 1 1 0
node 17 1 1 1 0
node 18 1 1 1 0
node 19 1 1 3 0
node 20 1 0 2 0
node 21 1 0 2 0
node 22 1 0 2 0
node 23 1 0 2 0
node 67 1 0 0 0
node 74 1 0 0 0
node 75 1 0 0 0
node 86 1 0 0 0
node 87 1 0 0 0
node 90 1 0 0 0
node 95 1 0 0 0
node 129 1 0 0 0
node 141 1 0 0 0
node 142 1 0 0 0
node 145 1 0 0 0
node 154 1 0 0 0
node 164 1 0 0 0
node 167 1 0 0 0
node 182 1 0 0 0
gene 1 1 20 0.251943 0 1 0.251943 1
gene 1 2 20 0.803284 0 2 0.803284 1
gene 1 3 20 0.298449 0 3 0.298449 1
gene 1 4 20 -0.324986 0 4 -0.324986 1
gene 1 5 20 -0.117046 0 5 -0.117046 1
gene 1 6 20 0.336538 0 6 0.336538 1
gene 1 7 20 0.78554 0 7 0.78554 1
gene 1 8 20 -0.0171623 0 8 -0.0171623 0
gene 1 9 20 0.0085411 0 9 0.0085411 1
gene 1 10 20 -0.591562 0 10 -0.591562 1
gene 1 11 20 -0.57985 0 11 -0.57985 1
gene 1 12 20 -0.17548 0 12 -0.17548 1
gene 1 13 20 -0.405682 0 13 -0.405682 1
gene 1 14 20 -0.0401704 0 14 -0.0401704 1
gene 1 15 20 0.361391 0 15 0.361391 1
gene 1 16 20 0.201638 0 16 0.201638 1
gene 1 17 20 0.415181 0 17 0.415181 1
gene 1 18 20 0.324128 0 18 0.324128 1
gene 1 19 20 -0.451334 0 19 -0.451334 1
gene 1 1 21 0.00467728 0 20 0.00467728 1
gene 1 2 21 -1.5981 0 21 -1.5981 1
gene 1 3 21 1.27148 0 22 1.27148 1
gene 1 4 21 0.589548 0 23 0.589548 1
gene 1 5 21 1.51198 0 24 1.51198 1
gene 1 6 21 0.22454 0 25 0.22454 1
gene 1 7 21 0.181875 0 26 0.181875 0
gene 1 8 21 0.18908 0 27 0.18908 1
gene 1 9 21 0.323841 0 28 0.323841 1
gene 1 10 21 -0.782996 0 29 -0.782996 1
gene 1 11 21 -0.530704 0 30 -0.530704 1
gene 1 12 21 0.251574 0 31 0.251574 1
gene 1 13 21 -0.241222 0 32 -0.241222 1
gene 1 14 21 0.256876 0 33 0.256876 1
gene 1 15 21 -0.272279 0 34 -0.272279 1
gene 1 16 21 -0.270412 0 35 -0.270412 1
gene 1 17 21 0.219817 0 36 0.219817 1
gene 1 18 21 -0.543385 0 37 -0.543385 1
gene 1 19 21 0.156441 0 38 0.156441 1
gene 1 1 22 -0.46003 0 39 -0.46003 1
gene 1 2 22 -0.466311 0 40 -0.466311 0
gene 1 3 22 -0.753842 0 41 -0.753842 0
gene 1 4 22 0.45113 0 42 0.45113 0
gene 1 5 22 -0.786623 0 43 -0.786623 1
gene 1 6 22 -0.982274 0 44 -0.982274 1
gene 1 7 22 -0.0435808 0 45 -0.0435808 1
gene 1 8 22 0.755846 0 46 0.755846 1
gene 1 9 22 0.192463 0 47 0.192463 1
gene 1 10 22 0.225838 0 48 0.225838 1
gene 1 11 22 0.342614 0 49 0.342614 1
gene 1 12 22 0.676496 0 50 0.676496 1
gene 1 13 22 0.222231 0 51 0.222231 1
gene 1 14 22 0.706296 0 52 0.706296 1
gene 1 15 22 -0.185959 0 53 -0.185959 1
gene 1 16 22 0.364458 0 54 0.364458 1
gene 1 17 22 -0.562722 0 55 -0.562722 1
gene 1 18 22 -1.18609 0 56 -1.18609 1
gene 1 19 22 0.505048 0 57 0.505048 1
gene 1 1 23 0.943591 0 58 0.943591 1
gene 1 2 23 -0.520345 0 59 -0.520345 1
gene 1 3 23 -0.0947465 0 60 -0.0947465 1
gene 1 4 23 0.239566 0 61 0.239566 1
gene 1 5 23 -0.885743 0 62 -0.885743 1
gene 1 6 23 -0.17337 0 63 -0.17337 1
gene 1 7 23 -0.0517043 0 64 -0.0517043 0
gene 1 8 23 -0.526884 0 65 -0.526884 1
gene 1 9 23 -0.512011 0 66 -0.512011 1
gene 1 10 23 0.465881 0 67 0.465881 1
gene 1 11 23 -0.282692 0 68 -0.282692 1
gene 1 12 23 0.524031 0 69 0.524031 1
gene 1 13 23 0.289214 0 70 0.289214 1
gene 1 14 23 0.215758 0 71 0.215758 1
gene 1 15 23 0.15984 0 72 0.15984 1
gene 1 16 23 0.58897 0 73 0.58897 1
gene 1 17 23 -0.862932 0 74 -0.862932 1
gene 1 18 23 0.0537878 0 75 0.0537878 1
gene 1 19 23 -0.3671 0 76 -0.3671 1
gene 1 20 22 0.735579 0 78 0.735579 1
gene 1 21 23 0.142527 0 80 0.142527 1
gene 1 23 20 -1.00556 0 120 -1.00556 1
gene 1 22 22 -1.2365 1 153 -1.2365 1
gene 1 7 67 -0.257882 0 225 -0.257882 1
gene 1 67 23 -0.494562 0 226 -0.494562 1
gene 1 1 67 0.341914 0 265 0.341914 1
gene 1 8 67 -0.361588 0 281 -0.361588 1
gene 1 2 74 -1.45545 0 287 -1.45545 1
gene 1 74 22 -0.323145 0 288 -0.323145 1
gene 1 22 75 -0.0566651 1 289 -0.0566651 1
gene 1 75 22 0.258853 0 290 0.258853 1
gene 1 7 86 0.0883186 0 324 0.0883186 1
gene 1 86 21 0.581202 0 325 0.581202 1
gene 1 4 87 -0.223123 0 326 -0.223123 1
gene 1 87 22 -1.28119 0 327 -1.28119 0
gene 1 14 90 0.169894 0 333 0.169894 1
gene 1 90 23 0.655195 0 334 0.655195 1
gene 1 22 95 0.598669 1 347 0.598669 1
gene 1 95 75 -0.140581 0 348 -0.140581 1
gene 1 90 75 0.926233 0 350 0.926233 1
gene 1 87 90 0.433019 0 458 0.433019 1
gene 1 12 129 -0.00118339 0 485 -0.00118339 0
gene 1 129 21 0.352938 0 486 0.352938 1
gene 1 14 67 0.17214 0 497 0.17214 1
gene 1 6 67 -0.479964 0 527 -0.479964 1
gene 1 12 141 0.156442 0 536 0.156442 1
gene 1 141 129 0.11849 0 537 0.11849 1
gene 1 8 142 0.473922 0 540 0.473922 1
gene 1 142 20 0.3176 0 541 0.3176 1
gene 1 87 145 -0.0967635 0 551 -0.0967635 1
gene 1 145 22 -0.152448 0 552 -0.152448 1
gene 1 75 67 0.258727 0 577 0.258727 1
gene 1 3 154 -0.303976 0 584 -0.303976 1
gene 1 154 21 -0.281543 0 585 -0.281543 1
gene 1 74 164 0.158534 0 616 0.158534 1
gene 1 164 22 0.349816 0 617 0.349816 1
gene 1 4 167 -0.334471 0 641 -0.334471 1
gene 1 167 22 0.27123 0 642 0.27123 1
gene 1 16 129 0.243908 0 671 0.243908 1
gene 1 10 86 0.764446 0 680 0.764446 1
gene 1 167 90 0.360851 0 693 0.360851 1
gene 1 3 182 -0.437673 0 718 -0.437673 1
gene 1 182 22 0.345154 0 719 0.345154 1
gene 1 12 67 -0.624253 0 724 -0.624253 1
genomeend 3792
genomestart 3809
trait 1 0.511181 0.618241 0.821856 0.718511 0.309451 0.411501 0.860193 0.73771 
node 1 1 1 1 0
node 2 1 1 1 0
node 3 1 1 1 0
node 4 1 1 1 0
node 5 1 1 1 0
node 6 1 1 1 0
node 7 1 1 1 0
node 8 1 1 1 0
node 9 1 1 1 0
node 10 1 1 1 0
node 11 1 1 1 0
node 12 1 1 1 0
node 13 1 1 1 0
node 14 1 1 1 0
node 15 1 1 1 0
node 16 1 1 1 0
node 17 1 1 1 0
node 18 1 1 1 0
node 19 1 1 3 0
node 20 1 0 2 0
node 21 1 0 2 0
node 22 1 0 2 0
node 23 1 0 2 0
node 37 1 0 0 0
node 42 1 0 0 0
node 63 1 0 0 0
node 64 1 0 0 0
node 67 1 0 0 0
node 72 1 0 0 0
node 73 1 0 0 0
node 82 1 0 0 0
node 83 1 0 0 0
node 84 1 0 0 0
node 89 1 0 0 0
node 93 1 0 0 0
node 94 1 0 0 0
node 106 1 0 0 0
node 128 1 0 0 0
node 135 1 0 0 0
node 136 1 0 0 0
node 147 1 0 0 0
node 180 1 0 0 0
gene 1 1 20 0.732257 0 1 0.732257 0
gene 1 2 20 0.614785 0 2 0.614785 1
gene 1 3 20 0.249916 0 3 0.249916 1
gene 1 4 20 1.04335 0 4 1.04335 1
gene 1 5 20 -0.135622 0 5 -0.135622 1
gene 1 6 20 2.05672 0 6 2.05672 1
gene 1 7 20 0.984085 0 7 0.984085 1
gene 1 8 20 0.240618 0 8 0.240618 1
gene 1 9 20 -0.631417 0 9 -0.631417 1
gene 1 10 20 -0.916717 0 10 -0.916717 1
gene 1 11 20 -1.43531 0 11 -1.43531 1
gene 1 12 20 -0.258628 0 12 -0.258628 1
gene 1 13 20 0.513783 0 13 0.513783 1
gene 1 14 20 -0.240054 0 14 -0.240054 1
gene 1 15 20 0.261965 0 15 0.261965 1
gene 1 16 20 0.261722 0 16 0.261722 1
gene 1 17 20 -0.119875 0 17 -0.119875 1
gene 1 18 20 0.44399 0 18 0.44399 1
gene 1 19 20 -0.372708 0 19 -0.372708 1
gene 1 1 21 0.80971 0 20 0.80971 1
gene 1 2 21 -0.583553 0 21 -0.583553 1
gene 1 3 21 1.26843 0 22 1.26843 1
gene 1 4 21 1.64927 0 23 1.64927 1
gene 1 5 21 -1.19987 0 24 -1.19987 1
gene 1 6 21 -0.502618 0 25 -0.502618 1
gene 1 7 21 0.387975 0 26 0.387975 1
gene 1 8 21 0.623354 0 27 0.623354 1
gene 1 9 21 -0.591357 0 28 -0.591357 1
gene 1 10 21 1.02619 0 29 1.02619 1
gene 1 11 21 0.859141 0 30 0.859141 1
gene 1 12 21 0.0990591 0 31 0.0990591 1
gene 1 13 21 0.429537 0 32 0.429537 1
gene 1 14 21 1.78243 0 33 1.78243 1
gene 1 15 21 -1.06169 0 34 -1.06169 1
gene 1 16 21 0.0515514 0 35 0.0515514 1
gene 1 17 21 -0.0255454 0 36 -0.0255454 1
gene 1 18 21 -0.548451 0 37 -0.548451 1
gene 1 19 21 -0.785499 0 38 -0.785499 1
gene 1 1 22 -0.406891 0 39 -0.406891 1
gene 1 2 22 0.0291073 0 40 0.0291073 1
gene 1 3 22 -0.476047 0 41 -0.476047 1
gene 1 4 22 0.590744 0 42 0.590744 1
gene 1 5 22 0.576028 0 43 0.576028 0
gene 1 6 22 -0.314 0 44 -0.314 1
gene 1 7 22 -0.170042 0 45 -0.170042 1
gene 1 8 22 0.155384 0 46 0.155384 1
gene 1 9 22 0.286933 0 47 0.286933 1
gene 1 10 22 1.1338 0 48 1.1338 1
gene 1 11 22 0.442906 0 49 0.442906 1
gene 1 12 22 1.98789 0 50 1.98789 1
gene 1 13 22 -0.400094 0 51 -0.400094 1
gene 1 14 22 0.791528 0 52 0.791528 1
gene 1 15 22 0.26281 0 53 0.26281 1
gene 1 16 22 -0.619791 0 54 -0.619791 1
gene 1 17 22 -0.0604505 0 55 -0.0604505 1
gene 1 18 22 -0.368629 0 56 -0.368629 1
gene 1 19 22 -0.363983 0 57 -0.363983 1
gene 1 1 23 0.662079 0 58 0.662079 1
gene 1 2 23 1.76259 0 59 1.76259 1
gene 1 3 23 -0.0513926 0 60 -0.0513926 1
gene 1 4 23 0.458094 0 61 0.458094 1
gene 1 5 23 -0.204847 0 62 -0.204847 1
gene 1 6 23 0.226726 0 63 0.226726 1
gene 1 7 23 -0.0191731 0 64 -0.0191731 0
gene 1 8 23 -0.334217 0 65 -0.334217 1
gene 1 9 23 0.67945 0 66 0.67945 1
gene 1 10 23 -0.739229 0 67 -0.739229 1
gene 1 11 23 1.36552 0 68 1.36552 0
gene 1 12 23 -0.461887 0 69 -0.461887 1
gene 1 13 23 -0.473822 0 70 -0.473822 1
gene 1 14 23 -0.144474 0 71 -0.144474 1
gene 1 15 23 -0.00208601 0 72 -0.00208601 1
gene 1 16 23 0.853184 0 73 0.853184 1
gene 1 17 23 -1.31858 0 74 -1.31858 1
gene 1 18 23 1.69596 0 75 1.69596 1
gene 1 19 23 -1.3984 0 76 -1.3984 1
gene 1 20 22 -0.220309 0 78 -0.220309 1
gene 1 21 23 -0.606995 0 80 -0.606995 1
gene 1 21 22 0.895164 0 91 0.895164 0
gene 1 21 20 0.0829093 0 96 0.0829093 1
gene 1 23 20 -0.0344117 0 120 -0.0344117 1
gene 1 15 37 0.811965 0 125 0.811965 1
gene 1 37 21 -0.357896 0 126 -0.357896 1
gene 1 17 42 0.248341 0 141 0.248341 1
gene 1 42 22 0.25846 0 142 0.25846 1
gene 1 22 22 0.547245 1 153 0.547245 1
gene 1 8 63 0.880529 0 215 0.880529 1
gene 1 63 20 0.0714128 0 216 0.0714128 1
gene 1 16 64 -0.766122 0 218 -0.766122 1
gene 1 64 22 0.448443 0 219 0.448443 1
gene 1 7 67 0.656366 0 225 0.656366 1
gene 1 67 23 -0.0895527 0 226 -0.0895527 1
gene 1 6 64 0.212877 0 232 0.212877 1
gene 1 23 23 -0.834832 1 252 -0.834832 1
gene 1 1 63 0.325177 0 254 0.325177 1
gene 1 11 72 0.571866 0 258 0.571866 1
gene 1 72 21 0.192929 0 259 0.192929 1
gene 1 16 63 -0.870275 0 264 -0.870275 1
gene 1 1 67 0.340142 0 265 0.340142 1
gene 1 20 20 -0.201144 1 269 -0.201144 1
gene 1 17 73 0.204897 0 282 0.204897 1
gene 1 73 20 0.752879 0 283 0.752879 1
gene 1 37 37 -0.817918 1 284 -0.817918 1
gene 1 67 67 -0.0453346 1 305 -0.0453346 1
gene 1 63 63 -0.127491 1 306 -0.127491 1
gene 1 14 82 0.840519 0 310 0.840519 1
gene 1 82 21 0.0324732 0 311 0.0324732 1
gene 1 21 83 -0.384022 0 314 -0.384022 1
gene 1 83 22 0.549101 0 315 0.549101 1
gene 1 6 84 0.699198 0 316 0.699198 1
gene 1 84 22 -0.106776 0 317 -0.106776 1
gene 1 11 89 -0.24227 0 331 -0.24227 1
gene 1 89 23 -0.234427 0 332 -0.234427 1
gene 1 63 93 0.214226 1 340 0.214226 1
gene 1 93 63 -0.205757 0 341 -0.205757 1
gene 1 72 94 0.147485 0 345 0.147485 1
gene 1 94 21 0.174795 0 346 0.174795 1
gene 1 16 106 -0.369487 0 385 -0.369487 1
gene 1 106 63 0.6537 0 386 0.6537 1
gene 1 89 73 -0.0584947 0 389 -0.0584947 1
gene 1 67 63 0.22485 0 440 0.22485 0
gene 1 19 64 0.75688 0 467 0.75688 1
gene 1 1 128 -0.888696 0 478 -0.888696 1
gene 1 128 20 0.34766 0 479 0.34766 1
gene 1 5 135 0.369108 0 514 0.369108 1
gene 1 135 22 -0.0902299 0 515 -0.0902299 1
gene 1 72 136 -0.867541 0 519 -0.867541 1
gene 1 136 21 -0.164152 0 520 -0.164152 1
gene 1 14 84 -0.302038 0 530 -0.302038 1
gene 1 13 147 -0.065138 0 558 -0.065138 1
gene 1 147 21 -0.350154 0 559 -0.350154 1
gene 1 10 94 -0.188519 0 570 -0.188519 1
gene 1 9 84 0.272415 0 573 0.272415 1
gene 1 106 23 -0.379806 0 576 -0.379806 1
gene 1 73 64 0.0493268 0 613 0.0493268 1
gene 1 135 21 -0.298306 0 623 -0.298306 1
gene 1 11 93 -1.09429 0 658 -1.09429 1
gene 1 18 106 0.209279 0 674 0.209279 1
gene 1 15 89 0.43374 0 675 0.43374 1
gene 1 67 180 1.46226 0 710 1.46226 1
gene 1 180 63 -0.390218 0 711 -0.390218 1
genomeend 3809
genomestart 3818
trait 1 0.514043 0.618235 0.82215 0.742692 0.288017 0.347525 0.852885 0.735849 
node 1 1 1 1 0
node 2 1 1 1 0
node 3 1 1 1 0
node 4 1 1 1 0
node 5 1 1 1 0
node 6 1 1 1 0
node 7 1 1 1 0
node 8 1 1 1 0
node 9 1 1 1 0
node 10 1 1 1 0
node 11 1 1 1 0
node 12 1 1 1 0
node 13 1 1 1 0
node 14 1 1 1 0
node 15 1 1 1 0
node 16 1 1 1 0
node 17 1 1 1 0
node 18 1 1 1 0
node 19 1 1 3 0
node 20 1 0 2 0
node 21 1 0 2 0
node 22 1 0 2 0
node 23 1 0 2 0
node 37 1 0 0 0
node 42 1 0 0 0
node 63 1 0 0 0
node 64 1 0 0 0
node 67 1 0 0 0
node 72 1 0 0 0
node 73 1 0 0 0
node 82 1 0 0 0
node 83 1 0 0 0
node 84 1 0 0 0
node 89 1 0 0 0
node 93 1 0 0 0
node 94 1 0 0 0
node 106 1 0 0 0
node 128 1 0 0 0
node 135 1 0 0 0
node 136 1 0 0 0
node 147 1 0 0 0
node 180 1 0 0 0
gene 1 1 20 0.0679902 0 1 0.0679902 0
gene 1 2 20 -0.14021 0 2 -0.14021 1
gene 1 3 20 0.334804 0 3 0.334804 1
gene 1 4 20 -0.679594 0 4 -0.679594 1
gene 1 5 20 0.0540376 0 5 0.0540376 1
gene 1 6 20 0.655277 0 6 0.655277 1
gene 1 7 20 0.660634 0 7 0.660634 1
gene 1 8 20 -0.0128493 0 8 -0.0128493 1
gene 1 9 20 -0.521473 0 9 -0.521473 1
gene 1 10 20 -0.227234 0 10 -0.227234 1
gene 1 11 20 -1.60138 0 11 -1.60138 1
gene 1 12 20 -0.0996741 0 12 -0.0996741 1
gene 1 13 20 0.304091 0 13 0.304091 1
gene 1 14 20 -1.72032 0 14 -1.72032 1
gene 1 15 20 -0.359984 0 15 -0.359984 1
gene 1 16 20 -1.60297 0 16 -1.60297 1
gene 1 17 20 -0.395296 0 17 -0.395296 1
gene 1 18 20 -1.23628 0 18 -1.23628 1
gene 1 19 20 1.09702 0 19 1.09702 1
gene 1 1 21 -0.0232359 0 20 -0.0232359 1
gene 1 2 21 0.0424814 0 21 0.0424814 1
gene 1 3 21 0.713541 0 22 0.713541 1
gene 1 4 21 -0.203388 0 23 -0.203388 1
gene 1 5 21 -1.09743 0 24 -1.09743 1
gene 1 6 21 0.224837 0 25 0.224837 1
gene 1 7 21 1.02411 0 26 1.02411 1
gene 1 8 21 -0.0333736 0 27 -0.0333736 1
gene 1 9 21 0.126416 0 28 0.126416 1
gene 1 10 21 -0.339041 0 29 -0.339041 1
gene 1 11 21 0.54743 0 30 0.54743 1
gene 1 12 21 -0.0704038 0 31 -0.0704038 1
gene 1 13 21 -0.685543 0 32 -0.685543 1
gene 1 14 21 -0.00217629 0 33 -0.00217629 1
gene 1 15 21 -0.22346 0 34 -0.22346 1
gene 1 16 21 -0.00524386 0 35 -0.00524386 1
gene 1 17 21 -0.537936 0 36 -0.537936 1
gene 1 18 21 -0.0994471 0 37 -0.0994471 1
gene 1 19 21 -0.335548 0 38 -0.335548 1
gene 1 1 22 -0.175374 0 39 -0.175374 1
gene 1 2 22 -0.267185 0 40 -0.267185 1
gene 1 3 22 -0.529828 0 41 -0.529828 1
gene 1 4 22 1.02687 0 42 1.02687 1
gene 1 5 22 -0.478872 0 43 -0.478872 0
gene 1 6 22 -0.31769 0 44 -0.31769 1
gene 1 7 22 -0.334855 0 45 -0.334855 1
gene 1 8 22 0.182198 0 46 0.182198 1
gene 1 9 22 1.09428 0 47 1.09428 1
gene 1 10 22 0.943598 0 48 0.943598 1
gene 1 11 22 1.1895 0 49 1.1895 1
gene 1 12 22 0.756175 0 50 0.756175 1
gene 1 13 22 -1.21656 0 51 -1.21656 1
gene 1 14 22 1.14087 0 52 1.14087 1
gene 1 15 22 -0.556176 0 53 -0.556176 1
gene 1 16 22 0.210301 0 54 0.210301 1
gene 1 17 22 0.521844 0 55 0.521844 1
gene 1 18 22 -0.799997 0 56 -0.799997 1
gene 1 19 22 0.918864 0 57 0.918864 1
gene 1 1 23 0.193156 0 58 0.193156 1
gene 1 2 23 1.53467 0 59 1.53467 1
gene 1 3 23 -1.3337 0 60 -1.3337 1
gene 1 4 23 -0.504558 0 61 -0.504558 1
gene 1 5 23 0.723591 0 62 0.723591 1
gene 1 6 23 0.286626 0 63 0.286626 1
gene 1 7 23 -0.110608 0 64 -0.110608 0
gene 1 8 23 1.04865 0 65 1.04865 1
gene 1 9 23 0.219305 0 66 0.219305 1
gene 1 10 23 -0.487738 0 67 -0.487738 1
gene 1 11 23 0.371652 0 68 0.371652 0
gene 1 12 23 -0.0475733 0 69 -0.0475733 1
gene 1 13 23 -0.475074 0 70 -0.475074 1
gene 1 14 23 1.20505 0 71 1.20505 1
gene 1 15 23 0.334995 0 72 0.334995 1
gene 1 16 23 -0.718059 0 73 -0.718059 1
gene 1 17 23 0.490784 0 74 0.490784 1
gene 1 18 23 0.240084 0 75 0.240084 1
gene 1 19 23 -2.68284 0 76 -2.68284 1
gene 1 20 22 0.731176 0 78 0.731176 1
gene 1 21 23 -0.888831 0 80 -0.888831 1
gene 1 21 22 1.26475 0 91 1.26475 0
gene 1 21 20 0.261823 0 96 0.261823 1
gene 1 23 20 0.522187 0 120 0.522187 1
gene 1 15 37 0.510176 0 125 0.510176 1
gene 1 37 21 -0.408099 0 126 -0.408099 1
gene 1 17 42 1.67717 0 141 1.67717 1
gene 1 42 22 0.279137 0 142 0.279137 1
gene 1 22 22 0.657186 1 153 0.657186 1
gene 1 8 63 0.347067 0 215 0.347067 1
gene 1 63 20 0.102449 0 216 0.102449 1
gene 1 16 64 0.292192 0 218 0.292192 1
gene 1 64 22 1.28022 0 219 1.28022 1
gene 1 7 67 0.564793 0 225 0.564793 1
gene 1 67 23 0.552618 0 226 0.552618 1
gene 1 6 64 -0.806357 0 232 -0.806357 1
gene 1 23 23 0.498806 1 252 0.498806 1
gene 1 1 63 -0.178315 0 254 -0.178315 1
gene 1 11 72 -0.706556 0 258 -0.706556 1
gene 1 72 21 0.827055 0 259 0.827055 1
gene 1 16 63 0.421608 0 264 0.421608 1
gene 1 1 67 0.710346 0 265 0.710346 1
gene 1 20 20 -0.137138 1 269 -0.137138 1
gene 1 17 73 0.0256789 0 282 0.0256789 1
gene 1 73 20 0.472181 0 283 0.472181 1
gene 1 37 37 -1.33768 1 284 -1.33768 1
gene 1 67 67 -0.447855 1 305 -0.447855 1
gene 1 63 63 1.27798 1 306 1.27798 1
gene 1 14 82 0.0360651 0 310 0.0360651 1
gene 1 82 21 1.04213 0 311 1.04213 1
gene 1 21 83 0.181255 0 314 0.181255 1
gene 1 83 22 -0.162763 0 315 -0.162763 1
gene 1 6 84 1.29176 0 316 1.29176 1
gene 1 84 22 -0.0383214 0 317 -0.0383214 1
gene 1 11 89 0.311656 0 331 0.311656 1
gene 1 89 23 -0.178981 0 332 -0.178981 1
gene 1 63 93 -0.0373841 1 340 -0.0373841 1
gene 1 93 63 -0.217051 0 341 -0.217051 1
gene 1 72 94 0.286105 0 345 0.286105 1
gene 1 94 21 0.0371148 0 346 0.0371148 1
gene 1 16 106 0.831631 0 385 0.831631 1
gene 1 106 63 -0.158075 0 386 -0.158075 1
gene 1 89 73 0.245935 0 389 0.245935 1
gene 1 67 63 0.220413 0 440 0.220413 1
gene 1 19 64 -0.419635 0 467 -0.419635 1
gene 1 1 128 0.446866 0 478 0.446866 1
gene 1 128 20 -0.132067 0 479 -0.132067 1
gene 1 5 135 0.0583992 0 514 0.0583992 1
gene 1 135 22 -0.121613 0 515 -0.121613 1
gene 1 72 136 -0.0569684 0 519 -0.0569684 1
gene 1 136 21 -0.048093 0 520 -0.048093 1
gene 1 14 84 -1.48718 0 530 -1.48718 1
gene 1 13 147 0.0776167 0 558 0.0776167 1
gene 1 147 21 -0.0619143 0 559 -0.0619143 1
gene 1 10 94 0.127635 0 570 0.127635 1
gene 1 9 84 -0.675412 0 573 -0.675412 1
gene 1 18 67 -0.106929 0 574 -0.106929 1
gene 1 106 23 0.456242 0 576 0.456242 1
gene 1 73 64 0.0891467 0 613 0.0891467 1
gene 1 135 21 -0.258575 0 623 -0.258575 1
gene 1 11 93 0.252033 0 658 0.252033 1
gene 1 18 106 0.380547 0 674 0.380547 1
gene 1 15 89 -0.682985 0 675 -0.682985 1
gene 1 67 180 0.737734 0 710 0.737734 1
gene 1 180 63 0.306654 0 711 0.306654 1
genomeend 3818
genomestart 3825
trait 1 0.510455 0.618243 0.821785 0.713438 0.316466 0.428778 0.862368 0.738193 
node 1 1 1 1 0
node 2 1 1 1 0
node 3 1 1 1 0
node 4 1 1 1 0
node 5 1 1 1 0
node 6 1 1 1 0
node 7 1 1 1 0
node 8 1 1 1 0
node 9 1 1 1 0
node 10 1 1 1 0
node 11 1 1 1 0
node 12 1 1 1 0
node 13 1 1 1 0
node 14 1 1 1 0
node 15 1 1 1 0
node 16 1 1 1 0
node 17 1 1 1 0
node 18 1 1 1 0
node 19 1 1 3 0
node 20 1 0 2 0
node 21 1 0 2 0
node 22 1 0 2 0
node 23 1 0 2 0
node 37 1 0 0 0
node 42 1 0 0 0
node 63 1 0 0 0
node 64 1 0 0 0
node 67 1 0 0 0
node 72 1 0 0 0
node 73 1 0 0 0
node 82 1 0 0 0
node 83 1 0 0 0
node 84 1 0 0 0
node 89 1 0 0 0
node 93 1 0 0 0
node 94 1 0 0 0
node 106 1 0 0 0
node 128 1 0 0 0
node 135 1 0 0 0
node 136 1 0 0 0
node 147 1 0 0 0
node 180 1 0 0 0
gene 1 1 20 0.905705 0 1 0.905705 0
gene 1 2 20 0.512854 0 2 0.512854 1
gene 1 3 20 -0.302283 0 3 -0.302283 1
gene 1 4 20 0.348633 0 4 0.348633 1
gene 1 5 20 0.811355 0 5 0.811355 1
gene 1 6 20 1.97277 0 6 1.97277 1
gene 1 7 20 0.883916 0 7 0.883916 1
gene 1 8 20 -0.239994 0 8 -0.239994 1
gene 1 9 20 -0.381834 0 9 -0.381834 1
gene 1 10 20 -1.13128 0 10 -1.13128 1
gene 1 11 20 -0.614753 0 11 -0.614753 1
gene 1 12 20 -0.203592 0 12 -0.203592 1
gene 1 13 20 0.586715 0 13 0.586715 1
gene 1 14 20 -1.42006 0 14 -1.42006 1
gene 1 15 20 0.525223 0 15 0.525223 1
gene 1 16 20 0.234074 0 16 0.234074 1
gene 1 17 20 -0.0637335 0 17 -0.0637335 1
gene 1 18 20 -1.63934 0 18 -1.63934 1
gene 1 19 20 -0.254651 0 19 -0.254651 1
gene 1 1 21 0.998667 0 20 0.998667 1
gene 1 2 21 -0.558062 0 21 -0.558062 1
gene 1 3 21 0.182577 0 22 0.182577 1
gene 1 4 21 0.896196 0 23 0.896196 1
gene 1 5 21 -1.03014 0 24 -1.03014 1
gene 1 6 21 -0.228397 0 25 -0.228397 1
gene 1 7 21 0.915128 0 26 0.915128 1
gene 1 8 21 0.281369 0 27 0.281369 1
gene 1 9 21 0.229546 0 28 0.229546 1
gene 1 10 21 -0.616178 0 29 -0.616178 1
gene 1 11 21 -0.149749 0 30 -0.149749 1
gene 1 12 21 0.522664 0 31 0.522664 1
gene 1 13 21 0.0224066 0 32 0.0224066 1
gene 1 14 21 0.700932 0 33 0.700932 1
gene 1 15 21 -0.319103 0 34 -0.319103 1
gene 1 16 21 -0.508564 0 35 -0.508564 1
gene 1 17 21 -0.429813 0 36 -0.429813 1
gene 1 18 21 -0.222221 0 37 -0.222221 1
gene 1 19 21 -0.239694 0 38 -0.239694 1
gene 1 1 22 -0.491021 0 39 -0.491021 1
gene 1 2 22 -0.162879 0 40 -0.162879 1
gene 1 3 22 -0.0846762 0 41 -0.0846762 1
gene 1 4 22 0.721168 0 42 0.721168 1
gene 1 5 22 -0.536852 0 43 -0.536852 0
gene 1 6 22 -0.583772 0 44 -0.583772 1
gene 1 7 22 -0.410438 0 45 -0.410438 1
gene 1 8 22 0.270383 0 46 0.270383 1
gene 1 9 22 0.304372 0 47 0.304372 1
gene 1 10 22 0.809191 0 48 0.809191 1
gene 1 11 22 -0.107554 0 49 -0.107554 1
gene 1 12 22 0.255387 0 50 0.255387 1
gene 1 13 22 -1.455 0 51 -1.455 1
gene 1 14 22 0.660786 0 52 0.660786 1
gene 1 15 22 0.332322 0 53 0.332322 1
gene 1 16 22 0.790271 0 54 0.790271 1
gene 1 17 22 -0.114822 0 55 -0.114822 1
gene 1 18 22 -0.898291 0 56 -0.898291 1
gene 1 19 22 0.999735 0 57 0.999735 1
gene 1 1 23 0.571661 0 58 0.571661 1
gene 1 2 23 1.11328 0 59 1.11328 1
gene 1 3 23 -0.635075 0 60 -0.635075 1
gene 1 4 23 -0.00908415 0 61 -0.00908415 1
gene 1 5 23 -0.15279 0 62 -0.15279 1
gene 1 6 23 0.731359 0 63 0.731359 1
gene 1 7 23 -0.131562 0 64 -0.131562 0
gene 1 8 23 0.0550537 0 65 0.0550537 1
gene 1 9 23 -1.08675 0 66 -1.08675 1
gene 1 10 23 -1.697 0 67 -1.697 1
gene 1 11 23 0.506901 0 68 0.506901 1
gene 1 12 23 -0.396542 0 69 -0.396542 1
gene 1 13 23 -0.0796672 0 70 -0.0796672 1
gene 1 14 23 0.666521 0 71 0.666521 1
gene 1 15 23 1.1947 0 72 1.1947 1
gene 1 16 23 -0.0950157 0 73 -0.0950157 1
gene 1 17 23 -0.313568 0 74 -0.313568 1
gene 1 18 23 -0.0254694 0 75 -0.0254694 1
gene 1 19 23 -1.46926 0 76 -1.46926 1
gene 1 20 22 0.418965 0 78 0.418965 1
gene 1 21 23 -0.746094 0 80 -0.746094 1
gene 1 21 22 1.82973 0 91 1.82973 0
gene 1 21 20 0.530233 0 96 0.530233 1
gene 1 23 20 0.510709 0 120 0.510709 1
gene 1 15 37 -0.119801 0 125 -0.119801 1
gene 1 37 21 -0.677878 0 126 -0.677878 1
gene 1 17 42 0.23562 0 141 0.23562 1
gene 1 42 22 0.719583 0 142 0.719583 1
gene 1 22 22 0.98691 1 153 0.98691 1
gene 1 8 63 -0.62173 0 215 -0.62173 1
gene 1 63 20 -0.402036 0 216 -0.402036 1
gene 1 16 64 1.29647 0 218 1.29647 1
gene 1 64 22 0.681917 0 219 0.681917 1
gene 1 7 67 0.842684 0 225 0.842684 1
gene 1 67 23 -0.266296 0 226 -0.266296 1
gene 1 6 64 -0.635824 0 232 -0.635824 1
gene 1 23 23 0.922812 1 252 0.922812 1
gene 1 1 63 -0.764019 0 254 -0.764019 1
gene 1 11 72 0.774578 0 258 0.774578 1
gene 1 72 21 1.97715 0 259 1.97715 1
gene 1 16 63 -0.612085 0 264 -0.612085 1
gene 1 1 67 -0.399985 0 265 -0.399985 1
gene 1 20 20 -0.913025 1 269 -0.913025 1
gene 1 17 73 0.655482 0 282 0.655482 1
gene 1 73 20 -0.412689 0 283 -0.412689 1
gene 1 37 37 0.00342859 1 284 0.00342859 1
gene 1 67 67 1.54613 1 305 1.54613 1
gene 1 63 63 -0.269873 1 306 -0.269873 1
gene 1 14 82 0.984391 0 310 0.984391 1
gene 1 82 21 0.343975 0 311 0.343975 1
gene 1 21 83 0.716254 0 314 0.716254 1
gene 1 83 22 -0.129518 0 315 -0.129518 1
gene 1 6 84 0.53399 0 316 0.53399 1
gene 1 84 22 0.582631 0 317 0.582631 1
gene 1 11 89 -0.376392 0 331 -0.376392 1
gene 1 89 23 -0.432425 0 332 -0.432425 1
gene 1 63 93 0.551428 1 340 0.551428 1
gene 1 93 63 0.365963 0 341 0.365963 1
gene 1 72 94 0.521852 0 345 0.521852 1
gene 1 94 21 -0.0195589 0 346 -0.0195589 1
gene 1 16 106 -0.321581 0 385 -0.321581 1
gene 1 106 63 0.380812 0 386 0.380812 1
gene 1 89 73 -0.134177 0 389 -0.134177 1
gene 1 67 63 0.758329 0 440 0.758329 0
gene 1 19 64 0.318606 0 467 0.318606 1
gene 1 1 128 -0.205663 0 478 -0.205663 1
gene 1 128 20 -0.470705 0 479 -0.470705 1
gene 1 5 135 -0.0731179 0 514 -0.0731179 1
gene 1 135 22 -0.113498 0 515 -0.113498 1
gene 1 72 136 0.183686 0 519 0.183686 1
gene 1 136 21 -0.529856 0 520 -0.529856 1
gene 1 14 84 -0.452708 0 530 -0.452708 1
gene 1 13 147 -0.313373 0 558 -0.313373 1
gene 1 147 21 0.105933 0 559 0.105933 1
gene 1 10 94 -0.402987 0 570 -0.402987 1
gene 1 9 84 0.489173 0 573 0.489173 1
gene 1 18 67 -0.0176044 0 574 -0.0176044 1
gene 1 106 23 0.315313 0 576 0.315313 1
gene 1 73 64 -0.19387 0 613 -0.19387 1
gene 1 135 21 -0.869415 0 623 -0.869415 1
gene 1 11 93 -0.323143 0 658 -0.323143 1
gene 1 18 106 0.0172268 0 674 0.0172268 1
gene 1 15 89 -0.161842 0 675 -0.161842 1
gene 1 67 180 0.606526 0 710 0.606526 1
gene 1 180 63 0.543153 0 711 0.543153 1
genomeend 3825
genomestart 3833
trait 1 0.512249 0.618239 0.821968 0.728065 0.302242 0.388151 0.857627 0.737021 
node 1 1 1 1 0
node 2 1 1 1 0
node 3 1 1 1 0
node 4 1 1 1 0
node 5 1 1 1 0
node 6 1 1 1 0
node 7 1 1 1 0
node 8 1 1 1 0
node 9 1 1 1 0
node 10 1 1 1 0
node 11 1 1 1 0
node 12 1 1 1 0
node 13 1 1 1 0
node 14 1 1 1 0
node 15 1 1 1 0
node 16 1 1 1 0
node 17 1 1 1 0
node 18 1 1 1 0
node 19 1 1 3 0
node 20 1 0 2 0
node 21 1 0 2 0
node 22 1 0 2 0
node 23 1 0 2 0
node 37 1 0 0 0
node 42 1 0 0 0
node 63 1 0 0 0
node 64 1 0 0 0
node 67 1 0 0 0
node 72 1 0 0 0
node 73 1 0 0 0
node 82 1 0 0 0
node 83 1 0 0 0
node 84 1 0 0 0
node 89 1 0 0 0
node 93 1 0 0 0
node 94 1 0 0 0
node 106 1 0 0 0
node 128 1 0 0 0
node 135 1 0 0 0
node 136 1 0 0 0
node 147 1 0 0 0
node 180 1 0 0 0
gene 1 1 20 0.614292 0 1 0.614292 0
gene 1 2 20 0.108207 0 2 0.108207 1
gene 1 3 20 0.155838 0 3 0.155838 1
gene 1 4 20 -0.161608 0 4 -0.161608 1
gene 1 5 20 0.397877 0 5 0.397877 1
gene 1 6 20 1.06601 0 6 1.06601 1
gene 1 7 20 0.577973 0 7 0.577973 1
gene 1 8 20 -0.0401283 0 8 -0.0401283 1
gene 1 9 20 -0.688264 0 9 -0.688264 1
gene 1 10 20 -0.45451 0 10 -0.45451 1
gene 1 11 20 -1.25759 0 11 -1.25759 1
gene 1 12 20 0.0531296 0 12 0.0531296 1
gene 1 13 20 0.23118 0 13 0.23118 1
gene 1 14 20 -1.58147 0 14 -1.58147 1
gene 1 15 20 -0.0511552 0 15 -0.0511552 1
gene 1 16 20 -0.531838 0 16 -0.531838 1
gene 1 17 20 -0.0723924 0 17 -0.0723924 1
gene 1 18 20 -1.22219 0 18 -1.22219 1
gene 1 19 20 0.649304 0 19 0.649304 1
gene 1 1 21 0.485185 0 20 0.485185 1
gene 1 2 21 -0.294945 0 21 -0.294945 1
gene 1 3 21 0.573946 0 22 0.573946 1
gene 1 4 21 0.29114 0 23 0.29114 1
gene 1 5 21 -1.31006 0 24 -1.31006 1
gene 1 6 21 0.134929 0 25 0.134929 1
gene 1 7 21 0.875244 0 26 0.875244 1
gene 1 8 21 0.0386848 0 27 0.0386848 1
gene 1 9 21 0.0360155 0 28 0.0360155 1
gene 1 10 21 -0.279948 0 29 -0.279948 1
gene 1 11 21 0.309163 0 30 0.309163 1
gene 1 12 21 0.0201331 0 31 0.0201331 1
gene 1 13 21 -0.248584 0 32 -0.248584 1
gene 1 14 21 0.431845 0 33 0.431845 1
gene 1 15 21 -0.315162 0 34 -0.315162 1
gene 1 16 21 -0.237356 0 35 -0.237356 1
gene 1 17 21 -0.409607 0 36 -0.409607 1
gene 1 18 21 -0.348932 0 37 -0.348932 1
gene 1 19 21 -0.40823 0 38 -0.40823 1
gene 1 1 22 -0.199379 0 39 -0.199379 1
gene 1 2 22 -0.0473419 0 40 -0.0473419 1
gene 1 3 22 -0.51579 0 41 -0.51579 1
gene 1 4 22 1.04009 0 42 1.04009 1
gene 1 5 22 -0.576391 0 43 -0.576391 0
gene 1 6 22 -0.680189 0 44 -0.680189 1
gene 1 7 22 -0.34011 0 45 -0.34011 1
gene 1 8 22 0.00689864 0 46 0.00689864 1
gene 1 9 22 0.539291 0 47 0.539291 1
gene 1 10 22 0.833451 0 48 0.833451 1
gene 1 11 22 0.678096 0 49 0.678096 1
gene 1 12 22 0.648996 0 50 0.648996 1
gene 1 13 22 -1.23419 0 51 -1.23419 1
gene 1 14 22 0.900537 0 52 0.900537 1
gene 1 15 22 -0.0703471 0 53 -0.0703471 1
gene 1 16 22 0.551015 0 54 0.551015 1
gene 1 17 22 0.238312 0 55 0.238312 1
gene 1 18 22 -0.819383 0 56 -0.819383 1
gene 1 19 22 0.906723 0 57 0.906723 1
gene 1 1 23 0.438959 0 58 0.438959 1
gene 1 2 23 1.30074 0 59 1.30074 1
gene 1 3 23 -0.954354 0 60 -0.954354 1
gene 1 4 23 -0.0569044 0 61 -0.0569044 1
gene 1 5 23 0.329658 0 62 0.329658 1
gene 1 6 23 0.501576 0 63 0.501576 1
gene 1 7 23 -0.0647004 0 64 -0.0647004 0
gene 1 8 23 0.67532 0 65 0.67532 1
gene 1 9 23 -0.24267 0 66 -0.24267 1
gene 1 10 23 -0.847511 0 67 -0.847511 1
gene 1 11 23 0.313144 0 68 0.313144 1
gene 1 12 23 -0.274718 0 69 -0.274718 1
gene 1 13 23 -0.247888 0 70 -0.247888 1
gene 1 14 23 1.14359 0 71 1.14359 1
gene 1 15 23 0.560919 0 72 0.560919 1
gene 1 16 23 -0.276116 0 73 -0.276116 1
gene 1 17 23 -0.0190968 0 74 -0.0190968 1
gene 1 18 23 0.214474 0 75 0.214474 1
gene 1 19 23 -2.25742 0 76 -2.25742 1
gene 1 20 22 0.794998 0 78 0.794998 1
gene 1 21 23 -0.975831 0 80 -0.975831 1
gene 1 21 22 1.61462 0 91 1.61462 0
gene 1 21 20 0.423251 0 96 0.423251 1
gene 1 23 20 0.67207 0 120 0.67207 1
gene 1 15 37 0.27195 0 125 0.27195 1
gene 1 37 21 -0.625417 0 126 -0.625417 1
gene 1 17 42 0.964637 0 141 0.964637 1
gene 1 42 22 0.323858 0 142 0.323858 1
gene 1 22 22 0.768568 1 153 0.768568 1
gene 1 8 63 0.0912514 0 215 0.0912514 1
gene 1 63 20 -0.0652207 0 216 -0.0652207 1
gene 1 16 64 0.633276 0 218 0.633276 1
gene 1 64 22 0.926987 0 219 0.926987 1
gene 1 7 67 0.939438 0 225 0.939438 1
gene 1 67 23 0.0420806 0 226 0.0420806 1
gene 1 6 64 -0.695208 0 232 -0.695208 1
gene 1 23 23 0.486373 1 252 0.486373 1
gene 1 1 63 -0.286472 0 254 -0.286472 1
gene 1 11 72 -0.0749961 0 258 -0.0749961 1
gene 1 72 21 1.15791 0 259 1.15791 1
gene 1 16 63 -0.229987 0 264 -0.229987 1
gene 1 1 67 0.234332 0 265 0.234332 1
gene 1 20 20 -0.613342 1 269 -0.613342 1
gene 1 17 73 0.319846 0 282 0.319846 1
gene 1 73 20 0.190083 0 283 0.190083 1
gene 1 37 37 -0.672488 1 284 -0.672488 1
gene 1 67 67 0.531653 1 305 0.531653 1
gene 1 63 63 0.426193 1 306 0.426193 1
gene 1 14 82 0.516342 0 310 0.516342 1
gene 1 82 21 0.532902 0 311 0.532902 1
gene 1 21 83 0.200602 0 314 0.200602 1
gene 1 83 22 -0.299066 0 315 -0.299066 1
gene 1 6 84 0.781395 0 316 0.781395 1
gene 1 84 22 0.223742 0 317 0.223742 1
gene 1 11 89 -0.16432 0 331 -0.16432 1
gene 1 89 23 -0.130856 0 332 -0.130856 1
gene 1 63 93 0.285495 1 340 0.285495 1
gene 1 93 63 -0.112337 0 341 -0.112337 1
gene 1 72 94 0.177026 0 345 0.177026 1
gene 1 94 21 0.215339 0 346 0.215339 1
gene 1 16 106 0.44949 0 385 0.44949 1
gene 1 106 63 0.289887 0 386 0.289887 1
gene 1 89 73 0.055879 0 389 0.055879 1
gene 1 67 63 0.278173 0 440 0.278173 1
gene 1 19 64 -0.183343 0 467 -0.183343 1
gene 1 1 128 0.120601 0 478 0.120601 1
gene 1 128 20 -0.193823 0 479 -0.193823 1
gene 1 5 135 -0.00735935 0 514 -0.00735935 1
gene 1 135 22 -0.103175 0 515 -0.103175 1
gene 1 72 136 -0.286142 0 519 -0.286142 1
gene 1 136 21 -0.197059 0 520 -0.197059 1
gene 1 14 84 -0.969942 0 530 -0.969942 1
gene 1 13 147 0.259828 0 558 0.259828 1
gene 1 147 21 0.180671 0 559 0.180671 1
gene 1 10 94 -0.137676 0 570 -0.137676 1
gene 1 9 84 -0.268502 0 573 -0.268502 1
gene 1 18 67 -0.0622667 0 574 -0.0622667 1
gene 1 106 23 0.151593 0 576 0.151593 1
gene 1 73 64 -0.0523615 0 613 -0.0523615 1
gene 1 135 21 -0.318607 0 623 -0.318607 1
gene 1 11 93 -0.0355548 0 658 -0.0355548 1
gene 1 18 106 0.198887 0 674 0.198887 1
gene 1 15 89 -0.299167 0 675 -0.299167 1
gene 1 67 180 0.427694 0 710 0.427694 1
gene 1 180 63 0.335203 0 711 0.335203 1
genomeend 3833
genomestart 3837
trait 1 0.435041 0.218544 0.699495 0.640115 0.679767 0.186561 0.638015 0.185249 
node 1 1 1 1 0
node 2 1 1 1 0
node 3 1 1 1 0
node 4 1 1 1 0
node 5 1 1 1 0
node 6 1 1 1 0
node 7 1 1 1 0
node 8 1 1 1 0
node 9 1 1 1 0
node 10 1 1 1 0
node 11 1 1 1 0
node 12 1 1 1 0
node 13 1 1 1 0
node 14 1 1 1 0
node 15 1 1 1 0
node 16 1 1 1 0
node 17 1 1 1 0
node 18 1 1 1 0
node 19 1 1 3 0
node 20 1 0 2 0
node 21 1 0 2 0
node 22 1 0 2 0
node 23 1 0 2 0
node 63 1 0 0 0
node 67 1 0 0 0
node 73 1 0 0 0
node 117 1 0 0 0
node 118 1 0 0 0
node 120 1 0 0 0
node 138 1 0 0 0
node 173 1 0 0 0
gene 1 1 20 0.289711 0 1 0.289711 1
gene 1 2 20 0.00105671 0 2 0.00105671 1
gene 1 3 20 -0.463945 0 3 -0.463945 1
gene 1 4 20 1.23914 0 4 1.23914 1
gene 1 5 20 -0.374958 0 5 -0.374958 1
gene 1 6 20 0.476473 0 6 0.476473 1
gene 1 7 20 -0.4422 0 7 -0.4422 1
gene 1 8 20 -0.482343 0 8 -0.482343 1
gene 1 9 20 -0.531465 0 9 -0.531465 1
gene 1 10 20 0.419872 0 10 0.419872 1
gene 1 11 20 0.044586 0 11 0.044586 1
gene 1 12 20 -0.704176 0 12 -0.704176 1
gene 1 13 20 -0.358504 0 13 -0.358504 1
gene 1 14 20 -0.350987 0 14 -0.350987 1
gene 1 15 20 -0.391179 0 15 -0.391179 0
gene 1 16 20 0.631281 0 16 0.631281 1
gene 1 17 20 2.16034 0 17 2.16034 1
gene 1 18 20 -0.293754 0 18 -0.293754 1
gene 1 19 20 -0.421849 0 19 -0.421849 1
gene 1 1 21 -0.81038 0 20 -0.81038 1
gene 1 2 21 -0.114903 0 21 -0.114903 1
gene 1 3 21 0.363053 0 22 0.363053 1
gene 1 4 21 -0.156104 0 23 -0.156104 1
gene 1 5 21 0.214406 0 24 0.214406 1
gene 1 6 21 0.0787544 0 25 0.0787544 1
gene 1 7 21 0.0315369 0 26 0.0315369 1
gene 1 8 21 0.167025 0 27 0.167025 1
gene 1 9 21 0.252804 0 28 0.252804 1
gene 1 10 21 -0.430439 0 29 -0.430439 1
gene 1 11 21 0.350549 0 30 0.350549 1
gene 1 12 21 0.119103 0 31 0.119103 1
gene 1 13 21 0.207832 0 32 0.207832 1
gene 1 14 21 1.57245 0 33 1.57245 1
gene 1 15 21 0.3445 0 34 0.3445 1
gene 1 16 21 0.489492 0 35 0.489492 1
gene 1 17 21 -0.188298 0 36 -0.188298 1
gene 1 18 21 -0.691661 0 37 -0.691661 1
gene 1 19 21 0.219772 0 38 0.219772 1
gene 1 1 22 0.333039 0 39 0.333039 1
gene 1 2 22 -1.20096 0 40 -1.20096 1
gene 1 3 22 -0.244034 0 41 -0.244034 1
gene 1 4 22 0.00777564 0 42 0.00777564 1
gene 1 5 22 -0.175707 0 43 -0.175707 1
gene 1 6 22 0.0788678 0 44 0.0788678 1
gene 1 7 22 0.757206 0 45 0.757206 1
gene 1 8 22 -1.24842 0 46 -1.24842 1
gene 1 9 22 -0.416878 0 47 -0.416878 1
gene 1 10 22 -0.00253669 0 48 -0.00253669 1
gene 1 11 22 0.112565 0 49 0.112565 1
gene 1 12 22 -0.527871 0 50 -0.527871 1
gene 1 13 22 -0.031082 0 51 -0.031082 1
gene 1 14 22 0.0448748 0 52 0.0448748 1
gene 1 15 22 0.0546426 0 53 0.0546426 1
gene 1 16 22 0.487336 0 54 0.487336 1
gene 1 17 22 1.03887 0 55 1.03887 1
gene 1 18 22 -1.59785 0 56 -1.59785 1
gene 1 19 22 1.02031 0 57 1.02031 1
gene 1 1 23 0.223594 0 58 0.223594 1
gene 1 2 23 -0.0973701 0 59 -0.0973701 1
gene 1 3 23 -0.828688 0 60 -0.828688 1
gene 1 4 23 1.94837 0 61 1.94837 1
gene 1 5 23 -0.239453 0 62 -0.239453 0
gene 1 6 23 -0.457116 0 63 -0.457116 1
gene 1 7 23 -0.183105 0 64 -0.183105 1
gene 1 8 23 -0.156831 0 65 -0.156831 1
gene 1 9 23 0.171431 0 66 0.171431 1
gene 1 10 23 -0.940281 0 67 -0.940281 1
gene 1 11 23 0.0729594 0 68 0.0729594 1
gene 1 12 23 -0.417457 0 69 -0.417457 0
gene 1 13 23 0.957385 0 70 0.957385 1
gene 1 14 23 0.0885613 0 71 0.0885613 1
gene 1 15 23 -0.346202 0 72 -0.346202 1
gene 1 16 23 0.318562 0 73 0.318562 1
gene 1 17 23 -1.37154 0 74 -1.37154 1
gene 1 18 23 -0.150772 0 75 -0.150772 1
gene 1 19 23 0.9984 0 76 0.9984 1
gene 1 20 22 0.243977 0 78 0.243977 1
gene 1 21 23 -0.851017 0 80 -0.851017 1
gene 1 23 20 -0.135912 0 120 -0.135912 1
gene 1 22 22 -0.828282 1 153 -0.828282 1
gene 1 8 63 1.30812 0 215 1.30812 1
gene 1 63 20 -0.546465 0 216 -0.546465 1
gene 1 7 67 -0.276983 0 225 -0.276983 1
gene 1 67 23 0.117469 0 226 0.117469 1
gene 1 1 63 -0.0969528 0 254 -0.0969528 1
gene 1 16 63 1.17337 0 264 1.17337 1
gene 1 1 67 -0.551517 0 265 -0.551517 1
gene 1 8 67 0.734759 0 281 0.734759 1
gene 1 17 73 0.0983033 0 282 0.0983033 1
gene 1 73 20 -0.447487 0 283 -0.447487 1
gene 1 23 23 0.0171997 1 320 0.0171997 1
gene 1 63 73 0.106682 0 330 0.106682 1
gene 1 18 73 0.0424544 0 335 0.0424544 1
gene 1 15 73 0.326536 0 387 0.326536 1
gene 1 9 63 0.77079 0 395 0.77079 1
gene 1 63 23 -0.198123 0 406 -0.198123 1
gene 1 15 63 1.33476 0 422 1.33476 1
gene 1 19 63 0.2351 0 423 0.2351 1
gene 1 2 67 -0.0933409 0 435 -0.0933409 1
gene 1 15 117 -0.23385 0 450 -0.23385 1
gene 1 117 20 0.275616 0 451 0.275616 1
gene 1 12 118 0.887156 0 452 0.887156 1
gene 1 118 23 -0.193201 0 453 -0.193201 1
gene 1 1 120 0.0489841 0 459 0.0489841 1
gene 1 120 21 -0.417731 0 460 -0.417731 1
gene 1 5 138 0.134635 0 525 0.134635 1
gene 1 138 23 -0.223869 0 526 -0.223869 1
gene 1 7 117 -0.249936 0 538 -0.249936 1
gene 1 21 63 0.293064 0 548 0.293064 1
gene 1 118 118 -0.211353 1 554 -0.211353 1
gene 1 14 118 0.318655 0 557 0.318655 1
gene 1 6 117 -0.298593 0 572 -0.298593 1
gene 1 5 117 -0.33228 0 578 -0.33228 1
gene 1 117 118 -0.0463677 0 595 -0.0463677 1
gene 1 9 67 0.873659 0 621 0.873659 1
gene 1 118 73 0.346381 0 636 0.346381 1
gene 1 7 118 -0.105292 0 649 -0.105292 1
gene 1 21 117 0.0912629 0 653 0.0912629 1
gene 1 16 173 -0.515429 0 663 -0.515429 1
gene 1 173 22 0.126312 0 664 0.126312 1
gene 1 16 73 -0.179379 0 712 -0.179379 1
gene 1 18 118 1.04703 0 714 1.04703 1
genomeend 3837
genomestart 3851
trait 1 0.512249 0.618239 0.821968 0.728065 0.302242 0.388151 0.857627 0.737021 
node 1 1 1 1 0
node 2 1 1 1 0
node 3 1 1 1 0
node 4 1 1 1 0
node 5 1 1 1 0
node 6 1 1 1 0
node 7 1 1 1 0
node 8 1 1 1 0
node 9 1 1 1 0
node 10 1 1 1 0
node 11 1 1 1 0
node 12 1 1 1 0
node 13 1 1 1 0
node 14 1 1 1 0
node 15 1 1 1 0
node 16 1 1 1 0
node 17 1 1 1 0
node 18 1 1 1 0
node 19 1 1 3 0
node 20 1 0 2 0
node 21 1 0 2 0
node 22 1 0 2 0
node 23 1 0 2 0
node 37 1 0 0 0
node 42 1 0 0 0
node 63 1 0 0 0
node 64 1 0 0 0
node 67 1 0 0 0
node 72 1 0 0 0
node 73 1 0 0 0
node 82 1 0 0 0
node 83 1 0 0 0
node 84 1 0 0 0
node 89 1 0 0 0
node 93 1 0 0 0
node 94 1 0 0 0
node 106 1 0 0 0
node 128 1 0 0 0
node 135 1 0 0 0
node 136 1 0 0 0
node 147 1 0 0 0
node 180 1 0 0 0
gene 1 1 20 0.905705 0 1 0.905705 0
gene 1 2 20 -0.606721 0 2 -0.606721 1
gene 1 3 20 -0.0848747 0 3 -0.0848747 1
gene 1 4 20 0.447708 0 4 0.447708 1
gene 1 5 20 -0.266802 0 5 -0.266802 1
gene 1 6 20 0.655277 0 6 0.655277 1
gene 1 7 20 0.660634 0 7 0.660634 1
gene 1 8 20 0.4773 0 8 0.4773 1
gene 1 9 20 -0.895525 0 9 -0.895525 1
gene 1 10 20 -0.928452 0 10 -0.928452 1
gene 1 11 20 -0.536782 0 11 -0.536782 1
gene 1 12 20 -0.398139 0 12 -0.398139 1
gene 1 13 20 0.590843 0 13 0.590843 1
gene 1 14 20 -1.38384 0 14 -1.38384 1
gene 1 15 20 -0.717848 0 15 -0.717848 1
gene 1 16 20 0.0271257 0 16 0.0271257 1
gene 1 17 20 0.347953 0 17 0.347953 1
gene 1 18 20 -1.91463 0 18 -1.91463 1
gene 1 19 20 1.2636 0 19 1.2636 1
gene 1 1 21 0.0127653 0 20 0.0127653 1
gene 1 2 21 -0.558062 0 21 -0.558062 1
gene 1 3 21 0.37529 0 22 0.37529 1
gene 1 4 21 -0.398329 0 23 -0.398329 1
gene 1 5 21 -1.05818 0 24 -1.05818 1
gene 1 6 21 -0.0109733 0 25 -0.0109733 1
gene 1 7 21 0.75266 0 26 0.75266 1
gene 1 8 21 0.246738 0 27 0.246738 1
gene 1 9 21 0.651639 0 28 0.651639 1
gene 1 10 21 -0.727042 0 29 -0.727042 1
gene 1 11 21 -0.472926 0 30 -0.472926 1
gene 1 12 21 0.338022 0 31 0.338022 1
gene 1 13 21 0.0658338 0 32 0.0658338 1
gene 1 14 21 0.700932 0 33 0.700932 1
gene 1 15 21 0.376019 0 34 0.376019 1
gene 1 16 21 -0.542073 0 35 -0.542073 1
gene 1 17 21 -0.302728 0 36 -0.302728 1
gene 1 18 21 0.414363 0 37 0.414363 1
gene 1 19 21 -0.134316 0 38 -0.134316 1
gene 1 1 22 -0.888573 0 39 -0.888573 1
gene 1 2 22 0.0919427 0 40 0.0919427 1
gene 1 3 22 0.24323 0 41 0.24323 1
gene 1 4 22 0.721168 0 42 0.721168 1
gene 1 5 22 -0.387888 0 43 -0.387888 0
gene 1 6 22 0.322636 0 44 0.322636 1
gene 1 7 22 -0.410438 0 45 -0.410438 1
gene 1 8 22 0.159563 0 46 0.159563 1
gene 1 9 22 0.765052 0 47 0.765052 1
gene 1 10 22 -0.299293 0 48 -0.299293 1
gene 1 11 22 -0.33318 0 49 -0.33318 1
gene 1 12 22 0.025042 0 50 0.025042 1
gene 1 13 22 -0.467276 0 51 -0.467276 1
gene 1 14 22 1.14087 0 52 1.14087 1
gene 1 15 22 -0.727793 0 53 -0.727793 1
gene 1 16 22 0.352633 0 54 0.352633 1
gene 1 17 22 0.269862 0 55 0.269862 1
gene 1 18 22 -0.804212 0 56 -0.804212 1
gene 1 19 22 0.94599 0 57 0.94599 1
gene 1 1 23 -0.213194 0 58 -0.213194 1
gene 1 2 23 1.30376 0 59 1.30376 1
gene 1 3 23 -1.09815 0 60 -1.09815 1
gene 1 4 23 -0.909783 0 61 -0.909783 1
gene 1 5 23 0.835649 0 62 0.835649 1
gene 1 6 23 1.22065 0 63 1.22065 1
gene 1 7 23 0.123914 0 64 0.123914 0
gene 1 8 23 0.377504 0 65 0.377504 1
gene 1 9 23 0.300295 0 66 0.300295 1
gene 1 10 23 -1.64539 0 67 -1.64539 1
gene 1 11 23 0.755321 0 68 0.755321 0
gene 1 12 23 -0.612059 0 69 -0.612059 1
gene 1 13 23 -0.333143 0 70 -0.333143 1
gene 1 14 23 0.780324 0 71 0.780324 1
gene 1 15 23 0.411972 0 72 0.411972 1
gene 1 16 23 -0.493746 0 73 -0.493746 1
gene 1 17 23 -0.637574 0 74 -0.637574 1
gene 1 18 23 0.439926 0 75 0.439926 1
gene 1 19 23 -3 0 76 -3 1
gene 1 20 22 0.467775 0 78 0.467775 1
gene 1 21 23 -0.670188 0 80 -0.670188 1
gene 1 21 22 -0.0255825 0 91 -0.0255825 0
gene 1 21 20 0.261823 0 96 0.261823 1
gene 1 23 20 0.369003 0 120 0.369003 1
gene 1 15 37 -0.148387 0 125 -0.148387 1
gene 1 37 21 -0.739041 0 126 -0.739041 1
gene 1 17 42 -0.219045 0 141 -0.219045 1
gene 1 42 22 0.0330307 0 142 0.0330307 1
gene 1 22 22 1.38699 1 153 1.38699 1
gene 1 8 63 -0.875782 0 215 -0.875782 1
gene 1 63 20 -0.37666 0 216 -0.37666 1
gene 1 16 64 0.323675 0 218 0.323675 1
gene 1 64 22 0.416084 0 219 0.416084 1
gene 1 7 67 0.800472 0 225 0.800472 1
gene 1 67 23 0.125201 0 226 0.125201 1
gene 1 6 64 -0.848878 0 232 -0.848878 1
gene 1 23 23 0.236529 1 252 0.236529 1
gene 1 1 63 -0.39339 0 254 -0.39339 1
gene 1 11 72 0.98928 0 258 0.98928 1
gene 1 72 21 0.13021 0 259 0.13021 1
gene 1 16 63 0.454201 0 264 0.454201 1
gene 1 1 67 1.12387 0 265 1.12387 1
gene 1 20 20 -1.11034 1 269 -1.11034 1
gene 1 17 73 -0.218862 0 282 -0.218862 1
gene 1 73 20 0.477258 0 283 0.477258 1
gene 1 37 37 -0.0744585 1 284 -0.0744585 1
gene 1 67 67 -0.620899 1 305 -0.620899 1
gene 1 63 63 0.918759 1 306 0.918759 1
gene 1 14 82 1.26987 0 310 1.26987 1
gene 1 82 21 0.519748 0 311 0.519748 1
gene 1 21 83 1.01373 0 314 1.01373 1
gene 1 83 22 -0.502175 0 315 -0.502175 1
gene 1 6 84 -0.0776506 0 316 -0.0776506 1
gene 1 84 22 0.281663 0 317 0.281663 1
gene 1 11 89 -0.305188 0 331 -0.305188 1
gene 1 89 23 0.0435873 0 332 0.0435873 1
gene 1 63 93 0.551428 1 340 0.551428 1
gene 1 93 63 0.249011 0 341 0.249011 1
gene 1 72 94 0.498006 0 345 0.498006 1
gene 1 94 21 0.218654 0 346 0.218654 1
gene 1 16 106 0.517636 0 385 0.517636 1
gene 1 106 63 0.372175 0 386 0.372175 1
gene 1 89 73 -0.0304099 0 389 -0.0304099 1
gene 1 67 63 0.288582 0 440 0.288582 0
gene 1 19 64 0.318606 0 467 0.318606 1
gene 1 1 128 -0.142422 0 478 -0.142422 1
gene 1 128 20 -0.450291 0 479 -0.450291 1
gene 1 5 135 0.123634 0 514 0.123634 1
gene 1 135 22 0.286517 0 515 0.286517 1
gene 1 72 136 -0.212676 0 519 -0.212676 1
gene 1 136 21 -0.529856 0 520 -0.529856 1
gene 1 14 84 -0.654605 0 530 -0.654605 1
gene 1 13 147 0.210143 0 558 0.210143 1
gene 1 147 21 0.263088 0 559 0.263088 1
gene 1 10 94 -0.00439249 0 570 -0.00439249 1
gene 1 9 84 -0.866672 0 573 -0.866672 1
gene 1 18 67 -0.603957 0 574 -0.603957 1
gene 1 106 23 0.194864 0 576 0.194864 1
gene 1 73 64 0.21589 0 613 0.21589 1
gene 1 135 21 -0.453435 0 623 -0.453435 1
gene 1 11 93 -0.246427 0 658 -0.246427 1
gene 1 18 106 -0.180337 0 674 -0.180337 1
gene 1 15 89 -0.0892484 0 675 -0.0892484 1
gene 1 67 180 0.841747 0 710 0.841747 1
gene 1 180 63 0.49673 0 711 0.49673 1
genomeend 3851
genomestart 3853
trait 1 0.512342 0.618239 0.821976 0.728456 0.30095 0.385671 0.857268 0.736956 
node 1 1 1 1 0
node 2 1 1 1 0
node 3 1 1 1 0
node 4 1 1 1 0
node 5 1 1 1 0
node 6 1 1 1 0
node 7 1 1 1 0
node 8 1 1 1 0
node 9 1 1 1 0
node 10 1 1 1 0
node 11 1 1 1 0
node 12 1 1 1 0
node 13 1 1 1 0
node 14 1 1 1 0
node 15 1 1 1 0
node 16 1 1 1 0
node 17 1 1 1 0
node 18 1 1 1 0
node 19 1 1 3 0
node 20 1 0 2 0
node 21 1 0 2 0
node 22 1 0 2 0
node 23 1 0 2 0
node 37 1 0 0 0
node 42 1 0 0 0
node 63 1 0 0 0
node 64 1 0 0 0
node 67 1 0 0 0
node 72 1 0 0 0
node 73 1 0 0 0
node 82 1 0 0 0
node 83 1 0 0 0
node 84 1 0 0 0
node 89 1 0 0 0
node 93 1 0 0 0
node 94 1 0 0 0
node 106 1 0 0 0
node 128 1 0 0 0
node 135 1 0 0 0
node 136 1 0 0 0
node 147 1 0 0 0
node 180 1 0 0 0
gene 1 1 20 0.643466 0 1 0.643466 0
gene 1 2 20 0.838552 0 2 0.838552 1
gene 1 3 20 0.249916 0 3 0.249916 1
gene 1 4 20 -0.123654 0 4 -0.123654 1
gene 1 5 20 -0.135622 0 5 -0.135622 1
gene 1 6 20 0.828201 0 6 0.828201 1
gene 1 7 20 0.340532 0 7 0.340532 1
gene 1 8 20 -0.225297 0 8 -0.225297 1
gene 1 9 20 0.101027 0 9 0.101027 1
gene 1 10 20 0.310109 0 10 0.310109 1
gene 1 11 20 -1.43531 0 11 -1.43531 1
gene 1 12 20 -0.258628 0 12 -0.258628 1
gene 1 13 20 0.513783 0 13 0.513783 1
gene 1 14 20 -0.843361 0 14 -0.843361 1
gene 1 15 20 0.475387 0 15 0.475387 1
gene 1 16 20 0.261722 0 16 0.261722 1
gene 1 17 20 -0.119875 0 17 -0.119875 1
gene 1 18 20 0.44399 0 18 0.44399 1
gene 1 19 20 -0.372708 0 19 -0.372708 1
gene 1 1 21 0.80971 0 20 0.80971 1
gene 1 2 21 -0.635615 0 21 -0.635615 1
gene 1 3 21 0.865768 0 22 0.865768 1
gene 1 4 21 1.64927 0 23 1.64927 1
gene 1 5 21 -0.462697 0 24 -0.462697 1
gene 1 6 21 0.0254094 0 25 0.0254094 1
gene 1 7 21 0.588834 0 26 0.588834 1
gene 1 8 21 0.623354 0 27 0.623354 1
gene 1 9 21 -0.292498 0 28 -0.292498 1
gene 1 10 21 -0.151859 0 29 -0.151859 1
gene 1 11 21 0.859141 0 30 0.859141 1
gene 1 12 21 -0.260569 0 31 -0.260569 1
gene 1 13 21 0.429537 0 32 0.429537 1
gene 1 14 21 1.78243 0 33 1.78243 1
gene 1 15 21 -0.0980382 0 34 -0.0980382 1
gene 1 16 21 -0.026297 0 35 -0.026297 1
gene 1 17 21 -0.636735 0 36 -0.636735 1
gene 1 18 21 -0.548451 0 37 -0.548451 1
gene 1 19 21 -0.785499 0 38 -0.785499 1
gene 1 1 22 -0.104908 0 39 -0.104908 1
gene 1 2 22 0.216156 0 40 0.216156 1
gene 1 3 22 -0.476047 0 41 -0.476047 1
gene 1 4 22 0.985567 0 42 0.985567 1
gene 1 5 22 0.576028 0 43 0.576028 0
gene 1 6 22 -0.314 0 44 -0.314 1
gene 1 7 22 0.0118689 0 45 0.0118689 1
gene 1 8 22 0.155384 0 46 0.155384 1
gene 1 9 22 0.286933 0 47 0.286933 1
gene 1 10 22 1.1338 0 48 1.1338 1
gene 1 11 22 0.990342 0 49 0.990342 1
gene 1 12 22 1.98789 0 50 1.98789 1
gene 1 13 22 -0.400094 0 51 -0.400094 1
gene 1 14 22 0.791528 0 52 0.791528 1
gene 1 15 22 0.26281 0 53 0.26281 1
gene 1 16 22 -0.619791 0 54 -0.619791 1
gene 1 17 22 -0.469741 0 55 -0.469741 1
gene 1 18 22 -0.976643 0 56 -0.976643 1
gene 1 19 22 0.453996 0 57 0.453996 1
gene 1 1 23 0.913235 0 58 0.913235 1
gene 1 2 23 1.76259 0 59 1.76259 1
gene 1 3 23 -0.624835 0 60 -0.624835 1
gene 1 4 23 -0.0108508 0 61 -0.0108508 1
gene 1 5 23 -0.204847 0 62 -0.204847 1
gene 1 6 23 -0.417688 0 63 -0.417688 1
gene 1 7 23 -0.634909 0 64 -0.634909 1
gene 1 8 23 0.64999 0 65 0.64999 1
gene 1 9 23 -0.253522 0 66 -0.253522 1
gene 1 10 23 0.0224651 0 67 0.0224651 1
gene 1 11 23 1.36552 0 68 1.36552 0
gene 1 12 23 0.378912 0 69 0.378912 1
gene 1 13 23 0.234135 0 70 0.234135 1
gene 1 14 23 -0.144474 0 71 -0.144474 1
gene 1 15 23 0.333294 0 72 0.333294 1
gene 1 16 23 0.853184 0 73 0.853184 1
gene 1 17 23 -1.31858 0 74 -1.31858 1
gene 1 18 23 -0.0344422 0 75 -0.0344422 1
gene 1 19 23 -1.51261 0 76 -1.51261 1
gene 1 20 22 -0.275935 0 78 -0.275935 1
gene 1 21 23 -0.980743 0 80 -0.980743 1
gene 1 21 22 0.895164 0 91 0.895164 0
gene 1 21 20 0.873137 0 96 0.873137 1
gene 1 23 20 0.759126 0 120 0.759126 1
gene 1 15 37 0.811965 0 125 0.811965 1
gene 1 37 21 -0.314229 0 126 -0.314229 1
gene 1 17 42 1.63549 0 141 1.63549 1
gene 1 42 22 0.25846 0 142 0.25846 1
gene 1 22 22 0.547245 1 153 0.547245 1
gene 1 8 63 0.880529 0 215 0.880529 1
gene 1 63 20 -0.377444 0 216 -0.377444 1
gene 1 16 64 0.556249 0 218 0.556249 1
gene 1 64 22 0.849461 0 219 0.849461 1
gene 1 7 67 0.656366 0 225 0.656366 1
gene 1 67 23 -0.0895527 0 226 -0.0895527 1
gene 1 6 64 0.212877 0 232 0.212877 1
gene 1 23 23 -0.834832 1 252 -0.834832 1
gene 1 1 63 0.930666 0 254 0.930666 1
gene 1 11 72 0.571866 0 258 0.571866 1
gene 1 72 21 0.192929 0 259 0.192929 1
gene 1 16 63 0.0670893 0 264 0.0670893 1
gene 1 1 67 0.76288 0 265 0.76288 1
gene 1 20 20 -0.474732 1 269 -0.474732 1
gene 1 17 73 -0.231921 0 282 -0.231921 1
gene 1 73 20 0.270345 0 283 0.270345 1
gene 1 37 37 -0.863177 1 284 -0.863177 1
gene 1 67 67 0.653255 1 305 0.653255 1
gene 1 63 63 -0.386339 1 306 -0.386339 1
gene 1 14 82 0.199089 0 310 0.199089 1
gene 1 82 21 0.0324732 0 311 0.0324732 1
gene 1 21 83 0.100956 0 314 0.100956 1
gene 1 83 22 -0.444209 0 315 -0.444209 1
gene 1 6 84 0.699198 0 316 0.699198 1
gene 1 84 22 -0.106776 0 317 -0.106776 1
gene 1 11 89 -0.603507 0 331 -0.603507 1
gene 1 89 23 -0.234427 0 332 -0.234427 1
gene 1 63 93 0.214226 1 340 0.214226 1
gene 1 93 63 -0.205757 0 341 -0.205757 1
gene 1 72 94 0.147485 0 345 0.147485 1
gene 1 94 21 0.174795 0 346 0.174795 1
gene 1 16 106 0.0600433 0 385 0.0600433 1
gene 1 106 63 0.6537 0 386 0.6537 1
gene 1 89 73 -0.0620803 0 389 -0.0620803 1
gene 1 67 63 -0.211283 0 440 -0.211283 0
gene 1 19 64 0.75688 0 467 0.75688 1
gene 1 1 128 -0.888696 0 478 -0.888696 1
gene 1 128 20 -0.602373 0 479 -0.602373 1
gene 1 5 135 0.369108 0 514 0.369108 1
gene 1 135 22 0.301209 0 515 0.301209 1
gene 1 72 136 -0.867541 0 519 -0.867541 1
gene 1 136 21 -0.164152 0 520 -0.164152 1
gene 1 14 84 -0.302038 0 530 -0.302038 1
gene 1 13 147 0.334171 0 558 0.334171 1
gene 1 147 21 -0.350154 0 559 -0.350154 1
gene 1 10 94 -0.188519 0 570 -0.188519 1
gene 1 9 84 0.133373 0 573 0.133373 1
gene 1 18 67 0.237376 0 574 0.237376 1
gene 1 106 23 -0.363094 0 576 -0.363094 1
gene 1 73 64 0.118733 0 613 0.118733 1
gene 1 135 21 0.180971 0 623 0.180971 1
gene 1 11 93 -1.09429 0 658 -1.09429 1
gene 1 18 106 -0.576815 0 674 -0.576815 1
gene 1 15 89 -0.17379 0 675 -0.17379 1
gene 1 67 180 0.907986 0 710 0.907986 1
gene 1 180 63 0.337317 0 711 0.337317 1
genomeend 3853
genomestart 3869
trait 1 0.512521 0.618238 0.821994 0.729967 0.299611 0.381672 0.856811 0.73684 
node 1 1 1 1 0
node 2 1 1 1 0
node 3 1 1 1 0
node 4 1 1 1 0
node 5 1 1 1 0
node 6 1 1 1 0
node 7 1 1 1 0
node 8 1 1 1 0
node 9 1 1 1 0
node 10 1 1 1 0
node 11 1 1 1 0
node 12 1 1 1 0
node 13 1 1 1 0
node 14 1 1 1 0
node 15 1 1 1 0
node 16 1 1 1 0
node 17 1 1 1 0
node 18 1 1 1 0
node 19 1 1 3 0
node 20 1 0 2 0
node 21 1 0 2 0
node 22 1 0 2 0
node 23 1 0 2 0
node 37 1 0 0 0
node 42 1 0 0 0
node 63 1 0 0 0
node 64 1 0 0 0
node 67 1 0 0 0
node 72 1 0 0 0
node 73 1 0 0 0
node 82 1 0 0 0
node 83 1 0 0 0
node 84 1 0 0 0
node 89 1 0 0 0
node 93 1 0 0 0
node 94 1 0 0 0
node 106 1 0 0 0
node 128 1 0 0 0
node 135 1 0 0 0
node 136 1 0 0 0
node 147 1 0 0 0
node 180 1 0 0 0
gene 1 1 20 0.76336 0 1 0.76336 1
gene 1 2 20 0.839519 0 2 0.839519 1
gene 1 3 20 -0.290652 0 3 -0.290652 1
gene 1 4 20 0.721165 0 4 0.721165 1
gene 1 5 20 0.215446 0 5 0.215446 1
gene 1 6 20 1.18306 0 6 1.18306 1
gene 1 7 20 0.330117 0 7 0.330117 1
gene 1 8 20 0.281695 0 8 0.281695 1
gene 1 9 20 -0.240183 0 9 -0.240183 1
gene 1 10 20 -0.610027 0 10 -0.610027 1
gene 1 11 20 -0.930724 0 11 -0.930724 1
gene 1 12 20 -0.745455 0 12 -0.745455 1
gene 1 13 20 0.243898 0 13 0.243898 1
gene 1 14 20 0.471785 0 14 0.471785 1
gene 1 15 20 0.129533 0 15 0.129533 1
gene 1 16 20 0.48385 0 16 0.48385 1
gene 1 17 20 0.233618 0 17 0.233618 1
gene 1 18 20 0.263977 0 18 0.263977 1
gene 1 19 20 -0.404677 0 19 -0.404677 1
gene 1 1 21 0.691983 0 20 0.691983 1
gene 1 2 21 0.287338 0 21 0.287338 1
gene 1 3 21 1.51401 0 22 1.51401 1
gene 1 4 21 0.767269 0 23 0.767269 1
gene 1 5 21 -0.276829 0 24 -0.276829 1
gene 1 6 21 0.126962 0 25 0.126962 1
gene 1 7 21 0.474708 0 26 0.474708 1
gene 1 8 21 -0.035321 0 27 -0.035321 1
gene 1 9 21 -0.213375 0 28 -0.213375 1
gene 1 10 21 0.102503 0 29 0.102503 1
gene 1 11 21 0.670942 0 30 0.670942 1
gene 1 12 21 -0.181277 0 31 -0.181277 1
gene 1 13 21 -0.284774 0 32 -0.284774 1
gene 1 14 21 1.32831 0 33 1.32831 1
gene 1 15 21 -0.849955 0 34 -0.849955 1
gene 1 16 21 0.10703 0 35 0.10703 1
gene 1 17 21 -0.184525 0 36 -0.184525 1
gene 1 18 21 -0.231955 0 37 -0.231955 1
gene 1 19 21 -0.951304 0 38 -0.951304 1
gene 1 1 22 0.224625 0 39 0.224625 1
gene 1 2 22 0.341209 0 40 0.341209 1
gene 1 3 22 -0.56454 0 41 -0.56454 1
gene 1 4 22 1.25099 0 42 1.25099 1
gene 1 5 22 -0.0892071 0 43 -0.0892071 0
gene 1 6 22 -0.177443 0 44 -0.177443 1
gene 1 7 22 0.309138 0 45 0.309138 1
gene 1 8 22 -0.145164 0 46 -0.145164 1
gene 1 9 22 0.0853174 0 47 0.0853174 1
gene 1 10 22 0.549604 0 48 0.549604 1
gene 1 11 22 0.148412 0 49 0.148412 1
gene 1 12 22 0.330985 0 50 0.330985 1
gene 1 13 22 -0.448385 0 51 -0.448385 1
gene 1 14 22 -0.200517 0 52 -0.200517 1
gene 1 15 22 0.693597 0 53 0.693597 1
gene 1 16 22 -0.347868 0 54 -0.347868 1
gene 1 17 22 0.111477 0 55 0.111477 1
gene 1 18 22 -0.935331 0 56 -0.935331 1
gene 1 19 22 0.0581441 0 57 0.0581441 1
gene 1 1 23 0.869964 0 58 0.869964 1
gene 1 2 23 1.33718 0 59 1.33718 1
gene 1 3 23 -0.430143 0 60 -0.430143 1
gene 1 4 23 0.742043 0 61 0.742043 1
gene 1 5 23 0.441471 0 62 0.441471 1
gene 1 6 23 0.237697 0 63 0.237697 1
gene 1 7 23 -0.239594 0 64 -0.239594 1
gene 1 8 23 -0.142931 0 65 -0.142931 1
gene 1 9 23 0.355271 0 66 0.355271 1
gene 1 10 23 -0.490308 0 67 -0.490308 1
gene 1 11 23 0.659086 0 68 0.659086 1
gene 1 12 23 0.350583 0 69 0.350583 1
gene 1 13 23 -0.229186 0 70 -0.229186 1
gene 1 14 23 -0.198833 0 71 -0.198833 1
gene 1 15 23 0.259246 0 72 0.259246 1
gene 1 16 23 0.317457 0 73 0.317457 1
gene 1 17 23 -0.818115 0 74 -0.818115 1
gene 1 18 23 0.352133 0 75 0.352133 1
gene 1 19 23 -0.449963 0 76 -0.449963 1
gene 1 20 22 -0.20657 0 78 -0.20657 1
gene 1 21 23 -0.317316 0 80 -0.317316 1
gene 1 21 22 0.128345 0 91 0.128345 0
gene 1 21 20 -0.441981 0 96 -0.441981 1
gene 1 23 20 0.0175772 0 120 0.0175772 1
gene 1 15 37 0.218046 0 125 0.218046 1
gene 1 37 21 0.0706602 0 126 0.0706602 1
gene 1 17 42 1.059 0 141 1.059 1
gene 1 42 22 -0.0183189 0 142 -0.0183189 1
gene 1 22 22 0.0395278 1 153 0.0395278 1
gene 1 8 63 0.494265 0 215 0.494265 1
gene 1 63 20 0.0943092 0 216 0.0943092 1
gene 1 16 64 -0.243933 0 218 -0.243933 1
gene 1 64 22 0.548469 0 219 0.548469 1
gene 1 7 67 1.46747 0 225 1.46747 1
gene 1 67 23 0.015952 0 226 0.015952 1
gene 1 6 64 0.0829862 0 232 0.0829862 1
gene 1 23 23 -0.375679 1 252 -0.375679 1
gene 1 1 63 -0.226953 0 254 -0.226953 1
gene 1 11 72 -0.0868206 0 258 -0.0868206 1
gene 1 72 21 -0.222695 0 259 -0.222695 1
gene 1 16 63 -0.624584 0 264 -0.624584 1
gene 1 1 67 0.417554 0 265 0.417554 1
gene 1 20 20 -0.185512 1 269 -0.185512 1
gene 1 17 73 -0.522906 0 282 -0.522906 1
gene 1 73 20 0.0288582 0 283 0.0288582 1
gene 1 37 37 -0.290017 1 284 -0.290017 1
gene 1 67 67 0.60416 1 305 0.60416 1
gene 1 63 63 -0.200656 1 306 -0.200656 1
gene 1 14 82 0.904151 0 310 0.904151 1
gene 1 82 21 0.0850772 0 311 0.0850772 1
gene 1 21 83 0.0294032 0 314 0.0294032 1
gene 1 83 22 0.0321754 0 315 0.0321754 1
gene 1 6 84 0.317182 0 316 0.317182 1
gene 1 84 22 -0.0411879 0 317 -0.0411879 1
gene 1 11 89 0.0485885 0 331 0.0485885 1
gene 1 89 23 -0.354228 0 332 -0.354228 1
gene 1 63 93 -0.0483309 1 340 -0.0483309 1
gene 1 93 63 -0.49617 0 341 -0.49617 1
gene 1 72 94 0.101958 0 345 0.101958 1
gene 1 94 21 0.557198 0 346 0.557198 1
gene 1 16 106 -0.51649 0 385 -0.51649 1
gene 1 106 63 0.503377 0 386 0.503377 1
gene 1 89 73 0.241447 0 389 0.241447 1
gene 1 67 63 -0.453002 0 440 -0.453002 0
gene 1 19 64 0.337739 0 467 0.337739 1
gene 1 1 128 -0.419055 0 478 -0.419055 1
gene 1 128 20 -0.279251 0 479 -0.279251 1
gene 1 5 135 0.12653 0 514 0.12653 1
gene 1 135 22 -0.0487701 0 515 -0.0487701 1
gene 1 72 136 -0.207629 0 519 -0.207629 1
gene 1 136 21 -0.0443014 0 520 -0.0443014 1
gene 1 14 84 -0.246158 0 530 -0.246158 1
gene 1 13 147 -0.0608069 0 558 -0.0608069 1
gene 1 147 21 -0.594863 0 559 -0.594863 1
gene 1 10 94 -0.198329 0 570 -0.198329 1
gene 1 9 84 0.240621 0 573 0.240621 1
gene 1 18 67 -0.282845 0 574 -0.282845 1
gene 1 106 23 0.103442 0 576 0.103442 1
gene 1 73 64 -0.106629 0 613 -0.106629 1
gene 1 135 21 -0.878776 0 623 -0.878776 1
gene 1 11 93 -0.905596 0 658 -0.905596 1
gene 1 18 106 -0.0894478 0 674 -0.0894478 1
gene 1 15 89 0.235925 0 675 0.235925 1
gene 1 67 180 -0.219933 0 710 -0.219933 1
gene 1 180 63 -0.172597 0 711 -0.172597 1
genomeend 3869
genomestart 3889
trait 1 0.106197 0.218527 0.699508 0.816367 0.679761 0.0481701 0.638015 0.37047 
node 1 1 1 1 0
node 2 1 1 1 0
node 3 1 1 1 0
node 4 1 1 1 0
node 5 1 1 1 0
node 6 1 1 1 0
node 7 1 1 1 0
node 8 1 1 1 0
node 9 1 1 1 0
node 10 1 1 1 0
node 11 1 1 1 0
node 12 1 1 1 0
node 13 1 1 1 0
node 14 1 1 1 0
node 15 1 1 1 0
node 16 1 1 1 0
node 17 1 1 1 0
node 18 1 1 1 0
node 19 1 1 3 0
node 20 1 0 2 0
node 21 1 0 2 0
node 22 1 0 2 0
node 23 1 0 2 0
node 63 1 0 0 0
node 67 1 0 0 0
node 73 1 0 0 0
node 117 1 0 0 0
node 118 1 0 0 0
node 120 1 0 0 0
node 124 1 0 0 0
node 138 1 0 0 0
node 173 1 0 0 0
gene 1 1 20 -0.562224 0 1 -0.562224 1
gene 1 2 20 0.0334287 0 2 0.0334287 1
gene 1 3 20 -0.227996 0 3 -0.227996 1
gene 1 4 20 0.786472 0 4 0.786472 1
gene 1 5 20 1.39137 0 5 1.39137 1
gene 1 6 20 0.395658 0 6 0.395658 1
gene 1 7 20 0.275659 0 7 0.275659 1
gene 1 8 20 -0.0882106 0 8 -0.0882106 1
gene 1 9 20 -0.546087 0 9 -0.546087 1
gene 1 10 20 0.230211 0 10 0.230211 1
gene 1 11 20 -0.156539 0 11 -0.156539 1
gene 1 12 20 -0.379627 0 12 -0.379627 1
gene 1 13 20 -0.227779 0 13 -0.227779 1
gene 1 14 20 0.19891 0 14 0.19891 1
gene 1 15 20 -0.44741 0 15 -0.44741 0
gene 1 16 20 0.223005 0 16 0.223005 1
gene 1 17 20 2.38526 0 17 2.38526 1
gene 1 18 20 -0.192229 0 18 -0.192229 1
gene 1 19 20 -0.511044 0 19 -0.511044 1
gene 1 1 21 -0.380697 0 20 -0.380697 1
gene 1 2 21 0.878421 0 21 0.878421 1
gene 1 3 21 0.147324 0 22 0.147324 1
gene 1 4 21 0.583949 0 23 0.583949 1
gene 1 5 21 -0.322777 0 24 -0.322777 1
gene 1 6 21 -0.251152 0 25 -0.251152 1
gene 1 7 21 -0.350644 0 26 -0.350644 1
gene 1 8 21 1.30633 0 27 1.30633 0
gene 1 9 21 -0.115125 0 28 -0.115125 1
gene 1 10 21 -0.171973 0 29 -0.171973 1
gene 1 11 21 0.975413 0 30 0.975413 1
gene 1 12 21 0.352069 0 31 0.352069 1
gene 1 13 21 0.19248 0 32 0.19248 1
gene 1 14 21 1.23998 0 33 1.23998 1
gene 1 15 21 0.442596 0 34 0.442596 1
gene 1 16 21 0.384623 0 35 0.384623 1
gene 1 17 21 0.314478 0 36 0.314478 1
gene 1 18 21 -0.232064 0 37 -0.232064 1
gene 1 19 21 0.720392 0 38 0.720392 1
gene 1 1 22 0.317445 0 39 0.317445 1
gene 1 2 22 -0.997103 0 40 -0.997103 1
gene 1 3 22 0.720732 0 41 0.720732 1
gene 1 4 22 -0.0552493 0 42 -0.0552493 1
gene 1 5 22 -0.628781 0 43 -0.628781 1
gene 1 6 22 -0.232854 0 44 -0.232854 1
gene 1 7 22 0.916312 0 45 0.916312 1
gene 1 8 22 -0.695189 0 46 -0.695189 1
gene 1 9 22 0.136359 0 47 0.136359 1
gene 1 10 22 0.418243 0 48 0.418243 1
gene 1 11 22 -0.424532 0 49 -0.424532 1
gene 1 12 22 -0.479761 0 50 -0.479761 1
gene 1 13 22 1.66619 0 51 1.66619 1
gene 1 14 22 -0.127636 0 52 -0.127636 1
gene 1 15 22 -0.719985 0 53 -0.719985 1
gene 1 16 22 -0.085663 0 54 -0.085663 1
gene 1 17 22 0.635344 0 55 0.635344 1
gene 1 18 22 -1.53612 0 56 -1.53612 1
gene 1 19 22 1.30853 0 57 1.30853 1
gene 1 1 23 0.606565 0 58 0.606565 1
gene 1 2 23 0.0455471 0 59 0.0455471 1
gene 1 3 23 -0.783956 0 60 -0.783956 1
gene 1 4 23 0.866367 0 61 0.866367 1
gene 1 5 23 -0.037385 0 62 -0.037385 0
gene 1 6 23 -1.29296 0 63 -1.29296 1
gene 1 7 23 0.214127 0 64 0.214127 0
gene 1 8 23 0.480668 0 65 0.480668 1
gene 1 9 23 0.376623 0 66 0.376623 1
gene 1 10 23 0.0652566 0 67 0.0652566 1
gene 1 11 23 -0.0245526 0 68 -0.0245526 1
gene 1 12 23 -0.152442 0 69 -0.152442 0
gene 1 13 23 0.811766 0 70 0.811766 1
gene 1 14 23 0.0504086 0 71 0.0504086 1
gene 1 15 23 0.402552 0 72 0.402552 1
gene 1 16 23 0.310798 0 73 0.310798 1
gene 1 17 23 -1.02912 0 74 -1.02912 1
gene 1 18 23 -0.440529 0 75 -0.440529 1
gene 1 19 23 1.146 0 76 1.146 1
gene 1 20 22 0.15118 0 78 0.15118 1
gene 1 21 23 -1.08132 0 80 -1.08132 1
gene 1 23 20 -0.0200006 0 120 -0.0200006 1
gene 1 22 22 -0.0947331 1 153 -0.0947331 1
gene 1 8 63 1.51713 0 215 1.51713 1
gene 1 63 20 -0.660022 0 216 -0.660022 1
gene 1 7 67 -0.236923 0 225 -0.236923 1
gene 1 67 23 -0.597472 0 226 -0.597472 1
gene 1 1 63 0.253885 0 254 0.253885 1
gene 1 16 63 1.26808 0 264 1.26808 1
gene 1 1 67 -0.14623 0 265 -0.14623 1
gene 1 8 67 0.493455 0 281 0.493455 1
gene 1 17 73 -0.20724 0 282 -0.20724 1
gene 1 73 20 0.175936 0 283 0.175936 1
gene 1 23 23 0.443644 1 320 0.443644 1
gene 1 63 73 0.225343 0 330 0.225343 1
gene 1 18 73 0.162069 0 335 0.162069 1
gene 1 15 73 0.647333 0 387 0.647333 1
gene 1 9 63 -0.0271048 0 395 -0.0271048 1
gene 1 63 23 0.158877 0 406 0.158877 1
gene 1 15 63 1.10016 0 422 1.10016 1
gene 1 19 63 0.277442 0 423 0.277442 1
gene 1 2 67 -1.24136 0 435 -1.24136 1
gene 1 15 117 0.259034 0 450 0.259034 1
gene 1 117 20 0.412933 0 451 0.412933 1
gene 1 12 118 -0.00778664 0 452 -0.00778664 1
gene 1 118 23 0.41071 0 453 0.41071 1
gene 1 1 120 0.549403 0 459 0.549403 1
gene 1 120 21 0.154699 0 460 0.154699 1
gene 1 8 124 1 0 470 0 1
gene 1 124 21 0.3919 0 471 0 1
gene 1 5 138 0.303918 0 525 0.303918 1
gene 1 138 23 0.00362156 0 526 0.00362156 1
gene 1 7 117 0.483551 0 538 0.483551 1
gene 1 21 63 -0.203867 0 548 -0.203867 1
gene 1 118 118 0.188475 1 554 0.188475 1
gene 1 14 118 0.301305 0 557 0.301305 1
gene 1 6 117 -0.145631 0 572 -0.145631 1
gene 1 5 117 -1.2141 0 578 -1.2141 1
gene 1 117 118 0.365478 0 595 0.365478 1
gene 1 9 67 1.33215 0 621 1.33215 1
gene 1 118 73 0.0390132 0 636 0.0390132 1
gene 1 7 118 0.205684 0 649 0.205684 1
gene 1 21 117 -0.0364712 0 653 -0.0364712 1
gene 1 16 173 0.305463 0 663 0.305463 1
gene 1 173 22 0.0985657 0 664 0.0985657 1
gene 1 16 73 0.157921 0 712 0.157921 1
gene 1 18 118 0.747475 0 714 0.747475 1
gene 1 12 73 0.916776 0 737 0.916776 1
genomeend 3889
genomestart 3899
trait 1 0.663461 0.429213 0.311829 0.474205 0.287655 0.166781 0.428639 0.527581 
node 1 1 1 1 0
node 2 1 1 1 0
node 3 1 1 1 0
node 4 1 1 1 0
node 5 1 1 1 0
node 6 1 1 1 0
node 7 1 1 1 0
node 8 1 1 1 0
node 9 1 1 1 0
node 10 1 1 1 0
node 11 1 1 1 0
node 12 1 1 1 0
node 13 1 1 1 0
node 14 1 1 1 0
node 15 1 1 1 0
node 16 1 1 1 0
node 17 1 1 1 0
node 18 1 1 1 0
node 19 1 1 3 0
node 20 1 0 2 0
node 21 1 0 2 0
node 22 1 0 2 0
node 23 1 0 2 0
node 67 1 0 0 0
node 74 1 0 0 0
node 75 1 0 0 0
node 86 1 0 0 0
node 87 1 0 0 0
node 90 1 0 0 0
node 95 1 0 0 0
node 129 1 0 0 0
node 141 1 0 0 0
node 142 1 0 0 0
node 145 1 0 0 0
node 154 1 0 0 0
node 164 1 0 0 0
node 167 1 0 0 0
node 182 1 0 0 0
gene 1 1 20 0.143677 0 1 0.143677 1
gene 1 2 20 0.845945 0 2 0.845945 1
gene 1 3 20 0.20133 0 3 0.20133 1
gene 1 4 20 -0.34891 0 4 -0.34891 1
gene 1 5 20 -0.117046 0 5 -0.117046 1
gene 1 6 20 0.162495 0 6 0.162495 1
gene 1 7 20 1.02775 0 7 1.02775 1
gene 1 8 20 0.0638384 0 8 0.0638384 0
gene 1 9 20 0.0085411 0 9 0.0085411 1
gene 1 10 20 -0.0905066 0 10 -0.0905066 1
gene 1 11 20 -0.814984 0 11 -0.814984 1
gene 1 12 20 -0.13224 0 12 -0.13224 1
gene 1 13 20 -0.20877 0 13 -0.20877 1
gene 1 14 20 -0.0963969 0 14 -0.0963969 1
gene 1 15 20 0.0840773 0 15 0.0840773 1
gene 1 16 20 0.0506614 0 16 0.0506614 1
gene 1 17 20 0.511599 0 17 0.511599 1
gene 1 18 20 0.458974 0 18 0.458974 1
gene 1 19 20 -0.402728 0 19 -0.402728 1
gene 1 1 21 0.00467728 0 20 0.00467728 1
gene 1 2 21 -1.5981 0 21 -1.5981 1
gene 1 3 21 1.38914 0 22 1.38914 1
gene 1 4 21 0.474278 0 23 0.474278 1
gene 1 5 21 1.48098 0 24 1.48098 1
gene 1 6 21 0.0586881 0 25 0.0586881 1
gene 1 7 21 0.239477 0 26 0.239477 0
gene 1 8 21 0.18908 0 27 0.18908 1
gene 1 9 21 0.442795 0 28 0.442795 1
gene 1 10 21 -0.83279 0 29 -0.83279 1
gene 1 11 21 -0.245291 0 30 -0.245291 1
gene 1 12 21 0.241977 0 31 0.241977 1
gene 1 13 21 -0.17517 0 32 -0.17517 1
gene 1 14 21 0.019497 0 33 0.019497 1
gene 1 15 21 -0.209386 0 34 -0.209386 1
gene 1 16 21 0.0446198 0 35 0.0446198 1
gene 1 17 21 0.276766 0 36 0.276766 1
gene 1 18 21 -0.0958932 0 37 -0.0958932 1
gene 1 19 21 -0.0906425 0 38 -0.0906425 1
gene 1 1 22 -0.278886 0 39 -0.278886 1
gene 1 2 22 -0.109665 0 40 -0.109665 1
gene 1 3 22 -0.7712 0 41 -0.7712 0
gene 1 4 22 0.236388 0 42 0.236388 1
gene 1 5 22 -0.554219 0 43 -0.554219 1
gene 1 6 22 -0.775673 0 44 -0.775673 1
gene 1 7 22 0.143346 0 45 0.143346 1
gene 1 8 22 0.859791 0 46 0.859791 1
gene 1 9 22 0.207236 0 47 0.207236 1
gene 1 10 22 0.225838 0 48 0.225838 1
gene 1 11 22 0.251926 0 49 0.251926 1
gene 1 12 22 0.394218 0 50 0.394218 1
gene 1 13 22 0.129238 0 51 0.129238 1
gene 1 14 22 0.869818 0 52 0.869818 1
gene 1 15 22 -0.0173597 0 53 -0.0173597 1
gene 1 16 22 0.599783 0 54 0.599783 1
gene 1 17 22 -0.659955 0 55 -0.659955 1
gene 1 18 22 -1.10688 0 56 -1.10688 1
gene 1 19 22 0.314259 0 57 0.314259 1
gene 1 1 23 0.753686 0 58 0.753686 1
gene 1 2 23 -0.526613 0 59 -0.526613 1
gene 1 3 23 0.0992058 0 60 0.0992058 1
gene 1 4 23 -0.113636 0 61 -0.113636 1
gene 1 5 23 -0.894486 0 62 -0.894486 1
gene 1 6 23 -0.220716 0 63 -0.220716 1
gene 1 7 23 0.0535538 0 64 0.0535538 1
gene 1 8 23 -0.72341 0 65 -0.72341 1
gene 1 9 23 -0.581966 0 66 -0.581966 1
gene 1 10 23 0.314358 0 67 0.314358 1
gene 1 11 23 0.00330408 0 68 0.00330408 1
gene 1 12 23 0.494594 0 69 0.494594 1
gene 1 13 23 0.360641 0 70 0.360641 1
gene 1 14 23 0.28411 0 71 0.28411 1
gene 1 15 23 0.0752696 0 72 0.0752696 1
gene 1 16 23 0.628103 0 73 0.628103 1
gene 1 17 23 -1.0733 0 74 -1.0733 1
gene 1 18 23 0.225313 0 75 0.225313 1
gene 1 19 23 -0.246596 0 76 -0.246596 1
gene 1 20 22 0.959295 0 78 0.959295 1
