genomestart 847
trait 1 0.00848845 0.168895 0.0378166 0.102075 0.341182 0.104949 0.234352 0.103075 
node 1 1 1 1 0
node 2 1 1 1 0
node 3 1 1 1 0
node 4 1 1 1 0
node 5 1 1 1 0
node 6 1 1 1 0
node 7 1 1 1 0
node 8 1 1 1 0
node 9 1 1 1 0
node 10 1 1 1 0
node 11 1 1 1 0
node 12 1 1 1 0
node 13 1 1 1 0
node 14 1 1 1 0
node 15 1 1 1 0
node 16 1 1 1 0
node 17 1 1 1 0
node 18 1 1 1 0
node 19 1 1 3 0
node 20 1 0 2 0
node 21 1 0 2 0
node 22 1 0 2 0
node 23 1 0 2 0
node 27 1 0 0 0
node 35 1 0 0 0
node 39 1 0 0 0
node 46 1 0 0 0
gene 1 1 20 -0.150715 0 1 -0.150715 1
gene 1 2 20 0.0804778 0 2 0.0804778 1
gene 1 3 20 -0.697109 0 3 -0.697109 1
gene 1 4 20 0.0108058 0 4 0.0108058 1
gene 1 5 20 -0.585178 0 5 -0.585178 1
gene 1 6 20 0.427187 0 6 0.427187 1
gene 1 7 20 1.73625 0 7 1.73625 1
gene 1 8 20 1.00295 0 8 1.00295 1
gene 1 9 20 -0.557628 0 9 -0.557628 1
gene 1 10 20 -0.726099 0 10 -0.726099 1
gene 1 11 20 0.696996 0 11 0.696996 1
gene 1 12 20 -0.447895 0 12 -0.447895 1
gene 1 13 20 -0.374047 0 13 -0.374047 1
gene 1 14 20 -0.217541 0 14 -0.217541 1
gene 1 15 20 0.713065 0 15 0.713065 1
gene 1 16 20 1.4422 0 16 1.4422 1
gene 1 17 20 -0.435583 0 17 -0.435583 1
gene 1 18 20 -0.93055 0 18 -0.93055 1
gene 1 19 20 1.12012 0 19 1.12012 1
gene 1 1 21 1.22287 0 20 1.22287 1
gene 1 2 21 -1.44484 0 21 -1.44484 1
gene 1 3 21 -0.130751 0 22 -0.130751 1
gene 1 4 21 0.13287 0 23 0.13287 1
gene 1 5 21 -0.45385 0 24 -0.45385 1
gene 1 6 21 0.514151 0 25 0.514151 1
gene 1 7 21 -0.495007 0 26 -0.495007 1
gene 1 8 21 -0.410974 0 27 -0.410974 1
gene 1 9 21 0.518383 0 28 0.518383 1
gene 1 10 21 0.65024 0 29 0.65024 1
gene 1 11 21 -0.289683 0 30 -0.289683 1
gene 1 12 21 -0.111259 0 31 -0.111259 1
gene 1 13 21 -0.822495 0 32 -0.822495 1
gene 1 14 21 0.211904 0 33 0.211904 1
gene 1 15 21 0.3295 0 34 0.3295 1
gene 1 16 21 0.547184 0 35 0.547184 1
gene 1 17 21 0.873494 0 36 0.873494 1
gene 1 18 21 0.669565 0 37 0.669565 1
gene 1 19 21 -0.16365 0 38 -0.16365 1
gene 1 1 22 -1.54495 0 39 -1.54495 1
gene 1 2 22 0.774697 0 40 0.774697 1
gene 1 3 22 1.02182 0 41 1.02182 1
gene 1 4 22 -0.92748 0 42 -0.92748 1
gene 1 5 22 0.97657 0 43 0.97657 1
gene 1 6 22 0.300602 0 44 0.300602 0
gene 1 7 22 -0.635781 0 45 -0.635781 1
gene 1 8 22 1.84828 0 46 1.84828 1
gene 1 9 22 0.701621 0 47 0.701621 1
gene 1 10 22 1.15692 0 48 1.15692 1
gene 1 11 22 -1.12906 0 49 -1.12906 1
gene 1 12 22 -0.317398 0 50 -0.317398 1
gene 1 13 22 0.17007 0 51 0.17007 1
gene 1 14 22 0.692261 0 52 0.692261 1
gene 1 15 22 -0.261766 0 53 -0.261766 1
gene 1 16 22 -1.18967 0 54 -1.18967 0
gene 1 17 22 0.217076 0 55 0.217076 1
gene 1 18 22 0.984475 0 56 0.984475 1
gene 1 19 22 0.763782 0 57 0.763782 1
gene 1 1 23 0.145041 0 58 0.145041 1
gene 1 2 23 0.605272 0 59 0.605272 1
gene 1 3 23 0.454002 0 60 0.454002 1
gene 1 4 23 0.116106 0 61 0.116106 1
gene 1 5 23 -0.495201 0 62 -0.495201 1
gene 1 6 23 -0.289731 0 63 -0.289731 1
gene 1 7 23 -0.28891 0 64 -0.28891 0
gene 1 8 23 1.30394 0 65 1.30394 1
gene 1 9 23 -0.509584 0 66 -0.509584 1
gene 1 10 23 0.0833351 0 67 0.0833351 1
gene 1 11 23 0.154761 0 68 0.154761 1
gene 1 12 23 1.17376 0 69 1.17376 1
gene 1 13 23 0.95049 0 70 0.95049 1
gene 1 14 23 0.645353 0 71 0.645353 1
gene 1 15 23 0.804657 0 72 0.804657 0
gene 1 16 23 1.33953 0 73 1.33953 1
gene 1 17 23 0.554966 0 74 0.554966 1
gene 1 18 23 0.608955 0 75 0.608955 1
gene 1 19 23 1.37871 0 76 1.37871 1
gene 1 23 22 0.187407 0 78 0.187407 1
gene 1 16 27 0.582566 0 86 0.582566 1
gene 1 27 22 -0.0327688 0 87 -0.0327688 1
gene 1 22 22 -0.230741 1 100 -0.230741 1
gene 1 20 22 0.366264 0 101 0.366264 1
gene 1 7 35 0.39197 0 128 0.39197 1
gene 1 35 23 -0.493615 0 129 -0.493615 1
gene 1 14 27 -0.114571 0 132 -0.114571 1
gene 1 17 27 -0.286029 0 135 -0.286029 1
gene 1 20 21 0.334096 0 139 0.334096 1
gene 1 11 27 -0.693947 0 141 -0.693947 1
gene 1 23 21 0.269692 0 143 0.269692 1
gene 1 6 39 -0.982591 0 152 -0.982591 1
gene 1 39 22 1.20204 0 153 1.20204 1
gene 1 20 20 -0.0813387 1 154 -0.0813387 1
gene 1 15 46 0.248796 0 203 0.248796 1
gene 1 46 23 0.613301 0 204 0.613301 1
gene 1 19 35 -0.368028 0 208 -0.368028 1
gene 1 2 46 -0.443041 0 242 -0.443041 1
genomeend 847

<message><content class="edu.utexas.cs.nn.opennero.Genome"
id="847" bodyId="30" fitness="1.384515" timeAlive="7946" champ="false">
<rawFitness>
  <entry dimension="STAND_GROUND">-2.928628</entry>
  <entry dimension="STICK_TOGETHER">-6716.917220</entry>
  <entry dimension="APPROACH_ENEMY">-0.000000</entry>
  <entry dimension="APPROACH_FLAG">-14932.826741</entry>
  <entry dimension="HIT_TARGET">0.000000</entry>
  <entry dimension="AVOID_FIRE">0.000000</entry>
</rawFitness></content></message>
