genomestart 260
trait 1 0 0 0 0 0.301226 0 0.124553 0 
node 1 1 1 1 0
node 2 1 1 1 0
node 3 1 1 1 0
node 4 1 1 1 0
node 5 1 1 1 0
node 6 1 1 1 0
node 7 1 1 1 0
node 8 1 1 1 0
node 9 1 1 1 0
node 10 1 1 1 0
node 11 1 1 1 0
node 12 1 1 1 0
node 13 1 1 1 0
node 14 1 1 1 0
node 15 1 1 1 0
node 16 1 1 1 0
node 17 1 1 1 0
node 18 1 1 1 0
node 19 1 1 3 0
node 20 1 0 2 0
node 21 1 0 2 0
node 22 1 0 2 0
node 23 1 0 2 0
node 26 1 0 0 0
node 34 1 0 0 0
node 45 1 0 0 0
node 47 1 0 0 0
node 49 1 0 0 0
node 57 1 0 0 0
node 61 1 0 0 0
node 64 1 0 0 0
gene 1 1 20 0.269418 0 1 0.269418 1
gene 1 2 20 -1.06787 0 2 -1.06787 1
gene 1 3 20 -0.930389 0 3 -0.930389 1
gene 1 4 20 -0.440944 0 4 -0.440944 1
gene 1 5 20 1.71397 0 5 1.71397 1
gene 1 6 20 -0.206871 0 6 -0.206871 1
gene 1 7 20 -0.117883 0 7 -0.117883 1
gene 1 8 20 -0.521772 0 8 -0.521772 1
gene 1 9 20 0.0824513 0 9 0.0824513 1
gene 1 10 20 -0.638825 0 10 -0.638825 1
gene 1 11 20 0.376505 0 11 0.376505 1
gene 1 12 20 -0.514602 0 12 -0.514602 1
gene 1 13 20 -0.398304 0 13 -0.398304 1
gene 1 14 20 0.442303 0 14 0.442303 1
gene 1 15 20 0.108258 0 15 0.108258 1
gene 1 16 20 2.45526 0 16 2.45526 1
gene 1 17 20 0.569114 0 17 0.569114 1
gene 1 18 20 0.797899 0 18 0.797899 1
gene 1 19 20 2.90736 0 19 2.90736 1
gene 1 1 21 0.537999 0 20 0.537999 1
gene 1 2 21 0.296868 0 21 0.296868 1
gene 1 3 21 0.200196 0 22 0.200196 1
gene 1 4 21 -0.250482 0 23 -0.250482 1
gene 1 5 21 -1.00032 0 24 -1.00032 1
gene 1 6 21 0.357947 0 25 0.357947 1
gene 1 7 21 -0.220345 0 26 -0.220345 1
gene 1 8 21 -0.0248495 0 27 -0.0248495 1
gene 1 9 21 1.55885 0 28 1.55885 1
gene 1 10 21 -0.446221 0 29 -0.446221 1
gene 1 11 21 -0.091493 0 30 -0.091493 1
gene 1 12 21 0.457449 0 31 0.457449 1
gene 1 13 21 0.572381 0 32 0.572381 1
gene 1 14 21 0.926715 0 33 0.926715 1
gene 1 15 21 0.600786 0 34 0.600786 1
gene 1 16 21 0.418398 0 35 0.418398 1
gene 1 17 21 -0.279215 0 36 -0.279215 1
gene 1 18 21 -0.306543 0 37 -0.306543 1
gene 1 19 21 -0.960683 0 38 -0.960683 1
gene 1 1 22 -0.24231 0 39 -0.24231 0
gene 1 2 22 -0.242248 0 40 -0.242248 1
gene 1 3 22 -1.76798 0 41 -1.76798 1
gene 1 4 22 2.22928 0 42 2.22928 1
gene 1 5 22 0.107037 0 43 0.107037 1
gene 1 6 22 0.549659 0 44 0.549659 1
gene 1 7 22 -0.558589 0 45 -0.558589 1
gene 1 8 22 0.220489 0 46 0.220489 1
gene 1 9 22 -1.39934 0 47 -1.39934 0
gene 1 10 22 0.541986 0 48 0.541986 0
gene 1 11 22 -0.404014 0 49 -0.404014 1
gene 1 12 22 0.48442 0 50 0.48442 1
gene 1 13 22 -0.917634 0 51 -0.917634 1
gene 1 14 22 0.46202 0 52 0.46202 1
gene 1 15 22 0.258698 0 53 0.258698 1
gene 1 16 22 1.61768 0 54 1.61768 1
gene 1 17 22 -0.293515 0 55 -0.293515 1
gene 1 18 22 0.115323 0 56 0.115323 1
gene 1 19 22 0.063737 0 57 0.063737 1
gene 1 1 23 -0.474721 0 58 -0.474721 1
gene 1 2 23 -0.0663162 0 59 -0.0663162 1
gene 1 3 23 -0.62041 0 60 -0.62041 1
gene 1 4 23 1.86955 0 61 1.86955 1
gene 1 5 23 -1.02715 0 62 -1.02715 1
gene 1 6 23 0.319169 0 63 0.319169 1
gene 1 7 23 1.4332 0 64 1.4332 1
gene 1 8 23 -0.11776 0 65 -0.11776 0
gene 1 9 23 0.00879303 0 66 0.00879303 1
gene 1 10 23 -0.516287 0 67 -0.516287 1
gene 1 11 23 0.307113 0 68 0.307113 1
gene 1 12 23 -0.763026 0 69 -0.763026 1
gene 1 13 23 0.0731384 0 70 0.0731384 1
gene 1 14 23 0.427092 0 71 0.427092 1
gene 1 15 23 -0.796028 0 72 -0.796028 1
gene 1 16 23 -0.109172 0 73 -0.109172 1
gene 1 17 23 -0.924354 0 74 -0.924354 1
gene 1 18 23 1.10755 0 75 1.10755 1
gene 1 19 23 -0.905401 0 76 -0.905401 1
gene 1 8 26 0.175871 0 84 0.175871 1
gene 1 26 23 0.26519 0 85 0.26519 0
gene 1 9 34 -0.212446 0 108 -0.212446 1
gene 1 34 22 0.919979 0 109 0.919979 1
gene 1 26 26 0.247658 1 134 0.247658 1
gene 1 26 45 0.818894 1 157 0.818894 1
gene 1 45 26 0.351685 0 158 0.351685 1
gene 1 14 47 0.628717 0 162 0.628717 1
gene 1 47 22 0.24202 0 163 0.24202 1
gene 1 10 49 -0.0773802 0 171 -0.0773802 1
gene 1 49 22 -0.0813929 0 172 -0.0813929 1
gene 1 17 49 -0.00115057 0 186 -0.00115057 1
gene 1 3 57 0.801231 0 196 0.801231 1
gene 1 57 23 -0.119643 0 197 -0.119643 1
gene 1 26 61 1.14814 0 209 1.14814 1
gene 1 61 23 -0.0956761 0 210 -0.0956761 1
gene 1 20 57 -0.140405 0 215 -0.140405 1
gene 1 1 64 0.604286 0 225 0.604286 1
gene 1 64 22 0.741784 0 226 0.741784 1
genomeend 260
genomestart 261
trait 1 0 0 0 0 0.301226 0 0.124553 0 
node 1 1 1 1 0
node 2 1 1 1 0
node 3 1 1 1 0
node 4 1 1 1 0
node 5 1 1 1 0
node 6 1 1 1 0
node 7 1 1 1 0
node 8 1 1 1 0
node 9 1 1 1 0
node 10 1 1 1 0
node 11 1 1 1 0
node 12 1 1 1 0
node 13 1 1 1 0
node 14 1 1 1 0
node 15 1 1 1 0
node 16 1 1 1 0
node 17 1 1 1 0
node 18 1 1 1 0
node 19 1 1 3 0
node 20 1 0 2 0
node 21 1 0 2 0
node 22 1 0 2 0
node 23 1 0 2 0
node 26 1 0 0 0
node 34 1 0 0 0
node 45 1 0 0 0
node 47 1 0 0 0
node 49 1 0 0 0
node 57 1 0 0 0
node 61 1 0 0 0
node 64 1 0 0 0
gene 1 1 20 0.269418 0 1 0.269418 1
gene 1 2 20 -1.06787 0 2 -1.06787 1
gene 1 3 20 -0.930389 0 3 -0.930389 1
gene 1 4 20 -0.440944 0 4 -0.440944 1
gene 1 5 20 1.71397 0 5 1.71397 1
gene 1 6 20 -0.206871 0 6 -0.206871 1
gene 1 7 20 -0.117883 0 7 -0.117883 1
gene 1 8 20 -0.521772 0 8 -0.521772 1
gene 1 9 20 0.0824513 0 9 0.0824513 1
gene 1 10 20 -0.638825 0 10 -0.638825 1
gene 1 11 20 0.376505 0 11 0.376505 1
gene 1 12 20 -0.514602 0 12 -0.514602 1
gene 1 13 20 -0.398304 0 13 -0.398304 1
gene 1 14 20 0.442303 0 14 0.442303 1
gene 1 15 20 0.108258 0 15 0.108258 1
gene 1 16 20 2.45526 0 16 2.45526 1
gene 1 17 20 0.569114 0 17 0.569114 1
gene 1 18 20 0.797899 0 18 0.797899 1
gene 1 19 20 2.90736 0 19 2.90736 1
gene 1 1 21 0.537999 0 20 0.537999 1
gene 1 2 21 0.296868 0 21 0.296868 1
gene 1 3 21 0.200196 0 22 0.200196 1
gene 1 4 21 -0.250482 0 23 -0.250482 1
gene 1 5 21 -1.00032 0 24 -1.00032 1
gene 1 6 21 0.357947 0 25 0.357947 1
gene 1 7 21 -0.220345 0 26 -0.220345 1
gene 1 8 21 -0.0248495 0 27 -0.0248495 1
gene 1 9 21 1.55885 0 28 1.55885 1
gene 1 10 21 -0.446221 0 29 -0.446221 1
gene 1 11 21 -0.091493 0 30 -0.091493 1
gene 1 12 21 0.457449 0 31 0.457449 1
gene 1 13 21 0.572381 0 32 0.572381 1
gene 1 14 21 0.926715 0 33 0.926715 1
gene 1 15 21 0.600786 0 34 0.600786 1
gene 1 16 21 0.418398 0 35 0.418398 1
gene 1 17 21 -0.279215 0 36 -0.279215 1
gene 1 18 21 -0.306543 0 37 -0.306543 1
gene 1 19 21 -0.960683 0 38 -0.960683 1
gene 1 1 22 -0.24231 0 39 -0.24231 0
gene 1 2 22 -0.242248 0 40 -0.242248 1
gene 1 3 22 -1.76798 0 41 -1.76798 1
gene 1 4 22 2.22928 0 42 2.22928 1
gene 1 5 22 0.107037 0 43 0.107037 1
gene 1 6 22 0.549659 0 44 0.549659 1
gene 1 7 22 -0.558589 0 45 -0.558589 1
gene 1 8 22 0.220489 0 46 0.220489 1
gene 1 9 22 -1.39934 0 47 -1.39934 0
gene 1 10 22 0.541986 0 48 0.541986 0
gene 1 11 22 -0.404014 0 49 -0.404014 1
gene 1 12 22 0.48442 0 50 0.48442 1
gene 1 13 22 -0.917634 0 51 -0.917634 1
gene 1 14 22 0.46202 0 52 0.46202 1
gene 1 15 22 0.258698 0 53 0.258698 1
gene 1 16 22 1.61768 0 54 1.61768 1
gene 1 17 22 -0.293515 0 55 -0.293515 1
gene 1 18 22 0.115323 0 56 0.115323 1
gene 1 19 22 0.063737 0 57 0.063737 1
gene 1 1 23 -0.474721 0 58 -0.474721 1
gene 1 2 23 -0.0663162 0 59 -0.0663162 1
gene 1 3 23 -0.62041 0 60 -0.62041 1
gene 1 4 23 1.86955 0 61 1.86955 1
gene 1 5 23 -1.02715 0 62 -1.02715 1
gene 1 6 23 0.319169 0 63 0.319169 1
gene 1 7 23 1.4332 0 64 1.4332 1
gene 1 8 23 -0.11776 0 65 -0.11776 0
gene 1 9 23 0.00879303 0 66 0.00879303 1
gene 1 10 23 -0.516287 0 67 -0.516287 1
gene 1 11 23 0.307113 0 68 0.307113 1
gene 1 12 23 -0.763026 0 69 -0.763026 1
gene 1 13 23 0.0731384 0 70 0.0731384 1
gene 1 14 23 0.427092 0 71 0.427092 1
gene 1 15 23 -0.796028 0 72 -0.796028 1
gene 1 16 23 -0.109172 0 73 -0.109172 1
gene 1 17 23 -0.924354 0 74 -0.924354 1
gene 1 18 23 1.10755 0 75 1.10755 1
gene 1 19 23 -0.905401 0 76 -0.905401 1
gene 1 8 26 0.175871 0 84 0.175871 1
gene 1 26 23 0.26519 0 85 0.26519 0
gene 1 9 34 -0.212446 0 108 -0.212446 1
gene 1 34 22 0.919979 0 109 0.919979 1
gene 1 26 26 0.247658 1 134 0.247658 1
gene 1 26 45 0.818894 1 157 0.818894 1
gene 1 45 26 0.351685 0 158 0.351685 1
gene 1 14 47 0.628717 0 162 0.628717 1
gene 1 47 22 0.24202 0 163 0.24202 1
gene 1 10 49 -0.0773802 0 171 -0.0773802 1
gene 1 49 22 -0.0813929 0 172 -0.0813929 1
gene 1 17 49 -0.00115057 0 186 -0.00115057 1
gene 1 3 57 0.801231 0 196 0.801231 1
gene 1 57 23 -0.119643 0 197 -0.119643 1
gene 1 26 61 1.14814 0 209 1.14814 1
gene 1 61 23 -0.0956761 0 210 -0.0956761 1
gene 1 20 57 -0.140405 0 215 -0.140405 1
gene 1 1 64 0.604286 0 225 0.604286 1
gene 1 64 22 0.741784 0 226 0.741784 1
genomeend 261
genomestart 262
trait 1 0 0 0 0 0.301226 0 0.124553 0 
node 1 1 1 1 0
node 2 1 1 1 0
node 3 1 1 1 0
node 4 1 1 1 0
node 5 1 1 1 0
node 6 1 1 1 0
node 7 1 1 1 0
node 8 1 1 1 0
node 9 1 1 1 0
node 10 1 1 1 0
node 11 1 1 1 0
node 12 1 1 1 0
node 13 1 1 1 0
node 14 1 1 1 0
node 15 1 1 1 0
node 16 1 1 1 0
node 17 1 1 1 0
node 18 1 1 1 0
node 19 1 1 3 0
node 20 1 0 2 0
node 21 1 0 2 0
node 22 1 0 2 0
node 23 1 0 2 0
node 26 1 0 0 0
node 34 1 0 0 0
node 45 1 0 0 0
node 47 1 0 0 0
node 49 1 0 0 0
node 57 1 0 0 0
node 61 1 0 0 0
node 64 1 0 0 0
gene 1 1 20 0.269418 0 1 0.269418 1
gene 1 2 20 -1.06787 0 2 -1.06787 1
gene 1 3 20 -0.930389 0 3 -0.930389 1
gene 1 4 20 -0.440944 0 4 -0.440944 1
gene 1 5 20 1.71397 0 5 1.71397 1
gene 1 6 20 -0.206871 0 6 -0.206871 1
gene 1 7 20 -0.117883 0 7 -0.117883 1
gene 1 8 20 -0.521772 0 8 -0.521772 1
gene 1 9 20 0.0824513 0 9 0.0824513 1
gene 1 10 20 -0.638825 0 10 -0.638825 1
gene 1 11 20 0.376505 0 11 0.376505 1
gene 1 12 20 -0.514602 0 12 -0.514602 1
gene 1 13 20 -0.398304 0 13 -0.398304 1
gene 1 14 20 0.442303 0 14 0.442303 1
gene 1 15 20 0.108258 0 15 0.108258 1
gene 1 16 20 2.45526 0 16 2.45526 1
gene 1 17 20 0.569114 0 17 0.569114 1
gene 1 18 20 0.797899 0 18 0.797899 1
gene 1 19 20 2.90736 0 19 2.90736 1
gene 1 1 21 0.537999 0 20 0.537999 1
gene 1 2 21 0.296868 0 21 0.296868 1
gene 1 3 21 0.200196 0 22 0.200196 1
gene 1 4 21 -0.250482 0 23 -0.250482 1
gene 1 5 21 -1.00032 0 24 -1.00032 1
gene 1 6 21 0.357947 0 25 0.357947 1
gene 1 7 21 -0.220345 0 26 -0.220345 1
gene 1 8 21 -0.0248495 0 27 -0.0248495 1
gene 1 9 21 1.55885 0 28 1.55885 1
gene 1 10 21 -0.446221 0 29 -0.446221 1
gene 1 11 21 -0.091493 0 30 -0.091493 1
gene 1 12 21 0.457449 0 31 0.457449 1
gene 1 13 21 0.572381 0 32 0.572381 1
gene 1 14 21 0.926715 0 33 0.926715 1
gene 1 15 21 0.600786 0 34 0.600786 1
gene 1 16 21 0.418398 0 35 0.418398 1
gene 1 17 21 -0.279215 0 36 -0.279215 1
gene 1 18 21 -0.306543 0 37 -0.306543 1
gene 1 19 21 -0.960683 0 38 -0.960683 1
gene 1 1 22 -0.24231 0 39 -0.24231 0
gene 1 2 22 -0.242248 0 40 -0.242248 1
gene 1 3 22 -1.76798 0 41 -1.76798 1
gene 1 4 22 2.22928 0 42 2.22928 1
gene 1 5 22 0.107037 0 43 0.107037 1
gene 1 6 22 0.549659 0 44 0.549659 1
gene 1 7 22 -0.558589 0 45 -0.558589 1
gene 1 8 22 0.220489 0 46 0.220489 1
gene 1 9 22 -1.39934 0 47 -1.39934 0
gene 1 10 22 0.541986 0 48 0.541986 0
gene 1 11 22 -0.404014 0 49 -0.404014 1
gene 1 12 22 0.48442 0 50 0.48442 1
gene 1 13 22 -0.917634 0 51 -0.917634 1
gene 1 14 22 0.46202 0 52 0.46202 1
gene 1 15 22 0.258698 0 53 0.258698 1
gene 1 16 22 1.61768 0 54 1.61768 1
gene 1 17 22 -0.293515 0 55 -0.293515 1
gene 1 18 22 0.115323 0 56 0.115323 1
gene 1 19 22 0.063737 0 57 0.063737 1
gene 1 1 23 -0.474721 0 58 -0.474721 1
gene 1 2 23 -0.0663162 0 59 -0.0663162 1
gene 1 3 23 -0.62041 0 60 -0.62041 1
gene 1 4 23 1.86955 0 61 1.86955 1
gene 1 5 23 -1.02715 0 62 -1.02715 1
gene 1 6 23 0.319169 0 63 0.319169 1
gene 1 7 23 1.4332 0 64 1.4332 1
gene 1 8 23 -0.11776 0 65 -0.11776 0
gene 1 9 23 0.00879303 0 66 0.00879303 1
gene 1 10 23 -0.516287 0 67 -0.516287 1
gene 1 11 23 0.307113 0 68 0.307113 1
gene 1 12 23 -0.763026 0 69 -0.763026 1
gene 1 13 23 0.0731384 0 70 0.0731384 1
gene 1 14 23 0.427092 0 71 0.427092 1
gene 1 15 23 -0.796028 0 72 -0.796028 1
gene 1 16 23 -0.109172 0 73 -0.109172 1
gene 1 17 23 -0.924354 0 74 -0.924354 1
gene 1 18 23 1.10755 0 75 1.10755 1
gene 1 19 23 -0.905401 0 76 -0.905401 1
gene 1 8 26 0.175871 0 84 0.175871 1
gene 1 26 23 0.26519 0 85 0.26519 0
gene 1 9 34 -0.212446 0 108 -0.212446 1
gene 1 34 22 0.919979 0 109 0.919979 1
gene 1 26 26 0.247658 1 134 0.247658 1
gene 1 26 45 0.818894 1 157 0.818894 1
gene 1 45 26 0.351685 0 158 0.351685 1
gene 1 14 47 0.628717 0 162 0.628717 1
gene 1 47 22 0.24202 0 163 0.24202 1
gene 1 10 49 -0.0773802 0 171 -0.0773802 1
gene 1 49 22 -0.0813929 0 172 -0.0813929 1
gene 1 17 49 -0.00115057 0 186 -0.00115057 1
gene 1 3 57 0.801231 0 196 0.801231 1
gene 1 57 23 -0.119643 0 197 -0.119643 1
gene 1 26 61 1.14814 0 209 1.14814 1
gene 1 61 23 -0.0956761 0 210 -0.0956761 1
gene 1 20 57 -0.140405 0 215 -0.140405 1
gene 1 1 64 0.604286 0 225 0.604286 1
gene 1 64 22 0.741784 0 226 0.741784 1
genomeend 262
genomestart 263
trait 1 0 0 0 0 0.301226 0 0.124553 0 
node 1 1 1 1 0
node 2 1 1 1 0
node 3 1 1 1 0
node 4 1 1 1 0
node 5 1 1 1 0
node 6 1 1 1 0
node 7 1 1 1 0
node 8 1 1 1 0
node 9 1 1 1 0
node 10 1 1 1 0
node 11 1 1 1 0
node 12 1 1 1 0
node 13 1 1 1 0
node 14 1 1 1 0
node 15 1 1 1 0
node 16 1 1 1 0
node 17 1 1 1 0
node 18 1 1 1 0
node 19 1 1 3 0
node 20 1 0 2 0
node 21 1 0 2 0
node 22 1 0 2 0
node 23 1 0 2 0
node 26 1 0 0 0
node 34 1 0 0 0
node 45 1 0 0 0
node 47 1 0 0 0
node 49 1 0 0 0
node 57 1 0 0 0
node 61 1 0 0 0
node 64 1 0 0 0
gene 1 1 20 0.269418 0 1 0.269418 1
gene 1 2 20 -1.06787 0 2 -1.06787 1
gene 1 3 20 -0.930389 0 3 -0.930389 1
gene 1 4 20 -0.440944 0 4 -0.440944 1
gene 1 5 20 1.71397 0 5 1.71397 1
gene 1 6 20 -0.206871 0 6 -0.206871 1
gene 1 7 20 -0.117883 0 7 -0.117883 1
gene 1 8 20 -0.521772 0 8 -0.521772 1
gene 1 9 20 0.0824513 0 9 0.0824513 1
gene 1 10 20 -0.638825 0 10 -0.638825 1
gene 1 11 20 0.376505 0 11 0.376505 1
gene 1 12 20 -0.514602 0 12 -0.514602 1
gene 1 13 20 -0.398304 0 13 -0.398304 1
gene 1 14 20 0.442303 0 14 0.442303 1
gene 1 15 20 0.108258 0 15 0.108258 1
gene 1 16 20 2.45526 0 16 2.45526 1
gene 1 17 20 0.569114 0 17 0.569114 1
gene 1 18 20 0.797899 0 18 0.797899 1
gene 1 19 20 2.90736 0 19 2.90736 1
gene 1 1 21 0.537999 0 20 0.537999 1
gene 1 2 21 0.296868 0 21 0.296868 1
gene 1 3 21 0.200196 0 22 0.200196 1
gene 1 4 21 -0.250482 0 23 -0.250482 1
gene 1 5 21 -1.00032 0 24 -1.00032 1
gene 1 6 21 0.357947 0 25 0.357947 1
gene 1 7 21 -0.220345 0 26 -0.220345 1
gene 1 8 21 -0.0248495 0 27 -0.0248495 1
gene 1 9 21 1.55885 0 28 1.55885 1
gene 1 10 21 -0.446221 0 29 -0.446221 1
gene 1 11 21 -0.091493 0 30 -0.091493 1
gene 1 12 21 0.457449 0 31 0.457449 1
gene 1 13 21 0.572381 0 32 0.572381 1
gene 1 14 21 0.926715 0 33 0.926715 1
gene 1 15 21 0.600786 0 34 0.600786 1
gene 1 16 21 0.418398 0 35 0.418398 1
gene 1 17 21 -0.279215 0 36 -0.279215 1
gene 1 18 21 -0.306543 0 37 -0.306543 1
gene 1 19 21 -0.960683 0 38 -0.960683 1
gene 1 1 22 -0.24231 0 39 -0.24231 0
gene 1 2 22 -0.242248 0 40 -0.242248 1
gene 1 3 22 -1.76798 0 41 -1.76798 1
gene 1 4 22 2.22928 0 42 2.22928 1
gene 1 5 22 0.107037 0 43 0.107037 1
gene 1 6 22 0.549659 0 44 0.549659 1
gene 1 7 22 -0.558589 0 45 -0.558589 1
gene 1 8 22 0.220489 0 46 0.220489 1
gene 1 9 22 -1.39934 0 47 -1.39934 0
gene 1 10 22 0.541986 0 48 0.541986 0
gene 1 11 22 -0.404014 0 49 -0.404014 1
gene 1 12 22 0.48442 0 50 0.48442 1
gene 1 13 22 -0.917634 0 51 -0.917634 1
gene 1 14 22 0.46202 0 52 0.46202 1
gene 1 15 22 0.258698 0 53 0.258698 1
gene 1 16 22 1.61768 0 54 1.61768 1
gene 1 17 22 -0.293515 0 55 -0.293515 1
gene 1 18 22 0.115323 0 56 0.115323 1
gene 1 19 22 0.063737 0 57 0.063737 1
gene 1 1 23 -0.474721 0 58 -0.474721 1
gene 1 2 23 -0.0663162 0 59 -0.0663162 1
gene 1 3 23 -0.62041 0 60 -0.62041 1
gene 1 4 23 1.86955 0 61 1.86955 1
gene 1 5 23 -1.02715 0 62 -1.02715 1
gene 1 6 23 0.319169 0 63 0.319169 1
gene 1 7 23 1.4332 0 64 1.4332 1
gene 1 8 23 -0.11776 0 65 -0.11776 0
gene 1 9 23 0.00879303 0 66 0.00879303 1
gene 1 10 23 -0.516287 0 67 -0.516287 1
gene 1 11 23 0.307113 0 68 0.307113 1
gene 1 12 23 -0.763026 0 69 -0.763026 1
gene 1 13 23 0.0731384 0 70 0.0731384 1
gene 1 14 23 0.427092 0 71 0.427092 1
gene 1 15 23 -0.796028 0 72 -0.796028 1
gene 1 16 23 -0.109172 0 73 -0.109172 1
gene 1 17 23 -0.924354 0 74 -0.924354 1
gene 1 18 23 1.10755 0 75 1.10755 1
gene 1 19 23 -0.905401 0 76 -0.905401 1
gene 1 8 26 0.175871 0 84 0.175871 1
gene 1 26 23 0.26519 0 85 0.26519 0
gene 1 9 34 -0.212446 0 108 -0.212446 1
gene 1 34 22 0.919979 0 109 0.919979 1
gene 1 26 26 0.247658 1 134 0.247658 1
gene 1 26 45 0.818894 1 157 0.818894 1
gene 1 45 26 0.351685 0 158 0.351685 1
gene 1 14 47 0.628717 0 162 0.628717 1
gene 1 47 22 0.24202 0 163 0.24202 1
gene 1 10 49 -0.0773802 0 171 -0.0773802 1
gene 1 49 22 -0.0813929 0 172 -0.0813929 1
gene 1 17 49 -0.00115057 0 186 -0.00115057 1
gene 1 3 57 0.801231 0 196 0.801231 1
gene 1 57 23 -0.119643 0 197 -0.119643 1
gene 1 26 61 1.14814 0 209 1.14814 1
gene 1 61 23 -0.0956761 0 210 -0.0956761 1
gene 1 20 57 -0.140405 0 215 -0.140405 1
gene 1 1 64 0.604286 0 225 0.604286 1
gene 1 64 22 0.741784 0 226 0.741784 1
genomeend 263
genomestart 264
trait 1 0 0 0 0 0.301226 0 0.124553 0 
node 1 1 1 1 0
node 2 1 1 1 0
node 3 1 1 1 0
node 4 1 1 1 0
node 5 1 1 1 0
node 6 1 1 1 0
node 7 1 1 1 0
node 8 1 1 1 0
node 9 1 1 1 0
node 10 1 1 1 0
node 11 1 1 1 0
node 12 1 1 1 0
node 13 1 1 1 0
node 14 1 1 1 0
node 15 1 1 1 0
node 16 1 1 1 0
node 17 1 1 1 0
node 18 1 1 1 0
node 19 1 1 3 0
node 20 1 0 2 0
node 21 1 0 2 0
node 22 1 0 2 0
node 23 1 0 2 0
node 26 1 0 0 0
node 34 1 0 0 0
node 45 1 0 0 0
node 47 1 0 0 0
node 49 1 0 0 0
node 57 1 0 0 0
node 61 1 0 0 0
node 64 1 0 0 0
gene 1 1 20 0.269418 0 1 0.269418 1
gene 1 2 20 -1.06787 0 2 -1.06787 1
gene 1 3 20 -0.930389 0 3 -0.930389 1
gene 1 4 20 -0.440944 0 4 -0.440944 1
gene 1 5 20 1.71397 0 5 1.71397 1
gene 1 6 20 -0.206871 0 6 -0.206871 1
gene 1 7 20 -0.117883 0 7 -0.117883 1
gene 1 8 20 -0.521772 0 8 -0.521772 1
gene 1 9 20 0.0824513 0 9 0.0824513 1
gene 1 10 20 -0.638825 0 10 -0.638825 1
gene 1 11 20 0.376505 0 11 0.376505 1
gene 1 12 20 -0.514602 0 12 -0.514602 1
gene 1 13 20 -0.398304 0 13 -0.398304 1
gene 1 14 20 0.442303 0 14 0.442303 1
gene 1 15 20 0.108258 0 15 0.108258 1
gene 1 16 20 2.45526 0 16 2.45526 1
gene 1 17 20 0.569114 0 17 0.569114 1
gene 1 18 20 0.797899 0 18 0.797899 1
gene 1 19 20 2.90736 0 19 2.90736 1
gene 1 1 21 0.537999 0 20 0.537999 1
gene 1 2 21 0.296868 0 21 0.296868 1
gene 1 3 21 0.200196 0 22 0.200196 1
gene 1 4 21 -0.250482 0 23 -0.250482 1
gene 1 5 21 -1.00032 0 24 -1.00032 1
gene 1 6 21 0.357947 0 25 0.357947 1
gene 1 7 21 -0.220345 0 26 -0.220345 1
gene 1 8 21 -0.0248495 0 27 -0.0248495 1
gene 1 9 21 1.55885 0 28 1.55885 1
gene 1 10 21 -0.446221 0 29 -0.446221 1
gene 1 11 21 -0.091493 0 30 -0.091493 1
gene 1 12 21 0.457449 0 31 0.457449 1
gene 1 13 21 0.572381 0 32 0.572381 1
gene 1 14 21 0.926715 0 33 0.926715 1
gene 1 15 21 0.600786 0 34 0.600786 1
gene 1 16 21 0.418398 0 35 0.418398 1
gene 1 17 21 -0.279215 0 36 -0.279215 1
gene 1 18 21 -0.306543 0 37 -0.306543 1
gene 1 19 21 -0.960683 0 38 -0.960683 1
gene 1 1 22 -0.24231 0 39 -0.24231 0
gene 1 2 22 -0.242248 0 40 -0.242248 1
gene 1 3 22 -1.76798 0 41 -1.76798 1
gene 1 4 22 2.22928 0 42 2.22928 1
gene 1 5 22 0.107037 0 43 0.107037 1
gene 1 6 22 0.549659 0 44 0.549659 1
gene 1 7 22 -0.558589 0 45 -0.558589 1
gene 1 8 22 0.220489 0 46 0.220489 1
gene 1 9 22 -1.39934 0 47 -1.39934 0
gene 1 10 22 0.541986 0 48 0.541986 0
gene 1 11 22 -0.404014 0 49 -0.404014 1
gene 1 12 22 0.48442 0 50 0.48442 1
gene 1 13 22 -0.917634 0 51 -0.917634 1
gene 1 14 22 0.46202 0 52 0.46202 1
gene 1 15 22 0.258698 0 53 0.258698 1
gene 1 16 22 1.61768 0 54 1.61768 1
gene 1 17 22 -0.293515 0 55 -0.293515 1
gene 1 18 22 0.115323 0 56 0.115323 1
gene 1 19 22 0.063737 0 57 0.063737 1
gene 1 1 23 -0.474721 0 58 -0.474721 1
gene 1 2 23 -0.0663162 0 59 -0.0663162 1
gene 1 3 23 -0.62041 0 60 -0.62041 1
gene 1 4 23 1.86955 0 61 1.86955 1
gene 1 5 23 -1.02715 0 62 -1.02715 1
gene 1 6 23 0.319169 0 63 0.319169 1
gene 1 7 23 1.4332 0 64 1.4332 1
gene 1 8 23 -0.11776 0 65 -0.11776 0
gene 1 9 23 0.00879303 0 66 0.00879303 1
gene 1 10 23 -0.516287 0 67 -0.516287 1
gene 1 11 23 0.307113 0 68 0.307113 1
gene 1 12 23 -0.763026 0 69 -0.763026 1
gene 1 13 23 0.0731384 0 70 0.0731384 1
gene 1 14 23 0.427092 0 71 0.427092 1
gene 1 15 23 -0.796028 0 72 -0.796028 1
gene 1 16 23 -0.109172 0 73 -0.109172 1
gene 1 17 23 -0.924354 0 74 -0.924354 1
gene 1 18 23 1.10755 0 75 1.10755 1
gene 1 19 23 -0.905401 0 76 -0.905401 1
gene 1 8 26 0.175871 0 84 0.175871 1
gene 1 26 23 0.26519 0 85 0.26519 0
gene 1 9 34 -0.212446 0 108 -0.212446 1
gene 1 34 22 0.919979 0 109 0.919979 1
gene 1 26 26 0.247658 1 134 0.247658 1
gene 1 26 45 0.818894 1 157 0.818894 1
gene 1 45 26 0.351685 0 158 0.351685 1
gene 1 14 47 0.628717 0 162 0.628717 1
gene 1 47 22 0.24202 0 163 0.24202 1
gene 1 10 49 -0.0773802 0 171 -0.0773802 1
gene 1 49 22 -0.0813929 0 172 -0.0813929 1
gene 1 17 49 -0.00115057 0 186 -0.00115057 1
gene 1 3 57 0.801231 0 196 0.801231 1
gene 1 57 23 -0.119643 0 197 -0.119643 1
gene 1 26 61 1.14814 0 209 1.14814 1
gene 1 61 23 -0.0956761 0 210 -0.0956761 1
gene 1 20 57 -0.140405 0 215 -0.140405 1
gene 1 1 64 0.604286 0 225 0.604286 1
gene 1 64 22 0.741784 0 226 0.741784 1
genomeend 264
genomestart 42
trait 1 0 0 0 0 0 0 0 0 
node 1 1 1 1 0
node 2 1 1 1 0
node 3 1 1 1 0
node 4 1 1 1 0
node 5 1 1 1 0
node 6 1 1 1 0
node 7 1 1 1 0
node 8 1 1 1 0
node 9 1 1 1 0
node 10 1 1 1 0
node 11 1 1 1 0
node 12 1 1 1 0
node 13 1 1 1 0
node 14 1 1 1 0
node 15 1 1 1 0
node 16 1 1 1 0
node 17 1 1 1 0
node 18 1 1 1 0
node 19 1 1 3 0
node 20 1 0 2 0
node 21 1 0 2 0
node 22 1 0 2 0
node 23 1 0 2 0
node 26 1 0 0 0
node 34 1 0 0 0
node 45 1 0 0 0
node 47 1 0 0 0
node 49 1 0 0 0
node 57 1 0 0 0
gene 1 1 20 0.252493 0 1 0.252493 1
gene 1 2 20 -0.140354 0 2 -0.140354 1
gene 1 3 20 0.752798 0 3 0.752798 1
gene 1 4 20 -0.849038 0 4 -0.849038 1
gene 1 5 20 1.41191 0 5 1.41191 1
gene 1 6 20 2.05322 0 6 2.05322 1
gene 1 7 20 -0.762011 0 7 -0.762011 1
gene 1 8 20 0.438341 0 8 0.438341 1
gene 1 9 20 0.800433 0 9 0.800433 1
gene 1 10 20 -0.660478 0 10 -0.660478 1
gene 1 11 20 1.19895 0 11 1.19895 1
gene 1 12 20 -0.184549 0 12 -0.184549 1
gene 1 13 20 -0.0689116 0 13 -0.0689116 1
gene 1 14 20 0.215664 0 14 0.215664 1
gene 1 15 20 -0.0745986 0 15 -0.0745986 1
gene 1 16 20 2.88484 0 16 2.88484 1
gene 1 17 20 -0.110498 0 17 -0.110498 1
gene 1 18 20 0.0507441 0 18 0.0507441 1
gene 1 19 20 3 0 19 3 1
gene 1 1 21 0.26105 0 20 0.26105 1
gene 1 2 21 0.112539 0 21 0.112539 1
gene 1 3 21 1.50184 0 22 1.50184 1
gene 1 4 21 0.600536 0 23 0.600536 1
gene 1 5 21 -1.78198 0 24 -1.78198 1
gene 1 6 21 0.0958268 0 25 0.0958268 1
gene 1 7 21 -1.24346 0 26 -1.24346 1
gene 1 8 21 0.341164 0 27 0.341164 1
gene 1 9 21 1.09461 0 28 1.09461 1
gene 1 10 21 -0.00452708 0 29 -0.00452708 1
gene 1 11 21 -0.514889 0 30 -0.514889 1
gene 1 12 21 -0.450028 0 31 -0.450028 1
gene 1 13 21 -0.582693 0 32 -0.582693 1
gene 1 14 21 0.074029 0 33 0.074029 1
gene 1 15 21 1.02355 0 34 1.02355 1
gene 1 16 21 -0.12511 0 35 -0.12511 1
gene 1 17 21 -0.00587744 0 36 -0.00587744 1
gene 1 18 21 0.595789 0 37 0.595789 1
gene 1 19 21 -0.476133 0 38 -0.476133 1
gene 1 1 22 0.326946 0 39 0.326946 1
gene 1 2 22 4.81469e-05 0 40 4.81469e-05 1
gene 1 3 22 -0.0613163 0 41 -0.0613163 1
gene 1 4 22 2.71011 0 42 2.71011 1
gene 1 5 22 0.0454837 0 43 0.0454837 1
gene 1 6 22 -0.227126 0 44 -0.227126 1
gene 1 7 22 -0.224438 0 45 -0.224438 1
gene 1 8 22 0.0785632 0 46 0.0785632 1
gene 1 9 22 -1.19019 0 47 -1.19019 0
gene 1 10 22 0.71511 0 48 0.71511 0
gene 1 11 22 1.47003 0 49 1.47003 1
gene 1 12 22 -0.815677 0 50 -0.815677 1
gene 1 13 22 -0.00180926 0 51 -0.00180926 1
gene 1 14 22 0.186437 0 52 0.186437 0
gene 1 15 22 -0.201347 0 53 -0.201347 1
gene 1 16 22 0.834879 0 54 0.834879 1
gene 1 17 22 1.45466 0 55 1.45466 1
gene 1 18 22 0.0785951 0 56 0.0785951 1
gene 1 19 22 0.0396936 0 57 0.0396936 1
gene 1 1 23 -0.285719 0 58 -0.285719 1
gene 1 2 23 0.219074 0 59 0.219074 1
gene 1 3 23 0.387118 0 60 0.387118 0
gene 1 4 23 0.0739904 0 61 0.0739904 1
gene 1 5 23 -1.06658 0 62 -1.06658 1
gene 1 6 23 -0.723522 0 63 -0.723522 1
gene 1 7 23 1.6666 0 64 1.6666 1
gene 1 8 23 -0.374418 0 65 -0.374418 0
gene 1 9 23 -0.886551 0 66 -0.886551 1
gene 1 10 23 1.39829 0 67 1.39829 1
gene 1 11 23 0.894968 0 68 0.894968 1
gene 1 12 23 -1.35199 0 69 -1.35199 1
gene 1 13 23 0.0786163 0 70 0.0786163 1
gene 1 14 23 0.321244 0 71 0.321244 1
gene 1 15 23 1.30041 0 72 1.30041 1
gene 1 16 23 -1.15077 0 73 -1.15077 1
gene 1 17 23 -0.391325 0 74 -0.391325 1
gene 1 18 23 1.30268 0 75 1.30268 1
gene 1 19 23 0.0366468 0 76 0.0366468 1
gene 1 8 26 0.0717582 0 84 0.0717582 1
gene 1 26 23 -2.50212 0 85 -2.50212 1
gene 1 9 34 0.860351 0 108 0.860351 1
gene 1 34 22 -0.883197 0 109 -0.883197 1
gene 1 26 26 0.919103 1 134 0.919103 1
gene 1 26 45 0.412388 1 157 0.412388 1
gene 1 45 26 -0.578054 0 158 -0.578054 1
gene 1 14 47 -0.347071 0 162 -0.347071 1
gene 1 47 22 -0.58548 0 163 -0.58548 1
gene 1 10 49 -0.084958 0 171 -0.084958 1
gene 1 49 22 -0.155341 0 172 -0.155341 1
gene 1 17 49 0.192344 0 186 0.192344 1
gene 1 3 57 -0.492882 0 196 -0.492882 1
gene 1 57 23 -0.138163 0 197 -0.138163 1
genomeend 42
genomestart 41
trait 1 0 0 0 0 0 0 0 0 
node 1 1 1 1 0
node 2 1 1 1 0
node 3 1 1 1 0
node 4 1 1 1 0
node 5 1 1 1 0
node 6 1 1 1 0
node 7 1 1 1 0
node 8 1 1 1 0
node 9 1 1 1 0
node 10 1 1 1 0
node 11 1 1 1 0
node 12 1 1 1 0
node 13 1 1 1 0
node 14 1 1 1 0
node 15 1 1 1 0
node 16 1 1 1 0
node 17 1 1 1 0
node 18 1 1 1 0
node 19 1 1 3 0
node 20 1 0 2 0
node 21 1 0 2 0
node 22 1 0 2 0
node 23 1 0 2 0
node 26 1 0 0 0
node 34 1 0 0 0
node 45 1 0 0 0
node 47 1 0 0 0
node 49 1 0 0 0
node 57 1 0 0 0
gene 1 1 20 0.252493 0 1 0.252493 1
gene 1 2 20 -0.140354 0 2 -0.140354 1
gene 1 3 20 0.752798 0 3 0.752798 1
gene 1 4 20 -0.849038 0 4 -0.849038 1
gene 1 5 20 1.41191 0 5 1.41191 1
gene 1 6 20 2.05322 0 6 2.05322 1
gene 1 7 20 -0.762011 0 7 -0.762011 1
gene 1 8 20 0.438341 0 8 0.438341 1
gene 1 9 20 0.800433 0 9 0.800433 1
gene 1 10 20 -0.660478 0 10 -0.660478 1
gene 1 11 20 1.19895 0 11 1.19895 1
gene 1 12 20 -0.184549 0 12 -0.184549 1
gene 1 13 20 -0.0689116 0 13 -0.0689116 1
gene 1 14 20 0.215664 0 14 0.215664 1
gene 1 15 20 -0.0745986 0 15 -0.0745986 1
gene 1 16 20 2.88484 0 16 2.88484 1
gene 1 17 20 -0.110498 0 17 -0.110498 1
gene 1 18 20 0.0507441 0 18 0.0507441 1
gene 1 19 20 3 0 19 3 1
gene 1 1 21 0.26105 0 20 0.26105 1
gene 1 2 21 0.112539 0 21 0.112539 1
gene 1 3 21 1.50184 0 22 1.50184 1
gene 1 4 21 0.600536 0 23 0.600536 1
gene 1 5 21 -1.78198 0 24 -1.78198 1
gene 1 6 21 0.0958268 0 25 0.0958268 1
gene 1 7 21 -1.24346 0 26 -1.24346 1
gene 1 8 21 0.341164 0 27 0.341164 1
gene 1 9 21 1.09461 0 28 1.09461 1
gene 1 10 21 -0.00452708 0 29 -0.00452708 1
gene 1 11 21 -0.514889 0 30 -0.514889 1
gene 1 12 21 -0.450028 0 31 -0.450028 1
gene 1 13 21 -0.582693 0 32 -0.582693 1
gene 1 14 21 0.074029 0 33 0.074029 1
gene 1 15 21 1.02355 0 34 1.02355 1
gene 1 16 21 -0.12511 0 35 -0.12511 1
gene 1 17 21 -0.00587744 0 36 -0.00587744 1
gene 1 18 21 0.595789 0 37 0.595789 1
gene 1 19 21 -0.476133 0 38 -0.476133 1
gene 1 1 22 0.326946 0 39 0.326946 1
gene 1 2 22 4.81469e-05 0 40 4.81469e-05 1
gene 1 3 22 -0.0613163 0 41 -0.0613163 1
gene 1 4 22 2.71011 0 42 2.71011 1
gene 1 5 22 0.0454837 0 43 0.0454837 1
gene 1 6 22 -0.227126 0 44 -0.227126 1
gene 1 7 22 -0.224438 0 45 -0.224438 1
gene 1 8 22 0.0785632 0 46 0.0785632 1
gene 1 9 22 -1.19019 0 47 -1.19019 0
gene 1 10 22 0.71511 0 48 0.71511 0
gene 1 11 22 1.47003 0 49 1.47003 1
gene 1 12 22 -0.815677 0 50 -0.815677 1
gene 1 13 22 -0.00180926 0 51 -0.00180926 1
gene 1 14 22 0.186437 0 52 0.186437 0
gene 1 15 22 -0.201347 0 53 -0.201347 1
gene 1 16 22 0.834879 0 54 0.834879 1
gene 1 17 22 1.45466 0 55 1.45466 1
gene 1 18 22 0.0785951 0 56 0.0785951 1
gene 1 19 22 0.0396936 0 57 0.0396936 1
gene 1 1 23 -0.285719 0 58 -0.285719 1
gene 1 2 23 0.219074 0 59 0.219074 1
gene 1 3 23 0.387118 0 60 0.387118 0
gene 1 4 23 0.0739904 0 61 0.0739904 1
gene 1 5 23 -1.06658 0 62 -1.06658 1
gene 1 6 23 -0.723522 0 63 -0.723522 1
gene 1 7 23 1.6666 0 64 1.6666 1
gene 1 8 23 -0.374418 0 65 -0.374418 0
gene 1 9 23 -0.886551 0 66 -0.886551 1
gene 1 10 23 1.39829 0 67 1.39829 1
gene 1 11 23 0.894968 0 68 0.894968 1
gene 1 12 23 -1.35199 0 69 -1.35199 1
gene 1 13 23 0.0786163 0 70 0.0786163 1
gene 1 14 23 0.321244 0 71 0.321244 1
gene 1 15 23 1.30041 0 72 1.30041 1
gene 1 16 23 -1.15077 0 73 -1.15077 1
gene 1 17 23 -0.391325 0 74 -0.391325 1
gene 1 18 23 1.30268 0 75 1.30268 1
gene 1 19 23 0.0366468 0 76 0.0366468 1
gene 1 8 26 0.0717582 0 84 0.0717582 1
gene 1 26 23 -2.50212 0 85 -2.50212 1
gene 1 9 34 0.860351 0 108 0.860351 1
gene 1 34 22 -0.883197 0 109 -0.883197 1
gene 1 26 26 0.919103 1 134 0.919103 1
gene 1 26 45 0.412388 1 157 0.412388 1
gene 1 45 26 -0.578054 0 158 -0.578054 1
gene 1 14 47 -0.347071 0 162 -0.347071 1
gene 1 47 22 -0.58548 0 163 -0.58548 1
gene 1 10 49 -0.084958 0 171 -0.084958 1
gene 1 49 22 -0.155341 0 172 -0.155341 1
gene 1 17 49 0.192344 0 186 0.192344 1
gene 1 3 57 -0.492882 0 196 -0.492882 1
gene 1 57 23 -0.138163 0 197 -0.138163 1
genomeend 41
genomestart 40
trait 1 0 0 0 0 0 0 0 0 
node 1 1 1 1 0
node 2 1 1 1 0
node 3 1 1 1 0
node 4 1 1 1 0
node 5 1 1 1 0
node 6 1 1 1 0
node 7 1 1 1 0
node 8 1 1 1 0
node 9 1 1 1 0
node 10 1 1 1 0
node 11 1 1 1 0
node 12 1 1 1 0
node 13 1 1 1 0
node 14 1 1 1 0
node 15 1 1 1 0
node 16 1 1 1 0
node 17 1 1 1 0
node 18 1 1 1 0
node 19 1 1 3 0
node 20 1 0 2 0
node 21 1 0 2 0
node 22 1 0 2 0
node 23 1 0 2 0
node 26 1 0 0 0
node 34 1 0 0 0
node 45 1 0 0 0
node 47 1 0 0 0
node 49 1 0 0 0
node 57 1 0 0 0
gene 1 1 20 0.252493 0 1 0.252493 1
gene 1 2 20 -0.140354 0 2 -0.140354 1
gene 1 3 20 0.752798 0 3 0.752798 1
gene 1 4 20 -0.849038 0 4 -0.849038 1
gene 1 5 20 1.41191 0 5 1.41191 1
gene 1 6 20 2.05322 0 6 2.05322 1
gene 1 7 20 -0.762011 0 7 -0.762011 1
gene 1 8 20 0.438341 0 8 0.438341 1
gene 1 9 20 0.800433 0 9 0.800433 1
gene 1 10 20 -0.660478 0 10 -0.660478 1
gene 1 11 20 1.19895 0 11 1.19895 1
gene 1 12 20 -0.184549 0 12 -0.184549 1
gene 1 13 20 -0.0689116 0 13 -0.0689116 1
gene 1 14 20 0.215664 0 14 0.215664 1
gene 1 15 20 -0.0745986 0 15 -0.0745986 1
gene 1 16 20 2.88484 0 16 2.88484 1
gene 1 17 20 -0.110498 0 17 -0.110498 1
gene 1 18 20 0.0507441 0 18 0.0507441 1
gene 1 19 20 3 0 19 3 1
gene 1 1 21 0.26105 0 20 0.26105 1
gene 1 2 21 0.112539 0 21 0.112539 1
gene 1 3 21 1.50184 0 22 1.50184 1
gene 1 4 21 0.600536 0 23 0.600536 1
gene 1 5 21 -1.78198 0 24 -1.78198 1
gene 1 6 21 0.0958268 0 25 0.0958268 1
gene 1 7 21 -1.24346 0 26 -1.24346 1
gene 1 8 21 0.341164 0 27 0.341164 1
gene 1 9 21 1.09461 0 28 1.09461 1
gene 1 10 21 -0.00452708 0 29 -0.00452708 1
gene 1 11 21 -0.514889 0 30 -0.514889 1
gene 1 12 21 -0.450028 0 31 -0.450028 1
gene 1 13 21 -0.582693 0 32 -0.582693 1
gene 1 14 21 0.074029 0 33 0.074029 1
gene 1 15 21 1.02355 0 34 1.02355 1
gene 1 16 21 -0.12511 0 35 -0.12511 1
gene 1 17 21 -0.00587744 0 36 -0.00587744 1
gene 1 18 21 0.595789 0 37 0.595789 1
gene 1 19 21 -0.476133 0 38 -0.476133 1
gene 1 1 22 0.326946 0 39 0.326946 1
gene 1 2 22 4.81469e-05 0 40 4.81469e-05 1
gene 1 3 22 -0.0613163 0 41 -0.0613163 1
gene 1 4 22 2.71011 0 42 2.71011 1
gene 1 5 22 0.0454837 0 43 0.0454837 1
gene 1 6 22 -0.227126 0 44 -0.227126 1
gene 1 7 22 -0.224438 0 45 -0.224438 1
gene 1 8 22 0.0785632 0 46 0.0785632 1
gene 1 9 22 -1.19019 0 47 -1.19019 0
gene 1 10 22 0.71511 0 48 0.71511 0
gene 1 11 22 1.47003 0 49 1.47003 1
gene 1 12 22 -0.815677 0 50 -0.815677 1
gene 1 13 22 -0.00180926 0 51 -0.00180926 1
gene 1 14 22 0.186437 0 52 0.186437 0
gene 1 15 22 -0.201347 0 53 -0.201347 1
gene 1 16 22 0.834879 0 54 0.834879 1
gene 1 17 22 1.45466 0 55 1.45466 1
gene 1 18 22 0.0785951 0 56 0.0785951 1
gene 1 19 22 0.0396936 0 57 0.0396936 1
gene 1 1 23 -0.285719 0 58 -0.285719 1
gene 1 2 23 0.219074 0 59 0.219074 1
gene 1 3 23 0.387118 0 60 0.387118 0
gene 1 4 23 0.0739904 0 61 0.0739904 1
gene 1 5 23 -1.06658 0 62 -1.06658 1
gene 1 6 23 -0.723522 0 63 -0.723522 1
gene 1 7 23 1.6666 0 64 1.6666 1
gene 1 8 23 -0.374418 0 65 -0.374418 0
gene 1 9 23 -0.886551 0 66 -0.886551 1
gene 1 10 23 1.39829 0 67 1.39829 1
gene 1 11 23 0.894968 0 68 0.894968 1
gene 1 12 23 -1.35199 0 69 -1.35199 1
gene 1 13 23 0.0786163 0 70 0.0786163 1
gene 1 14 23 0.321244 0 71 0.321244 1
gene 1 15 23 1.30041 0 72 1.30041 1
gene 1 16 23 -1.15077 0 73 -1.15077 1
gene 1 17 23 -0.391325 0 74 -0.391325 1
gene 1 18 23 1.30268 0 75 1.30268 1
gene 1 19 23 0.0366468 0 76 0.0366468 1
gene 1 8 26 0.0717582 0 84 0.0717582 1
gene 1 26 23 -2.50212 0 85 -2.50212 1
gene 1 9 34 0.860351 0 108 0.860351 1
gene 1 34 22 -0.883197 0 109 -0.883197 1
gene 1 26 26 0.919103 1 134 0.919103 1
gene 1 26 45 0.412388 1 157 0.412388 1
gene 1 45 26 -0.578054 0 158 -0.578054 1
gene 1 14 47 -0.347071 0 162 -0.347071 1
gene 1 47 22 -0.58548 0 163 -0.58548 1
gene 1 10 49 -0.084958 0 171 -0.084958 1
gene 1 49 22 -0.155341 0 172 -0.155341 1
gene 1 17 49 0.192344 0 186 0.192344 1
gene 1 3 57 -0.492882 0 196 -0.492882 1
gene 1 57 23 -0.138163 0 197 -0.138163 1
genomeend 40
genomestart 39
trait 1 0 0 0 0 0 0 0 0 
node 1 1 1 1 0
node 2 1 1 1 0
node 3 1 1 1 0
node 4 1 1 1 0
node 5 1 1 1 0
node 6 1 1 1 0
node 7 1 1 1 0
node 8 1 1 1 0
node 9 1 1 1 0
node 10 1 1 1 0
node 11 1 1 1 0
node 12 1 1 1 0
node 13 1 1 1 0
node 14 1 1 1 0
node 15 1 1 1 0
node 16 1 1 1 0
node 17 1 1 1 0
node 18 1 1 1 0
node 19 1 1 3 0
node 20 1 0 2 0
node 21 1 0 2 0
node 22 1 0 2 0
node 23 1 0 2 0
node 26 1 0 0 0
node 34 1 0 0 0
node 45 1 0 0 0
node 47 1 0 0 0
node 49 1 0 0 0
node 57 1 0 0 0
gene 1 1 20 0.252493 0 1 0.252493 1
gene 1 2 20 -0.140354 0 2 -0.140354 1
gene 1 3 20 0.752798 0 3 0.752798 1
gene 1 4 20 -0.849038 0 4 -0.849038 1
gene 1 5 20 1.41191 0 5 1.41191 1
gene 1 6 20 2.05322 0 6 2.05322 1
gene 1 7 20 -0.762011 0 7 -0.762011 1
gene 1 8 20 0.438341 0 8 0.438341 1
gene 1 9 20 0.800433 0 9 0.800433 1
gene 1 10 20 -0.660478 0 10 -0.660478 1
gene 1 11 20 1.19895 0 11 1.19895 1
gene 1 12 20 -0.184549 0 12 -0.184549 1
gene 1 13 20 -0.0689116 0 13 -0.0689116 1
gene 1 14 20 0.215664 0 14 0.215664 1
gene 1 15 20 -0.0745986 0 15 -0.0745986 1
gene 1 16 20 2.88484 0 16 2.88484 1
gene 1 17 20 -0.110498 0 17 -0.110498 1
gene 1 18 20 0.0507441 0 18 0.0507441 1
gene 1 19 20 3 0 19 3 1
gene 1 1 21 0.26105 0 20 0.26105 1
gene 1 2 21 0.112539 0 21 0.112539 1
gene 1 3 21 1.50184 0 22 1.50184 1
gene 1 4 21 0.600536 0 23 0.600536 1
gene 1 5 21 -1.78198 0 24 -1.78198 1
gene 1 6 21 0.0958268 0 25 0.0958268 1
gene 1 7 21 -1.24346 0 26 -1.24346 1
gene 1 8 21 0.341164 0 27 0.341164 1
gene 1 9 21 1.09461 0 28 1.09461 1
gene 1 10 21 -0.00452708 0 29 -0.00452708 1
gene 1 11 21 -0.514889 0 30 -0.514889 1
gene 1 12 21 -0.450028 0 31 -0.450028 1
gene 1 13 21 -0.582693 0 32 -0.582693 1
gene 1 14 21 0.074029 0 33 0.074029 1
gene 1 15 21 1.02355 0 34 1.02355 1
gene 1 16 21 -0.12511 0 35 -0.12511 1
gene 1 17 21 -0.00587744 0 36 -0.00587744 1
gene 1 18 21 0.595789 0 37 0.595789 1
gene 1 19 21 -0.476133 0 38 -0.476133 1
gene 1 1 22 0.326946 0 39 0.326946 1
gene 1 2 22 4.81469e-05 0 40 4.81469e-05 1
gene 1 3 22 -0.0613163 0 41 -0.0613163 1
gene 1 4 22 2.71011 0 42 2.71011 1
gene 1 5 22 0.0454837 0 43 0.0454837 1
gene 1 6 22 -0.227126 0 44 -0.227126 1
gene 1 7 22 -0.224438 0 45 -0.224438 1
gene 1 8 22 0.0785632 0 46 0.0785632 1
gene 1 9 22 -1.19019 0 47 -1.19019 0
gene 1 10 22 0.71511 0 48 0.71511 0
gene 1 11 22 1.47003 0 49 1.47003 1
gene 1 12 22 -0.815677 0 50 -0.815677 1
gene 1 13 22 -0.00180926 0 51 -0.00180926 1
gene 1 14 22 0.186437 0 52 0.186437 0
gene 1 15 22 -0.201347 0 53 -0.201347 1
gene 1 16 22 0.834879 0 54 0.834879 1
gene 1 17 22 1.45466 0 55 1.45466 1
gene 1 18 22 0.0785951 0 56 0.0785951 1
gene 1 19 22 0.0396936 0 57 0.0396936 1
gene 1 1 23 -0.285719 0 58 -0.285719 1
gene 1 2 23 0.219074 0 59 0.219074 1
gene 1 3 23 0.387118 0 60 0.387118 0
gene 1 4 23 0.0739904 0 61 0.0739904 1
gene 1 5 23 -1.06658 0 62 -1.06658 1
gene 1 6 23 -0.723522 0 63 -0.723522 1
gene 1 7 23 1.6666 0 64 1.6666 1
gene 1 8 23 -0.374418 0 65 -0.374418 0
gene 1 9 23 -0.886551 0 66 -0.886551 1
gene 1 10 23 1.39829 0 67 1.39829 1
gene 1 11 23 0.894968 0 68 0.894968 1
gene 1 12 23 -1.35199 0 69 -1.35199 1
gene 1 13 23 0.0786163 0 70 0.0786163 1
gene 1 14 23 0.321244 0 71 0.321244 1
gene 1 15 23 1.30041 0 72 1.30041 1
gene 1 16 23 -1.15077 0 73 -1.15077 1
gene 1 17 23 -0.391325 0 74 -0.391325 1
gene 1 18 23 1.30268 0 75 1.30268 1
gene 1 19 23 0.0366468 0 76 0.0366468 1
gene 1 8 26 0.0717582 0 84 0.0717582 1
gene 1 26 23 -2.50212 0 85 -2.50212 1
gene 1 9 34 0.860351 0 108 0.860351 1
gene 1 34 22 -0.883197 0 109 -0.883197 1
gene 1 26 26 0.919103 1 134 0.919103 1
gene 1 26 45 0.412388 1 157 0.412388 1
gene 1 45 26 -0.578054 0 158 -0.578054 1
gene 1 14 47 -0.347071 0 162 -0.347071 1
gene 1 47 22 -0.58548 0 163 -0.58548 1
gene 1 10 49 -0.084958 0 171 -0.084958 1
gene 1 49 22 -0.155341 0 172 -0.155341 1
gene 1 17 49 0.192344 0 186 0.192344 1
gene 1 3 57 -0.492882 0 196 -0.492882 1
gene 1 57 23 -0.138163 0 197 -0.138163 1
genomeend 39
genomestart 38
trait 1 0 0 0 0 0 0 0 0 
node 1 1 1 1 0
node 2 1 1 1 0
node 3 1 1 1 0
node 4 1 1 1 0
node 5 1 1 1 0
node 6 1 1 1 0
node 7 1 1 1 0
node 8 1 1 1 0
node 9 1 1 1 0
node 10 1 1 1 0
node 11 1 1 1 0
node 12 1 1 1 0
node 13 1 1 1 0
node 14 1 1 1 0
node 15 1 1 1 0
node 16 1 1 1 0
node 17 1 1 1 0
node 18 1 1 1 0
node 19 1 1 3 0
node 20 1 0 2 0
node 21 1 0 2 0
node 22 1 0 2 0
node 23 1 0 2 0
node 26 1 0 0 0
node 34 1 0 0 0
node 45 1 0 0 0
node 47 1 0 0 0
node 49 1 0 0 0
node 57 1 0 0 0
gene 1 1 20 0.252493 0 1 0.252493 1
gene 1 2 20 -0.140354 0 2 -0.140354 1
gene 1 3 20 0.752798 0 3 0.752798 1
gene 1 4 20 -0.849038 0 4 -0.849038 1
gene 1 5 20 1.41191 0 5 1.41191 1
gene 1 6 20 2.05322 0 6 2.05322 1
gene 1 7 20 -0.762011 0 7 -0.762011 1
gene 1 8 20 0.438341 0 8 0.438341 1
gene 1 9 20 0.800433 0 9 0.800433 1
gene 1 10 20 -0.660478 0 10 -0.660478 1
gene 1 11 20 1.19895 0 11 1.19895 1
gene 1 12 20 -0.184549 0 12 -0.184549 1
gene 1 13 20 -0.0689116 0 13 -0.0689116 1
gene 1 14 20 0.215664 0 14 0.215664 1
gene 1 15 20 -0.0745986 0 15 -0.0745986 1
gene 1 16 20 2.88484 0 16 2.88484 1
gene 1 17 20 -0.110498 0 17 -0.110498 1
gene 1 18 20 0.0507441 0 18 0.0507441 1
gene 1 19 20 3 0 19 3 1
gene 1 1 21 0.26105 0 20 0.26105 1
gene 1 2 21 0.112539 0 21 0.112539 1
gene 1 3 21 1.50184 0 22 1.50184 1
gene 1 4 21 0.600536 0 23 0.600536 1
gene 1 5 21 -1.78198 0 24 -1.78198 1
gene 1 6 21 0.0958268 0 25 0.0958268 1
gene 1 7 21 -1.24346 0 26 -1.24346 1
gene 1 8 21 0.341164 0 27 0.341164 1
gene 1 9 21 1.09461 0 28 1.09461 1
gene 1 10 21 -0.00452708 0 29 -0.00452708 1
gene 1 11 21 -0.514889 0 30 -0.514889 1
gene 1 12 21 -0.450028 0 31 -0.450028 1
gene 1 13 21 -0.582693 0 32 -0.582693 1
gene 1 14 21 0.074029 0 33 0.074029 1
gene 1 15 21 1.02355 0 34 1.02355 1
gene 1 16 21 -0.12511 0 35 -0.12511 1
gene 1 17 21 -0.00587744 0 36 -0.00587744 1
gene 1 18 21 0.595789 0 37 0.595789 1
gene 1 19 21 -0.476133 0 38 -0.476133 1
gene 1 1 22 0.326946 0 39 0.326946 1
gene 1 2 22 4.81469e-05 0 40 4.81469e-05 1
gene 1 3 22 -0.0613163 0 41 -0.0613163 1
gene 1 4 22 2.71011 0 42 2.71011 1
gene 1 5 22 0.0454837 0 43 0.0454837 1
gene 1 6 22 -0.227126 0 44 -0.227126 1
gene 1 7 22 -0.224438 0 45 -0.224438 1
gene 1 8 22 0.0785632 0 46 0.0785632 1
gene 1 9 22 -1.19019 0 47 -1.19019 0
gene 1 10 22 0.71511 0 48 0.71511 0
gene 1 11 22 1.47003 0 49 1.47003 1
gene 1 12 22 -0.815677 0 50 -0.815677 1
gene 1 13 22 -0.00180926 0 51 -0.00180926 1
gene 1 14 22 0.186437 0 52 0.186437 0
gene 1 15 22 -0.201347 0 53 -0.201347 1
gene 1 16 22 0.834879 0 54 0.834879 1
gene 1 17 22 1.45466 0 55 1.45466 1
gene 1 18 22 0.0785951 0 56 0.0785951 1
gene 1 19 22 0.0396936 0 57 0.0396936 1
gene 1 1 23 -0.285719 0 58 -0.285719 1
gene 1 2 23 0.219074 0 59 0.219074 1
gene 1 3 23 0.387118 0 60 0.387118 0
gene 1 4 23 0.0739904 0 61 0.0739904 1
gene 1 5 23 -1.06658 0 62 -1.06658 1
gene 1 6 23 -0.723522 0 63 -0.723522 1
gene 1 7 23 1.6666 0 64 1.6666 1
gene 1 8 23 -0.374418 0 65 -0.374418 0
gene 1 9 23 -0.886551 0 66 -0.886551 1
gene 1 10 23 1.39829 0 67 1.39829 1
gene 1 11 23 0.894968 0 68 0.894968 1
gene 1 12 23 -1.35199 0 69 -1.35199 1
gene 1 13 23 0.0786163 0 70 0.0786163 1
gene 1 14 23 0.321244 0 71 0.321244 1
gene 1 15 23 1.30041 0 72 1.30041 1
gene 1 16 23 -1.15077 0 73 -1.15077 1
gene 1 17 23 -0.391325 0 74 -0.391325 1
gene 1 18 23 1.30268 0 75 1.30268 1
gene 1 19 23 0.0366468 0 76 0.0366468 1
gene 1 8 26 0.0717582 0 84 0.0717582 1
gene 1 26 23 -2.50212 0 85 -2.50212 1
gene 1 9 34 0.860351 0 108 0.860351 1
gene 1 34 22 -0.883197 0 109 -0.883197 1
gene 1 26 26 0.919103 1 134 0.919103 1
gene 1 26 45 0.412388 1 157 0.412388 1
gene 1 45 26 -0.578054 0 158 -0.578054 1
gene 1 14 47 -0.347071 0 162 -0.347071 1
gene 1 47 22 -0.58548 0 163 -0.58548 1
gene 1 10 49 -0.084958 0 171 -0.084958 1
gene 1 49 22 -0.155341 0 172 -0.155341 1
gene 1 17 49 0.192344 0 186 0.192344 1
gene 1 3 57 -0.492882 0 196 -0.492882 1
gene 1 57 23 -0.138163 0 197 -0.138163 1
genomeend 38
genomestart 37
trait 1 0 0 0 0 0 0 0 0 
node 1 1 1 1 0
node 2 1 1 1 0
node 3 1 1 1 0
node 4 1 1 1 0
node 5 1 1 1 0
node 6 1 1 1 0
node 7 1 1 1 0
node 8 1 1 1 0
node 9 1 1 1 0
node 10 1 1 1 0
node 11 1 1 1 0
node 12 1 1 1 0
node 13 1 1 1 0
node 14 1 1 1 0
node 15 1 1 1 0
node 16 1 1 1 0
node 17 1 1 1 0
node 18 1 1 1 0
node 19 1 1 3 0
node 20 1 0 2 0
node 21 1 0 2 0
node 22 1 0 2 0
node 23 1 0 2 0
node 26 1 0 0 0
node 34 1 0 0 0
node 45 1 0 0 0
node 47 1 0 0 0
node 49 1 0 0 0
node 57 1 0 0 0
gene 1 1 20 0.252493 0 1 0.252493 1
gene 1 2 20 -0.140354 0 2 -0.140354 1
gene 1 3 20 0.752798 0 3 0.752798 1
gene 1 4 20 -0.849038 0 4 -0.849038 1
gene 1 5 20 1.41191 0 5 1.41191 1
gene 1 6 20 2.05322 0 6 2.05322 1
gene 1 7 20 -0.762011 0 7 -0.762011 1
gene 1 8 20 0.438341 0 8 0.438341 1
gene 1 9 20 0.800433 0 9 0.800433 1
gene 1 10 20 -0.660478 0 10 -0.660478 1
gene 1 11 20 1.19895 0 11 1.19895 1
gene 1 12 20 -0.184549 0 12 -0.184549 1
gene 1 13 20 -0.0689116 0 13 -0.0689116 1
gene 1 14 20 0.215664 0 14 0.215664 1
gene 1 15 20 -0.0745986 0 15 -0.0745986 1
gene 1 16 20 2.88484 0 16 2.88484 1
gene 1 17 20 -0.110498 0 17 -0.110498 1
gene 1 18 20 0.0507441 0 18 0.0507441 1
gene 1 19 20 3 0 19 3 1
gene 1 1 21 0.26105 0 20 0.26105 1
gene 1 2 21 0.112539 0 21 0.112539 1
gene 1 3 21 1.50184 0 22 1.50184 1
gene 1 4 21 0.600536 0 23 0.600536 1
gene 1 5 21 -1.78198 0 24 -1.78198 1
gene 1 6 21 0.0958268 0 25 0.0958268 1
gene 1 7 21 -1.24346 0 26 -1.24346 1
gene 1 8 21 0.341164 0 27 0.341164 1
gene 1 9 21 1.09461 0 28 1.09461 1
gene 1 10 21 -0.00452708 0 29 -0.00452708 1
gene 1 11 21 -0.514889 0 30 -0.514889 1
gene 1 12 21 -0.450028 0 31 -0.450028 1
gene 1 13 21 -0.582693 0 32 -0.582693 1
gene 1 14 21 0.074029 0 33 0.074029 1
gene 1 15 21 1.02355 0 34 1.02355 1
gene 1 16 21 -0.12511 0 35 -0.12511 1
gene 1 17 21 -0.00587744 0 36 -0.00587744 1
gene 1 18 21 0.595789 0 37 0.595789 1
gene 1 19 21 -0.476133 0 38 -0.476133 1
gene 1 1 22 0.326946 0 39 0.326946 1
gene 1 2 22 4.81469e-05 0 40 4.81469e-05 1
gene 1 3 22 -0.0613163 0 41 -0.0613163 1
gene 1 4 22 2.71011 0 42 2.71011 1
gene 1 5 22 0.0454837 0 43 0.0454837 1
gene 1 6 22 -0.227126 0 44 -0.227126 1
gene 1 7 22 -0.224438 0 45 -0.224438 1
gene 1 8 22 0.0785632 0 46 0.0785632 1
gene 1 9 22 -1.19019 0 47 -1.19019 0
gene 1 10 22 0.71511 0 48 0.71511 0
gene 1 11 22 1.47003 0 49 1.47003 1
gene 1 12 22 -0.815677 0 50 -0.815677 1
gene 1 13 22 -0.00180926 0 51 -0.00180926 1
gene 1 14 22 0.186437 0 52 0.186437 0
gene 1 15 22 -0.201347 0 53 -0.201347 1
gene 1 16 22 0.834879 0 54 0.834879 1
gene 1 17 22 1.45466 0 55 1.45466 1
gene 1 18 22 0.0785951 0 56 0.0785951 1
gene 1 19 22 0.0396936 0 57 0.0396936 1
gene 1 1 23 -0.285719 0 58 -0.285719 1
gene 1 2 23 0.219074 0 59 0.219074 1
gene 1 3 23 0.387118 0 60 0.387118 0
gene 1 4 23 0.0739904 0 61 0.0739904 1
gene 1 5 23 -1.06658 0 62 -1.06658 1
gene 1 6 23 -0.723522 0 63 -0.723522 1
gene 1 7 23 1.6666 0 64 1.6666 1
gene 1 8 23 -0.374418 0 65 -0.374418 0
gene 1 9 23 -0.886551 0 66 -0.886551 1
gene 1 10 23 1.39829 0 67 1.39829 1
gene 1 11 23 0.894968 0 68 0.894968 1
gene 1 12 23 -1.35199 0 69 -1.35199 1
gene 1 13 23 0.0786163 0 70 0.0786163 1
gene 1 14 23 0.321244 0 71 0.321244 1
gene 1 15 23 1.30041 0 72 1.30041 1
gene 1 16 23 -1.15077 0 73 -1.15077 1
gene 1 17 23 -0.391325 0 74 -0.391325 1
gene 1 18 23 1.30268 0 75 1.30268 1
gene 1 19 23 0.0366468 0 76 0.0366468 1
gene 1 8 26 0.0717582 0 84 0.0717582 1
gene 1 26 23 -2.50212 0 85 -2.50212 1
gene 1 9 34 0.860351 0 108 0.860351 1
gene 1 34 22 -0.883197 0 109 -0.883197 1
gene 1 26 26 0.919103 1 134 0.919103 1
gene 1 26 45 0.412388 1 157 0.412388 1
gene 1 45 26 -0.578054 0 158 -0.578054 1
gene 1 14 47 -0.347071 0 162 -0.347071 1
gene 1 47 22 -0.58548 0 163 -0.58548 1
gene 1 10 49 -0.084958 0 171 -0.084958 1
gene 1 49 22 -0.155341 0 172 -0.155341 1
gene 1 17 49 0.192344 0 186 0.192344 1
gene 1 3 57 -0.492882 0 196 -0.492882 1
gene 1 57 23 -0.138163 0 197 -0.138163 1
genomeend 37
genomestart 36
trait 1 0 0 0 0 0 0 0 0 
node 1 1 1 1 0
node 2 1 1 1 0
node 3 1 1 1 0
node 4 1 1 1 0
node 5 1 1 1 0
node 6 1 1 1 0
node 7 1 1 1 0
node 8 1 1 1 0
node 9 1 1 1 0
node 10 1 1 1 0
node 11 1 1 1 0
node 12 1 1 1 0
node 13 1 1 1 0
node 14 1 1 1 0
node 15 1 1 1 0
node 16 1 1 1 0
node 17 1 1 1 0
node 18 1 1 1 0
node 19 1 1 3 0
node 20 1 0 2 0
node 21 1 0 2 0
node 22 1 0 2 0
node 23 1 0 2 0
node 26 1 0 0 0
node 34 1 0 0 0
node 45 1 0 0 0
node 47 1 0 0 0
node 49 1 0 0 0
node 57 1 0 0 0
gene 1 1 20 0.252493 0 1 0.252493 1
gene 1 2 20 -0.140354 0 2 -0.140354 1
gene 1 3 20 0.752798 0 3 0.752798 1
gene 1 4 20 -0.849038 0 4 -0.849038 1
gene 1 5 20 1.41191 0 5 1.41191 1
gene 1 6 20 2.05322 0 6 2.05322 1
gene 1 7 20 -0.762011 0 7 -0.762011 1
gene 1 8 20 0.438341 0 8 0.438341 1
gene 1 9 20 0.800433 0 9 0.800433 1
gene 1 10 20 -0.660478 0 10 -0.660478 1
gene 1 11 20 1.19895 0 11 1.19895 1
gene 1 12 20 -0.184549 0 12 -0.184549 1
gene 1 13 20 -0.0689116 0 13 -0.0689116 1
gene 1 14 20 0.215664 0 14 0.215664 1
gene 1 15 20 -0.0745986 0 15 -0.0745986 1
gene 1 16 20 2.88484 0 16 2.88484 1
gene 1 17 20 -0.110498 0 17 -0.110498 1
gene 1 18 20 0.0507441 0 18 0.0507441 1
gene 1 19 20 3 0 19 3 1
gene 1 1 21 0.26105 0 20 0.26105 1
gene 1 2 21 0.112539 0 21 0.112539 1
gene 1 3 21 1.50184 0 22 1.50184 1
gene 1 4 21 0.600536 0 23 0.600536 1
gene 1 5 21 -1.78198 0 24 -1.78198 1
gene 1 6 21 0.0958268 0 25 0.0958268 1
gene 1 7 21 -1.24346 0 26 -1.24346 1
gene 1 8 21 0.341164 0 27 0.341164 1
gene 1 9 21 1.09461 0 28 1.09461 1
gene 1 10 21 -0.00452708 0 29 -0.00452708 1
gene 1 11 21 -0.514889 0 30 -0.514889 1
gene 1 12 21 -0.450028 0 31 -0.450028 1
gene 1 13 21 -0.582693 0 32 -0.582693 1
gene 1 14 21 0.074029 0 33 0.074029 1
gene 1 15 21 1.02355 0 34 1.02355 1
gene 1 16 21 -0.12511 0 35 -0.12511 1
gene 1 17 21 -0.00587744 0 36 -0.00587744 1
gene 1 18 21 0.595789 0 37 0.595789 1
gene 1 19 21 -0.476133 0 38 -0.476133 1
gene 1 1 22 0.326946 0 39 0.326946 1
gene 1 2 22 4.81469e-05 0 40 4.81469e-05 1
gene 1 3 22 -0.0613163 0 41 -0.0613163 1
gene 1 4 22 2.71011 0 42 2.71011 1
gene 1 5 22 0.0454837 0 43 0.0454837 1
gene 1 6 22 -0.227126 0 44 -0.227126 1
gene 1 7 22 -0.224438 0 45 -0.224438 1
gene 1 8 22 0.0785632 0 46 0.0785632 1
gene 1 9 22 -1.19019 0 47 -1.19019 0
gene 1 10 22 0.71511 0 48 0.71511 0
gene 1 11 22 1.47003 0 49 1.47003 1
gene 1 12 22 -0.815677 0 50 -0.815677 1
gene 1 13 22 -0.00180926 0 51 -0.00180926 1
gene 1 14 22 0.186437 0 52 0.186437 0
gene 1 15 22 -0.201347 0 53 -0.201347 1
gene 1 16 22 0.834879 0 54 0.834879 1
gene 1 17 22 1.45466 0 55 1.45466 1
gene 1 18 22 0.0785951 0 56 0.0785951 1
gene 1 19 22 0.0396936 0 57 0.0396936 1
gene 1 1 23 -0.285719 0 58 -0.285719 1
gene 1 2 23 0.219074 0 59 0.219074 1
gene 1 3 23 0.387118 0 60 0.387118 0
gene 1 4 23 0.0739904 0 61 0.0739904 1
gene 1 5 23 -1.06658 0 62 -1.06658 1
gene 1 6 23 -0.723522 0 63 -0.723522 1
gene 1 7 23 1.6666 0 64 1.6666 1
gene 1 8 23 -0.374418 0 65 -0.374418 0
gene 1 9 23 -0.886551 0 66 -0.886551 1
gene 1 10 23 1.39829 0 67 1.39829 1
gene 1 11 23 0.894968 0 68 0.894968 1
gene 1 12 23 -1.35199 0 69 -1.35199 1
gene 1 13 23 0.0786163 0 70 0.0786163 1
gene 1 14 23 0.321244 0 71 0.321244 1
gene 1 15 23 1.30041 0 72 1.30041 1
gene 1 16 23 -1.15077 0 73 -1.15077 1
gene 1 17 23 -0.391325 0 74 -0.391325 1
gene 1 18 23 1.30268 0 75 1.30268 1
gene 1 19 23 0.0366468 0 76 0.0366468 1
gene 1 8 26 0.0717582 0 84 0.0717582 1
gene 1 26 23 -2.50212 0 85 -2.50212 1
gene 1 9 34 0.860351 0 108 0.860351 1
gene 1 34 22 -0.883197 0 109 -0.883197 1
gene 1 26 26 0.919103 1 134 0.919103 1
gene 1 26 45 0.412388 1 157 0.412388 1
gene 1 45 26 -0.578054 0 158 -0.578054 1
gene 1 14 47 -0.347071 0 162 -0.347071 1
gene 1 47 22 -0.58548 0 163 -0.58548 1
gene 1 10 49 -0.084958 0 171 -0.084958 1
gene 1 49 22 -0.155341 0 172 -0.155341 1
gene 1 17 49 0.192344 0 186 0.192344 1
gene 1 3 57 -0.492882 0 196 -0.492882 1
gene 1 57 23 -0.138163 0 197 -0.138163 1
genomeend 36
genomestart 35
trait 1 0 0 0 0 0 0 0 0 
node 1 1 1 1 0
node 2 1 1 1 0
node 3 1 1 1 0
node 4 1 1 1 0
node 5 1 1 1 0
node 6 1 1 1 0
node 7 1 1 1 0
node 8 1 1 1 0
node 9 1 1 1 0
node 10 1 1 1 0
node 11 1 1 1 0
node 12 1 1 1 0
node 13 1 1 1 0
node 14 1 1 1 0
node 15 1 1 1 0
node 16 1 1 1 0
node 17 1 1 1 0
node 18 1 1 1 0
node 19 1 1 3 0
node 20 1 0 2 0
node 21 1 0 2 0
node 22 1 0 2 0
node 23 1 0 2 0
node 26 1 0 0 0
node 34 1 0 0 0
node 45 1 0 0 0
node 47 1 0 0 0
node 49 1 0 0 0
node 57 1 0 0 0
gene 1 1 20 0.252493 0 1 0.252493 1
gene 1 2 20 -0.140354 0 2 -0.140354 1
gene 1 3 20 0.752798 0 3 0.752798 1
gene 1 4 20 -0.849038 0 4 -0.849038 1
gene 1 5 20 1.41191 0 5 1.41191 1
gene 1 6 20 2.05322 0 6 2.05322 1
gene 1 7 20 -0.762011 0 7 -0.762011 1
gene 1 8 20 0.438341 0 8 0.438341 1
gene 1 9 20 0.800433 0 9 0.800433 1
gene 1 10 20 -0.660478 0 10 -0.660478 1
gene 1 11 20 1.19895 0 11 1.19895 1
gene 1 12 20 -0.184549 0 12 -0.184549 1
gene 1 13 20 -0.0689116 0 13 -0.0689116 1
gene 1 14 20 0.215664 0 14 0.215664 1
gene 1 15 20 -0.0745986 0 15 -0.0745986 1
gene 1 16 20 2.88484 0 16 2.88484 1
gene 1 17 20 -0.110498 0 17 -0.110498 1
gene 1 18 20 0.0507441 0 18 0.0507441 1
gene 1 19 20 3 0 19 3 1
gene 1 1 21 0.26105 0 20 0.26105 1
gene 1 2 21 0.112539 0 21 0.112539 1
gene 1 3 21 1.50184 0 22 1.50184 1
gene 1 4 21 0.600536 0 23 0.600536 1
gene 1 5 21 -1.78198 0 24 -1.78198 1
gene 1 6 21 0.0958268 0 25 0.0958268 1
gene 1 7 21 -1.24346 0 26 -1.24346 1
gene 1 8 21 0.341164 0 27 0.341164 1
gene 1 9 21 1.09461 0 28 1.09461 1
gene 1 10 21 -0.00452708 0 29 -0.00452708 1
gene 1 11 21 -0.514889 0 30 -0.514889 1
gene 1 12 21 -0.450028 0 31 -0.450028 1
gene 1 13 21 -0.582693 0 32 -0.582693 1
gene 1 14 21 0.074029 0 33 0.074029 1
gene 1 15 21 1.02355 0 34 1.02355 1
gene 1 16 21 -0.12511 0 35 -0.12511 1
gene 1 17 21 -0.00587744 0 36 -0.00587744 1
gene 1 18 21 0.595789 0 37 0.595789 1
gene 1 19 21 -0.476133 0 38 -0.476133 1
gene 1 1 22 0.326946 0 39 0.326946 1
gene 1 2 22 4.81469e-05 0 40 4.81469e-05 1
gene 1 3 22 -0.0613163 0 41 -0.0613163 1
gene 1 4 22 2.71011 0 42 2.71011 1
gene 1 5 22 0.0454837 0 43 0.0454837 1
gene 1 6 22 -0.227126 0 44 -0.227126 1
gene 1 7 22 -0.224438 0 45 -0.224438 1
gene 1 8 22 0.0785632 0 46 0.0785632 1
gene 1 9 22 -1.19019 0 47 -1.19019 0
gene 1 10 22 0.71511 0 48 0.71511 0
gene 1 11 22 1.47003 0 49 1.47003 1
gene 1 12 22 -0.815677 0 50 -0.815677 1
gene 1 13 22 -0.00180926 0 51 -0.00180926 1
gene 1 14 22 0.186437 0 52 0.186437 0
gene 1 15 22 -0.201347 0 53 -0.201347 1
gene 1 16 22 0.834879 0 54 0.834879 1
gene 1 17 22 1.45466 0 55 1.45466 1
gene 1 18 22 0.0785951 0 56 0.0785951 1
gene 1 19 22 0.0396936 0 57 0.0396936 1
gene 1 1 23 -0.285719 0 58 -0.285719 1
gene 1 2 23 0.219074 0 59 0.219074 1
gene 1 3 23 0.387118 0 60 0.387118 0
gene 1 4 23 0.0739904 0 61 0.0739904 1
gene 1 5 23 -1.06658 0 62 -1.06658 1
gene 1 6 23 -0.723522 0 63 -0.723522 1
gene 1 7 23 1.6666 0 64 1.6666 1
gene 1 8 23 -0.374418 0 65 -0.374418 0
gene 1 9 23 -0.886551 0 66 -0.886551 1
gene 1 10 23 1.39829 0 67 1.39829 1
gene 1 11 23 0.894968 0 68 0.894968 1
gene 1 12 23 -1.35199 0 69 -1.35199 1
gene 1 13 23 0.0786163 0 70 0.0786163 1
gene 1 14 23 0.321244 0 71 0.321244 1
gene 1 15 23 1.30041 0 72 1.30041 1
gene 1 16 23 -1.15077 0 73 -1.15077 1
gene 1 17 23 -0.391325 0 74 -0.391325 1
gene 1 18 23 1.30268 0 75 1.30268 1
gene 1 19 23 0.0366468 0 76 0.0366468 1
gene 1 8 26 0.0717582 0 84 0.0717582 1
gene 1 26 23 -2.50212 0 85 -2.50212 1
gene 1 9 34 0.860351 0 108 0.860351 1
gene 1 34 22 -0.883197 0 109 -0.883197 1
gene 1 26 26 0.919103 1 134 0.919103 1
gene 1 26 45 0.412388 1 157 0.412388 1
gene 1 45 26 -0.578054 0 158 -0.578054 1
gene 1 14 47 -0.347071 0 162 -0.347071 1
gene 1 47 22 -0.58548 0 163 -0.58548 1
gene 1 10 49 -0.084958 0 171 -0.084958 1
gene 1 49 22 -0.155341 0 172 -0.155341 1
gene 1 17 49 0.192344 0 186 0.192344 1
gene 1 3 57 -0.492882 0 196 -0.492882 1
gene 1 57 23 -0.138163 0 197 -0.138163 1
genomeend 35
genomestart 34
trait 1 0 0 0 0 0 0 0 0 
node 1 1 1 1 0
node 2 1 1 1 0
node 3 1 1 1 0
node 4 1 1 1 0
node 5 1 1 1 0
node 6 1 1 1 0
node 7 1 1 1 0
node 8 1 1 1 0
node 9 1 1 1 0
node 10 1 1 1 0
node 11 1 1 1 0
node 12 1 1 1 0
node 13 1 1 1 0
node 14 1 1 1 0
node 15 1 1 1 0
node 16 1 1 1 0
node 17 1 1 1 0
node 18 1 1 1 0
node 19 1 1 3 0
node 20 1 0 2 0
node 21 1 0 2 0
node 22 1 0 2 0
node 23 1 0 2 0
node 26 1 0 0 0
node 34 1 0 0 0
node 45 1 0 0 0
node 47 1 0 0 0
node 49 1 0 0 0
node 57 1 0 0 0
gene 1 1 20 0.252493 0 1 0.252493 1
gene 1 2 20 -0.140354 0 2 -0.140354 1
gene 1 3 20 0.752798 0 3 0.752798 1
gene 1 4 20 -0.849038 0 4 -0.849038 1
gene 1 5 20 1.41191 0 5 1.41191 1
gene 1 6 20 2.05322 0 6 2.05322 1
gene 1 7 20 -0.762011 0 7 -0.762011 1
gene 1 8 20 0.438341 0 8 0.438341 1
gene 1 9 20 0.800433 0 9 0.800433 1
gene 1 10 20 -0.660478 0 10 -0.660478 1
gene 1 11 20 1.19895 0 11 1.19895 1
gene 1 12 20 -0.184549 0 12 -0.184549 1
gene 1 13 20 -0.0689116 0 13 -0.0689116 1
gene 1 14 20 0.215664 0 14 0.215664 1
gene 1 15 20 -0.0745986 0 15 -0.0745986 1
gene 1 16 20 2.88484 0 16 2.88484 1
gene 1 17 20 -0.110498 0 17 -0.110498 1
gene 1 18 20 0.0507441 0 18 0.0507441 1
gene 1 19 20 3 0 19 3 1
gene 1 1 21 0.26105 0 20 0.26105 1
gene 1 2 21 0.112539 0 21 0.112539 1
gene 1 3 21 1.50184 0 22 1.50184 1
gene 1 4 21 0.600536 0 23 0.600536 1
gene 1 5 21 -1.78198 0 24 -1.78198 1
gene 1 6 21 0.0958268 0 25 0.0958268 1
gene 1 7 21 -1.24346 0 26 -1.24346 1
gene 1 8 21 0.341164 0 27 0.341164 1
gene 1 9 21 1.09461 0 28 1.09461 1
gene 1 10 21 -0.00452708 0 29 -0.00452708 1
gene 1 11 21 -0.514889 0 30 -0.514889 1
gene 1 12 21 -0.450028 0 31 -0.450028 1
gene 1 13 21 -0.582693 0 32 -0.582693 1
gene 1 14 21 0.074029 0 33 0.074029 1
gene 1 15 21 1.02355 0 34 1.02355 1
gene 1 16 21 -0.12511 0 35 -0.12511 1
gene 1 17 21 -0.00587744 0 36 -0.00587744 1
gene 1 18 21 0.595789 0 37 0.595789 1
gene 1 19 21 -0.476133 0 38 -0.476133 1
gene 1 1 22 0.326946 0 39 0.326946 1
gene 1 2 22 4.81469e-05 0 40 4.81469e-05 1
gene 1 3 22 -0.0613163 0 41 -0.0613163 1
gene 1 4 22 2.71011 0 42 2.71011 1
gene 1 5 22 0.0454837 0 43 0.0454837 1
gene 1 6 22 -0.227126 0 44 -0.227126 1
gene 1 7 22 -0.224438 0 45 -0.224438 1
gene 1 8 22 0.0785632 0 46 0.0785632 1
gene 1 9 22 -1.19019 0 47 -1.19019 0
gene 1 10 22 0.71511 0 48 0.71511 0
gene 1 11 22 1.47003 0 49 1.47003 1
gene 1 12 22 -0.815677 0 50 -0.815677 1
gene 1 13 22 -0.00180926 0 51 -0.00180926 1
gene 1 14 22 0.186437 0 52 0.186437 0
gene 1 15 22 -0.201347 0 53 -0.201347 1
gene 1 16 22 0.834879 0 54 0.834879 1
gene 1 17 22 1.45466 0 55 1.45466 1
gene 1 18 22 0.0785951 0 56 0.0785951 1
gene 1 19 22 0.0396936 0 57 0.0396936 1
gene 1 1 23 -0.285719 0 58 -0.285719 1
gene 1 2 23 0.219074 0 59 0.219074 1
gene 1 3 23 0.387118 0 60 0.387118 0
gene 1 4 23 0.0739904 0 61 0.0739904 1
gene 1 5 23 -1.06658 0 62 -1.06658 1
gene 1 6 23 -0.723522 0 63 -0.723522 1
gene 1 7 23 1.6666 0 64 1.6666 1
gene 1 8 23 -0.374418 0 65 -0.374418 0
gene 1 9 23 -0.886551 0 66 -0.886551 1
gene 1 10 23 1.39829 0 67 1.39829 1
gene 1 11 23 0.894968 0 68 0.894968 1
gene 1 12 23 -1.35199 0 69 -1.35199 1
gene 1 13 23 0.0786163 0 70 0.0786163 1
gene 1 14 23 0.321244 0 71 0.321244 1
gene 1 15 23 1.30041 0 72 1.30041 1
gene 1 16 23 -1.15077 0 73 -1.15077 1
gene 1 17 23 -0.391325 0 74 -0.391325 1
gene 1 18 23 1.30268 0 75 1.30268 1
gene 1 19 23 0.0366468 0 76 0.0366468 1
gene 1 8 26 0.0717582 0 84 0.0717582 1
gene 1 26 23 -2.50212 0 85 -2.50212 1
gene 1 9 34 0.860351 0 108 0.860351 1
gene 1 34 22 -0.883197 0 109 -0.883197 1
gene 1 26 26 0.919103 1 134 0.919103 1
gene 1 26 45 0.412388 1 157 0.412388 1
gene 1 45 26 -0.578054 0 158 -0.578054 1
gene 1 14 47 -0.347071 0 162 -0.347071 1
gene 1 47 22 -0.58548 0 163 -0.58548 1
gene 1 10 49 -0.084958 0 171 -0.084958 1
gene 1 49 22 -0.155341 0 172 -0.155341 1
gene 1 17 49 0.192344 0 186 0.192344 1
gene 1 3 57 -0.492882 0 196 -0.492882 1
gene 1 57 23 -0.138163 0 197 -0.138163 1
genomeend 34
genomestart 33
trait 1 0 0 0 0 0 0 0 0 
node 1 1 1 1 0
node 2 1 1 1 0
node 3 1 1 1 0
node 4 1 1 1 0
node 5 1 1 1 0
node 6 1 1 1 0
node 7 1 1 1 0
node 8 1 1 1 0
node 9 1 1 1 0
node 10 1 1 1 0
node 11 1 1 1 0
node 12 1 1 1 0
node 13 1 1 1 0
node 14 1 1 1 0
node 15 1 1 1 0
node 16 1 1 1 0
node 17 1 1 1 0
node 18 1 1 1 0
node 19 1 1 3 0
node 20 1 0 2 0
node 21 1 0 2 0
node 22 1 0 2 0
node 23 1 0 2 0
node 26 1 0 0 0
node 34 1 0 0 0
node 45 1 0 0 0
node 47 1 0 0 0
node 49 1 0 0 0
node 57 1 0 0 0
gene 1 1 20 0.252493 0 1 0.252493 1
gene 1 2 20 -0.140354 0 2 -0.140354 1
gene 1 3 20 0.752798 0 3 0.752798 1
gene 1 4 20 -0.849038 0 4 -0.849038 1
gene 1 5 20 1.41191 0 5 1.41191 1
gene 1 6 20 2.05322 0 6 2.05322 1
gene 1 7 20 -0.762011 0 7 -0.762011 1
gene 1 8 20 0.438341 0 8 0.438341 1
gene 1 9 20 0.800433 0 9 0.800433 1
gene 1 10 20 -0.660478 0 10 -0.660478 1
gene 1 11 20 1.19895 0 11 1.19895 1
gene 1 12 20 -0.184549 0 12 -0.184549 1
gene 1 13 20 -0.0689116 0 13 -0.0689116 1
gene 1 14 20 0.215664 0 14 0.215664 1
gene 1 15 20 -0.0745986 0 15 -0.0745986 1
gene 1 16 20 2.88484 0 16 2.88484 1
gene 1 17 20 -0.110498 0 17 -0.110498 1
gene 1 18 20 0.0507441 0 18 0.0507441 1
gene 1 19 20 3 0 19 3 1
gene 1 1 21 0.26105 0 20 0.26105 1
gene 1 2 21 0.112539 0 21 0.112539 1
gene 1 3 21 1.50184 0 22 1.50184 1
gene 1 4 21 0.600536 0 23 0.600536 1
gene 1 5 21 -1.78198 0 24 -1.78198 1
gene 1 6 21 0.0958268 0 25 0.0958268 1
gene 1 7 21 -1.24346 0 26 -1.24346 1
gene 1 8 21 0.341164 0 27 0.341164 1
gene 1 9 21 1.09461 0 28 1.09461 1
gene 1 10 21 -0.00452708 0 29 -0.00452708 1
gene 1 11 21 -0.514889 0 30 -0.514889 1
gene 1 12 21 -0.450028 0 31 -0.450028 1
gene 1 13 21 -0.582693 0 32 -0.582693 1
gene 1 14 21 0.074029 0 33 0.074029 1
gene 1 15 21 1.02355 0 34 1.02355 1
gene 1 16 21 -0.12511 0 35 -0.12511 1
gene 1 17 21 -0.00587744 0 36 -0.00587744 1
gene 1 18 21 0.595789 0 37 0.595789 1
gene 1 19 21 -0.476133 0 38 -0.476133 1
gene 1 1 22 0.326946 0 39 0.326946 1
gene 1 2 22 4.81469e-05 0 40 4.81469e-05 1
gene 1 3 22 -0.0613163 0 41 -0.0613163 1
gene 1 4 22 2.71011 0 42 2.71011 1
gene 1 5 22 0.0454837 0 43 0.0454837 1
gene 1 6 22 -0.227126 0 44 -0.227126 1
gene 1 7 22 -0.224438 0 45 -0.224438 1
gene 1 8 22 0.0785632 0 46 0.0785632 1
gene 1 9 22 -1.19019 0 47 -1.19019 0
gene 1 10 22 0.71511 0 48 0.71511 0
gene 1 11 22 1.47003 0 49 1.47003 1
gene 1 12 22 -0.815677 0 50 -0.815677 1
gene 1 13 22 -0.00180926 0 51 -0.00180926 1
gene 1 14 22 0.186437 0 52 0.186437 0
gene 1 15 22 -0.201347 0 53 -0.201347 1
gene 1 16 22 0.834879 0 54 0.834879 1
gene 1 17 22 1.45466 0 55 1.45466 1
gene 1 18 22 0.0785951 0 56 0.0785951 1
gene 1 19 22 0.0396936 0 57 0.0396936 1
gene 1 1 23 -0.285719 0 58 -0.285719 1
gene 1 2 23 0.219074 0 59 0.219074 1
gene 1 3 23 0.387118 0 60 0.387118 0
gene 1 4 23 0.0739904 0 61 0.0739904 1
gene 1 5 23 -1.06658 0 62 -1.06658 1
gene 1 6 23 -0.723522 0 63 -0.723522 1
gene 1 7 23 1.6666 0 64 1.6666 1
gene 1 8 23 -0.374418 0 65 -0.374418 0
gene 1 9 23 -0.886551 0 66 -0.886551 1
gene 1 10 23 1.39829 0 67 1.39829 1
gene 1 11 23 0.894968 0 68 0.894968 1
gene 1 12 23 -1.35199 0 69 -1.35199 1
gene 1 13 23 0.0786163 0 70 0.0786163 1
gene 1 14 23 0.321244 0 71 0.321244 1
gene 1 15 23 1.30041 0 72 1.30041 1
gene 1 16 23 -1.15077 0 73 -1.15077 1
gene 1 17 23 -0.391325 0 74 -0.391325 1
gene 1 18 23 1.30268 0 75 1.30268 1
gene 1 19 23 0.0366468 0 76 0.0366468 1
gene 1 8 26 0.0717582 0 84 0.0717582 1
gene 1 26 23 -2.50212 0 85 -2.50212 1
gene 1 9 34 0.860351 0 108 0.860351 1
gene 1 34 22 -0.883197 0 109 -0.883197 1
gene 1 26 26 0.919103 1 134 0.919103 1
gene 1 26 45 0.412388 1 157 0.412388 1
gene 1 45 26 -0.578054 0 158 -0.578054 1
gene 1 14 47 -0.347071 0 162 -0.347071 1
gene 1 47 22 -0.58548 0 163 -0.58548 1
gene 1 10 49 -0.084958 0 171 -0.084958 1
gene 1 49 22 -0.155341 0 172 -0.155341 1
gene 1 17 49 0.192344 0 186 0.192344 1
gene 1 3 57 -0.492882 0 196 -0.492882 1
gene 1 57 23 -0.138163 0 197 -0.138163 1
genomeend 33
genomestart 32
trait 1 0 0 0 0 0 0 0 0 
node 1 1 1 1 0
node 2 1 1 1 0
node 3 1 1 1 0
node 4 1 1 1 0
node 5 1 1 1 0
node 6 1 1 1 0
node 7 1 1 1 0
node 8 1 1 1 0
node 9 1 1 1 0
node 10 1 1 1 0
node 11 1 1 1 0
node 12 1 1 1 0
node 13 1 1 1 0
node 14 1 1 1 0
node 15 1 1 1 0
node 16 1 1 1 0
node 17 1 1 1 0
node 18 1 1 1 0
node 19 1 1 3 0
node 20 1 0 2 0
node 21 1 0 2 0
node 22 1 0 2 0
node 23 1 0 2 0
node 26 1 0 0 0
node 34 1 0 0 0
node 45 1 0 0 0
node 47 1 0 0 0
node 49 1 0 0 0
node 57 1 0 0 0
gene 1 1 20 0.252493 0 1 0.252493 1
gene 1 2 20 -0.140354 0 2 -0.140354 1
gene 1 3 20 0.752798 0 3 0.752798 1
gene 1 4 20 -0.849038 0 4 -0.849038 1
gene 1 5 20 1.41191 0 5 1.41191 1
gene 1 6 20 2.05322 0 6 2.05322 1
gene 1 7 20 -0.762011 0 7 -0.762011 1
gene 1 8 20 0.438341 0 8 0.438341 1
gene 1 9 20 0.800433 0 9 0.800433 1
gene 1 10 20 -0.660478 0 10 -0.660478 1
gene 1 11 20 1.19895 0 11 1.19895 1
gene 1 12 20 -0.184549 0 12 -0.184549 1
gene 1 13 20 -0.0689116 0 13 -0.0689116 1
gene 1 14 20 0.215664 0 14 0.215664 1
gene 1 15 20 -0.0745986 0 15 -0.0745986 1
gene 1 16 20 2.88484 0 16 2.88484 1
gene 1 17 20 -0.110498 0 17 -0.110498 1
gene 1 18 20 0.0507441 0 18 0.0507441 1
gene 1 19 20 3 0 19 3 1
gene 1 1 21 0.26105 0 20 0.26105 1
gene 1 2 21 0.112539 0 21 0.112539 1
gene 1 3 21 1.50184 0 22 1.50184 1
gene 1 4 21 0.600536 0 23 0.600536 1
gene 1 5 21 -1.78198 0 24 -1.78198 1
gene 1 6 21 0.0958268 0 25 0.0958268 1
gene 1 7 21 -1.24346 0 26 -1.24346 1
gene 1 8 21 0.341164 0 27 0.341164 1
gene 1 9 21 1.09461 0 28 1.09461 1
gene 1 10 21 -0.00452708 0 29 -0.00452708 1
gene 1 11 21 -0.514889 0 30 -0.514889 1
gene 1 12 21 -0.450028 0 31 -0.450028 1
gene 1 13 21 -0.582693 0 32 -0.582693 1
gene 1 14 21 0.074029 0 33 0.074029 1
gene 1 15 21 1.02355 0 34 1.02355 1
gene 1 16 21 -0.12511 0 35 -0.12511 1
gene 1 17 21 -0.00587744 0 36 -0.00587744 1
gene 1 18 21 0.595789 0 37 0.595789 1
gene 1 19 21 -0.476133 0 38 -0.476133 1
gene 1 1 22 0.326946 0 39 0.326946 1
gene 1 2 22 4.81469e-05 0 40 4.81469e-05 1
gene 1 3 22 -0.0613163 0 41 -0.0613163 1
gene 1 4 22 2.71011 0 42 2.71011 1
gene 1 5 22 0.0454837 0 43 0.0454837 1
gene 1 6 22 -0.227126 0 44 -0.227126 1
gene 1 7 22 -0.224438 0 45 -0.224438 1
gene 1 8 22 0.0785632 0 46 0.0785632 1
gene 1 9 22 -1.19019 0 47 -1.19019 0
gene 1 10 22 0.71511 0 48 0.71511 0
gene 1 11 22 1.47003 0 49 1.47003 1
gene 1 12 22 -0.815677 0 50 -0.815677 1
gene 1 13 22 -0.00180926 0 51 -0.00180926 1
gene 1 14 22 0.186437 0 52 0.186437 0
gene 1 15 22 -0.201347 0 53 -0.201347 1
gene 1 16 22 0.834879 0 54 0.834879 1
gene 1 17 22 1.45466 0 55 1.45466 1
gene 1 18 22 0.0785951 0 56 0.0785951 1
gene 1 19 22 0.0396936 0 57 0.0396936 1
gene 1 1 23 -0.285719 0 58 -0.285719 1
gene 1 2 23 0.219074 0 59 0.219074 1
gene 1 3 23 0.387118 0 60 0.387118 0
gene 1 4 23 0.0739904 0 61 0.0739904 1
gene 1 5 23 -1.06658 0 62 -1.06658 1
gene 1 6 23 -0.723522 0 63 -0.723522 1
gene 1 7 23 1.6666 0 64 1.6666 1
gene 1 8 23 -0.374418 0 65 -0.374418 0
gene 1 9 23 -0.886551 0 66 -0.886551 1
gene 1 10 23 1.39829 0 67 1.39829 1
gene 1 11 23 0.894968 0 68 0.894968 1
gene 1 12 23 -1.35199 0 69 -1.35199 1
gene 1 13 23 0.0786163 0 70 0.0786163 1
gene 1 14 23 0.321244 0 71 0.321244 1
gene 1 15 23 1.30041 0 72 1.30041 1
gene 1 16 23 -1.15077 0 73 -1.15077 1
gene 1 17 23 -0.391325 0 74 -0.391325 1
gene 1 18 23 1.30268 0 75 1.30268 1
gene 1 19 23 0.0366468 0 76 0.0366468 1
gene 1 8 26 0.0717582 0 84 0.0717582 1
gene 1 26 23 -2.50212 0 85 -2.50212 1
gene 1 9 34 0.860351 0 108 0.860351 1
gene 1 34 22 -0.883197 0 109 -0.883197 1
gene 1 26 26 0.919103 1 134 0.919103 1
gene 1 26 45 0.412388 1 157 0.412388 1
gene 1 45 26 -0.578054 0 158 -0.578054 1
gene 1 14 47 -0.347071 0 162 -0.347071 1
gene 1 47 22 -0.58548 0 163 -0.58548 1
gene 1 10 49 -0.084958 0 171 -0.084958 1
gene 1 49 22 -0.155341 0 172 -0.155341 1
gene 1 17 49 0.192344 0 186 0.192344 1
gene 1 3 57 -0.492882 0 196 -0.492882 1
gene 1 57 23 -0.138163 0 197 -0.138163 1
genomeend 32
genomestart 31
trait 1 0 0 0 0 0 0 0 0 
node 1 1 1 1 0
node 2 1 1 1 0
node 3 1 1 1 0
node 4 1 1 1 0
node 5 1 1 1 0
node 6 1 1 1 0
node 7 1 1 1 0
node 8 1 1 1 0
node 9 1 1 1 0
node 10 1 1 1 0
node 11 1 1 1 0
node 12 1 1 1 0
node 13 1 1 1 0
node 14 1 1 1 0
node 15 1 1 1 0
node 16 1 1 1 0
node 17 1 1 1 0
node 18 1 1 1 0
node 19 1 1 3 0
node 20 1 0 2 0
node 21 1 0 2 0
node 22 1 0 2 0
node 23 1 0 2 0
node 26 1 0 0 0
node 34 1 0 0 0
node 45 1 0 0 0
node 47 1 0 0 0
node 49 1 0 0 0
node 57 1 0 0 0
gene 1 1 20 0.252493 0 1 0.252493 1
gene 1 2 20 -0.140354 0 2 -0.140354 1
gene 1 3 20 0.752798 0 3 0.752798 1
gene 1 4 20 -0.849038 0 4 -0.849038 1
gene 1 5 20 1.41191 0 5 1.41191 1
gene 1 6 20 2.05322 0 6 2.05322 1
gene 1 7 20 -0.762011 0 7 -0.762011 1
gene 1 8 20 0.438341 0 8 0.438341 1
gene 1 9 20 0.800433 0 9 0.800433 1
gene 1 10 20 -0.660478 0 10 -0.660478 1
gene 1 11 20 1.19895 0 11 1.19895 1
gene 1 12 20 -0.184549 0 12 -0.184549 1
gene 1 13 20 -0.0689116 0 13 -0.0689116 1
gene 1 14 20 0.215664 0 14 0.215664 1
gene 1 15 20 -0.0745986 0 15 -0.0745986 1
gene 1 16 20 2.88484 0 16 2.88484 1
gene 1 17 20 -0.110498 0 17 -0.110498 1
gene 1 18 20 0.0507441 0 18 0.0507441 1
gene 1 19 20 3 0 19 3 1
gene 1 1 21 0.26105 0 20 0.26105 1
gene 1 2 21 0.112539 0 21 0.112539 1
gene 1 3 21 1.50184 0 22 1.50184 1
gene 1 4 21 0.600536 0 23 0.600536 1
gene 1 5 21 -1.78198 0 24 -1.78198 1
gene 1 6 21 0.0958268 0 25 0.0958268 1
gene 1 7 21 -1.24346 0 26 -1.24346 1
gene 1 8 21 0.341164 0 27 0.341164 1
gene 1 9 21 1.09461 0 28 1.09461 1
gene 1 10 21 -0.00452708 0 29 -0.00452708 1
gene 1 11 21 -0.514889 0 30 -0.514889 1
gene 1 12 21 -0.450028 0 31 -0.450028 1
gene 1 13 21 -0.582693 0 32 -0.582693 1
gene 1 14 21 0.074029 0 33 0.074029 1
gene 1 15 21 1.02355 0 34 1.02355 1
gene 1 16 21 -0.12511 0 35 -0.12511 1
gene 1 17 21 -0.00587744 0 36 -0.00587744 1
gene 1 18 21 0.595789 0 37 0.595789 1
gene 1 19 21 -0.476133 0 38 -0.476133 1
gene 1 1 22 0.326946 0 39 0.326946 1
gene 1 2 22 4.81469e-05 0 40 4.81469e-05 1
gene 1 3 22 -0.0613163 0 41 -0.0613163 1
gene 1 4 22 2.71011 0 42 2.71011 1
gene 1 5 22 0.0454837 0 43 0.0454837 1
gene 1 6 22 -0.227126 0 44 -0.227126 1
gene 1 7 22 -0.224438 0 45 -0.224438 1
gene 1 8 22 0.0785632 0 46 0.0785632 1
gene 1 9 22 -1.19019 0 47 -1.19019 0
gene 1 10 22 0.71511 0 48 0.71511 0
gene 1 11 22 1.47003 0 49 1.47003 1
gene 1 12 22 -0.815677 0 50 -0.815677 1
gene 1 13 22 -0.00180926 0 51 -0.00180926 1
gene 1 14 22 0.186437 0 52 0.186437 0
gene 1 15 22 -0.201347 0 53 -0.201347 1
gene 1 16 22 0.834879 0 54 0.834879 1
gene 1 17 22 1.45466 0 55 1.45466 1
gene 1 18 22 0.0785951 0 56 0.0785951 1
gene 1 19 22 0.0396936 0 57 0.0396936 1
gene 1 1 23 -0.285719 0 58 -0.285719 1
gene 1 2 23 0.219074 0 59 0.219074 1
gene 1 3 23 0.387118 0 60 0.387118 0
gene 1 4 23 0.0739904 0 61 0.0739904 1
gene 1 5 23 -1.06658 0 62 -1.06658 1
gene 1 6 23 -0.723522 0 63 -0.723522 1
gene 1 7 23 1.6666 0 64 1.6666 1
gene 1 8 23 -0.374418 0 65 -0.374418 0
gene 1 9 23 -0.886551 0 66 -0.886551 1
gene 1 10 23 1.39829 0 67 1.39829 1
gene 1 11 23 0.894968 0 68 0.894968 1
gene 1 12 23 -1.35199 0 69 -1.35199 1
gene 1 13 23 0.0786163 0 70 0.0786163 1
gene 1 14 23 0.321244 0 71 0.321244 1
gene 1 15 23 1.30041 0 72 1.30041 1
gene 1 16 23 -1.15077 0 73 -1.15077 1
gene 1 17 23 -0.391325 0 74 -0.391325 1
gene 1 18 23 1.30268 0 75 1.30268 1
gene 1 19 23 0.0366468 0 76 0.0366468 1
gene 1 8 26 0.0717582 0 84 0.0717582 1
gene 1 26 23 -2.50212 0 85 -2.50212 1
gene 1 9 34 0.860351 0 108 0.860351 1
gene 1 34 22 -0.883197 0 109 -0.883197 1
gene 1 26 26 0.919103 1 134 0.919103 1
gene 1 26 45 0.412388 1 157 0.412388 1
gene 1 45 26 -0.578054 0 158 -0.578054 1
gene 1 14 47 -0.347071 0 162 -0.347071 1
gene 1 47 22 -0.58548 0 163 -0.58548 1
gene 1 10 49 -0.084958 0 171 -0.084958 1
gene 1 49 22 -0.155341 0 172 -0.155341 1
gene 1 17 49 0.192344 0 186 0.192344 1
gene 1 3 57 -0.492882 0 196 -0.492882 1
gene 1 57 23 -0.138163 0 197 -0.138163 1
genomeend 31
genomestart 30
trait 1 0 0 0 0 0 0 0 0 
node 1 1 1 1 0
node 2 1 1 1 0
node 3 1 1 1 0
node 4 1 1 1 0
node 5 1 1 1 0
node 6 1 1 1 0
node 7 1 1 1 0
node 8 1 1 1 0
node 9 1 1 1 0
node 10 1 1 1 0
node 11 1 1 1 0
node 12 1 1 1 0
node 13 1 1 1 0
node 14 1 1 1 0
node 15 1 1 1 0
node 16 1 1 1 0
node 17 1 1 1 0
node 18 1 1 1 0
node 19 1 1 3 0
node 20 1 0 2 0
node 21 1 0 2 0
node 22 1 0 2 0
node 23 1 0 2 0
node 26 1 0 0 0
node 34 1 0 0 0
node 45 1 0 0 0
node 47 1 0 0 0
node 49 1 0 0 0
node 57 1 0 0 0
gene 1 1 20 0.252493 0 1 0.252493 1
gene 1 2 20 -0.140354 0 2 -0.140354 1
gene 1 3 20 0.752798 0 3 0.752798 1
gene 1 4 20 -0.849038 0 4 -0.849038 1
gene 1 5 20 1.41191 0 5 1.41191 1
gene 1 6 20 2.05322 0 6 2.05322 1
gene 1 7 20 -0.762011 0 7 -0.762011 1
gene 1 8 20 0.438341 0 8 0.438341 1
gene 1 9 20 0.800433 0 9 0.800433 1
gene 1 10 20 -0.660478 0 10 -0.660478 1
gene 1 11 20 1.19895 0 11 1.19895 1
gene 1 12 20 -0.184549 0 12 -0.184549 1
gene 1 13 20 -0.0689116 0 13 -0.0689116 1
gene 1 14 20 0.215664 0 14 0.215664 1
gene 1 15 20 -0.0745986 0 15 -0.0745986 1
gene 1 16 20 2.88484 0 16 2.88484 1
gene 1 17 20 -0.110498 0 17 -0.110498 1
gene 1 18 20 0.0507441 0 18 0.0507441 1
gene 1 19 20 3 0 19 3 1
gene 1 1 21 0.26105 0 20 0.26105 1
gene 1 2 21 0.112539 0 21 0.112539 1
gene 1 3 21 1.50184 0 22 1.50184 1
gene 1 4 21 0.600536 0 23 0.600536 1
gene 1 5 21 -1.78198 0 24 -1.78198 1
gene 1 6 21 0.0958268 0 25 0.0958268 1
gene 1 7 21 -1.24346 0 26 -1.24346 1
gene 1 8 21 0.341164 0 27 0.341164 1
gene 1 9 21 1.09461 0 28 1.09461 1
gene 1 10 21 -0.00452708 0 29 -0.00452708 1
gene 1 11 21 -0.514889 0 30 -0.514889 1
gene 1 12 21 -0.450028 0 31 -0.450028 1
gene 1 13 21 -0.582693 0 32 -0.582693 1
gene 1 14 21 0.074029 0 33 0.074029 1
gene 1 15 21 1.02355 0 34 1.02355 1
gene 1 16 21 -0.12511 0 35 -0.12511 1
gene 1 17 21 -0.00587744 0 36 -0.00587744 1
gene 1 18 21 0.595789 0 37 0.595789 1
gene 1 19 21 -0.476133 0 38 -0.476133 1
gene 1 1 22 0.326946 0 39 0.326946 1
gene 1 2 22 4.81469e-05 0 40 4.81469e-05 1
gene 1 3 22 -0.0613163 0 41 -0.0613163 1
gene 1 4 22 2.71011 0 42 2.71011 1
gene 1 5 22 0.0454837 0 43 0.0454837 1
gene 1 6 22 -0.227126 0 44 -0.227126 1
gene 1 7 22 -0.224438 0 45 -0.224438 1
gene 1 8 22 0.0785632 0 46 0.0785632 1
gene 1 9 22 -1.19019 0 47 -1.19019 0
gene 1 10 22 0.71511 0 48 0.71511 0
gene 1 11 22 1.47003 0 49 1.47003 1
gene 1 12 22 -0.815677 0 50 -0.815677 1
gene 1 13 22 -0.00180926 0 51 -0.00180926 1
gene 1 14 22 0.186437 0 52 0.186437 0
gene 1 15 22 -0.201347 0 53 -0.201347 1
gene 1 16 22 0.834879 0 54 0.834879 1
gene 1 17 22 1.45466 0 55 1.45466 1
gene 1 18 22 0.0785951 0 56 0.0785951 1
gene 1 19 22 0.0396936 0 57 0.0396936 1
gene 1 1 23 -0.285719 0 58 -0.285719 1
gene 1 2 23 0.219074 0 59 0.219074 1
gene 1 3 23 0.387118 0 60 0.387118 0
gene 1 4 23 0.0739904 0 61 0.0739904 1
gene 1 5 23 -1.06658 0 62 -1.06658 1
gene 1 6 23 -0.723522 0 63 -0.723522 1
gene 1 7 23 1.6666 0 64 1.6666 1
gene 1 8 23 -0.374418 0 65 -0.374418 0
gene 1 9 23 -0.886551 0 66 -0.886551 1
gene 1 10 23 1.39829 0 67 1.39829 1
gene 1 11 23 0.894968 0 68 0.894968 1
gene 1 12 23 -1.35199 0 69 -1.35199 1
gene 1 13 23 0.0786163 0 70 0.0786163 1
gene 1 14 23 0.321244 0 71 0.321244 1
gene 1 15 23 1.30041 0 72 1.30041 1
gene 1 16 23 -1.15077 0 73 -1.15077 1
gene 1 17 23 -0.391325 0 74 -0.391325 1
gene 1 18 23 1.30268 0 75 1.30268 1
gene 1 19 23 0.0366468 0 76 0.0366468 1
gene 1 8 26 0.0717582 0 84 0.0717582 1
gene 1 26 23 -2.50212 0 85 -2.50212 1
gene 1 9 34 0.860351 0 108 0.860351 1
gene 1 34 22 -0.883197 0 109 -0.883197 1
gene 1 26 26 0.919103 1 134 0.919103 1
gene 1 26 45 0.412388 1 157 0.412388 1
gene 1 45 26 -0.578054 0 158 -0.578054 1
gene 1 14 47 -0.347071 0 162 -0.347071 1
gene 1 47 22 -0.58548 0 163 -0.58548 1
gene 1 10 49 -0.084958 0 171 -0.084958 1
gene 1 49 22 -0.155341 0 172 -0.155341 1
gene 1 17 49 0.192344 0 186 0.192344 1
gene 1 3 57 -0.492882 0 196 -0.492882 1
gene 1 57 23 -0.138163 0 197 -0.138163 1
genomeend 30
genomestart 1983
trait 1 0 0.0376357 0 0 0 0.05534 0 0.388831 
node 1 1 1 1 0
node 2 1 1 1 0
node 3 1 1 1 0
node 4 1 1 1 0
node 5 1 1 1 0
node 6 1 1 1 0
node 7 1 1 1 0
node 8 1 1 1 0
node 9 1 1 1 0
node 10 1 1 1 0
node 11 1 1 1 0
node 12 1 1 1 0
node 13 1 1 1 0
node 14 1 1 1 0
node 15 1 1 1 0
node 16 1 1 1 0
node 17 1 1 1 0
node 18 1 1 1 0
node 19 1 1 3 0
node 20 1 0 2 0
node 21 1 0 2 0
node 22 1 0 2 0
node 23 1 0 2 0
node 26 1 0 0 0
node 34 1 0 0 0
node 45 1 0 0 0
node 47 1 0 0 0
node 49 1 0 0 0
node 57 1 0 0 0
gene 1 1 20 -0.156467 0 1 -0.156467 1
gene 1 2 20 -0.0399637 0 2 -0.0399637 1
gene 1 3 20 -0.658349 0 3 -0.658349 1
gene 1 4 20 -0.127431 0 4 -0.127431 1
gene 1 5 20 1.70934 0 5 1.70934 1
gene 1 6 20 2.1221 0 6 2.1221 1
gene 1 7 20 -0.155167 0 7 -0.155167 1
gene 1 8 20 0.282219 0 8 0.282219 1
gene 1 9 20 -0.0914844 0 9 -0.0914844 1
gene 1 10 20 -0.065537 0 10 -0.065537 1
gene 1 11 20 0.600589 0 11 0.600589 1
gene 1 12 20 0.470191 0 12 0.470191 1
gene 1 13 20 -0.597321 0 13 -0.597321 1
gene 1 14 20 1.59736 0 14 1.59736 1
gene 1 15 20 0.346718 0 15 0.346718 1
gene 1 16 20 2.93713 0 16 2.93713 1
gene 1 17 20 0.0142977 0 17 0.0142977 1
gene 1 18 20 0.0089437 0 18 0.0089437 1
gene 1 19 20 2.91601 0 19 2.91601 1
gene 1 1 21 0.0307084 0 20 0.0307084 1
gene 1 2 21 -0.0088786 0 21 -0.0088786 1
gene 1 3 21 1.22669 0 22 1.22669 1
gene 1 4 21 0.852338 0 23 0.852338 1
gene 1 5 21 -0.0195341 0 24 -0.0195341 1
gene 1 6 21 0.477392 0 25 0.477392 1
gene 1 7 21 0.321543 0 26 0.321543 1
gene 1 8 21 0.157012 0 27 0.157012 1
gene 1 9 21 0.0494351 0 28 0.0494351 1
gene 1 10 21 -0.0950333 0 29 -0.0950333 1
gene 1 11 21 -0.44738 0 30 -0.44738 1
gene 1 12 21 -0.0473577 0 31 -0.0473577 1
gene 1 13 21 -0.0256158 0 32 -0.0256158 1
gene 1 14 21 0.681998 0 33 0.681998 1
gene 1 15 21 1.67344 0 34 1.67344 1
gene 1 16 21 0.0816855 0 35 0.0816855 1
gene 1 17 21 0.223869 0 36 0.223869 1
gene 1 18 21 -0.29335 0 37 -0.29335 1
gene 1 19 21 -0.429032 0 38 -0.429032 1
gene 1 1 22 1.06017 0 39 1.06017 1
gene 1 2 22 0.276131 0 40 0.276131 1
gene 1 3 22 -0.667074 0 41 -0.667074 1
gene 1 4 22 1.0034 0 42 1.0034 1
gene 1 5 22 -0.331791 0 43 -0.331791 1
gene 1 6 22 1.21619 0 44 1.21619 1
gene 1 7 22 -0.0119958 0 45 -0.0119958 1
gene 1 8 22 0.0635756 0 46 0.0635756 1
gene 1 9 22 -1.14755 0 47 -1.14755 0
gene 1 10 22 0.171342 0 48 0.171342 0
gene 1 11 22 -0.537717 0 49 -0.537717 1
gene 1 12 22 -0.0669402 0 50 -0.0669402 1
gene 1 13 22 0.0150325 0 51 0.0150325 1
gene 1 14 22 0.108452 0 52 0.108452 0
gene 1 15 22 -0.143176 0 53 -0.143176 1
gene 1 16 22 0.937717 0 54 0.937717 1
gene 1 17 22 0.905893 0 55 0.905893 1
gene 1 18 22 0.640699 0 56 0.640699 1
gene 1 19 22 0.160022 0 57 0.160022 1
gene 1 1 23 -0.583908 0 58 -0.583908 1
gene 1 2 23 -0.239299 0 59 -0.239299 1
gene 1 3 23 -0.438494 0 60 -0.438494 0
gene 1 4 23 1.1107 0 61 1.1107 1
gene 1 5 23 -0.756694 0 62 -0.756694 1
gene 1 6 23 -0.358274 0 63 -0.358274 1
gene 1 7 23 1.14292 0 64 1.14292 1
gene 1 8 23 -0.644397 0 65 -0.644397 0
gene 1 9 23 -0.0757881 0 66 -0.0757881 1
gene 1 10 23 -0.456648 0 67 -0.456648 1
gene 1 11 23 0.335578 0 68 0.335578 1
gene 1 12 23 -1.2988 0 69 -1.2988 1
gene 1 13 23 -0.0625116 0 70 -0.0625116 1
gene 1 14 23 0.627896 0 71 0.627896 1
gene 1 15 23 0.966856 0 72 0.966856 1
gene 1 16 23 -0.86158 0 73 -0.86158 1
gene 1 17 23 -0.650864 0 74 -0.650864 1
gene 1 18 23 -0.300538 0 75 -0.300538 1
gene 1 19 23 0.0143379 0 76 0.0143379 1
gene 1 8 26 0.114188 0 84 0.114188 1
gene 1 26 23 -2.13826 0 85 -2.13826 1
gene 1 9 34 -0.2054 0 108 -0.2054 1
gene 1 34 22 -0.173972 0 109 -0.173972 1
gene 1 26 26 0.32888 1 134 0.32888 1
gene 1 26 45 -0.105316 1 157 -0.105316 1
gene 1 45 26 0.378299 0 158 0.378299 1
gene 1 14 47 -0.726285 0 162 -0.726285 1
gene 1 47 22 0.1533 0 163 0.1533 1
gene 1 10 49 0.0511511 0 171 0.0511511 1
gene 1 49 22 0.209483 0 172 0.209483 1
gene 1 17 49 -0.0916527 0 186 -0.0916527 1
gene 1 3 57 0.11569 0 196 0.11569 1
gene 1 57 23 0.315499 0 197 0.315499 1
genomeend 1983
genomestart 29
trait 1 0 0.0376357 0 0 0 0.05534 0 0.388831 
node 1 1 1 1 0
node 2 1 1 1 0
node 3 1 1 1 0
node 4 1 1 1 0
node 5 1 1 1 0
node 6 1 1 1 0
node 7 1 1 1 0
node 8 1 1 1 0
node 9 1 1 1 0
node 10 1 1 1 0
node 11 1 1 1 0
node 12 1 1 1 0
node 13 1 1 1 0
node 14 1 1 1 0
node 15 1 1 1 0
node 16 1 1 1 0
node 17 1 1 1 0
node 18 1 1 1 0
node 19 1 1 3 0
node 20 1 0 2 0
node 21 1 0 2 0
node 22 1 0 2 0
node 23 1 0 2 0
node 26 1 0 0 0
node 34 1 0 0 0
node 45 1 0 0 0
node 47 1 0 0 0
node 49 1 0 0 0
node 57 1 0 0 0
gene 1 1 20 -0.156467 0 1 -0.156467 1
gene 1 2 20 -0.0399637 0 2 -0.0399637 1
gene 1 3 20 -0.658349 0 3 -0.658349 1
gene 1 4 20 -0.127431 0 4 -0.127431 1
gene 1 5 20 1.70934 0 5 1.70934 1
gene 1 6 20 2.1221 0 6 2.1221 1
gene 1 7 20 -0.155167 0 7 -0.155167 1
gene 1 8 20 0.282219 0 8 0.282219 1
gene 1 9 20 -0.0914844 0 9 -0.0914844 1
gene 1 10 20 -0.065537 0 10 -0.065537 1
gene 1 11 20 0.600589 0 11 0.600589 1
gene 1 12 20 0.470191 0 12 0.470191 1
gene 1 13 20 -0.597321 0 13 -0.597321 1
gene 1 14 20 1.59736 0 14 1.59736 1
gene 1 15 20 0.346718 0 15 0.346718 1
gene 1 16 20 2.93713 0 16 2.93713 1
gene 1 17 20 0.0142977 0 17 0.0142977 1
gene 1 18 20 0.0089437 0 18 0.0089437 1
gene 1 19 20 2.91601 0 19 2.91601 1
gene 1 1 21 0.0307084 0 20 0.0307084 1
gene 1 2 21 -0.0088786 0 21 -0.0088786 1
gene 1 3 21 1.22669 0 22 1.22669 1
gene 1 4 21 0.852338 0 23 0.852338 1
gene 1 5 21 -0.0195341 0 24 -0.0195341 1
gene 1 6 21 0.477392 0 25 0.477392 1
gene 1 7 21 0.321543 0 26 0.321543 1
gene 1 8 21 0.157012 0 27 0.157012 1
gene 1 9 21 0.0494351 0 28 0.0494351 1
gene 1 10 21 -0.0950333 0 29 -0.0950333 1
gene 1 11 21 -0.44738 0 30 -0.44738 1
gene 1 12 21 -0.0473577 0 31 -0.0473577 1
gene 1 13 21 -0.0256158 0 32 -0.0256158 1
gene 1 14 21 0.681998 0 33 0.681998 1
gene 1 15 21 1.67344 0 34 1.67344 1
gene 1 16 21 0.0816855 0 35 0.0816855 1
gene 1 17 21 0.223869 0 36 0.223869 1
gene 1 18 21 -0.29335 0 37 -0.29335 1
gene 1 19 21 -0.429032 0 38 -0.429032 1
gene 1 1 22 1.06017 0 39 1.06017 1
gene 1 2 22 0.276131 0 40 0.276131 1
gene 1 3 22 -0.667074 0 41 -0.667074 1
gene 1 4 22 1.0034 0 42 1.0034 1
gene 1 5 22 -0.331791 0 43 -0.331791 1
gene 1 6 22 1.21619 0 44 1.21619 1
gene 1 7 22 -0.0119958 0 45 -0.0119958 1
gene 1 8 22 0.0635756 0 46 0.0635756 1
gene 1 9 22 -1.14755 0 47 -1.14755 0
gene 1 10 22 0.171342 0 48 0.171342 0
gene 1 11 22 -0.537717 0 49 -0.537717 1
gene 1 12 22 -0.0669402 0 50 -0.0669402 1
gene 1 13 22 0.0150325 0 51 0.0150325 1
gene 1 14 22 0.108452 0 52 0.108452 0
gene 1 15 22 -0.143176 0 53 -0.143176 1
gene 1 16 22 0.937717 0 54 0.937717 1
gene 1 17 22 0.905893 0 55 0.905893 1
gene 1 18 22 0.640699 0 56 0.640699 1
gene 1 19 22 0.160022 0 57 0.160022 1
gene 1 1 23 -0.583908 0 58 -0.583908 1
gene 1 2 23 -0.239299 0 59 -0.239299 1
gene 1 3 23 -0.438494 0 60 -0.438494 0
gene 1 4 23 1.1107 0 61 1.1107 1
gene 1 5 23 -0.756694 0 62 -0.756694 1
gene 1 6 23 -0.358274 0 63 -0.358274 1
gene 1 7 23 1.14292 0 64 1.14292 1
gene 1 8 23 -0.644397 0 65 -0.644397 0
gene 1 9 23 -0.0757881 0 66 -0.0757881 1
gene 1 10 23 -0.456648 0 67 -0.456648 1
gene 1 11 23 0.335578 0 68 0.335578 1
gene 1 12 23 -1.2988 0 69 -1.2988 1
gene 1 13 23 -0.0625116 0 70 -0.0625116 1
gene 1 14 23 0.627896 0 71 0.627896 1
gene 1 15 23 0.966856 0 72 0.966856 1
gene 1 16 23 -0.86158 0 73 -0.86158 1
gene 1 17 23 -0.650864 0 74 -0.650864 1
gene 1 18 23 -0.300538 0 75 -0.300538 1
gene 1 19 23 0.0143379 0 76 0.0143379 1
gene 1 8 26 0.114188 0 84 0.114188 1
gene 1 26 23 -2.13826 0 85 -2.13826 1
gene 1 9 34 -0.2054 0 108 -0.2054 1
gene 1 34 22 -0.173972 0 109 -0.173972 1
gene 1 26 26 0.32888 1 134 0.32888 1
gene 1 26 45 -0.105316 1 157 -0.105316 1
gene 1 45 26 0.378299 0 158 0.378299 1
gene 1 14 47 -0.726285 0 162 -0.726285 1
gene 1 47 22 0.1533 0 163 0.1533 1
gene 1 10 49 0.0511511 0 171 0.0511511 1
gene 1 49 22 0.209483 0 172 0.209483 1
gene 1 17 49 -0.0916527 0 186 -0.0916527 1
gene 1 3 57 0.11569 0 196 0.11569 1
gene 1 57 23 0.315499 0 197 0.315499 1
genomeend 29
genomestart 28
trait 1 0 0.0376357 0 0 0 0.05534 0 0.388831 
node 1 1 1 1 0
node 2 1 1 1 0
node 3 1 1 1 0
node 4 1 1 1 0
node 5 1 1 1 0
node 6 1 1 1 0
node 7 1 1 1 0
node 8 1 1 1 0
node 9 1 1 1 0
node 10 1 1 1 0
node 11 1 1 1 0
node 12 1 1 1 0
node 13 1 1 1 0
node 14 1 1 1 0
node 15 1 1 1 0
node 16 1 1 1 0
node 17 1 1 1 0
node 18 1 1 1 0
node 19 1 1 3 0
node 20 1 0 2 0
node 21 1 0 2 0
node 22 1 0 2 0
node 23 1 0 2 0
node 26 1 0 0 0
node 34 1 0 0 0
node 45 1 0 0 0
node 47 1 0 0 0
node 49 1 0 0 0
node 57 1 0 0 0
gene 1 1 20 -0.156467 0 1 -0.156467 1
gene 1 2 20 -0.0399637 0 2 -0.0399637 1
gene 1 3 20 -0.658349 0 3 -0.658349 1
gene 1 4 20 -0.127431 0 4 -0.127431 1
gene 1 5 20 1.70934 0 5 1.70934 1
gene 1 6 20 2.1221 0 6 2.1221 1
gene 1 7 20 -0.155167 0 7 -0.155167 1
gene 1 8 20 0.282219 0 8 0.282219 1
gene 1 9 20 -0.0914844 0 9 -0.0914844 1
gene 1 10 20 -0.065537 0 10 -0.065537 1
gene 1 11 20 0.600589 0 11 0.600589 1
gene 1 12 20 0.470191 0 12 0.470191 1
gene 1 13 20 -0.597321 0 13 -0.597321 1
gene 1 14 20 1.59736 0 14 1.59736 1
gene 1 15 20 0.346718 0 15 0.346718 1
gene 1 16 20 2.93713 0 16 2.93713 1
gene 1 17 20 0.0142977 0 17 0.0142977 1
gene 1 18 20 0.0089437 0 18 0.0089437 1
gene 1 19 20 2.91601 0 19 2.91601 1
gene 1 1 21 0.0307084 0 20 0.0307084 1
gene 1 2 21 -0.0088786 0 21 -0.0088786 1
gene 1 3 21 1.22669 0 22 1.22669 1
gene 1 4 21 0.852338 0 23 0.852338 1
gene 1 5 21 -0.0195341 0 24 -0.0195341 1
gene 1 6 21 0.477392 0 25 0.477392 1
gene 1 7 21 0.321543 0 26 0.321543 1
gene 1 8 21 0.157012 0 27 0.157012 1
gene 1 9 21 0.0494351 0 28 0.0494351 1
gene 1 10 21 -0.0950333 0 29 -0.0950333 1
gene 1 11 21 -0.44738 0 30 -0.44738 1
gene 1 12 21 -0.0473577 0 31 -0.0473577 1
gene 1 13 21 -0.0256158 0 32 -0.0256158 1
gene 1 14 21 0.681998 0 33 0.681998 1
gene 1 15 21 1.67344 0 34 1.67344 1
gene 1 16 21 0.0816855 0 35 0.0816855 1
gene 1 17 21 0.223869 0 36 0.223869 1
gene 1 18 21 -0.29335 0 37 -0.29335 1
gene 1 19 21 -0.429032 0 38 -0.429032 1
gene 1 1 22 1.06017 0 39 1.06017 1
gene 1 2 22 0.276131 0 40 0.276131 1
gene 1 3 22 -0.667074 0 41 -0.667074 1
gene 1 4 22 1.0034 0 42 1.0034 1
gene 1 5 22 -0.331791 0 43 -0.331791 1
gene 1 6 22 1.21619 0 44 1.21619 1
gene 1 7 22 -0.0119958 0 45 -0.0119958 1
gene 1 8 22 0.0635756 0 46 0.0635756 1
gene 1 9 22 -1.14755 0 47 -1.14755 0
gene 1 10 22 0.171342 0 48 0.171342 0
gene 1 11 22 -0.537717 0 49 -0.537717 1
gene 1 12 22 -0.0669402 0 50 -0.0669402 1
gene 1 13 22 0.0150325 0 51 0.0150325 1
gene 1 14 22 0.108452 0 52 0.108452 0
gene 1 15 22 -0.143176 0 53 -0.143176 1
gene 1 16 22 0.937717 0 54 0.937717 1
gene 1 17 22 0.905893 0 55 0.905893 1
gene 1 18 22 0.640699 0 56 0.640699 1
gene 1 19 22 0.160022 0 57 0.160022 1
gene 1 1 23 -0.583908 0 58 -0.583908 1
gene 1 2 23 -0.239299 0 59 -0.239299 1
gene 1 3 23 -0.438494 0 60 -0.438494 0
gene 1 4 23 1.1107 0 61 1.1107 1
gene 1 5 23 -0.756694 0 62 -0.756694 1
gene 1 6 23 -0.358274 0 63 -0.358274 1
gene 1 7 23 1.14292 0 64 1.14292 1
gene 1 8 23 -0.644397 0 65 -0.644397 0
gene 1 9 23 -0.0757881 0 66 -0.0757881 1
gene 1 10 23 -0.456648 0 67 -0.456648 1
gene 1 11 23 0.335578 0 68 0.335578 1
gene 1 12 23 -1.2988 0 69 -1.2988 1
gene 1 13 23 -0.0625116 0 70 -0.0625116 1
gene 1 14 23 0.627896 0 71 0.627896 1
gene 1 15 23 0.966856 0 72 0.966856 1
gene 1 16 23 -0.86158 0 73 -0.86158 1
gene 1 17 23 -0.650864 0 74 -0.650864 1
gene 1 18 23 -0.300538 0 75 -0.300538 1
gene 1 19 23 0.0143379 0 76 0.0143379 1
gene 1 8 26 0.114188 0 84 0.114188 1
gene 1 26 23 -2.13826 0 85 -2.13826 1
gene 1 9 34 -0.2054 0 108 -0.2054 1
gene 1 34 22 -0.173972 0 109 -0.173972 1
gene 1 26 26 0.32888 1 134 0.32888 1
gene 1 26 45 -0.105316 1 157 -0.105316 1
gene 1 45 26 0.378299 0 158 0.378299 1
gene 1 14 47 -0.726285 0 162 -0.726285 1
gene 1 47 22 0.1533 0 163 0.1533 1
gene 1 10 49 0.0511511 0 171 0.0511511 1
gene 1 49 22 0.209483 0 172 0.209483 1
gene 1 17 49 -0.0916527 0 186 -0.0916527 1
gene 1 3 57 0.11569 0 196 0.11569 1
gene 1 57 23 0.315499 0 197 0.315499 1
genomeend 28
genomestart 27
trait 1 0 0.0376357 0 0 0 0.05534 0 0.388831 
node 1 1 1 1 0
node 2 1 1 1 0
node 3 1 1 1 0
node 4 1 1 1 0
node 5 1 1 1 0
node 6 1 1 1 0
node 7 1 1 1 0
node 8 1 1 1 0
node 9 1 1 1 0
node 10 1 1 1 0
node 11 1 1 1 0
node 12 1 1 1 0
node 13 1 1 1 0
node 14 1 1 1 0
node 15 1 1 1 0
node 16 1 1 1 0
node 17 1 1 1 0
node 18 1 1 1 0
node 19 1 1 3 0
node 20 1 0 2 0
node 21 1 0 2 0
node 22 1 0 2 0
node 23 1 0 2 0
node 26 1 0 0 0
node 34 1 0 0 0
node 45 1 0 0 0
node 47 1 0 0 0
node 49 1 0 0 0
node 57 1 0 0 0
gene 1 1 20 -0.156467 0 1 -0.156467 1
gene 1 2 20 -0.0399637 0 2 -0.0399637 1
gene 1 3 20 -0.658349 0 3 -0.658349 1
gene 1 4 20 -0.127431 0 4 -0.127431 1
gene 1 5 20 1.70934 0 5 1.70934 1
gene 1 6 20 2.1221 0 6 2.1221 1
gene 1 7 20 -0.155167 0 7 -0.155167 1
gene 1 8 20 0.282219 0 8 0.282219 1
gene 1 9 20 -0.0914844 0 9 -0.0914844 1
gene 1 10 20 -0.065537 0 10 -0.065537 1
gene 1 11 20 0.600589 0 11 0.600589 1
gene 1 12 20 0.470191 0 12 0.470191 1
gene 1 13 20 -0.597321 0 13 -0.597321 1
gene 1 14 20 1.59736 0 14 1.59736 1
gene 1 15 20 0.346718 0 15 0.346718 1
gene 1 16 20 2.93713 0 16 2.93713 1
gene 1 17 20 0.0142977 0 17 0.0142977 1
gene 1 18 20 0.0089437 0 18 0.0089437 1
gene 1 19 20 2.91601 0 19 2.91601 1
gene 1 1 21 0.0307084 0 20 0.0307084 1
gene 1 2 21 -0.0088786 0 21 -0.0088786 1
gene 1 3 21 1.22669 0 22 1.22669 1
gene 1 4 21 0.852338 0 23 0.852338 1
gene 1 5 21 -0.0195341 0 24 -0.0195341 1
gene 1 6 21 0.477392 0 25 0.477392 1
gene 1 7 21 0.321543 0 26 0.321543 1
gene 1 8 21 0.157012 0 27 0.157012 1
gene 1 9 21 0.0494351 0 28 0.0494351 1
gene 1 10 21 -0.0950333 0 29 -0.0950333 1
gene 1 11 21 -0.44738 0 30 -0.44738 1
gene 1 12 21 -0.0473577 0 31 -0.0473577 1
gene 1 13 21 -0.0256158 0 32 -0.0256158 1
gene 1 14 21 0.681998 0 33 0.681998 1
gene 1 15 21 1.67344 0 34 1.67344 1
gene 1 16 21 0.0816855 0 35 0.0816855 1
gene 1 17 21 0.223869 0 36 0.223869 1
gene 1 18 21 -0.29335 0 37 -0.29335 1
gene 1 19 21 -0.429032 0 38 -0.429032 1
gene 1 1 22 1.06017 0 39 1.06017 1
gene 1 2 22 0.276131 0 40 0.276131 1
gene 1 3 22 -0.667074 0 41 -0.667074 1
gene 1 4 22 1.0034 0 42 1.0034 1
gene 1 5 22 -0.331791 0 43 -0.331791 1
gene 1 6 22 1.21619 0 44 1.21619 1
gene 1 7 22 -0.0119958 0 45 -0.0119958 1
gene 1 8 22 0.0635756 0 46 0.0635756 1
gene 1 9 22 -1.14755 0 47 -1.14755 0
gene 1 10 22 0.171342 0 48 0.171342 0
gene 1 11 22 -0.537717 0 49 -0.537717 1
gene 1 12 22 -0.0669402 0 50 -0.0669402 1
gene 1 13 22 0.0150325 0 51 0.0150325 1
gene 1 14 22 0.108452 0 52 0.108452 0
gene 1 15 22 -0.143176 0 53 -0.143176 1
gene 1 16 22 0.937717 0 54 0.937717 1
gene 1 17 22 0.905893 0 55 0.905893 1
gene 1 18 22 0.640699 0 56 0.640699 1
gene 1 19 22 0.160022 0 57 0.160022 1
gene 1 1 23 -0.583908 0 58 -0.583908 1
gene 1 2 23 -0.239299 0 59 -0.239299 1
gene 1 3 23 -0.438494 0 60 -0.438494 0
gene 1 4 23 1.1107 0 61 1.1107 1
gene 1 5 23 -0.756694 0 62 -0.756694 1
gene 1 6 23 -0.358274 0 63 -0.358274 1
gene 1 7 23 1.14292 0 64 1.14292 1
gene 1 8 23 -0.644397 0 65 -0.644397 0
gene 1 9 23 -0.0757881 0 66 -0.0757881 1
gene 1 10 23 -0.456648 0 67 -0.456648 1
gene 1 11 23 0.335578 0 68 0.335578 1
gene 1 12 23 -1.2988 0 69 -1.2988 1
gene 1 13 23 -0.0625116 0 70 -0.0625116 1
gene 1 14 23 0.627896 0 71 0.627896 1
gene 1 15 23 0.966856 0 72 0.966856 1
gene 1 16 23 -0.86158 0 73 -0.86158 1
gene 1 17 23 -0.650864 0 74 -0.650864 1
gene 1 18 23 -0.300538 0 75 -0.300538 1
gene 1 19 23 0.0143379 0 76 0.0143379 1
gene 1 8 26 0.114188 0 84 0.114188 1
gene 1 26 23 -2.13826 0 85 -2.13826 1
gene 1 9 34 -0.2054 0 108 -0.2054 1
gene 1 34 22 -0.173972 0 109 -0.173972 1
gene 1 26 26 0.32888 1 134 0.32888 1
gene 1 26 45 -0.105316 1 157 -0.105316 1
gene 1 45 26 0.378299 0 158 0.378299 1
gene 1 14 47 -0.726285 0 162 -0.726285 1
gene 1 47 22 0.1533 0 163 0.1533 1
gene 1 10 49 0.0511511 0 171 0.0511511 1
gene 1 49 22 0.209483 0 172 0.209483 1
gene 1 17 49 -0.0916527 0 186 -0.0916527 1
gene 1 3 57 0.11569 0 196 0.11569 1
gene 1 57 23 0.315499 0 197 0.315499 1
genomeend 27
genomestart 26
trait 1 0 0.0376357 0 0 0 0.05534 0 0.388831 
node 1 1 1 1 0
node 2 1 1 1 0
node 3 1 1 1 0
node 4 1 1 1 0
node 5 1 1 1 0
node 6 1 1 1 0
node 7 1 1 1 0
node 8 1 1 1 0
node 9 1 1 1 0
node 10 1 1 1 0
node 11 1 1 1 0
node 12 1 1 1 0
node 13 1 1 1 0
node 14 1 1 1 0
node 15 1 1 1 0
node 16 1 1 1 0
node 17 1 1 1 0
node 18 1 1 1 0
node 19 1 1 3 0
node 20 1 0 2 0
node 21 1 0 2 0
node 22 1 0 2 0
node 23 1 0 2 0
node 26 1 0 0 0
node 34 1 0 0 0
node 45 1 0 0 0
node 47 1 0 0 0
node 49 1 0 0 0
node 57 1 0 0 0
gene 1 1 20 -0.156467 0 1 -0.156467 1
gene 1 2 20 -0.0399637 0 2 -0.0399637 1
gene 1 3 20 -0.658349 0 3 -0.658349 1
gene 1 4 20 -0.127431 0 4 -0.127431 1
gene 1 5 20 1.70934 0 5 1.70934 1
gene 1 6 20 2.1221 0 6 2.1221 1
gene 1 7 20 -0.155167 0 7 -0.155167 1
gene 1 8 20 0.282219 0 8 0.282219 1
gene 1 9 20 -0.0914844 0 9 -0.0914844 1
gene 1 10 20 -0.065537 0 10 -0.065537 1
gene 1 11 20 0.600589 0 11 0.600589 1
gene 1 12 20 0.470191 0 12 0.470191 1
gene 1 13 20 -0.597321 0 13 -0.597321 1
gene 1 14 20 1.59736 0 14 1.59736 1
gene 1 15 20 0.346718 0 15 0.346718 1
gene 1 16 20 2.93713 0 16 2.93713 1
gene 1 17 20 0.0142977 0 17 0.0142977 1
gene 1 18 20 0.0089437 0 18 0.0089437 1
gene 1 19 20 2.91601 0 19 2.91601 1
gene 1 1 21 0.0307084 0 20 0.0307084 1
gene 1 2 21 -0.0088786 0 21 -0.0088786 1
gene 1 3 21 1.22669 0 22 1.22669 1
gene 1 4 21 0.852338 0 23 0.852338 1
gene 1 5 21 -0.0195341 0 24 -0.0195341 1
gene 1 6 21 0.477392 0 25 0.477392 1
gene 1 7 21 0.321543 0 26 0.321543 1
gene 1 8 21 0.157012 0 27 0.157012 1
gene 1 9 21 0.0494351 0 28 0.0494351 1
gene 1 10 21 -0.0950333 0 29 -0.0950333 1
gene 1 11 21 -0.44738 0 30 -0.44738 1
gene 1 12 21 -0.0473577 0 31 -0.0473577 1
gene 1 13 21 -0.0256158 0 32 -0.0256158 1
gene 1 14 21 0.681998 0 33 0.681998 1
gene 1 15 21 1.67344 0 34 1.67344 1
gene 1 16 21 0.0816855 0 35 0.0816855 1
gene 1 17 21 0.223869 0 36 0.223869 1
gene 1 18 21 -0.29335 0 37 -0.29335 1
gene 1 19 21 -0.429032 0 38 -0.429032 1
gene 1 1 22 1.06017 0 39 1.06017 1
gene 1 2 22 0.276131 0 40 0.276131 1
gene 1 3 22 -0.667074 0 41 -0.667074 1
gene 1 4 22 1.0034 0 42 1.0034 1
gene 1 5 22 -0.331791 0 43 -0.331791 1
gene 1 6 22 1.21619 0 44 1.21619 1
gene 1 7 22 -0.0119958 0 45 -0.0119958 1
gene 1 8 22 0.0635756 0 46 0.0635756 1
gene 1 9 22 -1.14755 0 47 -1.14755 0
gene 1 10 22 0.171342 0 48 0.171342 0
gene 1 11 22 -0.537717 0 49 -0.537717 1
gene 1 12 22 -0.0669402 0 50 -0.0669402 1
gene 1 13 22 0.0150325 0 51 0.0150325 1
gene 1 14 22 0.108452 0 52 0.108452 0
gene 1 15 22 -0.143176 0 53 -0.143176 1
gene 1 16 22 0.937717 0 54 0.937717 1
gene 1 17 22 0.905893 0 55 0.905893 1
gene 1 18 22 0.640699 0 56 0.640699 1
gene 1 19 22 0.160022 0 57 0.160022 1
gene 1 1 23 -0.583908 0 58 -0.583908 1
gene 1 2 23 -0.239299 0 59 -0.239299 1
gene 1 3 23 -0.438494 0 60 -0.438494 0
gene 1 4 23 1.1107 0 61 1.1107 1
gene 1 5 23 -0.756694 0 62 -0.756694 1
gene 1 6 23 -0.358274 0 63 -0.358274 1
gene 1 7 23 1.14292 0 64 1.14292 1
gene 1 8 23 -0.644397 0 65 -0.644397 0
gene 1 9 23 -0.0757881 0 66 -0.0757881 1
gene 1 10 23 -0.456648 0 67 -0.456648 1
gene 1 11 23 0.335578 0 68 0.335578 1
gene 1 12 23 -1.2988 0 69 -1.2988 1
gene 1 13 23 -0.0625116 0 70 -0.0625116 1
gene 1 14 23 0.627896 0 71 0.627896 1
gene 1 15 23 0.966856 0 72 0.966856 1
gene 1 16 23 -0.86158 0 73 -0.86158 1
gene 1 17 23 -0.650864 0 74 -0.650864 1
gene 1 18 23 -0.300538 0 75 -0.300538 1
gene 1 19 23 0.0143379 0 76 0.0143379 1
gene 1 8 26 0.114188 0 84 0.114188 1
gene 1 26 23 -2.13826 0 85 -2.13826 1
gene 1 9 34 -0.2054 0 108 -0.2054 1
gene 1 34 22 -0.173972 0 109 -0.173972 1
gene 1 26 26 0.32888 1 134 0.32888 1
gene 1 26 45 -0.105316 1 157 -0.105316 1
gene 1 45 26 0.378299 0 158 0.378299 1
gene 1 14 47 -0.726285 0 162 -0.726285 1
gene 1 47 22 0.1533 0 163 0.1533 1
gene 1 10 49 0.0511511 0 171 0.0511511 1
gene 1 49 22 0.209483 0 172 0.209483 1
gene 1 17 49 -0.0916527 0 186 -0.0916527 1
gene 1 3 57 0.11569 0 196 0.11569 1
gene 1 57 23 0.315499 0 197 0.315499 1
genomeend 26
genomestart 25
trait 1 0 0.0376357 0 0 0 0.05534 0 0.388831 
node 1 1 1 1 0
node 2 1 1 1 0
node 3 1 1 1 0
node 4 1 1 1 0
node 5 1 1 1 0
node 6 1 1 1 0
node 7 1 1 1 0
node 8 1 1 1 0
node 9 1 1 1 0
node 10 1 1 1 0
node 11 1 1 1 0
node 12 1 1 1 0
node 13 1 1 1 0
node 14 1 1 1 0
node 15 1 1 1 0
node 16 1 1 1 0
node 17 1 1 1 0
node 18 1 1 1 0
node 19 1 1 3 0
node 20 1 0 2 0
node 21 1 0 2 0
node 22 1 0 2 0
node 23 1 0 2 0
node 26 1 0 0 0
node 34 1 0 0 0
node 45 1 0 0 0
node 47 1 0 0 0
node 49 1 0 0 0
node 57 1 0 0 0
gene 1 1 20 -0.156467 0 1 -0.156467 1
gene 1 2 20 -0.0399637 0 2 -0.0399637 1
gene 1 3 20 -0.658349 0 3 -0.658349 1
gene 1 4 20 -0.127431 0 4 -0.127431 1
gene 1 5 20 1.70934 0 5 1.70934 1
gene 1 6 20 2.1221 0 6 2.1221 1
gene 1 7 20 -0.155167 0 7 -0.155167 1
gene 1 8 20 0.282219 0 8 0.282219 1
gene 1 9 20 -0.0914844 0 9 -0.0914844 1
gene 1 10 20 -0.065537 0 10 -0.065537 1
gene 1 11 20 0.600589 0 11 0.600589 1
gene 1 12 20 0.470191 0 12 0.470191 1
gene 1 13 20 -0.597321 0 13 -0.597321 1
gene 1 14 20 1.59736 0 14 1.59736 1
gene 1 15 20 0.346718 0 15 0.346718 1
gene 1 16 20 2.93713 0 16 2.93713 1
gene 1 17 20 0.0142977 0 17 0.0142977 1
gene 1 18 20 0.0089437 0 18 0.0089437 1
gene 1 19 20 2.91601 0 19 2.91601 1
gene 1 1 21 0.0307084 0 20 0.0307084 1
gene 1 2 21 -0.0088786 0 21 -0.0088786 1
gene 1 3 21 1.22669 0 22 1.22669 1
gene 1 4 21 0.852338 0 23 0.852338 1
gene 1 5 21 -0.0195341 0 24 -0.0195341 1
gene 1 6 21 0.477392 0 25 0.477392 1
gene 1 7 21 0.321543 0 26 0.321543 1
gene 1 8 21 0.157012 0 27 0.157012 1
gene 1 9 21 0.0494351 0 28 0.0494351 1
gene 1 10 21 -0.0950333 0 29 -0.0950333 1
gene 1 11 21 -0.44738 0 30 -0.44738 1
gene 1 12 21 -0.0473577 0 31 -0.0473577 1
gene 1 13 21 -0.0256158 0 32 -0.0256158 1
gene 1 14 21 0.681998 0 33 0.681998 1
gene 1 15 21 1.67344 0 34 1.67344 1
gene 1 16 21 0.0816855 0 35 0.0816855 1
gene 1 17 21 0.223869 0 36 0.223869 1
gene 1 18 21 -0.29335 0 37 -0.29335 1
gene 1 19 21 -0.429032 0 38 -0.429032 1
gene 1 1 22 1.06017 0 39 1.06017 1
gene 1 2 22 0.276131 0 40 0.276131 1
gene 1 3 22 -0.667074 0 41 -0.667074 1
gene 1 4 22 1.0034 0 42 1.0034 1
gene 1 5 22 -0.331791 0 43 -0.331791 1
gene 1 6 22 1.21619 0 44 1.21619 1
gene 1 7 22 -0.0119958 0 45 -0.0119958 1
gene 1 8 22 0.0635756 0 46 0.0635756 1
gene 1 9 22 -1.14755 0 47 -1.14755 0
gene 1 10 22 0.171342 0 48 0.171342 0
gene 1 11 22 -0.537717 0 49 -0.537717 1
gene 1 12 22 -0.0669402 0 50 -0.0669402 1
gene 1 13 22 0.0150325 0 51 0.0150325 1
gene 1 14 22 0.108452 0 52 0.108452 0
gene 1 15 22 -0.143176 0 53 -0.143176 1
gene 1 16 22 0.937717 0 54 0.937717 1
gene 1 17 22 0.905893 0 55 0.905893 1
gene 1 18 22 0.640699 0 56 0.640699 1
gene 1 19 22 0.160022 0 57 0.160022 1
gene 1 1 23 -0.583908 0 58 -0.583908 1
gene 1 2 23 -0.239299 0 59 -0.239299 1
gene 1 3 23 -0.438494 0 60 -0.438494 0
gene 1 4 23 1.1107 0 61 1.1107 1
gene 1 5 23 -0.756694 0 62 -0.756694 1
gene 1 6 23 -0.358274 0 63 -0.358274 1
gene 1 7 23 1.14292 0 64 1.14292 1
gene 1 8 23 -0.644397 0 65 -0.644397 0
gene 1 9 23 -0.0757881 0 66 -0.0757881 1
gene 1 10 23 -0.456648 0 67 -0.456648 1
gene 1 11 23 0.335578 0 68 0.335578 1
gene 1 12 23 -1.2988 0 69 -1.2988 1
gene 1 13 23 -0.0625116 0 70 -0.0625116 1
gene 1 14 23 0.627896 0 71 0.627896 1
gene 1 15 23 0.966856 0 72 0.966856 1
gene 1 16 23 -0.86158 0 73 -0.86158 1
gene 1 17 23 -0.650864 0 74 -0.650864 1
gene 1 18 23 -0.300538 0 75 -0.300538 1
gene 1 19 23 0.0143379 0 76 0.0143379 1
gene 1 8 26 0.114188 0 84 0.114188 1
gene 1 26 23 -2.13826 0 85 -2.13826 1
gene 1 9 34 -0.2054 0 108 -0.2054 1
gene 1 34 22 -0.173972 0 109 -0.173972 1
gene 1 26 26 0.32888 1 134 0.32888 1
gene 1 26 45 -0.105316 1 157 -0.105316 1
gene 1 45 26 0.378299 0 158 0.378299 1
gene 1 14 47 -0.726285 0 162 -0.726285 1
gene 1 47 22 0.1533 0 163 0.1533 1
gene 1 10 49 0.0511511 0 171 0.0511511 1
gene 1 49 22 0.209483 0 172 0.209483 1
gene 1 17 49 -0.0916527 0 186 -0.0916527 1
gene 1 3 57 0.11569 0 196 0.11569 1
gene 1 57 23 0.315499 0 197 0.315499 1
genomeend 25
genomestart 24
trait 1 0 0.0376357 0 0 0 0.05534 0 0.388831 
node 1 1 1 1 0
node 2 1 1 1 0
node 3 1 1 1 0
node 4 1 1 1 0
node 5 1 1 1 0
node 6 1 1 1 0
node 7 1 1 1 0
node 8 1 1 1 0
node 9 1 1 1 0
node 10 1 1 1 0
node 11 1 1 1 0
node 12 1 1 1 0
node 13 1 1 1 0
node 14 1 1 1 0
node 15 1 1 1 0
node 16 1 1 1 0
node 17 1 1 1 0
node 18 1 1 1 0
node 19 1 1 3 0
node 20 1 0 2 0
node 21 1 0 2 0
node 22 1 0 2 0
node 23 1 0 2 0
node 26 1 0 0 0
node 34 1 0 0 0
node 45 1 0 0 0
node 47 1 0 0 0
node 49 1 0 0 0
node 57 1 0 0 0
gene 1 1 20 -0.156467 0 1 -0.156467 1
gene 1 2 20 -0.0399637 0 2 -0.0399637 1
gene 1 3 20 -0.658349 0 3 -0.658349 1
gene 1 4 20 -0.127431 0 4 -0.127431 1
gene 1 5 20 1.70934 0 5 1.70934 1
gene 1 6 20 2.1221 0 6 2.1221 1
gene 1 7 20 -0.155167 0 7 -0.155167 1
gene 1 8 20 0.282219 0 8 0.282219 1
gene 1 9 20 -0.0914844 0 9 -0.0914844 1
gene 1 10 20 -0.065537 0 10 -0.065537 1
gene 1 11 20 0.600589 0 11 0.600589 1
gene 1 12 20 0.470191 0 12 0.470191 1
gene 1 13 20 -0.597321 0 13 -0.597321 1
gene 1 14 20 1.59736 0 14 1.59736 1
gene 1 15 20 0.346718 0 15 0.346718 1
gene 1 16 20 2.93713 0 16 2.93713 1
gene 1 17 20 0.0142977 0 17 0.0142977 1
gene 1 18 20 0.0089437 0 18 0.0089437 1
gene 1 19 20 2.91601 0 19 2.91601 1
gene 1 1 21 0.0307084 0 20 0.0307084 1
gene 1 2 21 -0.0088786 0 21 -0.0088786 1
gene 1 3 21 1.22669 0 22 1.22669 1
gene 1 4 21 0.852338 0 23 0.852338 1
gene 1 5 21 -0.0195341 0 24 -0.0195341 1
gene 1 6 21 0.477392 0 25 0.477392 1
gene 1 7 21 0.321543 0 26 0.321543 1
gene 1 8 21 0.157012 0 27 0.157012 1
gene 1 9 21 0.0494351 0 28 0.0494351 1
gene 1 10 21 -0.0950333 0 29 -0.0950333 1
gene 1 11 21 -0.44738 0 30 -0.44738 1
gene 1 12 21 -0.0473577 0 31 -0.0473577 1
gene 1 13 21 -0.0256158 0 32 -0.0256158 1
gene 1 14 21 0.681998 0 33 0.681998 1
gene 1 15 21 1.67344 0 34 1.67344 1
gene 1 16 21 0.0816855 0 35 0.0816855 1
gene 1 17 21 0.223869 0 36 0.223869 1
gene 1 18 21 -0.29335 0 37 -0.29335 1
gene 1 19 21 -0.429032 0 38 -0.429032 1
gene 1 1 22 1.06017 0 39 1.06017 1
gene 1 2 22 0.276131 0 40 0.276131 1
gene 1 3 22 -0.667074 0 41 -0.667074 1
gene 1 4 22 1.0034 0 42 1.0034 1
gene 1 5 22 -0.331791 0 43 -0.331791 1
gene 1 6 22 1.21619 0 44 1.21619 1
gene 1 7 22 -0.0119958 0 45 -0.0119958 1
gene 1 8 22 0.0635756 0 46 0.0635756 1
gene 1 9 22 -1.14755 0 47 -1.14755 0
gene 1 10 22 0.171342 0 48 0.171342 0
gene 1 11 22 -0.537717 0 49 -0.537717 1
gene 1 12 22 -0.0669402 0 50 -0.0669402 1
gene 1 13 22 0.0150325 0 51 0.0150325 1
gene 1 14 22 0.108452 0 52 0.108452 0
gene 1 15 22 -0.143176 0 53 -0.143176 1
gene 1 16 22 0.937717 0 54 0.937717 1
gene 1 17 22 0.905893 0 55 0.905893 1
gene 1 18 22 0.640699 0 56 0.640699 1
gene 1 19 22 0.160022 0 57 0.160022 1
gene 1 1 23 -0.583908 0 58 -0.583908 1
gene 1 2 23 -0.239299 0 59 -0.239299 1
gene 1 3 23 -0.438494 0 60 -0.438494 0
gene 1 4 23 1.1107 0 61 1.1107 1
gene 1 5 23 -0.756694 0 62 -0.756694 1
gene 1 6 23 -0.358274 0 63 -0.358274 1
gene 1 7 23 1.14292 0 64 1.14292 1
gene 1 8 23 -0.644397 0 65 -0.644397 0
gene 1 9 23 -0.0757881 0 66 -0.0757881 1
gene 1 10 23 -0.456648 0 67 -0.456648 1
gene 1 11 23 0.335578 0 68 0.335578 1
gene 1 12 23 -1.2988 0 69 -1.2988 1
gene 1 13 23 -0.0625116 0 70 -0.0625116 1
gene 1 14 23 0.627896 0 71 0.627896 1
gene 1 15 23 0.966856 0 72 0.966856 1
gene 1 16 23 -0.86158 0 73 -0.86158 1
gene 1 17 23 -0.650864 0 74 -0.650864 1
gene 1 18 23 -0.300538 0 75 -0.300538 1
gene 1 19 23 0.0143379 0 76 0.0143379 1
gene 1 8 26 0.114188 0 84 0.114188 1
gene 1 26 23 -2.13826 0 85 -2.13826 1
gene 1 9 34 -0.2054 0 108 -0.2054 1
gene 1 34 22 -0.173972 0 109 -0.173972 1
gene 1 26 26 0.32888 1 134 0.32888 1
gene 1 26 45 -0.105316 1 157 -0.105316 1
gene 1 45 26 0.378299 0 158 0.378299 1
