genomestart 1573
trait 1 0 0.353847 0.145896 0.103339 0 0 0 0.242799 
node 1 1 1 1 0
node 2 1 1 1 0
node 3 1 1 1 0
node 4 1 1 1 0
node 5 1 1 1 0
node 6 1 1 1 0
node 7 1 1 1 0
node 8 1 1 1 0
node 9 1 1 1 0
node 10 1 1 1 0
node 11 1 1 1 0
node 12 1 1 1 0
node 13 1 1 1 0
node 14 1 1 1 0
node 15 1 1 1 0
node 16 1 1 1 0
node 17 1 1 1 0
node 18 1 1 1 0
node 19 1 1 3 0
node 20 1 0 2 0
node 21 1 0 2 0
node 22 1 0 2 0
node 23 1 0 2 0
node 26 1 0 0 0
node 34 1 0 0 0
node 37 1 0 0 0
gene 1 1 20 -0.751042 0 1 -0.751042 1
gene 1 2 20 -0.0890626 0 2 -0.0890626 1
gene 1 3 20 -0.814933 0 3 -0.814933 1
gene 1 4 20 -0.184431 0 4 -0.184431 1
gene 1 5 20 0.653491 0 5 0.653491 1
gene 1 6 20 -0.0200111 0 6 -0.0200111 1
gene 1 7 20 0.293168 0 7 0.293168 1
gene 1 8 20 0.736711 0 8 0.736711 1
gene 1 9 20 0.129848 0 9 0.129848 1
gene 1 10 20 1.55469 0 10 1.55469 1
gene 1 11 20 0.244628 0 11 0.244628 1
gene 1 12 20 -0.632747 0 12 -0.632747 1
gene 1 13 20 0.307362 0 13 0.307362 1
gene 1 14 20 -0.910066 0 14 -0.910066 1
gene 1 15 20 0.417623 0 15 0.417623 1
gene 1 16 20 -0.22792 0 16 -0.22792 1
gene 1 17 20 -0.302366 0 17 -0.302366 1
gene 1 18 20 0.0373942 0 18 0.0373942 1
gene 1 19 20 1.88411 0 19 1.88411 1
gene 1 1 21 -0.328445 0 20 -0.328445 1
gene 1 2 21 -0.575503 0 21 -0.575503 1
gene 1 3 21 1.44042 0 22 1.44042 1
gene 1 4 21 -0.506733 0 23 -0.506733 1
gene 1 5 21 -0.0319105 0 24 -0.0319105 1
gene 1 6 21 -0.24167 0 25 -0.24167 1
gene 1 7 21 -0.587385 0 26 -0.587385 1
gene 1 8 21 -1.51689 0 27 -1.51689 1
gene 1 9 21 -0.647017 0 28 -0.647017 1
gene 1 10 21 -0.113103 0 29 -0.113103 1
gene 1 11 21 1.06342 0 30 1.06342 1
gene 1 12 21 -0.986601 0 31 -0.986601 1
gene 1 13 21 -0.788505 0 32 -0.788505 1
gene 1 14 21 -0.129882 0 33 -0.129882 1
gene 1 15 21 1.29489 0 34 1.29489 1
gene 1 16 21 -0.954205 0 35 -0.954205 1
gene 1 17 21 0.380073 0 36 0.380073 1
gene 1 18 21 0.0360102 0 37 0.0360102 1
gene 1 19 21 0.401736 0 38 0.401736 1
gene 1 1 22 0.845765 0 39 0.845765 1
gene 1 2 22 0.932689 0 40 0.932689 1
gene 1 3 22 -0.443347 0 41 -0.443347 1
gene 1 4 22 -0.287899 0 42 -0.287899 1
gene 1 5 22 -1.31425 0 43 -1.31425 1
gene 1 6 22 1.19566 0 44 1.19566 1
gene 1 7 22 -0.255855 0 45 -0.255855 1
gene 1 8 22 0.608495 0 46 0.608495 0
gene 1 9 22 0.0221801 0 47 0.0221801 1
gene 1 10 22 0.225733 0 48 0.225733 1
gene 1 11 22 0.211265 0 49 0.211265 1
gene 1 12 22 1.17452 0 50 1.17452 1
gene 1 13 22 0.818501 0 51 0.818501 1
gene 1 14 22 1.26221 0 52 1.26221 1
gene 1 15 22 -0.426282 0 53 -0.426282 1
gene 1 16 22 0.724912 0 54 0.724912 1
gene 1 17 22 -0.639052 0 55 -0.639052 1
gene 1 18 22 0.195243 0 56 0.195243 1
gene 1 19 22 0.259069 0 57 0.259069 1
gene 1 1 23 0.783471 0 58 0.783471 1
gene 1 2 23 0.466097 0 59 0.466097 1
gene 1 3 23 -0.207357 0 60 -0.207357 1
gene 1 4 23 -0.0584159 0 61 -0.0584159 1
gene 1 5 23 -0.579474 0 62 -0.579474 1
gene 1 6 23 0.772434 0 63 0.772434 1
gene 1 7 23 -0.320951 0 64 -0.320951 1
gene 1 8 23 -0.295151 0 65 -0.295151 1
gene 1 9 23 0.281493 0 66 0.281493 1
gene 1 10 23 0.0673642 0 67 0.0673642 1
gene 1 11 23 -0.679581 0 68 -0.679581 1
gene 1 12 23 -0.0385355 0 69 -0.0385355 1
gene 1 13 23 0.824995 0 70 0.824995 1
gene 1 14 23 -0.11416 0 71 -0.11416 1
gene 1 15 23 -0.351605 0 72 -0.351605 1
gene 1 16 23 0.0926372 0 73 0.0926372 1
gene 1 17 23 0.198323 0 74 0.198323 1
gene 1 18 23 0.0945905 0 75 0.0945905 1
gene 1 19 23 0.333247 0 76 0.333247 1
gene 1 8 26 1.4632 0 84 1.4632 1
gene 1 26 22 -0.619655 0 85 -0.619655 1
gene 1 4 26 -0.59403 0 102 -0.59403 1
gene 1 4 34 0.498653 0 113 0.498653 1
gene 1 34 22 -0.106869 0 114 -0.106869 1
gene 1 9 37 1 0 119 0 1
gene 1 37 21 -0.159809 0 120 0 1
gene 1 21 23 1.04694 0 123 1.04694 1
gene 1 14 37 -0.945395 0 165 -0.945395 1
genomeend 1573

genomestart 1573
trait 1 0 0.353847 0.145896 0.103339 0 0 0 0.242799 
node 1 1 1 1 0
node 2 1 1 1 0
node 3 1 1 1 0
node 4 1 1 1 0
node 5 1 1 1 0
node 6 1 1 1 0
node 7 1 1 1 0
node 8 1 1 1 0
node 9 1 1 1 0
node 10 1 1 1 0
node 11 1 1 1 0
node 12 1 1 1 0
node 13 1 1 1 0
node 14 1 1 1 0
node 15 1 1 1 0
node 16 1 1 1 0
node 17 1 1 1 0
node 18 1 1 1 0
node 19 1 1 3 0
node 20 1 0 2 0
node 21 1 0 2 0
node 22 1 0 2 0
node 23 1 0 2 0
node 26 1 0 0 0
node 34 1 0 0 0
node 37 1 0 0 0
gene 1 1 20 -0.751042 0 1 -0.751042 1
gene 1 2 20 -0.0890626 0 2 -0.0890626 1
gene 1 3 20 -0.814933 0 3 -0.814933 1
gene 1 4 20 -0.184431 0 4 -0.184431 1
gene 1 5 20 0.653491 0 5 0.653491 1
gene 1 6 20 -0.0200111 0 6 -0.0200111 1
gene 1 7 20 0.293168 0 7 0.293168 1
gene 1 8 20 0.736711 0 8 0.736711 1
gene 1 9 20 0.129848 0 9 0.129848 1
gene 1 10 20 1.55469 0 10 1.55469 1
gene 1 11 20 0.244628 0 11 0.244628 1
gene 1 12 20 -0.632747 0 12 -0.632747 1
gene 1 13 20 0.307362 0 13 0.307362 1
gene 1 14 20 -0.910066 0 14 -0.910066 1
gene 1 15 20 0.417623 0 15 0.417623 1
gene 1 16 20 -0.22792 0 16 -0.22792 1
gene 1 17 20 -0.302366 0 17 -0.302366 1
gene 1 18 20 0.0373942 0 18 0.0373942 1
gene 1 19 20 1.88411 0 19 1.88411 1
gene 1 1 21 -0.328445 0 20 -0.328445 1
gene 1 2 21 -0.575503 0 21 -0.575503 1
gene 1 3 21 1.44042 0 22 1.44042 1
gene 1 4 21 -0.506733 0 23 -0.506733 1
gene 1 5 21 -0.0319105 0 24 -0.0319105 1
gene 1 6 21 -0.24167 0 25 -0.24167 1
gene 1 7 21 -0.587385 0 26 -0.587385 1
gene 1 8 21 -1.51689 0 27 -1.51689 1
gene 1 9 21 -0.647017 0 28 -0.647017 1
gene 1 10 21 -0.113103 0 29 -0.113103 1
gene 1 11 21 1.06342 0 30 1.06342 1
gene 1 12 21 -0.986601 0 31 -0.986601 1
gene 1 13 21 -0.788505 0 32 -0.788505 1
gene 1 14 21 -0.129882 0 33 -0.129882 1
gene 1 15 21 1.29489 0 34 1.29489 1
gene 1 16 21 -0.954205 0 35 -0.954205 1
gene 1 17 21 0.380073 0 36 0.380073 1
gene 1 18 21 0.0360102 0 37 0.0360102 1
gene 1 19 21 0.401736 0 38 0.401736 1
gene 1 1 22 0.845765 0 39 0.845765 1
gene 1 2 22 0.932689 0 40 0.932689 1
gene 1 3 22 -0.443347 0 41 -0.443347 1
gene 1 4 22 -0.287899 0 42 -0.287899 1
gene 1 5 22 -1.31425 0 43 -1.31425 1
gene 1 6 22 1.19566 0 44 1.19566 1
gene 1 7 22 -0.255855 0 45 -0.255855 1
gene 1 8 22 0.608495 0 46 0.608495 0
gene 1 9 22 0.0221801 0 47 0.0221801 1
gene 1 10 22 0.225733 0 48 0.225733 1
gene 1 11 22 0.211265 0 49 0.211265 1
gene 1 12 22 1.17452 0 50 1.17452 1
gene 1 13 22 0.818501 0 51 0.818501 1
gene 1 14 22 1.26221 0 52 1.26221 1
gene 1 15 22 -0.426282 0 53 -0.426282 1
gene 1 16 22 0.724912 0 54 0.724912 1
gene 1 17 22 -0.639052 0 55 -0.639052 1
gene 1 18 22 0.195243 0 56 0.195243 1
gene 1 19 22 0.259069 0 57 0.259069 1
gene 1 1 23 0.783471 0 58 0.783471 1
gene 1 2 23 0.466097 0 59 0.466097 1
gene 1 3 23 -0.207357 0 60 -0.207357 1
gene 1 4 23 -0.0584159 0 61 -0.0584159 1
gene 1 5 23 -0.579474 0 62 -0.579474 1
gene 1 6 23 0.772434 0 63 0.772434 1
gene 1 7 23 -0.320951 0 64 -0.320951 1
gene 1 8 23 -0.295151 0 65 -0.295151 1
gene 1 9 23 0.281493 0 66 0.281493 1
gene 1 10 23 0.0673642 0 67 0.0673642 1
gene 1 11 23 -0.679581 0 68 -0.679581 1
gene 1 12 23 -0.0385355 0 69 -0.0385355 1
gene 1 13 23 0.824995 0 70 0.824995 1
gene 1 14 23 -0.11416 0 71 -0.11416 1
gene 1 15 23 -0.351605 0 72 -0.351605 1
gene 1 16 23 0.0926372 0 73 0.0926372 1
gene 1 17 23 0.198323 0 74 0.198323 1
gene 1 18 23 0.0945905 0 75 0.0945905 1
gene 1 19 23 0.333247 0 76 0.333247 1
gene 1 8 26 1.4632 0 84 1.4632 1
gene 1 26 22 -0.619655 0 85 -0.619655 1
gene 1 4 26 -0.59403 0 102 -0.59403 1
gene 1 4 34 0.498653 0 113 0.498653 1
gene 1 34 22 -0.106869 0 114 -0.106869 1
gene 1 9 37 1 0 119 0 1
gene 1 37 21 -0.159809 0 120 0 1
gene 1 21 23 1.04694 0 123 1.04694 1
gene 1 14 37 -0.945395 0 165 -0.945395 1
genomeend 1573

genomestart 1573
trait 1 0 0.353847 0.145896 0.103339 0 0 0 0.242799 
node 1 1 1 1 0
node 2 1 1 1 0
node 3 1 1 1 0
node 4 1 1 1 0
node 5 1 1 1 0
node 6 1 1 1 0
node 7 1 1 1 0
node 8 1 1 1 0
node 9 1 1 1 0
node 10 1 1 1 0
node 11 1 1 1 0
node 12 1 1 1 0
node 13 1 1 1 0
node 14 1 1 1 0
node 15 1 1 1 0
node 16 1 1 1 0
node 17 1 1 1 0
node 18 1 1 1 0
node 19 1 1 3 0
node 20 1 0 2 0
node 21 1 0 2 0
node 22 1 0 2 0
node 23 1 0 2 0
node 26 1 0 0 0
node 34 1 0 0 0
node 37 1 0 0 0
gene 1 1 20 -0.751042 0 1 -0.751042 1
gene 1 2 20 -0.0890626 0 2 -0.0890626 1
gene 1 3 20 -0.814933 0 3 -0.814933 1
gene 1 4 20 -0.184431 0 4 -0.184431 1
gene 1 5 20 0.653491 0 5 0.653491 1
gene 1 6 20 -0.0200111 0 6 -0.0200111 1
gene 1 7 20 0.293168 0 7 0.293168 1
gene 1 8 20 0.736711 0 8 0.736711 1
gene 1 9 20 0.129848 0 9 0.129848 1
gene 1 10 20 1.55469 0 10 1.55469 1
gene 1 11 20 0.244628 0 11 0.244628 1
gene 1 12 20 -0.632747 0 12 -0.632747 1
gene 1 13 20 0.307362 0 13 0.307362 1
gene 1 14 20 -0.910066 0 14 -0.910066 1
gene 1 15 20 0.417623 0 15 0.417623 1
gene 1 16 20 -0.22792 0 16 -0.22792 1
gene 1 17 20 -0.302366 0 17 -0.302366 1
gene 1 18 20 0.0373942 0 18 0.0373942 1
gene 1 19 20 1.88411 0 19 1.88411 1
gene 1 1 21 -0.328445 0 20 -0.328445 1
gene 1 2 21 -0.575503 0 21 -0.575503 1
gene 1 3 21 1.44042 0 22 1.44042 1
gene 1 4 21 -0.506733 0 23 -0.506733 1
gene 1 5 21 -0.0319105 0 24 -0.0319105 1
gene 1 6 21 -0.24167 0 25 -0.24167 1
gene 1 7 21 -0.587385 0 26 -0.587385 1
gene 1 8 21 -1.51689 0 27 -1.51689 1
gene 1 9 21 -0.647017 0 28 -0.647017 1
gene 1 10 21 -0.113103 0 29 -0.113103 1
gene 1 11 21 1.06342 0 30 1.06342 1
gene 1 12 21 -0.986601 0 31 -0.986601 1
gene 1 13 21 -0.788505 0 32 -0.788505 1
gene 1 14 21 -0.129882 0 33 -0.129882 1
gene 1 15 21 1.29489 0 34 1.29489 1
gene 1 16 21 -0.954205 0 35 -0.954205 1
gene 1 17 21 0.380073 0 36 0.380073 1
gene 1 18 21 0.0360102 0 37 0.0360102 1
gene 1 19 21 0.401736 0 38 0.401736 1
gene 1 1 22 0.845765 0 39 0.845765 1
gene 1 2 22 0.932689 0 40 0.932689 1
gene 1 3 22 -0.443347 0 41 -0.443347 1
gene 1 4 22 -0.287899 0 42 -0.287899 1
gene 1 5 22 -1.31425 0 43 -1.31425 1
gene 1 6 22 1.19566 0 44 1.19566 1
gene 1 7 22 -0.255855 0 45 -0.255855 1
gene 1 8 22 0.608495 0 46 0.608495 0
gene 1 9 22 0.0221801 0 47 0.0221801 1
gene 1 10 22 0.225733 0 48 0.225733 1
gene 1 11 22 0.211265 0 49 0.211265 1
gene 1 12 22 1.17452 0 50 1.17452 1
gene 1 13 22 0.818501 0 51 0.818501 1
gene 1 14 22 1.26221 0 52 1.26221 1
gene 1 15 22 -0.426282 0 53 -0.426282 1
gene 1 16 22 0.724912 0 54 0.724912 1
gene 1 17 22 -0.639052 0 55 -0.639052 1
gene 1 18 22 0.195243 0 56 0.195243 1
gene 1 19 22 0.259069 0 57 0.259069 1
gene 1 1 23 0.783471 0 58 0.783471 1
gene 1 2 23 0.466097 0 59 0.466097 1
gene 1 3 23 -0.207357 0 60 -0.207357 1
gene 1 4 23 -0.0584159 0 61 -0.0584159 1
gene 1 5 23 -0.579474 0 62 -0.579474 1
gene 1 6 23 0.772434 0 63 0.772434 1
gene 1 7 23 -0.320951 0 64 -0.320951 1
gene 1 8 23 -0.295151 0 65 -0.295151 1
gene 1 9 23 0.281493 0 66 0.281493 1
gene 1 10 23 0.0673642 0 67 0.0673642 1
gene 1 11 23 -0.679581 0 68 -0.679581 1
gene 1 12 23 -0.0385355 0 69 -0.0385355 1
gene 1 13 23 0.824995 0 70 0.824995 1
gene 1 14 23 -0.11416 0 71 -0.11416 1
gene 1 15 23 -0.351605 0 72 -0.351605 1
gene 1 16 23 0.0926372 0 73 0.0926372 1
gene 1 17 23 0.198323 0 74 0.198323 1
gene 1 18 23 0.0945905 0 75 0.0945905 1
gene 1 19 23 0.333247 0 76 0.333247 1
gene 1 8 26 1.4632 0 84 1.4632 1
gene 1 26 22 -0.619655 0 85 -0.619655 1
gene 1 4 26 -0.59403 0 102 -0.59403 1
gene 1 4 34 0.498653 0 113 0.498653 1
gene 1 34 22 -0.106869 0 114 -0.106869 1
gene 1 9 37 1 0 119 0 1
gene 1 37 21 -0.159809 0 120 0 1
gene 1 21 23 1.04694 0 123 1.04694 1
gene 1 14 37 -0.945395 0 165 -0.945395 1
genomeend 1573

genomestart 1573
trait 1 0 0.353847 0.145896 0.103339 0 0 0 0.242799 
node 1 1 1 1 0
node 2 1 1 1 0
node 3 1 1 1 0
node 4 1 1 1 0
node 5 1 1 1 0
node 6 1 1 1 0
node 7 1 1 1 0
node 8 1 1 1 0
node 9 1 1 1 0
node 10 1 1 1 0
node 11 1 1 1 0
node 12 1 1 1 0
node 13 1 1 1 0
node 14 1 1 1 0
node 15 1 1 1 0
node 16 1 1 1 0
node 17 1 1 1 0
node 18 1 1 1 0
node 19 1 1 3 0
node 20 1 0 2 0
node 21 1 0 2 0
node 22 1 0 2 0
node 23 1 0 2 0
node 26 1 0 0 0
node 34 1 0 0 0
node 37 1 0 0 0
gene 1 1 20 -0.751042 0 1 -0.751042 1
gene 1 2 20 -0.0890626 0 2 -0.0890626 1
gene 1 3 20 -0.814933 0 3 -0.814933 1
gene 1 4 20 -0.184431 0 4 -0.184431 1
gene 1 5 20 0.653491 0 5 0.653491 1
gene 1 6 20 -0.0200111 0 6 -0.0200111 1
gene 1 7 20 0.293168 0 7 0.293168 1
gene 1 8 20 0.736711 0 8 0.736711 1
gene 1 9 20 0.129848 0 9 0.129848 1
gene 1 10 20 1.55469 0 10 1.55469 1
gene 1 11 20 0.244628 0 11 0.244628 1
gene 1 12 20 -0.632747 0 12 -0.632747 1
gene 1 13 20 0.307362 0 13 0.307362 1
gene 1 14 20 -0.910066 0 14 -0.910066 1
gene 1 15 20 0.417623 0 15 0.417623 1
gene 1 16 20 -0.22792 0 16 -0.22792 1
gene 1 17 20 -0.302366 0 17 -0.302366 1
gene 1 18 20 0.0373942 0 18 0.0373942 1
gene 1 19 20 1.88411 0 19 1.88411 1
gene 1 1 21 -0.328445 0 20 -0.328445 1
gene 1 2 21 -0.575503 0 21 -0.575503 1
gene 1 3 21 1.44042 0 22 1.44042 1
gene 1 4 21 -0.506733 0 23 -0.506733 1
gene 1 5 21 -0.0319105 0 24 -0.0319105 1
gene 1 6 21 -0.24167 0 25 -0.24167 1
gene 1 7 21 -0.587385 0 26 -0.587385 1
gene 1 8 21 -1.51689 0 27 -1.51689 1
gene 1 9 21 -0.647017 0 28 -0.647017 1
gene 1 10 21 -0.113103 0 29 -0.113103 1
gene 1 11 21 1.06342 0 30 1.06342 1
gene 1 12 21 -0.986601 0 31 -0.986601 1
gene 1 13 21 -0.788505 0 32 -0.788505 1
gene 1 14 21 -0.129882 0 33 -0.129882 1
gene 1 15 21 1.29489 0 34 1.29489 1
gene 1 16 21 -0.954205 0 35 -0.954205 1
gene 1 17 21 0.380073 0 36 0.380073 1
gene 1 18 21 0.0360102 0 37 0.0360102 1
gene 1 19 21 0.401736 0 38 0.401736 1
gene 1 1 22 0.845765 0 39 0.845765 1
gene 1 2 22 0.932689 0 40 0.932689 1
gene 1 3 22 -0.443347 0 41 -0.443347 1
gene 1 4 22 -0.287899 0 42 -0.287899 1
gene 1 5 22 -1.31425 0 43 -1.31425 1
gene 1 6 22 1.19566 0 44 1.19566 1
gene 1 7 22 -0.255855 0 45 -0.255855 1
gene 1 8 22 0.608495 0 46 0.608495 0
gene 1 9 22 0.0221801 0 47 0.0221801 1
gene 1 10 22 0.225733 0 48 0.225733 1
gene 1 11 22 0.211265 0 49 0.211265 1
gene 1 12 22 1.17452 0 50 1.17452 1
gene 1 13 22 0.818501 0 51 0.818501 1
gene 1 14 22 1.26221 0 52 1.26221 1
gene 1 15 22 -0.426282 0 53 -0.426282 1
gene 1 16 22 0.724912 0 54 0.724912 1
gene 1 17 22 -0.639052 0 55 -0.639052 1
gene 1 18 22 0.195243 0 56 0.195243 1
gene 1 19 22 0.259069 0 57 0.259069 1
gene 1 1 23 0.783471 0 58 0.783471 1
gene 1 2 23 0.466097 0 59 0.466097 1
gene 1 3 23 -0.207357 0 60 -0.207357 1
gene 1 4 23 -0.0584159 0 61 -0.0584159 1
gene 1 5 23 -0.579474 0 62 -0.579474 1
gene 1 6 23 0.772434 0 63 0.772434 1
gene 1 7 23 -0.320951 0 64 -0.320951 1
gene 1 8 23 -0.295151 0 65 -0.295151 1
gene 1 9 23 0.281493 0 66 0.281493 1
gene 1 10 23 0.0673642 0 67 0.0673642 1
gene 1 11 23 -0.679581 0 68 -0.679581 1
gene 1 12 23 -0.0385355 0 69 -0.0385355 1
gene 1 13 23 0.824995 0 70 0.824995 1
gene 1 14 23 -0.11416 0 71 -0.11416 1
gene 1 15 23 -0.351605 0 72 -0.351605 1
gene 1 16 23 0.0926372 0 73 0.0926372 1
gene 1 17 23 0.198323 0 74 0.198323 1
gene 1 18 23 0.0945905 0 75 0.0945905 1
gene 1 19 23 0.333247 0 76 0.333247 1
gene 1 8 26 1.4632 0 84 1.4632 1
gene 1 26 22 -0.619655 0 85 -0.619655 1
gene 1 4 26 -0.59403 0 102 -0.59403 1
gene 1 4 34 0.498653 0 113 0.498653 1
gene 1 34 22 -0.106869 0 114 -0.106869 1
gene 1 9 37 1 0 119 0 1
gene 1 37 21 -0.159809 0 120 0 1
gene 1 21 23 1.04694 0 123 1.04694 1
gene 1 14 37 -0.945395 0 165 -0.945395 1
genomeend 1573

genomestart 1573
trait 1 0 0.353847 0.145896 0.103339 0 0 0 0.242799 
node 1 1 1 1 0
node 2 1 1 1 0
node 3 1 1 1 0
node 4 1 1 1 0
node 5 1 1 1 0
node 6 1 1 1 0
node 7 1 1 1 0
node 8 1 1 1 0
node 9 1 1 1 0
node 10 1 1 1 0
node 11 1 1 1 0
node 12 1 1 1 0
node 13 1 1 1 0
node 14 1 1 1 0
node 15 1 1 1 0
node 16 1 1 1 0
node 17 1 1 1 0
node 18 1 1 1 0
node 19 1 1 3 0
node 20 1 0 2 0
node 21 1 0 2 0
node 22 1 0 2 0
node 23 1 0 2 0
node 26 1 0 0 0
node 34 1 0 0 0
node 37 1 0 0 0
gene 1 1 20 -0.751042 0 1 -0.751042 1
gene 1 2 20 -0.0890626 0 2 -0.0890626 1
gene 1 3 20 -0.814933 0 3 -0.814933 1
gene 1 4 20 -0.184431 0 4 -0.184431 1
gene 1 5 20 0.653491 0 5 0.653491 1
gene 1 6 20 -0.0200111 0 6 -0.0200111 1
gene 1 7 20 0.293168 0 7 0.293168 1
gene 1 8 20 0.736711 0 8 0.736711 1
gene 1 9 20 0.129848 0 9 0.129848 1
gene 1 10 20 1.55469 0 10 1.55469 1
gene 1 11 20 0.244628 0 11 0.244628 1
gene 1 12 20 -0.632747 0 12 -0.632747 1
gene 1 13 20 0.307362 0 13 0.307362 1
gene 1 14 20 -0.910066 0 14 -0.910066 1
gene 1 15 20 0.417623 0 15 0.417623 1
gene 1 16 20 -0.22792 0 16 -0.22792 1
gene 1 17 20 -0.302366 0 17 -0.302366 1
gene 1 18 20 0.0373942 0 18 0.0373942 1
gene 1 19 20 1.88411 0 19 1.88411 1
gene 1 1 21 -0.328445 0 20 -0.328445 1
gene 1 2 21 -0.575503 0 21 -0.575503 1
gene 1 3 21 1.44042 0 22 1.44042 1
gene 1 4 21 -0.506733 0 23 -0.506733 1
gene 1 5 21 -0.0319105 0 24 -0.0319105 1
gene 1 6 21 -0.24167 0 25 -0.24167 1
gene 1 7 21 -0.587385 0 26 -0.587385 1
gene 1 8 21 -1.51689 0 27 -1.51689 1
gene 1 9 21 -0.647017 0 28 -0.647017 1
gene 1 10 21 -0.113103 0 29 -0.113103 1
gene 1 11 21 1.06342 0 30 1.06342 1
gene 1 12 21 -0.986601 0 31 -0.986601 1
gene 1 13 21 -0.788505 0 32 -0.788505 1
gene 1 14 21 -0.129882 0 33 -0.129882 1
gene 1 15 21 1.29489 0 34 1.29489 1
gene 1 16 21 -0.954205 0 35 -0.954205 1
gene 1 17 21 0.380073 0 36 0.380073 1
gene 1 18 21 0.0360102 0 37 0.0360102 1
gene 1 19 21 0.401736 0 38 0.401736 1
gene 1 1 22 0.845765 0 39 0.845765 1
gene 1 2 22 0.932689 0 40 0.932689 1
gene 1 3 22 -0.443347 0 41 -0.443347 1
gene 1 4 22 -0.287899 0 42 -0.287899 1
gene 1 5 22 -1.31425 0 43 -1.31425 1
gene 1 6 22 1.19566 0 44 1.19566 1
gene 1 7 22 -0.255855 0 45 -0.255855 1
gene 1 8 22 0.608495 0 46 0.608495 0
gene 1 9 22 0.0221801 0 47 0.0221801 1
gene 1 10 22 0.225733 0 48 0.225733 1
gene 1 11 22 0.211265 0 49 0.211265 1
gene 1 12 22 1.17452 0 50 1.17452 1
gene 1 13 22 0.818501 0 51 0.818501 1
gene 1 14 22 1.26221 0 52 1.26221 1
gene 1 15 22 -0.426282 0 53 -0.426282 1
gene 1 16 22 0.724912 0 54 0.724912 1
gene 1 17 22 -0.639052 0 55 -0.639052 1
gene 1 18 22 0.195243 0 56 0.195243 1
gene 1 19 22 0.259069 0 57 0.259069 1
gene 1 1 23 0.783471 0 58 0.783471 1
gene 1 2 23 0.466097 0 59 0.466097 1
gene 1 3 23 -0.207357 0 60 -0.207357 1
gene 1 4 23 -0.0584159 0 61 -0.0584159 1
gene 1 5 23 -0.579474 0 62 -0.579474 1
gene 1 6 23 0.772434 0 63 0.772434 1
gene 1 7 23 -0.320951 0 64 -0.320951 1
gene 1 8 23 -0.295151 0 65 -0.295151 1
gene 1 9 23 0.281493 0 66 0.281493 1
gene 1 10 23 0.0673642 0 67 0.0673642 1
gene 1 11 23 -0.679581 0 68 -0.679581 1
gene 1 12 23 -0.0385355 0 69 -0.0385355 1
gene 1 13 23 0.824995 0 70 0.824995 1
gene 1 14 23 -0.11416 0 71 -0.11416 1
gene 1 15 23 -0.351605 0 72 -0.351605 1
gene 1 16 23 0.0926372 0 73 0.0926372 1
gene 1 17 23 0.198323 0 74 0.198323 1
gene 1 18 23 0.0945905 0 75 0.0945905 1
gene 1 19 23 0.333247 0 76 0.333247 1
gene 1 8 26 1.4632 0 84 1.4632 1
gene 1 26 22 -0.619655 0 85 -0.619655 1
gene 1 4 26 -0.59403 0 102 -0.59403 1
gene 1 4 34 0.498653 0 113 0.498653 1
gene 1 34 22 -0.106869 0 114 -0.106869 1
gene 1 9 37 1 0 119 0 1
gene 1 37 21 -0.159809 0 120 0 1
gene 1 21 23 1.04694 0 123 1.04694 1
gene 1 14 37 -0.945395 0 165 -0.945395 1
genomeend 1573

genomestart 1573
trait 1 0 0.353847 0.145896 0.103339 0 0 0 0.242799 
node 1 1 1 1 0
node 2 1 1 1 0
node 3 1 1 1 0
node 4 1 1 1 0
node 5 1 1 1 0
node 6 1 1 1 0
node 7 1 1 1 0
node 8 1 1 1 0
node 9 1 1 1 0
node 10 1 1 1 0
node 11 1 1 1 0
node 12 1 1 1 0
node 13 1 1 1 0
node 14 1 1 1 0
node 15 1 1 1 0
node 16 1 1 1 0
node 17 1 1 1 0
node 18 1 1 1 0
node 19 1 1 3 0
node 20 1 0 2 0
node 21 1 0 2 0
node 22 1 0 2 0
node 23 1 0 2 0
node 26 1 0 0 0
node 34 1 0 0 0
node 37 1 0 0 0
gene 1 1 20 -0.751042 0 1 -0.751042 1
gene 1 2 20 -0.0890626 0 2 -0.0890626 1
gene 1 3 20 -0.814933 0 3 -0.814933 1
gene 1 4 20 -0.184431 0 4 -0.184431 1
gene 1 5 20 0.653491 0 5 0.653491 1
gene 1 6 20 -0.0200111 0 6 -0.0200111 1
gene 1 7 20 0.293168 0 7 0.293168 1
gene 1 8 20 0.736711 0 8 0.736711 1
gene 1 9 20 0.129848 0 9 0.129848 1
gene 1 10 20 1.55469 0 10 1.55469 1
gene 1 11 20 0.244628 0 11 0.244628 1
gene 1 12 20 -0.632747 0 12 -0.632747 1
gene 1 13 20 0.307362 0 13 0.307362 1
gene 1 14 20 -0.910066 0 14 -0.910066 1
gene 1 15 20 0.417623 0 15 0.417623 1
gene 1 16 20 -0.22792 0 16 -0.22792 1
gene 1 17 20 -0.302366 0 17 -0.302366 1
gene 1 18 20 0.0373942 0 18 0.0373942 1
gene 1 19 20 1.88411 0 19 1.88411 1
gene 1 1 21 -0.328445 0 20 -0.328445 1
gene 1 2 21 -0.575503 0 21 -0.575503 1
gene 1 3 21 1.44042 0 22 1.44042 1
gene 1 4 21 -0.506733 0 23 -0.506733 1
gene 1 5 21 -0.0319105 0 24 -0.0319105 1
gene 1 6 21 -0.24167 0 25 -0.24167 1
gene 1 7 21 -0.587385 0 26 -0.587385 1
gene 1 8 21 -1.51689 0 27 -1.51689 1
gene 1 9 21 -0.647017 0 28 -0.647017 1
gene 1 10 21 -0.113103 0 29 -0.113103 1
gene 1 11 21 1.06342 0 30 1.06342 1
gene 1 12 21 -0.986601 0 31 -0.986601 1
gene 1 13 21 -0.788505 0 32 -0.788505 1
gene 1 14 21 -0.129882 0 33 -0.129882 1
gene 1 15 21 1.29489 0 34 1.29489 1
gene 1 16 21 -0.954205 0 35 -0.954205 1
gene 1 17 21 0.380073 0 36 0.380073 1
gene 1 18 21 0.0360102 0 37 0.0360102 1
gene 1 19 21 0.401736 0 38 0.401736 1
gene 1 1 22 0.845765 0 39 0.845765 1
gene 1 2 22 0.932689 0 40 0.932689 1
gene 1 3 22 -0.443347 0 41 -0.443347 1
gene 1 4 22 -0.287899 0 42 -0.287899 1
gene 1 5 22 -1.31425 0 43 -1.31425 1
gene 1 6 22 1.19566 0 44 1.19566 1
gene 1 7 22 -0.255855 0 45 -0.255855 1
gene 1 8 22 0.608495 0 46 0.608495 0
gene 1 9 22 0.0221801 0 47 0.0221801 1
gene 1 10 22 0.225733 0 48 0.225733 1
gene 1 11 22 0.211265 0 49 0.211265 1
gene 1 12 22 1.17452 0 50 1.17452 1
gene 1 13 22 0.818501 0 51 0.818501 1
gene 1 14 22 1.26221 0 52 1.26221 1
gene 1 15 22 -0.426282 0 53 -0.426282 1
gene 1 16 22 0.724912 0 54 0.724912 1
gene 1 17 22 -0.639052 0 55 -0.639052 1
gene 1 18 22 0.195243 0 56 0.195243 1
gene 1 19 22 0.259069 0 57 0.259069 1
gene 1 1 23 0.783471 0 58 0.783471 1
gene 1 2 23 0.466097 0 59 0.466097 1
gene 1 3 23 -0.207357 0 60 -0.207357 1
gene 1 4 23 -0.0584159 0 61 -0.0584159 1
gene 1 5 23 -0.579474 0 62 -0.579474 1
gene 1 6 23 0.772434 0 63 0.772434 1
gene 1 7 23 -0.320951 0 64 -0.320951 1
gene 1 8 23 -0.295151 0 65 -0.295151 1
gene 1 9 23 0.281493 0 66 0.281493 1
gene 1 10 23 0.0673642 0 67 0.0673642 1
gene 1 11 23 -0.679581 0 68 -0.679581 1
gene 1 12 23 -0.0385355 0 69 -0.0385355 1
gene 1 13 23 0.824995 0 70 0.824995 1
gene 1 14 23 -0.11416 0 71 -0.11416 1
gene 1 15 23 -0.351605 0 72 -0.351605 1
gene 1 16 23 0.0926372 0 73 0.0926372 1
gene 1 17 23 0.198323 0 74 0.198323 1
gene 1 18 23 0.0945905 0 75 0.0945905 1
gene 1 19 23 0.333247 0 76 0.333247 1
gene 1 8 26 1.4632 0 84 1.4632 1
gene 1 26 22 -0.619655 0 85 -0.619655 1
gene 1 4 26 -0.59403 0 102 -0.59403 1
gene 1 4 34 0.498653 0 113 0.498653 1
gene 1 34 22 -0.106869 0 114 -0.106869 1
gene 1 9 37 1 0 119 0 1
gene 1 37 21 -0.159809 0 120 0 1
gene 1 21 23 1.04694 0 123 1.04694 1
gene 1 14 37 -0.945395 0 165 -0.945395 1
genomeend 1573

genomestart 1573
trait 1 0 0.353847 0.145896 0.103339 0 0 0 0.242799 
node 1 1 1 1 0
node 2 1 1 1 0
node 3 1 1 1 0
node 4 1 1 1 0
node 5 1 1 1 0
node 6 1 1 1 0
node 7 1 1 1 0
node 8 1 1 1 0
node 9 1 1 1 0
node 10 1 1 1 0
node 11 1 1 1 0
node 12 1 1 1 0
node 13 1 1 1 0
node 14 1 1 1 0
node 15 1 1 1 0
node 16 1 1 1 0
node 17 1 1 1 0
node 18 1 1 1 0
node 19 1 1 3 0
node 20 1 0 2 0
node 21 1 0 2 0
node 22 1 0 2 0
node 23 1 0 2 0
node 26 1 0 0 0
node 34 1 0 0 0
node 37 1 0 0 0
gene 1 1 20 -0.751042 0 1 -0.751042 1
gene 1 2 20 -0.0890626 0 2 -0.0890626 1
gene 1 3 20 -0.814933 0 3 -0.814933 1
gene 1 4 20 -0.184431 0 4 -0.184431 1
gene 1 5 20 0.653491 0 5 0.653491 1
gene 1 6 20 -0.0200111 0 6 -0.0200111 1
gene 1 7 20 0.293168 0 7 0.293168 1
gene 1 8 20 0.736711 0 8 0.736711 1
gene 1 9 20 0.129848 0 9 0.129848 1
gene 1 10 20 1.55469 0 10 1.55469 1
gene 1 11 20 0.244628 0 11 0.244628 1
gene 1 12 20 -0.632747 0 12 -0.632747 1
gene 1 13 20 0.307362 0 13 0.307362 1
gene 1 14 20 -0.910066 0 14 -0.910066 1
gene 1 15 20 0.417623 0 15 0.417623 1
gene 1 16 20 -0.22792 0 16 -0.22792 1
gene 1 17 20 -0.302366 0 17 -0.302366 1
gene 1 18 20 0.0373942 0 18 0.0373942 1
gene 1 19 20 1.88411 0 19 1.88411 1
gene 1 1 21 -0.328445 0 20 -0.328445 1
gene 1 2 21 -0.575503 0 21 -0.575503 1
gene 1 3 21 1.44042 0 22 1.44042 1
gene 1 4 21 -0.506733 0 23 -0.506733 1
gene 1 5 21 -0.0319105 0 24 -0.0319105 1
gene 1 6 21 -0.24167 0 25 -0.24167 1
gene 1 7 21 -0.587385 0 26 -0.587385 1
gene 1 8 21 -1.51689 0 27 -1.51689 1
gene 1 9 21 -0.647017 0 28 -0.647017 1
gene 1 10 21 -0.113103 0 29 -0.113103 1
gene 1 11 21 1.06342 0 30 1.06342 1
gene 1 12 21 -0.986601 0 31 -0.986601 1
gene 1 13 21 -0.788505 0 32 -0.788505 1
gene 1 14 21 -0.129882 0 33 -0.129882 1
gene 1 15 21 1.29489 0 34 1.29489 1
gene 1 16 21 -0.954205 0 35 -0.954205 1
gene 1 17 21 0.380073 0 36 0.380073 1
gene 1 18 21 0.0360102 0 37 0.0360102 1
gene 1 19 21 0.401736 0 38 0.401736 1
gene 1 1 22 0.845765 0 39 0.845765 1
gene 1 2 22 0.932689 0 40 0.932689 1
gene 1 3 22 -0.443347 0 41 -0.443347 1
gene 1 4 22 -0.287899 0 42 -0.287899 1
gene 1 5 22 -1.31425 0 43 -1.31425 1
gene 1 6 22 1.19566 0 44 1.19566 1
gene 1 7 22 -0.255855 0 45 -0.255855 1
gene 1 8 22 0.608495 0 46 0.608495 0
gene 1 9 22 0.0221801 0 47 0.0221801 1
gene 1 10 22 0.225733 0 48 0.225733 1
gene 1 11 22 0.211265 0 49 0.211265 1
gene 1 12 22 1.17452 0 50 1.17452 1
gene 1 13 22 0.818501 0 51 0.818501 1
gene 1 14 22 1.26221 0 52 1.26221 1
gene 1 15 22 -0.426282 0 53 -0.426282 1
gene 1 16 22 0.724912 0 54 0.724912 1
gene 1 17 22 -0.639052 0 55 -0.639052 1
gene 1 18 22 0.195243 0 56 0.195243 1
gene 1 19 22 0.259069 0 57 0.259069 1
gene 1 1 23 0.783471 0 58 0.783471 1
gene 1 2 23 0.466097 0 59 0.466097 1
gene 1 3 23 -0.207357 0 60 -0.207357 1
gene 1 4 23 -0.0584159 0 61 -0.0584159 1
gene 1 5 23 -0.579474 0 62 -0.579474 1
gene 1 6 23 0.772434 0 63 0.772434 1
gene 1 7 23 -0.320951 0 64 -0.320951 1
gene 1 8 23 -0.295151 0 65 -0.295151 1
gene 1 9 23 0.281493 0 66 0.281493 1
gene 1 10 23 0.0673642 0 67 0.0673642 1
gene 1 11 23 -0.679581 0 68 -0.679581 1
gene 1 12 23 -0.0385355 0 69 -0.0385355 1
gene 1 13 23 0.824995 0 70 0.824995 1
gene 1 14 23 -0.11416 0 71 -0.11416 1
gene 1 15 23 -0.351605 0 72 -0.351605 1
gene 1 16 23 0.0926372 0 73 0.0926372 1
gene 1 17 23 0.198323 0 74 0.198323 1
gene 1 18 23 0.0945905 0 75 0.0945905 1
gene 1 19 23 0.333247 0 76 0.333247 1
gene 1 8 26 1.4632 0 84 1.4632 1
gene 1 26 22 -0.619655 0 85 -0.619655 1
gene 1 4 26 -0.59403 0 102 -0.59403 1
gene 1 4 34 0.498653 0 113 0.498653 1
gene 1 34 22 -0.106869 0 114 -0.106869 1
gene 1 9 37 1 0 119 0 1
gene 1 37 21 -0.159809 0 120 0 1
gene 1 21 23 1.04694 0 123 1.04694 1
gene 1 14 37 -0.945395 0 165 -0.945395 1
genomeend 1573

genomestart 1573
trait 1 0 0.353847 0.145896 0.103339 0 0 0 0.242799 
node 1 1 1 1 0
node 2 1 1 1 0
node 3 1 1 1 0
node 4 1 1 1 0
node 5 1 1 1 0
node 6 1 1 1 0
node 7 1 1 1 0
node 8 1 1 1 0
node 9 1 1 1 0
node 10 1 1 1 0
node 11 1 1 1 0
node 12 1 1 1 0
node 13 1 1 1 0
node 14 1 1 1 0
node 15 1 1 1 0
node 16 1 1 1 0
node 17 1 1 1 0
node 18 1 1 1 0
node 19 1 1 3 0
node 20 1 0 2 0
node 21 1 0 2 0
node 22 1 0 2 0
node 23 1 0 2 0
node 26 1 0 0 0
node 34 1 0 0 0
node 37 1 0 0 0
gene 1 1 20 -0.751042 0 1 -0.751042 1
gene 1 2 20 -0.0890626 0 2 -0.0890626 1
gene 1 3 20 -0.814933 0 3 -0.814933 1
gene 1 4 20 -0.184431 0 4 -0.184431 1
gene 1 5 20 0.653491 0 5 0.653491 1
gene 1 6 20 -0.0200111 0 6 -0.0200111 1
gene 1 7 20 0.293168 0 7 0.293168 1
gene 1 8 20 0.736711 0 8 0.736711 1
gene 1 9 20 0.129848 0 9 0.129848 1
gene 1 10 20 1.55469 0 10 1.55469 1
gene 1 11 20 0.244628 0 11 0.244628 1
gene 1 12 20 -0.632747 0 12 -0.632747 1
gene 1 13 20 0.307362 0 13 0.307362 1
gene 1 14 20 -0.910066 0 14 -0.910066 1
gene 1 15 20 0.417623 0 15 0.417623 1
gene 1 16 20 -0.22792 0 16 -0.22792 1
gene 1 17 20 -0.302366 0 17 -0.302366 1
gene 1 18 20 0.0373942 0 18 0.0373942 1
gene 1 19 20 1.88411 0 19 1.88411 1
gene 1 1 21 -0.328445 0 20 -0.328445 1
gene 1 2 21 -0.575503 0 21 -0.575503 1
gene 1 3 21 1.44042 0 22 1.44042 1
gene 1 4 21 -0.506733 0 23 -0.506733 1
gene 1 5 21 -0.0319105 0 24 -0.0319105 1
gene 1 6 21 -0.24167 0 25 -0.24167 1
gene 1 7 21 -0.587385 0 26 -0.587385 1
gene 1 8 21 -1.51689 0 27 -1.51689 1
gene 1 9 21 -0.647017 0 28 -0.647017 1
gene 1 10 21 -0.113103 0 29 -0.113103 1
gene 1 11 21 1.06342 0 30 1.06342 1
gene 1 12 21 -0.986601 0 31 -0.986601 1
gene 1 13 21 -0.788505 0 32 -0.788505 1
gene 1 14 21 -0.129882 0 33 -0.129882 1
gene 1 15 21 1.29489 0 34 1.29489 1
gene 1 16 21 -0.954205 0 35 -0.954205 1
gene 1 17 21 0.380073 0 36 0.380073 1
gene 1 18 21 0.0360102 0 37 0.0360102 1
gene 1 19 21 0.401736 0 38 0.401736 1
gene 1 1 22 0.845765 0 39 0.845765 1
gene 1 2 22 0.932689 0 40 0.932689 1
gene 1 3 22 -0.443347 0 41 -0.443347 1
gene 1 4 22 -0.287899 0 42 -0.287899 1
gene 1 5 22 -1.31425 0 43 -1.31425 1
gene 1 6 22 1.19566 0 44 1.19566 1
gene 1 7 22 -0.255855 0 45 -0.255855 1
gene 1 8 22 0.608495 0 46 0.608495 0
gene 1 9 22 0.0221801 0 47 0.0221801 1
gene 1 10 22 0.225733 0 48 0.225733 1
gene 1 11 22 0.211265 0 49 0.211265 1
gene 1 12 22 1.17452 0 50 1.17452 1
gene 1 13 22 0.818501 0 51 0.818501 1
gene 1 14 22 1.26221 0 52 1.26221 1
gene 1 15 22 -0.426282 0 53 -0.426282 1
gene 1 16 22 0.724912 0 54 0.724912 1
gene 1 17 22 -0.639052 0 55 -0.639052 1
gene 1 18 22 0.195243 0 56 0.195243 1
gene 1 19 22 0.259069 0 57 0.259069 1
gene 1 1 23 0.783471 0 58 0.783471 1
gene 1 2 23 0.466097 0 59 0.466097 1
gene 1 3 23 -0.207357 0 60 -0.207357 1
gene 1 4 23 -0.0584159 0 61 -0.0584159 1
gene 1 5 23 -0.579474 0 62 -0.579474 1
gene 1 6 23 0.772434 0 63 0.772434 1
gene 1 7 23 -0.320951 0 64 -0.320951 1
gene 1 8 23 -0.295151 0 65 -0.295151 1
gene 1 9 23 0.281493 0 66 0.281493 1
gene 1 10 23 0.0673642 0 67 0.0673642 1
gene 1 11 23 -0.679581 0 68 -0.679581 1
gene 1 12 23 -0.0385355 0 69 -0.0385355 1
gene 1 13 23 0.824995 0 70 0.824995 1
gene 1 14 23 -0.11416 0 71 -0.11416 1
gene 1 15 23 -0.351605 0 72 -0.351605 1
gene 1 16 23 0.0926372 0 73 0.0926372 1
gene 1 17 23 0.198323 0 74 0.198323 1
gene 1 18 23 0.0945905 0 75 0.0945905 1
gene 1 19 23 0.333247 0 76 0.333247 1
gene 1 8 26 1.4632 0 84 1.4632 1
gene 1 26 22 -0.619655 0 85 -0.619655 1
gene 1 4 26 -0.59403 0 102 -0.59403 1
gene 1 4 34 0.498653 0 113 0.498653 1
gene 1 34 22 -0.106869 0 114 -0.106869 1
gene 1 9 37 1 0 119 0 1
gene 1 37 21 -0.159809 0 120 0 1
gene 1 21 23 1.04694 0 123 1.04694 1
gene 1 14 37 -0.945395 0 165 -0.945395 1
genomeend 1573

genomestart 1573
trait 1 0 0.353847 0.145896 0.103339 0 0 0 0.242799 
node 1 1 1 1 0
node 2 1 1 1 0
node 3 1 1 1 0
node 4 1 1 1 0
node 5 1 1 1 0
node 6 1 1 1 0
node 7 1 1 1 0
node 8 1 1 1 0
node 9 1 1 1 0
node 10 1 1 1 0
node 11 1 1 1 0
node 12 1 1 1 0
node 13 1 1 1 0
node 14 1 1 1 0
node 15 1 1 1 0
node 16 1 1 1 0
node 17 1 1 1 0
node 18 1 1 1 0
node 19 1 1 3 0
node 20 1 0 2 0
node 21 1 0 2 0
node 22 1 0 2 0
node 23 1 0 2 0
node 26 1 0 0 0
node 34 1 0 0 0
node 37 1 0 0 0
gene 1 1 20 -0.751042 0 1 -0.751042 1
gene 1 2 20 -0.0890626 0 2 -0.0890626 1
gene 1 3 20 -0.814933 0 3 -0.814933 1
gene 1 4 20 -0.184431 0 4 -0.184431 1
gene 1 5 20 0.653491 0 5 0.653491 1
gene 1 6 20 -0.0200111 0 6 -0.0200111 1
gene 1 7 20 0.293168 0 7 0.293168 1
gene 1 8 20 0.736711 0 8 0.736711 1
gene 1 9 20 0.129848 0 9 0.129848 1
gene 1 10 20 1.55469 0 10 1.55469 1
gene 1 11 20 0.244628 0 11 0.244628 1
gene 1 12 20 -0.632747 0 12 -0.632747 1
gene 1 13 20 0.307362 0 13 0.307362 1
gene 1 14 20 -0.910066 0 14 -0.910066 1
gene 1 15 20 0.417623 0 15 0.417623 1
gene 1 16 20 -0.22792 0 16 -0.22792 1
gene 1 17 20 -0.302366 0 17 -0.302366 1
gene 1 18 20 0.0373942 0 18 0.0373942 1
gene 1 19 20 1.88411 0 19 1.88411 1
gene 1 1 21 -0.328445 0 20 -0.328445 1
gene 1 2 21 -0.575503 0 21 -0.575503 1
gene 1 3 21 1.44042 0 22 1.44042 1
gene 1 4 21 -0.506733 0 23 -0.506733 1
gene 1 5 21 -0.0319105 0 24 -0.0319105 1
gene 1 6 21 -0.24167 0 25 -0.24167 1
gene 1 7 21 -0.587385 0 26 -0.587385 1
gene 1 8 21 -1.51689 0 27 -1.51689 1
gene 1 9 21 -0.647017 0 28 -0.647017 1
gene 1 10 21 -0.113103 0 29 -0.113103 1
gene 1 11 21 1.06342 0 30 1.06342 1
gene 1 12 21 -0.986601 0 31 -0.986601 1
gene 1 13 21 -0.788505 0 32 -0.788505 1
gene 1 14 21 -0.129882 0 33 -0.129882 1
gene 1 15 21 1.29489 0 34 1.29489 1
gene 1 16 21 -0.954205 0 35 -0.954205 1
gene 1 17 21 0.380073 0 36 0.380073 1
gene 1 18 21 0.0360102 0 37 0.0360102 1
gene 1 19 21 0.401736 0 38 0.401736 1
gene 1 1 22 0.845765 0 39 0.845765 1
gene 1 2 22 0.932689 0 40 0.932689 1
gene 1 3 22 -0.443347 0 41 -0.443347 1
gene 1 4 22 -0.287899 0 42 -0.287899 1
gene 1 5 22 -1.31425 0 43 -1.31425 1
gene 1 6 22 1.19566 0 44 1.19566 1
gene 1 7 22 -0.255855 0 45 -0.255855 1
gene 1 8 22 0.608495 0 46 0.608495 0
gene 1 9 22 0.0221801 0 47 0.0221801 1
gene 1 10 22 0.225733 0 48 0.225733 1
gene 1 11 22 0.211265 0 49 0.211265 1
gene 1 12 22 1.17452 0 50 1.17452 1
gene 1 13 22 0.818501 0 51 0.818501 1
gene 1 14 22 1.26221 0 52 1.26221 1
gene 1 15 22 -0.426282 0 53 -0.426282 1
gene 1 16 22 0.724912 0 54 0.724912 1
gene 1 17 22 -0.639052 0 55 -0.639052 1
gene 1 18 22 0.195243 0 56 0.195243 1
gene 1 19 22 0.259069 0 57 0.259069 1
gene 1 1 23 0.783471 0 58 0.783471 1
gene 1 2 23 0.466097 0 59 0.466097 1
gene 1 3 23 -0.207357 0 60 -0.207357 1
gene 1 4 23 -0.0584159 0 61 -0.0584159 1
gene 1 5 23 -0.579474 0 62 -0.579474 1
gene 1 6 23 0.772434 0 63 0.772434 1
gene 1 7 23 -0.320951 0 64 -0.320951 1
gene 1 8 23 -0.295151 0 65 -0.295151 1
gene 1 9 23 0.281493 0 66 0.281493 1
gene 1 10 23 0.0673642 0 67 0.0673642 1
gene 1 11 23 -0.679581 0 68 -0.679581 1
gene 1 12 23 -0.0385355 0 69 -0.0385355 1
gene 1 13 23 0.824995 0 70 0.824995 1
gene 1 14 23 -0.11416 0 71 -0.11416 1
gene 1 15 23 -0.351605 0 72 -0.351605 1
gene 1 16 23 0.0926372 0 73 0.0926372 1
gene 1 17 23 0.198323 0 74 0.198323 1
gene 1 18 23 0.0945905 0 75 0.0945905 1
gene 1 19 23 0.333247 0 76 0.333247 1
gene 1 8 26 1.4632 0 84 1.4632 1
gene 1 26 22 -0.619655 0 85 -0.619655 1
gene 1 4 26 -0.59403 0 102 -0.59403 1
gene 1 4 34 0.498653 0 113 0.498653 1
gene 1 34 22 -0.106869 0 114 -0.106869 1
gene 1 9 37 1 0 119 0 1
gene 1 37 21 -0.159809 0 120 0 1
gene 1 21 23 1.04694 0 123 1.04694 1
gene 1 14 37 -0.945395 0 165 -0.945395 1
genomeend 1573

genomestart 1573
trait 1 0 0.353847 0.145896 0.103339 0 0 0 0.242799 
node 1 1 1 1 0
node 2 1 1 1 0
node 3 1 1 1 0
node 4 1 1 1 0
node 5 1 1 1 0
node 6 1 1 1 0
node 7 1 1 1 0
node 8 1 1 1 0
node 9 1 1 1 0
node 10 1 1 1 0
node 11 1 1 1 0
node 12 1 1 1 0
node 13 1 1 1 0
node 14 1 1 1 0
node 15 1 1 1 0
node 16 1 1 1 0
node 17 1 1 1 0
node 18 1 1 1 0
node 19 1 1 3 0
node 20 1 0 2 0
node 21 1 0 2 0
node 22 1 0 2 0
node 23 1 0 2 0
node 26 1 0 0 0
node 34 1 0 0 0
node 37 1 0 0 0
gene 1 1 20 -0.751042 0 1 -0.751042 1
gene 1 2 20 -0.0890626 0 2 -0.0890626 1
gene 1 3 20 -0.814933 0 3 -0.814933 1
gene 1 4 20 -0.184431 0 4 -0.184431 1
gene 1 5 20 0.653491 0 5 0.653491 1
gene 1 6 20 -0.0200111 0 6 -0.0200111 1
gene 1 7 20 0.293168 0 7 0.293168 1
gene 1 8 20 0.736711 0 8 0.736711 1
gene 1 9 20 0.129848 0 9 0.129848 1
gene 1 10 20 1.55469 0 10 1.55469 1
gene 1 11 20 0.244628 0 11 0.244628 1
gene 1 12 20 -0.632747 0 12 -0.632747 1
gene 1 13 20 0.307362 0 13 0.307362 1
gene 1 14 20 -0.910066 0 14 -0.910066 1
gene 1 15 20 0.417623 0 15 0.417623 1
gene 1 16 20 -0.22792 0 16 -0.22792 1
gene 1 17 20 -0.302366 0 17 -0.302366 1
gene 1 18 20 0.0373942 0 18 0.0373942 1
gene 1 19 20 1.88411 0 19 1.88411 1
gene 1 1 21 -0.328445 0 20 -0.328445 1
gene 1 2 21 -0.575503 0 21 -0.575503 1
gene 1 3 21 1.44042 0 22 1.44042 1
gene 1 4 21 -0.506733 0 23 -0.506733 1
gene 1 5 21 -0.0319105 0 24 -0.0319105 1
gene 1 6 21 -0.24167 0 25 -0.24167 1
gene 1 7 21 -0.587385 0 26 -0.587385 1
gene 1 8 21 -1.51689 0 27 -1.51689 1
gene 1 9 21 -0.647017 0 28 -0.647017 1
gene 1 10 21 -0.113103 0 29 -0.113103 1
gene 1 11 21 1.06342 0 30 1.06342 1
gene 1 12 21 -0.986601 0 31 -0.986601 1
gene 1 13 21 -0.788505 0 32 -0.788505 1
gene 1 14 21 -0.129882 0 33 -0.129882 1
gene 1 15 21 1.29489 0 34 1.29489 1
gene 1 16 21 -0.954205 0 35 -0.954205 1
gene 1 17 21 0.380073 0 36 0.380073 1
gene 1 18 21 0.0360102 0 37 0.0360102 1
gene 1 19 21 0.401736 0 38 0.401736 1
gene 1 1 22 0.845765 0 39 0.845765 1
gene 1 2 22 0.932689 0 40 0.932689 1
gene 1 3 22 -0.443347 0 41 -0.443347 1
gene 1 4 22 -0.287899 0 42 -0.287899 1
gene 1 5 22 -1.31425 0 43 -1.31425 1
gene 1 6 22 1.19566 0 44 1.19566 1
gene 1 7 22 -0.255855 0 45 -0.255855 1
gene 1 8 22 0.608495 0 46 0.608495 0
gene 1 9 22 0.0221801 0 47 0.0221801 1
gene 1 10 22 0.225733 0 48 0.225733 1
gene 1 11 22 0.211265 0 49 0.211265 1
gene 1 12 22 1.17452 0 50 1.17452 1
gene 1 13 22 0.818501 0 51 0.818501 1
gene 1 14 22 1.26221 0 52 1.26221 1
gene 1 15 22 -0.426282 0 53 -0.426282 1
gene 1 16 22 0.724912 0 54 0.724912 1
gene 1 17 22 -0.639052 0 55 -0.639052 1
gene 1 18 22 0.195243 0 56 0.195243 1
gene 1 19 22 0.259069 0 57 0.259069 1
gene 1 1 23 0.783471 0 58 0.783471 1
gene 1 2 23 0.466097 0 59 0.466097 1
gene 1 3 23 -0.207357 0 60 -0.207357 1
gene 1 4 23 -0.0584159 0 61 -0.0584159 1
gene 1 5 23 -0.579474 0 62 -0.579474 1
gene 1 6 23 0.772434 0 63 0.772434 1
gene 1 7 23 -0.320951 0 64 -0.320951 1
gene 1 8 23 -0.295151 0 65 -0.295151 1
gene 1 9 23 0.281493 0 66 0.281493 1
gene 1 10 23 0.0673642 0 67 0.0673642 1
gene 1 11 23 -0.679581 0 68 -0.679581 1
gene 1 12 23 -0.0385355 0 69 -0.0385355 1
gene 1 13 23 0.824995 0 70 0.824995 1
gene 1 14 23 -0.11416 0 71 -0.11416 1
gene 1 15 23 -0.351605 0 72 -0.351605 1
gene 1 16 23 0.0926372 0 73 0.0926372 1
gene 1 17 23 0.198323 0 74 0.198323 1
gene 1 18 23 0.0945905 0 75 0.0945905 1
gene 1 19 23 0.333247 0 76 0.333247 1
gene 1 8 26 1.4632 0 84 1.4632 1
gene 1 26 22 -0.619655 0 85 -0.619655 1
gene 1 4 26 -0.59403 0 102 -0.59403 1
gene 1 4 34 0.498653 0 113 0.498653 1
gene 1 34 22 -0.106869 0 114 -0.106869 1
gene 1 9 37 1 0 119 0 1
gene 1 37 21 -0.159809 0 120 0 1
gene 1 21 23 1.04694 0 123 1.04694 1
gene 1 14 37 -0.945395 0 165 -0.945395 1
genomeend 1573

genomestart 1573
trait 1 0 0.353847 0.145896 0.103339 0 0 0 0.242799 
node 1 1 1 1 0
node 2 1 1 1 0
node 3 1 1 1 0
node 4 1 1 1 0
node 5 1 1 1 0
node 6 1 1 1 0
node 7 1 1 1 0
node 8 1 1 1 0
node 9 1 1 1 0
node 10 1 1 1 0
node 11 1 1 1 0
node 12 1 1 1 0
node 13 1 1 1 0
node 14 1 1 1 0
node 15 1 1 1 0
node 16 1 1 1 0
node 17 1 1 1 0
node 18 1 1 1 0
node 19 1 1 3 0
node 20 1 0 2 0
node 21 1 0 2 0
node 22 1 0 2 0
node 23 1 0 2 0
node 26 1 0 0 0
node 34 1 0 0 0
node 37 1 0 0 0
gene 1 1 20 -0.751042 0 1 -0.751042 1
gene 1 2 20 -0.0890626 0 2 -0.0890626 1
gene 1 3 20 -0.814933 0 3 -0.814933 1
gene 1 4 20 -0.184431 0 4 -0.184431 1
gene 1 5 20 0.653491 0 5 0.653491 1
gene 1 6 20 -0.0200111 0 6 -0.0200111 1
gene 1 7 20 0.293168 0 7 0.293168 1
gene 1 8 20 0.736711 0 8 0.736711 1
gene 1 9 20 0.129848 0 9 0.129848 1
gene 1 10 20 1.55469 0 10 1.55469 1
gene 1 11 20 0.244628 0 11 0.244628 1
gene 1 12 20 -0.632747 0 12 -0.632747 1
gene 1 13 20 0.307362 0 13 0.307362 1
gene 1 14 20 -0.910066 0 14 -0.910066 1
gene 1 15 20 0.417623 0 15 0.417623 1
gene 1 16 20 -0.22792 0 16 -0.22792 1
gene 1 17 20 -0.302366 0 17 -0.302366 1
gene 1 18 20 0.0373942 0 18 0.0373942 1
gene 1 19 20 1.88411 0 19 1.88411 1
gene 1 1 21 -0.328445 0 20 -0.328445 1
gene 1 2 21 -0.575503 0 21 -0.575503 1
gene 1 3 21 1.44042 0 22 1.44042 1
gene 1 4 21 -0.506733 0 23 -0.506733 1
gene 1 5 21 -0.0319105 0 24 -0.0319105 1
gene 1 6 21 -0.24167 0 25 -0.24167 1
gene 1 7 21 -0.587385 0 26 -0.587385 1
gene 1 8 21 -1.51689 0 27 -1.51689 1
gene 1 9 21 -0.647017 0 28 -0.647017 1
gene 1 10 21 -0.113103 0 29 -0.113103 1
gene 1 11 21 1.06342 0 30 1.06342 1
gene 1 12 21 -0.986601 0 31 -0.986601 1
gene 1 13 21 -0.788505 0 32 -0.788505 1
gene 1 14 21 -0.129882 0 33 -0.129882 1
gene 1 15 21 1.29489 0 34 1.29489 1
gene 1 16 21 -0.954205 0 35 -0.954205 1
gene 1 17 21 0.380073 0 36 0.380073 1
gene 1 18 21 0.0360102 0 37 0.0360102 1
gene 1 19 21 0.401736 0 38 0.401736 1
gene 1 1 22 0.845765 0 39 0.845765 1
gene 1 2 22 0.932689 0 40 0.932689 1
gene 1 3 22 -0.443347 0 41 -0.443347 1
gene 1 4 22 -0.287899 0 42 -0.287899 1
gene 1 5 22 -1.31425 0 43 -1.31425 1
gene 1 6 22 1.19566 0 44 1.19566 1
gene 1 7 22 -0.255855 0 45 -0.255855 1
gene 1 8 22 0.608495 0 46 0.608495 0
gene 1 9 22 0.0221801 0 47 0.0221801 1
gene 1 10 22 0.225733 0 48 0.225733 1
gene 1 11 22 0.211265 0 49 0.211265 1
gene 1 12 22 1.17452 0 50 1.17452 1
gene 1 13 22 0.818501 0 51 0.818501 1
gene 1 14 22 1.26221 0 52 1.26221 1
gene 1 15 22 -0.426282 0 53 -0.426282 1
gene 1 16 22 0.724912 0 54 0.724912 1
gene 1 17 22 -0.639052 0 55 -0.639052 1
gene 1 18 22 0.195243 0 56 0.195243 1
gene 1 19 22 0.259069 0 57 0.259069 1
gene 1 1 23 0.783471 0 58 0.783471 1
gene 1 2 23 0.466097 0 59 0.466097 1
gene 1 3 23 -0.207357 0 60 -0.207357 1
gene 1 4 23 -0.0584159 0 61 -0.0584159 1
gene 1 5 23 -0.579474 0 62 -0.579474 1
gene 1 6 23 0.772434 0 63 0.772434 1
gene 1 7 23 -0.320951 0 64 -0.320951 1
gene 1 8 23 -0.295151 0 65 -0.295151 1
gene 1 9 23 0.281493 0 66 0.281493 1
gene 1 10 23 0.0673642 0 67 0.0673642 1
gene 1 11 23 -0.679581 0 68 -0.679581 1
gene 1 12 23 -0.0385355 0 69 -0.0385355 1
gene 1 13 23 0.824995 0 70 0.824995 1
gene 1 14 23 -0.11416 0 71 -0.11416 1
gene 1 15 23 -0.351605 0 72 -0.351605 1
gene 1 16 23 0.0926372 0 73 0.0926372 1
gene 1 17 23 0.198323 0 74 0.198323 1
gene 1 18 23 0.0945905 0 75 0.0945905 1
gene 1 19 23 0.333247 0 76 0.333247 1
gene 1 8 26 1.4632 0 84 1.4632 1
gene 1 26 22 -0.619655 0 85 -0.619655 1
gene 1 4 26 -0.59403 0 102 -0.59403 1
gene 1 4 34 0.498653 0 113 0.498653 1
gene 1 34 22 -0.106869 0 114 -0.106869 1
gene 1 9 37 1 0 119 0 1
gene 1 37 21 -0.159809 0 120 0 1
gene 1 21 23 1.04694 0 123 1.04694 1
gene 1 14 37 -0.945395 0 165 -0.945395 1
genomeend 1573

genomestart 1573
trait 1 0 0.353847 0.145896 0.103339 0 0 0 0.242799 
node 1 1 1 1 0
node 2 1 1 1 0
node 3 1 1 1 0
node 4 1 1 1 0
node 5 1 1 1 0
node 6 1 1 1 0
node 7 1 1 1 0
node 8 1 1 1 0
node 9 1 1 1 0
node 10 1 1 1 0
node 11 1 1 1 0
node 12 1 1 1 0
node 13 1 1 1 0
node 14 1 1 1 0
node 15 1 1 1 0
node 16 1 1 1 0
node 17 1 1 1 0
node 18 1 1 1 0
node 19 1 1 3 0
node 20 1 0 2 0
node 21 1 0 2 0
node 22 1 0 2 0
node 23 1 0 2 0
node 26 1 0 0 0
node 34 1 0 0 0
node 37 1 0 0 0
gene 1 1 20 -0.751042 0 1 -0.751042 1
gene 1 2 20 -0.0890626 0 2 -0.0890626 1
gene 1 3 20 -0.814933 0 3 -0.814933 1
gene 1 4 20 -0.184431 0 4 -0.184431 1
gene 1 5 20 0.653491 0 5 0.653491 1
gene 1 6 20 -0.0200111 0 6 -0.0200111 1
gene 1 7 20 0.293168 0 7 0.293168 1
gene 1 8 20 0.736711 0 8 0.736711 1
gene 1 9 20 0.129848 0 9 0.129848 1
gene 1 10 20 1.55469 0 10 1.55469 1
gene 1 11 20 0.244628 0 11 0.244628 1
gene 1 12 20 -0.632747 0 12 -0.632747 1
gene 1 13 20 0.307362 0 13 0.307362 1
gene 1 14 20 -0.910066 0 14 -0.910066 1
gene 1 15 20 0.417623 0 15 0.417623 1
gene 1 16 20 -0.22792 0 16 -0.22792 1
gene 1 17 20 -0.302366 0 17 -0.302366 1
gene 1 18 20 0.0373942 0 18 0.0373942 1
gene 1 19 20 1.88411 0 19 1.88411 1
gene 1 1 21 -0.328445 0 20 -0.328445 1
gene 1 2 21 -0.575503 0 21 -0.575503 1
gene 1 3 21 1.44042 0 22 1.44042 1
gene 1 4 21 -0.506733 0 23 -0.506733 1
gene 1 5 21 -0.0319105 0 24 -0.0319105 1
gene 1 6 21 -0.24167 0 25 -0.24167 1
gene 1 7 21 -0.587385 0 26 -0.587385 1
gene 1 8 21 -1.51689 0 27 -1.51689 1
gene 1 9 21 -0.647017 0 28 -0.647017 1
gene 1 10 21 -0.113103 0 29 -0.113103 1
gene 1 11 21 1.06342 0 30 1.06342 1
gene 1 12 21 -0.986601 0 31 -0.986601 1
gene 1 13 21 -0.788505 0 32 -0.788505 1
gene 1 14 21 -0.129882 0 33 -0.129882 1
gene 1 15 21 1.29489 0 34 1.29489 1
gene 1 16 21 -0.954205 0 35 -0.954205 1
gene 1 17 21 0.380073 0 36 0.380073 1
gene 1 18 21 0.0360102 0 37 0.0360102 1
gene 1 19 21 0.401736 0 38 0.401736 1
gene 1 1 22 0.845765 0 39 0.845765 1
gene 1 2 22 0.932689 0 40 0.932689 1
gene 1 3 22 -0.443347 0 41 -0.443347 1
gene 1 4 22 -0.287899 0 42 -0.287899 1
gene 1 5 22 -1.31425 0 43 -1.31425 1
gene 1 6 22 1.19566 0 44 1.19566 1
gene 1 7 22 -0.255855 0 45 -0.255855 1
gene 1 8 22 0.608495 0 46 0.608495 0
gene 1 9 22 0.0221801 0 47 0.0221801 1
gene 1 10 22 0.225733 0 48 0.225733 1
gene 1 11 22 0.211265 0 49 0.211265 1
gene 1 12 22 1.17452 0 50 1.17452 1
gene 1 13 22 0.818501 0 51 0.818501 1
gene 1 14 22 1.26221 0 52 1.26221 1
gene 1 15 22 -0.426282 0 53 -0.426282 1
gene 1 16 22 0.724912 0 54 0.724912 1
gene 1 17 22 -0.639052 0 55 -0.639052 1
gene 1 18 22 0.195243 0 56 0.195243 1
gene 1 19 22 0.259069 0 57 0.259069 1
gene 1 1 23 0.783471 0 58 0.783471 1
gene 1 2 23 0.466097 0 59 0.466097 1
gene 1 3 23 -0.207357 0 60 -0.207357 1
gene 1 4 23 -0.0584159 0 61 -0.0584159 1
gene 1 5 23 -0.579474 0 62 -0.579474 1
gene 1 6 23 0.772434 0 63 0.772434 1
gene 1 7 23 -0.320951 0 64 -0.320951 1
gene 1 8 23 -0.295151 0 65 -0.295151 1
gene 1 9 23 0.281493 0 66 0.281493 1
gene 1 10 23 0.0673642 0 67 0.0673642 1
gene 1 11 23 -0.679581 0 68 -0.679581 1
gene 1 12 23 -0.0385355 0 69 -0.0385355 1
gene 1 13 23 0.824995 0 70 0.824995 1
gene 1 14 23 -0.11416 0 71 -0.11416 1
gene 1 15 23 -0.351605 0 72 -0.351605 1
gene 1 16 23 0.0926372 0 73 0.0926372 1
gene 1 17 23 0.198323 0 74 0.198323 1
gene 1 18 23 0.0945905 0 75 0.0945905 1
gene 1 19 23 0.333247 0 76 0.333247 1
gene 1 8 26 1.4632 0 84 1.4632 1
gene 1 26 22 -0.619655 0 85 -0.619655 1
gene 1 4 26 -0.59403 0 102 -0.59403 1
gene 1 4 34 0.498653 0 113 0.498653 1
gene 1 34 22 -0.106869 0 114 -0.106869 1
gene 1 9 37 1 0 119 0 1
gene 1 37 21 -0.159809 0 120 0 1
gene 1 21 23 1.04694 0 123 1.04694 1
gene 1 14 37 -0.945395 0 165 -0.945395 1
genomeend 1573

genomestart 1573
trait 1 0 0.353847 0.145896 0.103339 0 0 0 0.242799 
node 1 1 1 1 0
node 2 1 1 1 0
node 3 1 1 1 0
node 4 1 1 1 0
node 5 1 1 1 0
node 6 1 1 1 0
node 7 1 1 1 0
node 8 1 1 1 0
node 9 1 1 1 0
node 10 1 1 1 0
node 11 1 1 1 0
node 12 1 1 1 0
node 13 1 1 1 0
node 14 1 1 1 0
node 15 1 1 1 0
node 16 1 1 1 0
node 17 1 1 1 0
node 18 1 1 1 0
node 19 1 1 3 0
node 20 1 0 2 0
node 21 1 0 2 0
node 22 1 0 2 0
node 23 1 0 2 0
node 26 1 0 0 0
node 34 1 0 0 0
node 37 1 0 0 0
gene 1 1 20 -0.751042 0 1 -0.751042 1
gene 1 2 20 -0.0890626 0 2 -0.0890626 1
gene 1 3 20 -0.814933 0 3 -0.814933 1
gene 1 4 20 -0.184431 0 4 -0.184431 1
gene 1 5 20 0.653491 0 5 0.653491 1
gene 1 6 20 -0.0200111 0 6 -0.0200111 1
gene 1 7 20 0.293168 0 7 0.293168 1
gene 1 8 20 0.736711 0 8 0.736711 1
gene 1 9 20 0.129848 0 9 0.129848 1
gene 1 10 20 1.55469 0 10 1.55469 1
gene 1 11 20 0.244628 0 11 0.244628 1
gene 1 12 20 -0.632747 0 12 -0.632747 1
gene 1 13 20 0.307362 0 13 0.307362 1
gene 1 14 20 -0.910066 0 14 -0.910066 1
gene 1 15 20 0.417623 0 15 0.417623 1
gene 1 16 20 -0.22792 0 16 -0.22792 1
gene 1 17 20 -0.302366 0 17 -0.302366 1
gene 1 18 20 0.0373942 0 18 0.0373942 1
gene 1 19 20 1.88411 0 19 1.88411 1
gene 1 1 21 -0.328445 0 20 -0.328445 1
gene 1 2 21 -0.575503 0 21 -0.575503 1
gene 1 3 21 1.44042 0 22 1.44042 1
gene 1 4 21 -0.506733 0 23 -0.506733 1
gene 1 5 21 -0.0319105 0 24 -0.0319105 1
gene 1 6 21 -0.24167 0 25 -0.24167 1
gene 1 7 21 -0.587385 0 26 -0.587385 1
gene 1 8 21 -1.51689 0 27 -1.51689 1
gene 1 9 21 -0.647017 0 28 -0.647017 1
gene 1 10 21 -0.113103 0 29 -0.113103 1
gene 1 11 21 1.06342 0 30 1.06342 1
gene 1 12 21 -0.986601 0 31 -0.986601 1
gene 1 13 21 -0.788505 0 32 -0.788505 1
gene 1 14 21 -0.129882 0 33 -0.129882 1
gene 1 15 21 1.29489 0 34 1.29489 1
gene 1 16 21 -0.954205 0 35 -0.954205 1
gene 1 17 21 0.380073 0 36 0.380073 1
gene 1 18 21 0.0360102 0 37 0.0360102 1
gene 1 19 21 0.401736 0 38 0.401736 1
gene 1 1 22 0.845765 0 39 0.845765 1
gene 1 2 22 0.932689 0 40 0.932689 1
gene 1 3 22 -0.443347 0 41 -0.443347 1
gene 1 4 22 -0.287899 0 42 -0.287899 1
gene 1 5 22 -1.31425 0 43 -1.31425 1
gene 1 6 22 1.19566 0 44 1.19566 1
gene 1 7 22 -0.255855 0 45 -0.255855 1
gene 1 8 22 0.608495 0 46 0.608495 0
gene 1 9 22 0.0221801 0 47 0.0221801 1
gene 1 10 22 0.225733 0 48 0.225733 1
gene 1 11 22 0.211265 0 49 0.211265 1
gene 1 12 22 1.17452 0 50 1.17452 1
gene 1 13 22 0.818501 0 51 0.818501 1
gene 1 14 22 1.26221 0 52 1.26221 1
gene 1 15 22 -0.426282 0 53 -0.426282 1
gene 1 16 22 0.724912 0 54 0.724912 1
gene 1 17 22 -0.639052 0 55 -0.639052 1
gene 1 18 22 0.195243 0 56 0.195243 1
gene 1 19 22 0.259069 0 57 0.259069 1
gene 1 1 23 0.783471 0 58 0.783471 1
gene 1 2 23 0.466097 0 59 0.466097 1
gene 1 3 23 -0.207357 0 60 -0.207357 1
gene 1 4 23 -0.0584159 0 61 -0.0584159 1
gene 1 5 23 -0.579474 0 62 -0.579474 1
gene 1 6 23 0.772434 0 63 0.772434 1
gene 1 7 23 -0.320951 0 64 -0.320951 1
gene 1 8 23 -0.295151 0 65 -0.295151 1
gene 1 9 23 0.281493 0 66 0.281493 1
gene 1 10 23 0.0673642 0 67 0.0673642 1
gene 1 11 23 -0.679581 0 68 -0.679581 1
gene 1 12 23 -0.0385355 0 69 -0.0385355 1
gene 1 13 23 0.824995 0 70 0.824995 1
gene 1 14 23 -0.11416 0 71 -0.11416 1
gene 1 15 23 -0.351605 0 72 -0.351605 1
gene 1 16 23 0.0926372 0 73 0.0926372 1
gene 1 17 23 0.198323 0 74 0.198323 1
gene 1 18 23 0.0945905 0 75 0.0945905 1
gene 1 19 23 0.333247 0 76 0.333247 1
gene 1 8 26 1.4632 0 84 1.4632 1
gene 1 26 22 -0.619655 0 85 -0.619655 1
gene 1 4 26 -0.59403 0 102 -0.59403 1
gene 1 4 34 0.498653 0 113 0.498653 1
gene 1 34 22 -0.106869 0 114 -0.106869 1
gene 1 9 37 1 0 119 0 1
gene 1 37 21 -0.159809 0 120 0 1
gene 1 21 23 1.04694 0 123 1.04694 1
gene 1 14 37 -0.945395 0 165 -0.945395 1
genomeend 1573

genomestart 1573
trait 1 0 0.353847 0.145896 0.103339 0 0 0 0.242799 
node 1 1 1 1 0
node 2 1 1 1 0
node 3 1 1 1 0
node 4 1 1 1 0
node 5 1 1 1 0
node 6 1 1 1 0
node 7 1 1 1 0
node 8 1 1 1 0
node 9 1 1 1 0
node 10 1 1 1 0
node 11 1 1 1 0
node 12 1 1 1 0
node 13 1 1 1 0
node 14 1 1 1 0
node 15 1 1 1 0
node 16 1 1 1 0
node 17 1 1 1 0
node 18 1 1 1 0
node 19 1 1 3 0
node 20 1 0 2 0
node 21 1 0 2 0
node 22 1 0 2 0
node 23 1 0 2 0
node 26 1 0 0 0
node 34 1 0 0 0
node 37 1 0 0 0
gene 1 1 20 -0.751042 0 1 -0.751042 1
gene 1 2 20 -0.0890626 0 2 -0.0890626 1
gene 1 3 20 -0.814933 0 3 -0.814933 1
gene 1 4 20 -0.184431 0 4 -0.184431 1
gene 1 5 20 0.653491 0 5 0.653491 1
gene 1 6 20 -0.0200111 0 6 -0.0200111 1
gene 1 7 20 0.293168 0 7 0.293168 1
gene 1 8 20 0.736711 0 8 0.736711 1
gene 1 9 20 0.129848 0 9 0.129848 1
gene 1 10 20 1.55469 0 10 1.55469 1
gene 1 11 20 0.244628 0 11 0.244628 1
gene 1 12 20 -0.632747 0 12 -0.632747 1
gene 1 13 20 0.307362 0 13 0.307362 1
gene 1 14 20 -0.910066 0 14 -0.910066 1
gene 1 15 20 0.417623 0 15 0.417623 1
gene 1 16 20 -0.22792 0 16 -0.22792 1
gene 1 17 20 -0.302366 0 17 -0.302366 1
gene 1 18 20 0.0373942 0 18 0.0373942 1
gene 1 19 20 1.88411 0 19 1.88411 1
gene 1 1 21 -0.328445 0 20 -0.328445 1
gene 1 2 21 -0.575503 0 21 -0.575503 1
gene 1 3 21 1.44042 0 22 1.44042 1
gene 1 4 21 -0.506733 0 23 -0.506733 1
gene 1 5 21 -0.0319105 0 24 -0.0319105 1
gene 1 6 21 -0.24167 0 25 -0.24167 1
gene 1 7 21 -0.587385 0 26 -0.587385 1
gene 1 8 21 -1.51689 0 27 -1.51689 1
gene 1 9 21 -0.647017 0 28 -0.647017 1
gene 1 10 21 -0.113103 0 29 -0.113103 1
gene 1 11 21 1.06342 0 30 1.06342 1
gene 1 12 21 -0.986601 0 31 -0.986601 1
gene 1 13 21 -0.788505 0 32 -0.788505 1
gene 1 14 21 -0.129882 0 33 -0.129882 1
gene 1 15 21 1.29489 0 34 1.29489 1
gene 1 16 21 -0.954205 0 35 -0.954205 1
gene 1 17 21 0.380073 0 36 0.380073 1
gene 1 18 21 0.0360102 0 37 0.0360102 1
gene 1 19 21 0.401736 0 38 0.401736 1
gene 1 1 22 0.845765 0 39 0.845765 1
gene 1 2 22 0.932689 0 40 0.932689 1
gene 1 3 22 -0.443347 0 41 -0.443347 1
gene 1 4 22 -0.287899 0 42 -0.287899 1
gene 1 5 22 -1.31425 0 43 -1.31425 1
gene 1 6 22 1.19566 0 44 1.19566 1
gene 1 7 22 -0.255855 0 45 -0.255855 1
gene 1 8 22 0.608495 0 46 0.608495 0
gene 1 9 22 0.0221801 0 47 0.0221801 1
gene 1 10 22 0.225733 0 48 0.225733 1
gene 1 11 22 0.211265 0 49 0.211265 1
gene 1 12 22 1.17452 0 50 1.17452 1
gene 1 13 22 0.818501 0 51 0.818501 1
gene 1 14 22 1.26221 0 52 1.26221 1
gene 1 15 22 -0.426282 0 53 -0.426282 1
gene 1 16 22 0.724912 0 54 0.724912 1
gene 1 17 22 -0.639052 0 55 -0.639052 1
gene 1 18 22 0.195243 0 56 0.195243 1
gene 1 19 22 0.259069 0 57 0.259069 1
gene 1 1 23 0.783471 0 58 0.783471 1
gene 1 2 23 0.466097 0 59 0.466097 1
gene 1 3 23 -0.207357 0 60 -0.207357 1
gene 1 4 23 -0.0584159 0 61 -0.0584159 1
gene 1 5 23 -0.579474 0 62 -0.579474 1
gene 1 6 23 0.772434 0 63 0.772434 1
gene 1 7 23 -0.320951 0 64 -0.320951 1
gene 1 8 23 -0.295151 0 65 -0.295151 1
gene 1 9 23 0.281493 0 66 0.281493 1
gene 1 10 23 0.0673642 0 67 0.0673642 1
gene 1 11 23 -0.679581 0 68 -0.679581 1
gene 1 12 23 -0.0385355 0 69 -0.0385355 1
gene 1 13 23 0.824995 0 70 0.824995 1
gene 1 14 23 -0.11416 0 71 -0.11416 1
gene 1 15 23 -0.351605 0 72 -0.351605 1
gene 1 16 23 0.0926372 0 73 0.0926372 1
gene 1 17 23 0.198323 0 74 0.198323 1
gene 1 18 23 0.0945905 0 75 0.0945905 1
gene 1 19 23 0.333247 0 76 0.333247 1
gene 1 8 26 1.4632 0 84 1.4632 1
gene 1 26 22 -0.619655 0 85 -0.619655 1
gene 1 4 26 -0.59403 0 102 -0.59403 1
gene 1 4 34 0.498653 0 113 0.498653 1
gene 1 34 22 -0.106869 0 114 -0.106869 1
gene 1 9 37 1 0 119 0 1
gene 1 37 21 -0.159809 0 120 0 1
gene 1 21 23 1.04694 0 123 1.04694 1
gene 1 14 37 -0.945395 0 165 -0.945395 1
genomeend 1573

genomestart 1573
trait 1 0 0.353847 0.145896 0.103339 0 0 0 0.242799 
node 1 1 1 1 0
node 2 1 1 1 0
node 3 1 1 1 0
node 4 1 1 1 0
node 5 1 1 1 0
node 6 1 1 1 0
node 7 1 1 1 0
node 8 1 1 1 0
node 9 1 1 1 0
node 10 1 1 1 0
node 11 1 1 1 0
node 12 1 1 1 0
node 13 1 1 1 0
node 14 1 1 1 0
node 15 1 1 1 0
node 16 1 1 1 0
node 17 1 1 1 0
node 18 1 1 1 0
node 19 1 1 3 0
node 20 1 0 2 0
node 21 1 0 2 0
node 22 1 0 2 0
node 23 1 0 2 0
node 26 1 0 0 0
node 34 1 0 0 0
node 37 1 0 0 0
gene 1 1 20 -0.751042 0 1 -0.751042 1
gene 1 2 20 -0.0890626 0 2 -0.0890626 1
gene 1 3 20 -0.814933 0 3 -0.814933 1
gene 1 4 20 -0.184431 0 4 -0.184431 1
gene 1 5 20 0.653491 0 5 0.653491 1
gene 1 6 20 -0.0200111 0 6 -0.0200111 1
gene 1 7 20 0.293168 0 7 0.293168 1
gene 1 8 20 0.736711 0 8 0.736711 1
gene 1 9 20 0.129848 0 9 0.129848 1
gene 1 10 20 1.55469 0 10 1.55469 1
gene 1 11 20 0.244628 0 11 0.244628 1
gene 1 12 20 -0.632747 0 12 -0.632747 1
gene 1 13 20 0.307362 0 13 0.307362 1
gene 1 14 20 -0.910066 0 14 -0.910066 1
gene 1 15 20 0.417623 0 15 0.417623 1
gene 1 16 20 -0.22792 0 16 -0.22792 1
gene 1 17 20 -0.302366 0 17 -0.302366 1
gene 1 18 20 0.0373942 0 18 0.0373942 1
gene 1 19 20 1.88411 0 19 1.88411 1
gene 1 1 21 -0.328445 0 20 -0.328445 1
gene 1 2 21 -0.575503 0 21 -0.575503 1
gene 1 3 21 1.44042 0 22 1.44042 1
gene 1 4 21 -0.506733 0 23 -0.506733 1
gene 1 5 21 -0.0319105 0 24 -0.0319105 1
gene 1 6 21 -0.24167 0 25 -0.24167 1
gene 1 7 21 -0.587385 0 26 -0.587385 1
gene 1 8 21 -1.51689 0 27 -1.51689 1
gene 1 9 21 -0.647017 0 28 -0.647017 1
gene 1 10 21 -0.113103 0 29 -0.113103 1
gene 1 11 21 1.06342 0 30 1.06342 1
gene 1 12 21 -0.986601 0 31 -0.986601 1
gene 1 13 21 -0.788505 0 32 -0.788505 1
gene 1 14 21 -0.129882 0 33 -0.129882 1
gene 1 15 21 1.29489 0 34 1.29489 1
gene 1 16 21 -0.954205 0 35 -0.954205 1
gene 1 17 21 0.380073 0 36 0.380073 1
gene 1 18 21 0.0360102 0 37 0.0360102 1
gene 1 19 21 0.401736 0 38 0.401736 1
gene 1 1 22 0.845765 0 39 0.845765 1
gene 1 2 22 0.932689 0 40 0.932689 1
gene 1 3 22 -0.443347 0 41 -0.443347 1
gene 1 4 22 -0.287899 0 42 -0.287899 1
gene 1 5 22 -1.31425 0 43 -1.31425 1
gene 1 6 22 1.19566 0 44 1.19566 1
gene 1 7 22 -0.255855 0 45 -0.255855 1
gene 1 8 22 0.608495 0 46 0.608495 0
gene 1 9 22 0.0221801 0 47 0.0221801 1
gene 1 10 22 0.225733 0 48 0.225733 1
gene 1 11 22 0.211265 0 49 0.211265 1
gene 1 12 22 1.17452 0 50 1.17452 1
gene 1 13 22 0.818501 0 51 0.818501 1
gene 1 14 22 1.26221 0 52 1.26221 1
gene 1 15 22 -0.426282 0 53 -0.426282 1
gene 1 16 22 0.724912 0 54 0.724912 1
gene 1 17 22 -0.639052 0 55 -0.639052 1
gene 1 18 22 0.195243 0 56 0.195243 1
gene 1 19 22 0.259069 0 57 0.259069 1
gene 1 1 23 0.783471 0 58 0.783471 1
gene 1 2 23 0.466097 0 59 0.466097 1
gene 1 3 23 -0.207357 0 60 -0.207357 1
gene 1 4 23 -0.0584159 0 61 -0.0584159 1
gene 1 5 23 -0.579474 0 62 -0.579474 1
gene 1 6 23 0.772434 0 63 0.772434 1
gene 1 7 23 -0.320951 0 64 -0.320951 1
gene 1 8 23 -0.295151 0 65 -0.295151 1
gene 1 9 23 0.281493 0 66 0.281493 1
gene 1 10 23 0.0673642 0 67 0.0673642 1
gene 1 11 23 -0.679581 0 68 -0.679581 1
gene 1 12 23 -0.0385355 0 69 -0.0385355 1
gene 1 13 23 0.824995 0 70 0.824995 1
gene 1 14 23 -0.11416 0 71 -0.11416 1
gene 1 15 23 -0.351605 0 72 -0.351605 1
gene 1 16 23 0.0926372 0 73 0.0926372 1
gene 1 17 23 0.198323 0 74 0.198323 1
gene 1 18 23 0.0945905 0 75 0.0945905 1
gene 1 19 23 0.333247 0 76 0.333247 1
gene 1 8 26 1.4632 0 84 1.4632 1
gene 1 26 22 -0.619655 0 85 -0.619655 1
gene 1 4 26 -0.59403 0 102 -0.59403 1
gene 1 4 34 0.498653 0 113 0.498653 1
gene 1 34 22 -0.106869 0 114 -0.106869 1
gene 1 9 37 1 0 119 0 1
gene 1 37 21 -0.159809 0 120 0 1
gene 1 21 23 1.04694 0 123 1.04694 1
gene 1 14 37 -0.945395 0 165 -0.945395 1
genomeend 1573

genomestart 1573
trait 1 0 0.353847 0.145896 0.103339 0 0 0 0.242799 
node 1 1 1 1 0
node 2 1 1 1 0
node 3 1 1 1 0
node 4 1 1 1 0
node 5 1 1 1 0
node 6 1 1 1 0
node 7 1 1 1 0
node 8 1 1 1 0
node 9 1 1 1 0
node 10 1 1 1 0
node 11 1 1 1 0
node 12 1 1 1 0
node 13 1 1 1 0
node 14 1 1 1 0
node 15 1 1 1 0
node 16 1 1 1 0
node 17 1 1 1 0
node 18 1 1 1 0
node 19 1 1 3 0
node 20 1 0 2 0
node 21 1 0 2 0
node 22 1 0 2 0
node 23 1 0 2 0
node 26 1 0 0 0
node 34 1 0 0 0
node 37 1 0 0 0
gene 1 1 20 -0.751042 0 1 -0.751042 1
gene 1 2 20 -0.0890626 0 2 -0.0890626 1
gene 1 3 20 -0.814933 0 3 -0.814933 1
gene 1 4 20 -0.184431 0 4 -0.184431 1
gene 1 5 20 0.653491 0 5 0.653491 1
gene 1 6 20 -0.0200111 0 6 -0.0200111 1
gene 1 7 20 0.293168 0 7 0.293168 1
gene 1 8 20 0.736711 0 8 0.736711 1
gene 1 9 20 0.129848 0 9 0.129848 1
gene 1 10 20 1.55469 0 10 1.55469 1
gene 1 11 20 0.244628 0 11 0.244628 1
gene 1 12 20 -0.632747 0 12 -0.632747 1
gene 1 13 20 0.307362 0 13 0.307362 1
gene 1 14 20 -0.910066 0 14 -0.910066 1
gene 1 15 20 0.417623 0 15 0.417623 1
gene 1 16 20 -0.22792 0 16 -0.22792 1
gene 1 17 20 -0.302366 0 17 -0.302366 1
gene 1 18 20 0.0373942 0 18 0.0373942 1
gene 1 19 20 1.88411 0 19 1.88411 1
gene 1 1 21 -0.328445 0 20 -0.328445 1
gene 1 2 21 -0.575503 0 21 -0.575503 1
gene 1 3 21 1.44042 0 22 1.44042 1
gene 1 4 21 -0.506733 0 23 -0.506733 1
gene 1 5 21 -0.0319105 0 24 -0.0319105 1
gene 1 6 21 -0.24167 0 25 -0.24167 1
gene 1 7 21 -0.587385 0 26 -0.587385 1
gene 1 8 21 -1.51689 0 27 -1.51689 1
gene 1 9 21 -0.647017 0 28 -0.647017 1
gene 1 10 21 -0.113103 0 29 -0.113103 1
gene 1 11 21 1.06342 0 30 1.06342 1
gene 1 12 21 -0.986601 0 31 -0.986601 1
gene 1 13 21 -0.788505 0 32 -0.788505 1
gene 1 14 21 -0.129882 0 33 -0.129882 1
gene 1 15 21 1.29489 0 34 1.29489 1
gene 1 16 21 -0.954205 0 35 -0.954205 1
gene 1 17 21 0.380073 0 36 0.380073 1
gene 1 18 21 0.0360102 0 37 0.0360102 1
gene 1 19 21 0.401736 0 38 0.401736 1
gene 1 1 22 0.845765 0 39 0.845765 1
gene 1 2 22 0.932689 0 40 0.932689 1
gene 1 3 22 -0.443347 0 41 -0.443347 1
gene 1 4 22 -0.287899 0 42 -0.287899 1
gene 1 5 22 -1.31425 0 43 -1.31425 1
gene 1 6 22 1.19566 0 44 1.19566 1
gene 1 7 22 -0.255855 0 45 -0.255855 1
gene 1 8 22 0.608495 0 46 0.608495 0
gene 1 9 22 0.0221801 0 47 0.0221801 1
gene 1 10 22 0.225733 0 48 0.225733 1
gene 1 11 22 0.211265 0 49 0.211265 1
gene 1 12 22 1.17452 0 50 1.17452 1
gene 1 13 22 0.818501 0 51 0.818501 1
gene 1 14 22 1.26221 0 52 1.26221 1
gene 1 15 22 -0.426282 0 53 -0.426282 1
gene 1 16 22 0.724912 0 54 0.724912 1
gene 1 17 22 -0.639052 0 55 -0.639052 1
gene 1 18 22 0.195243 0 56 0.195243 1
gene 1 19 22 0.259069 0 57 0.259069 1
gene 1 1 23 0.783471 0 58 0.783471 1
gene 1 2 23 0.466097 0 59 0.466097 1
gene 1 3 23 -0.207357 0 60 -0.207357 1
gene 1 4 23 -0.0584159 0 61 -0.0584159 1
gene 1 5 23 -0.579474 0 62 -0.579474 1
gene 1 6 23 0.772434 0 63 0.772434 1
gene 1 7 23 -0.320951 0 64 -0.320951 1
gene 1 8 23 -0.295151 0 65 -0.295151 1
gene 1 9 23 0.281493 0 66 0.281493 1
gene 1 10 23 0.0673642 0 67 0.0673642 1
gene 1 11 23 -0.679581 0 68 -0.679581 1
gene 1 12 23 -0.0385355 0 69 -0.0385355 1
gene 1 13 23 0.824995 0 70 0.824995 1
gene 1 14 23 -0.11416 0 71 -0.11416 1
gene 1 15 23 -0.351605 0 72 -0.351605 1
gene 1 16 23 0.0926372 0 73 0.0926372 1
gene 1 17 23 0.198323 0 74 0.198323 1
gene 1 18 23 0.0945905 0 75 0.0945905 1
gene 1 19 23 0.333247 0 76 0.333247 1
gene 1 8 26 1.4632 0 84 1.4632 1
gene 1 26 22 -0.619655 0 85 -0.619655 1
gene 1 4 26 -0.59403 0 102 -0.59403 1
gene 1 4 34 0.498653 0 113 0.498653 1
gene 1 34 22 -0.106869 0 114 -0.106869 1
gene 1 9 37 1 0 119 0 1
gene 1 37 21 -0.159809 0 120 0 1
gene 1 21 23 1.04694 0 123 1.04694 1
gene 1 14 37 -0.945395 0 165 -0.945395 1
genomeend 1573

genomestart 1573
trait 1 0 0.353847 0.145896 0.103339 0 0 0 0.242799 
node 1 1 1 1 0
node 2 1 1 1 0
node 3 1 1 1 0
node 4 1 1 1 0
node 5 1 1 1 0
node 6 1 1 1 0
node 7 1 1 1 0
node 8 1 1 1 0
node 9 1 1 1 0
node 10 1 1 1 0
node 11 1 1 1 0
node 12 1 1 1 0
node 13 1 1 1 0
node 14 1 1 1 0
node 15 1 1 1 0
node 16 1 1 1 0
node 17 1 1 1 0
node 18 1 1 1 0
node 19 1 1 3 0
node 20 1 0 2 0
node 21 1 0 2 0
node 22 1 0 2 0
node 23 1 0 2 0
node 26 1 0 0 0
node 34 1 0 0 0
node 37 1 0 0 0
gene 1 1 20 -0.751042 0 1 -0.751042 1
gene 1 2 20 -0.0890626 0 2 -0.0890626 1
gene 1 3 20 -0.814933 0 3 -0.814933 1
gene 1 4 20 -0.184431 0 4 -0.184431 1
gene 1 5 20 0.653491 0 5 0.653491 1
gene 1 6 20 -0.0200111 0 6 -0.0200111 1
gene 1 7 20 0.293168 0 7 0.293168 1
gene 1 8 20 0.736711 0 8 0.736711 1
gene 1 9 20 0.129848 0 9 0.129848 1
gene 1 10 20 1.55469 0 10 1.55469 1
gene 1 11 20 0.244628 0 11 0.244628 1
gene 1 12 20 -0.632747 0 12 -0.632747 1
gene 1 13 20 0.307362 0 13 0.307362 1
gene 1 14 20 -0.910066 0 14 -0.910066 1
gene 1 15 20 0.417623 0 15 0.417623 1
gene 1 16 20 -0.22792 0 16 -0.22792 1
gene 1 17 20 -0.302366 0 17 -0.302366 1
gene 1 18 20 0.0373942 0 18 0.0373942 1
gene 1 19 20 1.88411 0 19 1.88411 1
gene 1 1 21 -0.328445 0 20 -0.328445 1
gene 1 2 21 -0.575503 0 21 -0.575503 1
gene 1 3 21 1.44042 0 22 1.44042 1
gene 1 4 21 -0.506733 0 23 -0.506733 1
gene 1 5 21 -0.0319105 0 24 -0.0319105 1
gene 1 6 21 -0.24167 0 25 -0.24167 1
gene 1 7 21 -0.587385 0 26 -0.587385 1
gene 1 8 21 -1.51689 0 27 -1.51689 1
gene 1 9 21 -0.647017 0 28 -0.647017 1
gene 1 10 21 -0.113103 0 29 -0.113103 1
gene 1 11 21 1.06342 0 30 1.06342 1
gene 1 12 21 -0.986601 0 31 -0.986601 1
gene 1 13 21 -0.788505 0 32 -0.788505 1
gene 1 14 21 -0.129882 0 33 -0.129882 1
gene 1 15 21 1.29489 0 34 1.29489 1
gene 1 16 21 -0.954205 0 35 -0.954205 1
gene 1 17 21 0.380073 0 36 0.380073 1
gene 1 18 21 0.0360102 0 37 0.0360102 1
gene 1 19 21 0.401736 0 38 0.401736 1
gene 1 1 22 0.845765 0 39 0.845765 1
gene 1 2 22 0.932689 0 40 0.932689 1
gene 1 3 22 -0.443347 0 41 -0.443347 1
gene 1 4 22 -0.287899 0 42 -0.287899 1
gene 1 5 22 -1.31425 0 43 -1.31425 1
gene 1 6 22 1.19566 0 44 1.19566 1
gene 1 7 22 -0.255855 0 45 -0.255855 1
gene 1 8 22 0.608495 0 46 0.608495 0
gene 1 9 22 0.0221801 0 47 0.0221801 1
gene 1 10 22 0.225733 0 48 0.225733 1
gene 1 11 22 0.211265 0 49 0.211265 1
gene 1 12 22 1.17452 0 50 1.17452 1
gene 1 13 22 0.818501 0 51 0.818501 1
gene 1 14 22 1.26221 0 52 1.26221 1
gene 1 15 22 -0.426282 0 53 -0.426282 1
gene 1 16 22 0.724912 0 54 0.724912 1
gene 1 17 22 -0.639052 0 55 -0.639052 1
gene 1 18 22 0.195243 0 56 0.195243 1
gene 1 19 22 0.259069 0 57 0.259069 1
gene 1 1 23 0.783471 0 58 0.783471 1
gene 1 2 23 0.466097 0 59 0.466097 1
gene 1 3 23 -0.207357 0 60 -0.207357 1
gene 1 4 23 -0.0584159 0 61 -0.0584159 1
gene 1 5 23 -0.579474 0 62 -0.579474 1
gene 1 6 23 0.772434 0 63 0.772434 1
gene 1 7 23 -0.320951 0 64 -0.320951 1
gene 1 8 23 -0.295151 0 65 -0.295151 1
gene 1 9 23 0.281493 0 66 0.281493 1
gene 1 10 23 0.0673642 0 67 0.0673642 1
gene 1 11 23 -0.679581 0 68 -0.679581 1
gene 1 12 23 -0.0385355 0 69 -0.0385355 1
gene 1 13 23 0.824995 0 70 0.824995 1
gene 1 14 23 -0.11416 0 71 -0.11416 1
gene 1 15 23 -0.351605 0 72 -0.351605 1
gene 1 16 23 0.0926372 0 73 0.0926372 1
gene 1 17 23 0.198323 0 74 0.198323 1
gene 1 18 23 0.0945905 0 75 0.0945905 1
gene 1 19 23 0.333247 0 76 0.333247 1
gene 1 8 26 1.4632 0 84 1.4632 1
gene 1 26 22 -0.619655 0 85 -0.619655 1
gene 1 4 26 -0.59403 0 102 -0.59403 1
gene 1 4 34 0.498653 0 113 0.498653 1
gene 1 34 22 -0.106869 0 114 -0.106869 1
gene 1 9 37 1 0 119 0 1
gene 1 37 21 -0.159809 0 120 0 1
gene 1 21 23 1.04694 0 123 1.04694 1
gene 1 14 37 -0.945395 0 165 -0.945395 1
genomeend 1573

genomestart 1573
trait 1 0 0.353847 0.145896 0.103339 0 0 0 0.242799 
node 1 1 1 1 0
node 2 1 1 1 0
node 3 1 1 1 0
node 4 1 1 1 0
node 5 1 1 1 0
node 6 1 1 1 0
node 7 1 1 1 0
node 8 1 1 1 0
node 9 1 1 1 0
node 10 1 1 1 0
node 11 1 1 1 0
node 12 1 1 1 0
node 13 1 1 1 0
node 14 1 1 1 0
node 15 1 1 1 0
node 16 1 1 1 0
node 17 1 1 1 0
node 18 1 1 1 0
node 19 1 1 3 0
node 20 1 0 2 0
node 21 1 0 2 0
node 22 1 0 2 0
node 23 1 0 2 0
node 26 1 0 0 0
node 34 1 0 0 0
node 37 1 0 0 0
gene 1 1 20 -0.751042 0 1 -0.751042 1
gene 1 2 20 -0.0890626 0 2 -0.0890626 1
gene 1 3 20 -0.814933 0 3 -0.814933 1
gene 1 4 20 -0.184431 0 4 -0.184431 1
gene 1 5 20 0.653491 0 5 0.653491 1
gene 1 6 20 -0.0200111 0 6 -0.0200111 1
gene 1 7 20 0.293168 0 7 0.293168 1
gene 1 8 20 0.736711 0 8 0.736711 1
gene 1 9 20 0.129848 0 9 0.129848 1
gene 1 10 20 1.55469 0 10 1.55469 1
gene 1 11 20 0.244628 0 11 0.244628 1
gene 1 12 20 -0.632747 0 12 -0.632747 1
gene 1 13 20 0.307362 0 13 0.307362 1
gene 1 14 20 -0.910066 0 14 -0.910066 1
gene 1 15 20 0.417623 0 15 0.417623 1
gene 1 16 20 -0.22792 0 16 -0.22792 1
gene 1 17 20 -0.302366 0 17 -0.302366 1
gene 1 18 20 0.0373942 0 18 0.0373942 1
gene 1 19 20 1.88411 0 19 1.88411 1
gene 1 1 21 -0.328445 0 20 -0.328445 1
gene 1 2 21 -0.575503 0 21 -0.575503 1
gene 1 3 21 1.44042 0 22 1.44042 1
gene 1 4 21 -0.506733 0 23 -0.506733 1
gene 1 5 21 -0.0319105 0 24 -0.0319105 1
gene 1 6 21 -0.24167 0 25 -0.24167 1
gene 1 7 21 -0.587385 0 26 -0.587385 1
gene 1 8 21 -1.51689 0 27 -1.51689 1
gene 1 9 21 -0.647017 0 28 -0.647017 1
gene 1 10 21 -0.113103 0 29 -0.113103 1
gene 1 11 21 1.06342 0 30 1.06342 1
gene 1 12 21 -0.986601 0 31 -0.986601 1
gene 1 13 21 -0.788505 0 32 -0.788505 1
gene 1 14 21 -0.129882 0 33 -0.129882 1
gene 1 15 21 1.29489 0 34 1.29489 1
gene 1 16 21 -0.954205 0 35 -0.954205 1
gene 1 17 21 0.380073 0 36 0.380073 1
gene 1 18 21 0.0360102 0 37 0.0360102 1
gene 1 19 21 0.401736 0 38 0.401736 1
gene 1 1 22 0.845765 0 39 0.845765 1
gene 1 2 22 0.932689 0 40 0.932689 1
gene 1 3 22 -0.443347 0 41 -0.443347 1
gene 1 4 22 -0.287899 0 42 -0.287899 1
gene 1 5 22 -1.31425 0 43 -1.31425 1
gene 1 6 22 1.19566 0 44 1.19566 1
gene 1 7 22 -0.255855 0 45 -0.255855 1
gene 1 8 22 0.608495 0 46 0.608495 0
gene 1 9 22 0.0221801 0 47 0.0221801 1
gene 1 10 22 0.225733 0 48 0.225733 1
gene 1 11 22 0.211265 0 49 0.211265 1
gene 1 12 22 1.17452 0 50 1.17452 1
gene 1 13 22 0.818501 0 51 0.818501 1
gene 1 14 22 1.26221 0 52 1.26221 1
gene 1 15 22 -0.426282 0 53 -0.426282 1
gene 1 16 22 0.724912 0 54 0.724912 1
gene 1 17 22 -0.639052 0 55 -0.639052 1
gene 1 18 22 0.195243 0 56 0.195243 1
gene 1 19 22 0.259069 0 57 0.259069 1
gene 1 1 23 0.783471 0 58 0.783471 1
gene 1 2 23 0.466097 0 59 0.466097 1
gene 1 3 23 -0.207357 0 60 -0.207357 1
gene 1 4 23 -0.0584159 0 61 -0.0584159 1
gene 1 5 23 -0.579474 0 62 -0.579474 1
gene 1 6 23 0.772434 0 63 0.772434 1
gene 1 7 23 -0.320951 0 64 -0.320951 1
gene 1 8 23 -0.295151 0 65 -0.295151 1
gene 1 9 23 0.281493 0 66 0.281493 1
gene 1 10 23 0.0673642 0 67 0.0673642 1
gene 1 11 23 -0.679581 0 68 -0.679581 1
gene 1 12 23 -0.0385355 0 69 -0.0385355 1
gene 1 13 23 0.824995 0 70 0.824995 1
gene 1 14 23 -0.11416 0 71 -0.11416 1
gene 1 15 23 -0.351605 0 72 -0.351605 1
gene 1 16 23 0.0926372 0 73 0.0926372 1
gene 1 17 23 0.198323 0 74 0.198323 1
gene 1 18 23 0.0945905 0 75 0.0945905 1
gene 1 19 23 0.333247 0 76 0.333247 1
gene 1 8 26 1.4632 0 84 1.4632 1
gene 1 26 22 -0.619655 0 85 -0.619655 1
gene 1 4 26 -0.59403 0 102 -0.59403 1
gene 1 4 34 0.498653 0 113 0.498653 1
gene 1 34 22 -0.106869 0 114 -0.106869 1
gene 1 9 37 1 0 119 0 1
gene 1 37 21 -0.159809 0 120 0 1
gene 1 21 23 1.04694 0 123 1.04694 1
gene 1 14 37 -0.945395 0 165 -0.945395 1
genomeend 1573

genomestart 1573
trait 1 0 0.353847 0.145896 0.103339 0 0 0 0.242799 
node 1 1 1 1 0
node 2 1 1 1 0
node 3 1 1 1 0
node 4 1 1 1 0
node 5 1 1 1 0
node 6 1 1 1 0
node 7 1 1 1 0
node 8 1 1 1 0
node 9 1 1 1 0
node 10 1 1 1 0
node 11 1 1 1 0
node 12 1 1 1 0
node 13 1 1 1 0
node 14 1 1 1 0
node 15 1 1 1 0
node 16 1 1 1 0
node 17 1 1 1 0
node 18 1 1 1 0
node 19 1 1 3 0
node 20 1 0 2 0
node 21 1 0 2 0
node 22 1 0 2 0
node 23 1 0 2 0
node 26 1 0 0 0
node 34 1 0 0 0
node 37 1 0 0 0
gene 1 1 20 -0.751042 0 1 -0.751042 1
gene 1 2 20 -0.0890626 0 2 -0.0890626 1
gene 1 3 20 -0.814933 0 3 -0.814933 1
gene 1 4 20 -0.184431 0 4 -0.184431 1
gene 1 5 20 0.653491 0 5 0.653491 1
gene 1 6 20 -0.0200111 0 6 -0.0200111 1
gene 1 7 20 0.293168 0 7 0.293168 1
gene 1 8 20 0.736711 0 8 0.736711 1
gene 1 9 20 0.129848 0 9 0.129848 1
gene 1 10 20 1.55469 0 10 1.55469 1
gene 1 11 20 0.244628 0 11 0.244628 1
gene 1 12 20 -0.632747 0 12 -0.632747 1
gene 1 13 20 0.307362 0 13 0.307362 1
gene 1 14 20 -0.910066 0 14 -0.910066 1
gene 1 15 20 0.417623 0 15 0.417623 1
gene 1 16 20 -0.22792 0 16 -0.22792 1
gene 1 17 20 -0.302366 0 17 -0.302366 1
gene 1 18 20 0.0373942 0 18 0.0373942 1
gene 1 19 20 1.88411 0 19 1.88411 1
gene 1 1 21 -0.328445 0 20 -0.328445 1
gene 1 2 21 -0.575503 0 21 -0.575503 1
gene 1 3 21 1.44042 0 22 1.44042 1
gene 1 4 21 -0.506733 0 23 -0.506733 1
gene 1 5 21 -0.0319105 0 24 -0.0319105 1
gene 1 6 21 -0.24167 0 25 -0.24167 1
gene 1 7 21 -0.587385 0 26 -0.587385 1
gene 1 8 21 -1.51689 0 27 -1.51689 1
gene 1 9 21 -0.647017 0 28 -0.647017 1
gene 1 10 21 -0.113103 0 29 -0.113103 1
gene 1 11 21 1.06342 0 30 1.06342 1
gene 1 12 21 -0.986601 0 31 -0.986601 1
gene 1 13 21 -0.788505 0 32 -0.788505 1
gene 1 14 21 -0.129882 0 33 -0.129882 1
gene 1 15 21 1.29489 0 34 1.29489 1
gene 1 16 21 -0.954205 0 35 -0.954205 1
gene 1 17 21 0.380073 0 36 0.380073 1
gene 1 18 21 0.0360102 0 37 0.0360102 1
gene 1 19 21 0.401736 0 38 0.401736 1
gene 1 1 22 0.845765 0 39 0.845765 1
gene 1 2 22 0.932689 0 40 0.932689 1
gene 1 3 22 -0.443347 0 41 -0.443347 1
gene 1 4 22 -0.287899 0 42 -0.287899 1
gene 1 5 22 -1.31425 0 43 -1.31425 1
gene 1 6 22 1.19566 0 44 1.19566 1
gene 1 7 22 -0.255855 0 45 -0.255855 1
gene 1 8 22 0.608495 0 46 0.608495 0
gene 1 9 22 0.0221801 0 47 0.0221801 1
gene 1 10 22 0.225733 0 48 0.225733 1
gene 1 11 22 0.211265 0 49 0.211265 1
gene 1 12 22 1.17452 0 50 1.17452 1
gene 1 13 22 0.818501 0 51 0.818501 1
gene 1 14 22 1.26221 0 52 1.26221 1
gene 1 15 22 -0.426282 0 53 -0.426282 1
gene 1 16 22 0.724912 0 54 0.724912 1
gene 1 17 22 -0.639052 0 55 -0.639052 1
gene 1 18 22 0.195243 0 56 0.195243 1
gene 1 19 22 0.259069 0 57 0.259069 1
gene 1 1 23 0.783471 0 58 0.783471 1
gene 1 2 23 0.466097 0 59 0.466097 1
gene 1 3 23 -0.207357 0 60 -0.207357 1
gene 1 4 23 -0.0584159 0 61 -0.0584159 1
gene 1 5 23 -0.579474 0 62 -0.579474 1
gene 1 6 23 0.772434 0 63 0.772434 1
gene 1 7 23 -0.320951 0 64 -0.320951 1
gene 1 8 23 -0.295151 0 65 -0.295151 1
gene 1 9 23 0.281493 0 66 0.281493 1
gene 1 10 23 0.0673642 0 67 0.0673642 1
gene 1 11 23 -0.679581 0 68 -0.679581 1
gene 1 12 23 -0.0385355 0 69 -0.0385355 1
gene 1 13 23 0.824995 0 70 0.824995 1
gene 1 14 23 -0.11416 0 71 -0.11416 1
gene 1 15 23 -0.351605 0 72 -0.351605 1
gene 1 16 23 0.0926372 0 73 0.0926372 1
gene 1 17 23 0.198323 0 74 0.198323 1
gene 1 18 23 0.0945905 0 75 0.0945905 1
gene 1 19 23 0.333247 0 76 0.333247 1
gene 1 8 26 1.4632 0 84 1.4632 1
gene 1 26 22 -0.619655 0 85 -0.619655 1
gene 1 4 26 -0.59403 0 102 -0.59403 1
gene 1 4 34 0.498653 0 113 0.498653 1
gene 1 34 22 -0.106869 0 114 -0.106869 1
gene 1 9 37 1 0 119 0 1
gene 1 37 21 -0.159809 0 120 0 1
gene 1 21 23 1.04694 0 123 1.04694 1
gene 1 14 37 -0.945395 0 165 -0.945395 1
genomeend 1573

genomestart 1573
trait 1 0 0.353847 0.145896 0.103339 0 0 0 0.242799 
node 1 1 1 1 0
node 2 1 1 1 0
node 3 1 1 1 0
node 4 1 1 1 0
node 5 1 1 1 0
node 6 1 1 1 0
node 7 1 1 1 0
node 8 1 1 1 0
node 9 1 1 1 0
node 10 1 1 1 0
node 11 1 1 1 0
node 12 1 1 1 0
node 13 1 1 1 0
node 14 1 1 1 0
node 15 1 1 1 0
node 16 1 1 1 0
node 17 1 1 1 0
node 18 1 1 1 0
node 19 1 1 3 0
node 20 1 0 2 0
node 21 1 0 2 0
node 22 1 0 2 0
node 23 1 0 2 0
node 26 1 0 0 0
node 34 1 0 0 0
node 37 1 0 0 0
gene 1 1 20 -0.751042 0 1 -0.751042 1
gene 1 2 20 -0.0890626 0 2 -0.0890626 1
gene 1 3 20 -0.814933 0 3 -0.814933 1
gene 1 4 20 -0.184431 0 4 -0.184431 1
gene 1 5 20 0.653491 0 5 0.653491 1
gene 1 6 20 -0.0200111 0 6 -0.0200111 1
gene 1 7 20 0.293168 0 7 0.293168 1
gene 1 8 20 0.736711 0 8 0.736711 1
gene 1 9 20 0.129848 0 9 0.129848 1
gene 1 10 20 1.55469 0 10 1.55469 1
gene 1 11 20 0.244628 0 11 0.244628 1
gene 1 12 20 -0.632747 0 12 -0.632747 1
gene 1 13 20 0.307362 0 13 0.307362 1
gene 1 14 20 -0.910066 0 14 -0.910066 1
gene 1 15 20 0.417623 0 15 0.417623 1
gene 1 16 20 -0.22792 0 16 -0.22792 1
gene 1 17 20 -0.302366 0 17 -0.302366 1
gene 1 18 20 0.0373942 0 18 0.0373942 1
gene 1 19 20 1.88411 0 19 1.88411 1
gene 1 1 21 -0.328445 0 20 -0.328445 1
gene 1 2 21 -0.575503 0 21 -0.575503 1
gene 1 3 21 1.44042 0 22 1.44042 1
gene 1 4 21 -0.506733 0 23 -0.506733 1
gene 1 5 21 -0.0319105 0 24 -0.0319105 1
gene 1 6 21 -0.24167 0 25 -0.24167 1
gene 1 7 21 -0.587385 0 26 -0.587385 1
gene 1 8 21 -1.51689 0 27 -1.51689 1
gene 1 9 21 -0.647017 0 28 -0.647017 1
gene 1 10 21 -0.113103 0 29 -0.113103 1
gene 1 11 21 1.06342 0 30 1.06342 1
gene 1 12 21 -0.986601 0 31 -0.986601 1
gene 1 13 21 -0.788505 0 32 -0.788505 1
gene 1 14 21 -0.129882 0 33 -0.129882 1
gene 1 15 21 1.29489 0 34 1.29489 1
gene 1 16 21 -0.954205 0 35 -0.954205 1
gene 1 17 21 0.380073 0 36 0.380073 1
gene 1 18 21 0.0360102 0 37 0.0360102 1
gene 1 19 21 0.401736 0 38 0.401736 1
gene 1 1 22 0.845765 0 39 0.845765 1
gene 1 2 22 0.932689 0 40 0.932689 1
gene 1 3 22 -0.443347 0 41 -0.443347 1
gene 1 4 22 -0.287899 0 42 -0.287899 1
gene 1 5 22 -1.31425 0 43 -1.31425 1
gene 1 6 22 1.19566 0 44 1.19566 1
gene 1 7 22 -0.255855 0 45 -0.255855 1
gene 1 8 22 0.608495 0 46 0.608495 0
gene 1 9 22 0.0221801 0 47 0.0221801 1
gene 1 10 22 0.225733 0 48 0.225733 1
gene 1 11 22 0.211265 0 49 0.211265 1
gene 1 12 22 1.17452 0 50 1.17452 1
gene 1 13 22 0.818501 0 51 0.818501 1
gene 1 14 22 1.26221 0 52 1.26221 1
gene 1 15 22 -0.426282 0 53 -0.426282 1
gene 1 16 22 0.724912 0 54 0.724912 1
gene 1 17 22 -0.639052 0 55 -0.639052 1
gene 1 18 22 0.195243 0 56 0.195243 1
gene 1 19 22 0.259069 0 57 0.259069 1
gene 1 1 23 0.783471 0 58 0.783471 1
gene 1 2 23 0.466097 0 59 0.466097 1
gene 1 3 23 -0.207357 0 60 -0.207357 1
gene 1 4 23 -0.0584159 0 61 -0.0584159 1
gene 1 5 23 -0.579474 0 62 -0.579474 1
gene 1 6 23 0.772434 0 63 0.772434 1
gene 1 7 23 -0.320951 0 64 -0.320951 1
gene 1 8 23 -0.295151 0 65 -0.295151 1
gene 1 9 23 0.281493 0 66 0.281493 1
gene 1 10 23 0.0673642 0 67 0.0673642 1
gene 1 11 23 -0.679581 0 68 -0.679581 1
gene 1 12 23 -0.0385355 0 69 -0.0385355 1
gene 1 13 23 0.824995 0 70 0.824995 1
gene 1 14 23 -0.11416 0 71 -0.11416 1
gene 1 15 23 -0.351605 0 72 -0.351605 1
gene 1 16 23 0.0926372 0 73 0.0926372 1
gene 1 17 23 0.198323 0 74 0.198323 1
gene 1 18 23 0.0945905 0 75 0.0945905 1
gene 1 19 23 0.333247 0 76 0.333247 1
gene 1 8 26 1.4632 0 84 1.4632 1
gene 1 26 22 -0.619655 0 85 -0.619655 1
gene 1 4 26 -0.59403 0 102 -0.59403 1
gene 1 4 34 0.498653 0 113 0.498653 1
gene 1 34 22 -0.106869 0 114 -0.106869 1
gene 1 9 37 1 0 119 0 1
gene 1 37 21 -0.159809 0 120 0 1
gene 1 21 23 1.04694 0 123 1.04694 1
gene 1 14 37 -0.945395 0 165 -0.945395 1
genomeend 1573

genomestart 1573
trait 1 0 0.353847 0.145896 0.103339 0 0 0 0.242799 
node 1 1 1 1 0
node 2 1 1 1 0
node 3 1 1 1 0
node 4 1 1 1 0
node 5 1 1 1 0
node 6 1 1 1 0
node 7 1 1 1 0
node 8 1 1 1 0
node 9 1 1 1 0
node 10 1 1 1 0
node 11 1 1 1 0
node 12 1 1 1 0
node 13 1 1 1 0
node 14 1 1 1 0
node 15 1 1 1 0
node 16 1 1 1 0
node 17 1 1 1 0
node 18 1 1 1 0
node 19 1 1 3 0
node 20 1 0 2 0
node 21 1 0 2 0
node 22 1 0 2 0
node 23 1 0 2 0
node 26 1 0 0 0
node 34 1 0 0 0
node 37 1 0 0 0
gene 1 1 20 -0.751042 0 1 -0.751042 1
gene 1 2 20 -0.0890626 0 2 -0.0890626 1
gene 1 3 20 -0.814933 0 3 -0.814933 1
gene 1 4 20 -0.184431 0 4 -0.184431 1
gene 1 5 20 0.653491 0 5 0.653491 1
gene 1 6 20 -0.0200111 0 6 -0.0200111 1
gene 1 7 20 0.293168 0 7 0.293168 1
gene 1 8 20 0.736711 0 8 0.736711 1
gene 1 9 20 0.129848 0 9 0.129848 1
gene 1 10 20 1.55469 0 10 1.55469 1
gene 1 11 20 0.244628 0 11 0.244628 1
gene 1 12 20 -0.632747 0 12 -0.632747 1
gene 1 13 20 0.307362 0 13 0.307362 1
gene 1 14 20 -0.910066 0 14 -0.910066 1
gene 1 15 20 0.417623 0 15 0.417623 1
gene 1 16 20 -0.22792 0 16 -0.22792 1
gene 1 17 20 -0.302366 0 17 -0.302366 1
gene 1 18 20 0.0373942 0 18 0.0373942 1
gene 1 19 20 1.88411 0 19 1.88411 1
gene 1 1 21 -0.328445 0 20 -0.328445 1
gene 1 2 21 -0.575503 0 21 -0.575503 1
gene 1 3 21 1.44042 0 22 1.44042 1
gene 1 4 21 -0.506733 0 23 -0.506733 1
gene 1 5 21 -0.0319105 0 24 -0.0319105 1
gene 1 6 21 -0.24167 0 25 -0.24167 1
gene 1 7 21 -0.587385 0 26 -0.587385 1
gene 1 8 21 -1.51689 0 27 -1.51689 1
gene 1 9 21 -0.647017 0 28 -0.647017 1
gene 1 10 21 -0.113103 0 29 -0.113103 1
gene 1 11 21 1.06342 0 30 1.06342 1
gene 1 12 21 -0.986601 0 31 -0.986601 1
gene 1 13 21 -0.788505 0 32 -0.788505 1
gene 1 14 21 -0.129882 0 33 -0.129882 1
gene 1 15 21 1.29489 0 34 1.29489 1
gene 1 16 21 -0.954205 0 35 -0.954205 1
gene 1 17 21 0.380073 0 36 0.380073 1
gene 1 18 21 0.0360102 0 37 0.0360102 1
gene 1 19 21 0.401736 0 38 0.401736 1
gene 1 1 22 0.845765 0 39 0.845765 1
gene 1 2 22 0.932689 0 40 0.932689 1
gene 1 3 22 -0.443347 0 41 -0.443347 1
gene 1 4 22 -0.287899 0 42 -0.287899 1
gene 1 5 22 -1.31425 0 43 -1.31425 1
gene 1 6 22 1.19566 0 44 1.19566 1
gene 1 7 22 -0.255855 0 45 -0.255855 1
gene 1 8 22 0.608495 0 46 0.608495 0
gene 1 9 22 0.0221801 0 47 0.0221801 1
gene 1 10 22 0.225733 0 48 0.225733 1
gene 1 11 22 0.211265 0 49 0.211265 1
gene 1 12 22 1.17452 0 50 1.17452 1
gene 1 13 22 0.818501 0 51 0.818501 1
gene 1 14 22 1.26221 0 52 1.26221 1
gene 1 15 22 -0.426282 0 53 -0.426282 1
gene 1 16 22 0.724912 0 54 0.724912 1
gene 1 17 22 -0.639052 0 55 -0.639052 1
gene 1 18 22 0.195243 0 56 0.195243 1
gene 1 19 22 0.259069 0 57 0.259069 1
gene 1 1 23 0.783471 0 58 0.783471 1
gene 1 2 23 0.466097 0 59 0.466097 1
gene 1 3 23 -0.207357 0 60 -0.207357 1
gene 1 4 23 -0.0584159 0 61 -0.0584159 1
gene 1 5 23 -0.579474 0 62 -0.579474 1
gene 1 6 23 0.772434 0 63 0.772434 1
gene 1 7 23 -0.320951 0 64 -0.320951 1
gene 1 8 23 -0.295151 0 65 -0.295151 1
gene 1 9 23 0.281493 0 66 0.281493 1
gene 1 10 23 0.0673642 0 67 0.0673642 1
gene 1 11 23 -0.679581 0 68 -0.679581 1
gene 1 12 23 -0.0385355 0 69 -0.0385355 1
gene 1 13 23 0.824995 0 70 0.824995 1
gene 1 14 23 -0.11416 0 71 -0.11416 1
gene 1 15 23 -0.351605 0 72 -0.351605 1
gene 1 16 23 0.0926372 0 73 0.0926372 1
gene 1 17 23 0.198323 0 74 0.198323 1
gene 1 18 23 0.0945905 0 75 0.0945905 1
gene 1 19 23 0.333247 0 76 0.333247 1
gene 1 8 26 1.4632 0 84 1.4632 1
gene 1 26 22 -0.619655 0 85 -0.619655 1
gene 1 4 26 -0.59403 0 102 -0.59403 1
gene 1 4 34 0.498653 0 113 0.498653 1
gene 1 34 22 -0.106869 0 114 -0.106869 1
gene 1 9 37 1 0 119 0 1
gene 1 37 21 -0.159809 0 120 0 1
gene 1 21 23 1.04694 0 123 1.04694 1
gene 1 14 37 -0.945395 0 165 -0.945395 1
genomeend 1573

genomestart 1573
trait 1 0 0.353847 0.145896 0.103339 0 0 0 0.242799 
node 1 1 1 1 0
node 2 1 1 1 0
node 3 1 1 1 0
node 4 1 1 1 0
node 5 1 1 1 0
node 6 1 1 1 0
node 7 1 1 1 0
node 8 1 1 1 0
node 9 1 1 1 0
node 10 1 1 1 0
node 11 1 1 1 0
node 12 1 1 1 0
node 13 1 1 1 0
node 14 1 1 1 0
node 15 1 1 1 0
node 16 1 1 1 0
node 17 1 1 1 0
node 18 1 1 1 0
node 19 1 1 3 0
node 20 1 0 2 0
node 21 1 0 2 0
node 22 1 0 2 0
node 23 1 0 2 0
node 26 1 0 0 0
node 34 1 0 0 0
node 37 1 0 0 0
gene 1 1 20 -0.751042 0 1 -0.751042 1
gene 1 2 20 -0.0890626 0 2 -0.0890626 1
gene 1 3 20 -0.814933 0 3 -0.814933 1
gene 1 4 20 -0.184431 0 4 -0.184431 1
gene 1 5 20 0.653491 0 5 0.653491 1
gene 1 6 20 -0.0200111 0 6 -0.0200111 1
gene 1 7 20 0.293168 0 7 0.293168 1
gene 1 8 20 0.736711 0 8 0.736711 1
gene 1 9 20 0.129848 0 9 0.129848 1
gene 1 10 20 1.55469 0 10 1.55469 1
gene 1 11 20 0.244628 0 11 0.244628 1
gene 1 12 20 -0.632747 0 12 -0.632747 1
gene 1 13 20 0.307362 0 13 0.307362 1
gene 1 14 20 -0.910066 0 14 -0.910066 1
gene 1 15 20 0.417623 0 15 0.417623 1
gene 1 16 20 -0.22792 0 16 -0.22792 1
gene 1 17 20 -0.302366 0 17 -0.302366 1
gene 1 18 20 0.0373942 0 18 0.0373942 1
gene 1 19 20 1.88411 0 19 1.88411 1
gene 1 1 21 -0.328445 0 20 -0.328445 1
gene 1 2 21 -0.575503 0 21 -0.575503 1
gene 1 3 21 1.44042 0 22 1.44042 1
gene 1 4 21 -0.506733 0 23 -0.506733 1
gene 1 5 21 -0.0319105 0 24 -0.0319105 1
gene 1 6 21 -0.24167 0 25 -0.24167 1
gene 1 7 21 -0.587385 0 26 -0.587385 1
gene 1 8 21 -1.51689 0 27 -1.51689 1
gene 1 9 21 -0.647017 0 28 -0.647017 1
gene 1 10 21 -0.113103 0 29 -0.113103 1
gene 1 11 21 1.06342 0 30 1.06342 1
gene 1 12 21 -0.986601 0 31 -0.986601 1
gene 1 13 21 -0.788505 0 32 -0.788505 1
gene 1 14 21 -0.129882 0 33 -0.129882 1
gene 1 15 21 1.29489 0 34 1.29489 1
gene 1 16 21 -0.954205 0 35 -0.954205 1
gene 1 17 21 0.380073 0 36 0.380073 1
gene 1 18 21 0.0360102 0 37 0.0360102 1
gene 1 19 21 0.401736 0 38 0.401736 1
gene 1 1 22 0.845765 0 39 0.845765 1
gene 1 2 22 0.932689 0 40 0.932689 1
gene 1 3 22 -0.443347 0 41 -0.443347 1
gene 1 4 22 -0.287899 0 42 -0.287899 1
gene 1 5 22 -1.31425 0 43 -1.31425 1
gene 1 6 22 1.19566 0 44 1.19566 1
gene 1 7 22 -0.255855 0 45 -0.255855 1
gene 1 8 22 0.608495 0 46 0.608495 0
gene 1 9 22 0.0221801 0 47 0.0221801 1
gene 1 10 22 0.225733 0 48 0.225733 1
gene 1 11 22 0.211265 0 49 0.211265 1
gene 1 12 22 1.17452 0 50 1.17452 1
gene 1 13 22 0.818501 0 51 0.818501 1
gene 1 14 22 1.26221 0 52 1.26221 1
gene 1 15 22 -0.426282 0 53 -0.426282 1
gene 1 16 22 0.724912 0 54 0.724912 1
gene 1 17 22 -0.639052 0 55 -0.639052 1
gene 1 18 22 0.195243 0 56 0.195243 1
gene 1 19 22 0.259069 0 57 0.259069 1
gene 1 1 23 0.783471 0 58 0.783471 1
gene 1 2 23 0.466097 0 59 0.466097 1
gene 1 3 23 -0.207357 0 60 -0.207357 1
gene 1 4 23 -0.0584159 0 61 -0.0584159 1
gene 1 5 23 -0.579474 0 62 -0.579474 1
gene 1 6 23 0.772434 0 63 0.772434 1
gene 1 7 23 -0.320951 0 64 -0.320951 1
gene 1 8 23 -0.295151 0 65 -0.295151 1
gene 1 9 23 0.281493 0 66 0.281493 1
gene 1 10 23 0.0673642 0 67 0.0673642 1
gene 1 11 23 -0.679581 0 68 -0.679581 1
gene 1 12 23 -0.0385355 0 69 -0.0385355 1
gene 1 13 23 0.824995 0 70 0.824995 1
gene 1 14 23 -0.11416 0 71 -0.11416 1
gene 1 15 23 -0.351605 0 72 -0.351605 1
gene 1 16 23 0.0926372 0 73 0.0926372 1
gene 1 17 23 0.198323 0 74 0.198323 1
gene 1 18 23 0.0945905 0 75 0.0945905 1
gene 1 19 23 0.333247 0 76 0.333247 1
gene 1 8 26 1.4632 0 84 1.4632 1
gene 1 26 22 -0.619655 0 85 -0.619655 1
gene 1 4 26 -0.59403 0 102 -0.59403 1
gene 1 4 34 0.498653 0 113 0.498653 1
gene 1 34 22 -0.106869 0 114 -0.106869 1
gene 1 9 37 1 0 119 0 1
gene 1 37 21 -0.159809 0 120 0 1
gene 1 21 23 1.04694 0 123 1.04694 1
gene 1 14 37 -0.945395 0 165 -0.945395 1
genomeend 1573

genomestart 1573
trait 1 0 0.353847 0.145896 0.103339 0 0 0 0.242799 
node 1 1 1 1 0
node 2 1 1 1 0
node 3 1 1 1 0
node 4 1 1 1 0
node 5 1 1 1 0
node 6 1 1 1 0
node 7 1 1 1 0
node 8 1 1 1 0
node 9 1 1 1 0
node 10 1 1 1 0
node 11 1 1 1 0
node 12 1 1 1 0
node 13 1 1 1 0
node 14 1 1 1 0
node 15 1 1 1 0
node 16 1 1 1 0
node 17 1 1 1 0
node 18 1 1 1 0
node 19 1 1 3 0
node 20 1 0 2 0
node 21 1 0 2 0
node 22 1 0 2 0
node 23 1 0 2 0
node 26 1 0 0 0
node 34 1 0 0 0
node 37 1 0 0 0
gene 1 1 20 -0.751042 0 1 -0.751042 1
gene 1 2 20 -0.0890626 0 2 -0.0890626 1
gene 1 3 20 -0.814933 0 3 -0.814933 1
gene 1 4 20 -0.184431 0 4 -0.184431 1
gene 1 5 20 0.653491 0 5 0.653491 1
gene 1 6 20 -0.0200111 0 6 -0.0200111 1
gene 1 7 20 0.293168 0 7 0.293168 1
gene 1 8 20 0.736711 0 8 0.736711 1
gene 1 9 20 0.129848 0 9 0.129848 1
gene 1 10 20 1.55469 0 10 1.55469 1
gene 1 11 20 0.244628 0 11 0.244628 1
gene 1 12 20 -0.632747 0 12 -0.632747 1
gene 1 13 20 0.307362 0 13 0.307362 1
gene 1 14 20 -0.910066 0 14 -0.910066 1
gene 1 15 20 0.417623 0 15 0.417623 1
gene 1 16 20 -0.22792 0 16 -0.22792 1
gene 1 17 20 -0.302366 0 17 -0.302366 1
gene 1 18 20 0.0373942 0 18 0.0373942 1
gene 1 19 20 1.88411 0 19 1.88411 1
gene 1 1 21 -0.328445 0 20 -0.328445 1
gene 1 2 21 -0.575503 0 21 -0.575503 1
gene 1 3 21 1.44042 0 22 1.44042 1
gene 1 4 21 -0.506733 0 23 -0.506733 1
gene 1 5 21 -0.0319105 0 24 -0.0319105 1
gene 1 6 21 -0.24167 0 25 -0.24167 1
gene 1 7 21 -0.587385 0 26 -0.587385 1
gene 1 8 21 -1.51689 0 27 -1.51689 1
gene 1 9 21 -0.647017 0 28 -0.647017 1
gene 1 10 21 -0.113103 0 29 -0.113103 1
gene 1 11 21 1.06342 0 30 1.06342 1
gene 1 12 21 -0.986601 0 31 -0.986601 1
gene 1 13 21 -0.788505 0 32 -0.788505 1
gene 1 14 21 -0.129882 0 33 -0.129882 1
gene 1 15 21 1.29489 0 34 1.29489 1
gene 1 16 21 -0.954205 0 35 -0.954205 1
gene 1 17 21 0.380073 0 36 0.380073 1
gene 1 18 21 0.0360102 0 37 0.0360102 1
gene 1 19 21 0.401736 0 38 0.401736 1
gene 1 1 22 0.845765 0 39 0.845765 1
gene 1 2 22 0.932689 0 40 0.932689 1
gene 1 3 22 -0.443347 0 41 -0.443347 1
gene 1 4 22 -0.287899 0 42 -0.287899 1
gene 1 5 22 -1.31425 0 43 -1.31425 1
gene 1 6 22 1.19566 0 44 1.19566 1
gene 1 7 22 -0.255855 0 45 -0.255855 1
gene 1 8 22 0.608495 0 46 0.608495 0
gene 1 9 22 0.0221801 0 47 0.0221801 1
gene 1 10 22 0.225733 0 48 0.225733 1
gene 1 11 22 0.211265 0 49 0.211265 1
gene 1 12 22 1.17452 0 50 1.17452 1
gene 1 13 22 0.818501 0 51 0.818501 1
gene 1 14 22 1.26221 0 52 1.26221 1
gene 1 15 22 -0.426282 0 53 -0.426282 1
gene 1 16 22 0.724912 0 54 0.724912 1
gene 1 17 22 -0.639052 0 55 -0.639052 1
gene 1 18 22 0.195243 0 56 0.195243 1
gene 1 19 22 0.259069 0 57 0.259069 1
gene 1 1 23 0.783471 0 58 0.783471 1
gene 1 2 23 0.466097 0 59 0.466097 1
gene 1 3 23 -0.207357 0 60 -0.207357 1
gene 1 4 23 -0.0584159 0 61 -0.0584159 1
gene 1 5 23 -0.579474 0 62 -0.579474 1
gene 1 6 23 0.772434 0 63 0.772434 1
gene 1 7 23 -0.320951 0 64 -0.320951 1
gene 1 8 23 -0.295151 0 65 -0.295151 1
gene 1 9 23 0.281493 0 66 0.281493 1
gene 1 10 23 0.0673642 0 67 0.0673642 1
gene 1 11 23 -0.679581 0 68 -0.679581 1
gene 1 12 23 -0.0385355 0 69 -0.0385355 1
gene 1 13 23 0.824995 0 70 0.824995 1
gene 1 14 23 -0.11416 0 71 -0.11416 1
gene 1 15 23 -0.351605 0 72 -0.351605 1
gene 1 16 23 0.0926372 0 73 0.0926372 1
gene 1 17 23 0.198323 0 74 0.198323 1
gene 1 18 23 0.0945905 0 75 0.0945905 1
gene 1 19 23 0.333247 0 76 0.333247 1
gene 1 8 26 1.4632 0 84 1.4632 1
gene 1 26 22 -0.619655 0 85 -0.619655 1
gene 1 4 26 -0.59403 0 102 -0.59403 1
gene 1 4 34 0.498653 0 113 0.498653 1
gene 1 34 22 -0.106869 0 114 -0.106869 1
gene 1 9 37 1 0 119 0 1
gene 1 37 21 -0.159809 0 120 0 1
gene 1 21 23 1.04694 0 123 1.04694 1
gene 1 14 37 -0.945395 0 165 -0.945395 1
genomeend 1573

genomestart 1573
trait 1 0 0.353847 0.145896 0.103339 0 0 0 0.242799 
node 1 1 1 1 0
node 2 1 1 1 0
node 3 1 1 1 0
node 4 1 1 1 0
node 5 1 1 1 0
node 6 1 1 1 0
node 7 1 1 1 0
node 8 1 1 1 0
node 9 1 1 1 0
node 10 1 1 1 0
node 11 1 1 1 0
node 12 1 1 1 0
node 13 1 1 1 0
node 14 1 1 1 0
node 15 1 1 1 0
node 16 1 1 1 0
node 17 1 1 1 0
node 18 1 1 1 0
node 19 1 1 3 0
node 20 1 0 2 0
node 21 1 0 2 0
node 22 1 0 2 0
node 23 1 0 2 0
node 26 1 0 0 0
node 34 1 0 0 0
node 37 1 0 0 0
gene 1 1 20 -0.751042 0 1 -0.751042 1
gene 1 2 20 -0.0890626 0 2 -0.0890626 1
gene 1 3 20 -0.814933 0 3 -0.814933 1
gene 1 4 20 -0.184431 0 4 -0.184431 1
gene 1 5 20 0.653491 0 5 0.653491 1
gene 1 6 20 -0.0200111 0 6 -0.0200111 1
gene 1 7 20 0.293168 0 7 0.293168 1
gene 1 8 20 0.736711 0 8 0.736711 1
gene 1 9 20 0.129848 0 9 0.129848 1
gene 1 10 20 1.55469 0 10 1.55469 1
gene 1 11 20 0.244628 0 11 0.244628 1
gene 1 12 20 -0.632747 0 12 -0.632747 1
gene 1 13 20 0.307362 0 13 0.307362 1
gene 1 14 20 -0.910066 0 14 -0.910066 1
gene 1 15 20 0.417623 0 15 0.417623 1
gene 1 16 20 -0.22792 0 16 -0.22792 1
gene 1 17 20 -0.302366 0 17 -0.302366 1
gene 1 18 20 0.0373942 0 18 0.0373942 1
gene 1 19 20 1.88411 0 19 1.88411 1
gene 1 1 21 -0.328445 0 20 -0.328445 1
gene 1 2 21 -0.575503 0 21 -0.575503 1
gene 1 3 21 1.44042 0 22 1.44042 1
gene 1 4 21 -0.506733 0 23 -0.506733 1
gene 1 5 21 -0.0319105 0 24 -0.0319105 1
gene 1 6 21 -0.24167 0 25 -0.24167 1
gene 1 7 21 -0.587385 0 26 -0.587385 1
gene 1 8 21 -1.51689 0 27 -1.51689 1
gene 1 9 21 -0.647017 0 28 -0.647017 1
gene 1 10 21 -0.113103 0 29 -0.113103 1
gene 1 11 21 1.06342 0 30 1.06342 1
gene 1 12 21 -0.986601 0 31 -0.986601 1
gene 1 13 21 -0.788505 0 32 -0.788505 1
gene 1 14 21 -0.129882 0 33 -0.129882 1
gene 1 15 21 1.29489 0 34 1.29489 1
gene 1 16 21 -0.954205 0 35 -0.954205 1
gene 1 17 21 0.380073 0 36 0.380073 1
gene 1 18 21 0.0360102 0 37 0.0360102 1
gene 1 19 21 0.401736 0 38 0.401736 1
gene 1 1 22 0.845765 0 39 0.845765 1
gene 1 2 22 0.932689 0 40 0.932689 1
gene 1 3 22 -0.443347 0 41 -0.443347 1
gene 1 4 22 -0.287899 0 42 -0.287899 1
gene 1 5 22 -1.31425 0 43 -1.31425 1
gene 1 6 22 1.19566 0 44 1.19566 1
gene 1 7 22 -0.255855 0 45 -0.255855 1
gene 1 8 22 0.608495 0 46 0.608495 0
gene 1 9 22 0.0221801 0 47 0.0221801 1
gene 1 10 22 0.225733 0 48 0.225733 1
gene 1 11 22 0.211265 0 49 0.211265 1
gene 1 12 22 1.17452 0 50 1.17452 1
gene 1 13 22 0.818501 0 51 0.818501 1
gene 1 14 22 1.26221 0 52 1.26221 1
gene 1 15 22 -0.426282 0 53 -0.426282 1
gene 1 16 22 0.724912 0 54 0.724912 1
gene 1 17 22 -0.639052 0 55 -0.639052 1
gene 1 18 22 0.195243 0 56 0.195243 1
gene 1 19 22 0.259069 0 57 0.259069 1
gene 1 1 23 0.783471 0 58 0.783471 1
gene 1 2 23 0.466097 0 59 0.466097 1
gene 1 3 23 -0.207357 0 60 -0.207357 1
gene 1 4 23 -0.0584159 0 61 -0.0584159 1
gene 1 5 23 -0.579474 0 62 -0.579474 1
gene 1 6 23 0.772434 0 63 0.772434 1
gene 1 7 23 -0.320951 0 64 -0.320951 1
gene 1 8 23 -0.295151 0 65 -0.295151 1
gene 1 9 23 0.281493 0 66 0.281493 1
gene 1 10 23 0.0673642 0 67 0.0673642 1
gene 1 11 23 -0.679581 0 68 -0.679581 1
gene 1 12 23 -0.0385355 0 69 -0.0385355 1
gene 1 13 23 0.824995 0 70 0.824995 1
gene 1 14 23 -0.11416 0 71 -0.11416 1
gene 1 15 23 -0.351605 0 72 -0.351605 1
gene 1 16 23 0.0926372 0 73 0.0926372 1
gene 1 17 23 0.198323 0 74 0.198323 1
gene 1 18 23 0.0945905 0 75 0.0945905 1
gene 1 19 23 0.333247 0 76 0.333247 1
gene 1 8 26 1.4632 0 84 1.4632 1
gene 1 26 22 -0.619655 0 85 -0.619655 1
gene 1 4 26 -0.59403 0 102 -0.59403 1
gene 1 4 34 0.498653 0 113 0.498653 1
gene 1 34 22 -0.106869 0 114 -0.106869 1
gene 1 9 37 1 0 119 0 1
gene 1 37 21 -0.159809 0 120 0 1
gene 1 21 23 1.04694 0 123 1.04694 1
gene 1 14 37 -0.945395 0 165 -0.945395 1
genomeend 1573

genomestart 1573
trait 1 0 0.353847 0.145896 0.103339 0 0 0 0.242799 
node 1 1 1 1 0
node 2 1 1 1 0
node 3 1 1 1 0
node 4 1 1 1 0
node 5 1 1 1 0
node 6 1 1 1 0
node 7 1 1 1 0
node 8 1 1 1 0
node 9 1 1 1 0
node 10 1 1 1 0
node 11 1 1 1 0
node 12 1 1 1 0
node 13 1 1 1 0
node 14 1 1 1 0
node 15 1 1 1 0
node 16 1 1 1 0
node 17 1 1 1 0
node 18 1 1 1 0
node 19 1 1 3 0
node 20 1 0 2 0
node 21 1 0 2 0
node 22 1 0 2 0
node 23 1 0 2 0
node 26 1 0 0 0
node 34 1 0 0 0
node 37 1 0 0 0
gene 1 1 20 -0.751042 0 1 -0.751042 1
gene 1 2 20 -0.0890626 0 2 -0.0890626 1
gene 1 3 20 -0.814933 0 3 -0.814933 1
gene 1 4 20 -0.184431 0 4 -0.184431 1
gene 1 5 20 0.653491 0 5 0.653491 1
gene 1 6 20 -0.0200111 0 6 -0.0200111 1
gene 1 7 20 0.293168 0 7 0.293168 1
gene 1 8 20 0.736711 0 8 0.736711 1
gene 1 9 20 0.129848 0 9 0.129848 1
gene 1 10 20 1.55469 0 10 1.55469 1
gene 1 11 20 0.244628 0 11 0.244628 1
gene 1 12 20 -0.632747 0 12 -0.632747 1
gene 1 13 20 0.307362 0 13 0.307362 1
gene 1 14 20 -0.910066 0 14 -0.910066 1
gene 1 15 20 0.417623 0 15 0.417623 1
gene 1 16 20 -0.22792 0 16 -0.22792 1
gene 1 17 20 -0.302366 0 17 -0.302366 1
gene 1 18 20 0.0373942 0 18 0.0373942 1
gene 1 19 20 1.88411 0 19 1.88411 1
gene 1 1 21 -0.328445 0 20 -0.328445 1
gene 1 2 21 -0.575503 0 21 -0.575503 1
gene 1 3 21 1.44042 0 22 1.44042 1
gene 1 4 21 -0.506733 0 23 -0.506733 1
gene 1 5 21 -0.0319105 0 24 -0.0319105 1
gene 1 6 21 -0.24167 0 25 -0.24167 1
gene 1 7 21 -0.587385 0 26 -0.587385 1
gene 1 8 21 -1.51689 0 27 -1.51689 1
gene 1 9 21 -0.647017 0 28 -0.647017 1
gene 1 10 21 -0.113103 0 29 -0.113103 1
gene 1 11 21 1.06342 0 30 1.06342 1
gene 1 12 21 -0.986601 0 31 -0.986601 1
gene 1 13 21 -0.788505 0 32 -0.788505 1
gene 1 14 21 -0.129882 0 33 -0.129882 1
gene 1 15 21 1.29489 0 34 1.29489 1
gene 1 16 21 -0.954205 0 35 -0.954205 1
gene 1 17 21 0.380073 0 36 0.380073 1
gene 1 18 21 0.0360102 0 37 0.0360102 1
gene 1 19 21 0.401736 0 38 0.401736 1
gene 1 1 22 0.845765 0 39 0.845765 1
gene 1 2 22 0.932689 0 40 0.932689 1
gene 1 3 22 -0.443347 0 41 -0.443347 1
gene 1 4 22 -0.287899 0 42 -0.287899 1
gene 1 5 22 -1.31425 0 43 -1.31425 1
gene 1 6 22 1.19566 0 44 1.19566 1
gene 1 7 22 -0.255855 0 45 -0.255855 1
gene 1 8 22 0.608495 0 46 0.608495 0
gene 1 9 22 0.0221801 0 47 0.0221801 1
gene 1 10 22 0.225733 0 48 0.225733 1
gene 1 11 22 0.211265 0 49 0.211265 1
gene 1 12 22 1.17452 0 50 1.17452 1
gene 1 13 22 0.818501 0 51 0.818501 1
gene 1 14 22 1.26221 0 52 1.26221 1
gene 1 15 22 -0.426282 0 53 -0.426282 1
gene 1 16 22 0.724912 0 54 0.724912 1
gene 1 17 22 -0.639052 0 55 -0.639052 1
gene 1 18 22 0.195243 0 56 0.195243 1
gene 1 19 22 0.259069 0 57 0.259069 1
gene 1 1 23 0.783471 0 58 0.783471 1
gene 1 2 23 0.466097 0 59 0.466097 1
gene 1 3 23 -0.207357 0 60 -0.207357 1
gene 1 4 23 -0.0584159 0 61 -0.0584159 1
gene 1 5 23 -0.579474 0 62 -0.579474 1
gene 1 6 23 0.772434 0 63 0.772434 1
gene 1 7 23 -0.320951 0 64 -0.320951 1
gene 1 8 23 -0.295151 0 65 -0.295151 1
gene 1 9 23 0.281493 0 66 0.281493 1
gene 1 10 23 0.0673642 0 67 0.0673642 1
gene 1 11 23 -0.679581 0 68 -0.679581 1
gene 1 12 23 -0.0385355 0 69 -0.0385355 1
gene 1 13 23 0.824995 0 70 0.824995 1
gene 1 14 23 -0.11416 0 71 -0.11416 1
gene 1 15 23 -0.351605 0 72 -0.351605 1
gene 1 16 23 0.0926372 0 73 0.0926372 1
gene 1 17 23 0.198323 0 74 0.198323 1
gene 1 18 23 0.0945905 0 75 0.0945905 1
gene 1 19 23 0.333247 0 76 0.333247 1
gene 1 8 26 1.4632 0 84 1.4632 1
gene 1 26 22 -0.619655 0 85 -0.619655 1
gene 1 4 26 -0.59403 0 102 -0.59403 1
gene 1 4 34 0.498653 0 113 0.498653 1
gene 1 34 22 -0.106869 0 114 -0.106869 1
gene 1 9 37 1 0 119 0 1
gene 1 37 21 -0.159809 0 120 0 1
gene 1 21 23 1.04694 0 123 1.04694 1
gene 1 14 37 -0.945395 0 165 -0.945395 1
genomeend 1573

genomestart 1573
trait 1 0 0.353847 0.145896 0.103339 0 0 0 0.242799 
node 1 1 1 1 0
node 2 1 1 1 0
node 3 1 1 1 0
node 4 1 1 1 0
node 5 1 1 1 0
node 6 1 1 1 0
node 7 1 1 1 0
node 8 1 1 1 0
node 9 1 1 1 0
node 10 1 1 1 0
node 11 1 1 1 0
node 12 1 1 1 0
node 13 1 1 1 0
node 14 1 1 1 0
node 15 1 1 1 0
node 16 1 1 1 0
node 17 1 1 1 0
node 18 1 1 1 0
node 19 1 1 3 0
node 20 1 0 2 0
node 21 1 0 2 0
node 22 1 0 2 0
node 23 1 0 2 0
node 26 1 0 0 0
node 34 1 0 0 0
node 37 1 0 0 0
gene 1 1 20 -0.751042 0 1 -0.751042 1
gene 1 2 20 -0.0890626 0 2 -0.0890626 1
gene 1 3 20 -0.814933 0 3 -0.814933 1
gene 1 4 20 -0.184431 0 4 -0.184431 1
gene 1 5 20 0.653491 0 5 0.653491 1
gene 1 6 20 -0.0200111 0 6 -0.0200111 1
gene 1 7 20 0.293168 0 7 0.293168 1
gene 1 8 20 0.736711 0 8 0.736711 1
gene 1 9 20 0.129848 0 9 0.129848 1
gene 1 10 20 1.55469 0 10 1.55469 1
gene 1 11 20 0.244628 0 11 0.244628 1
gene 1 12 20 -0.632747 0 12 -0.632747 1
gene 1 13 20 0.307362 0 13 0.307362 1
gene 1 14 20 -0.910066 0 14 -0.910066 1
gene 1 15 20 0.417623 0 15 0.417623 1
gene 1 16 20 -0.22792 0 16 -0.22792 1
gene 1 17 20 -0.302366 0 17 -0.302366 1
gene 1 18 20 0.0373942 0 18 0.0373942 1
gene 1 19 20 1.88411 0 19 1.88411 1
gene 1 1 21 -0.328445 0 20 -0.328445 1
gene 1 2 21 -0.575503 0 21 -0.575503 1
gene 1 3 21 1.44042 0 22 1.44042 1
gene 1 4 21 -0.506733 0 23 -0.506733 1
gene 1 5 21 -0.0319105 0 24 -0.0319105 1
gene 1 6 21 -0.24167 0 25 -0.24167 1
gene 1 7 21 -0.587385 0 26 -0.587385 1
gene 1 8 21 -1.51689 0 27 -1.51689 1
gene 1 9 21 -0.647017 0 28 -0.647017 1
gene 1 10 21 -0.113103 0 29 -0.113103 1
gene 1 11 21 1.06342 0 30 1.06342 1
gene 1 12 21 -0.986601 0 31 -0.986601 1
gene 1 13 21 -0.788505 0 32 -0.788505 1
gene 1 14 21 -0.129882 0 33 -0.129882 1
gene 1 15 21 1.29489 0 34 1.29489 1
gene 1 16 21 -0.954205 0 35 -0.954205 1
gene 1 17 21 0.380073 0 36 0.380073 1
gene 1 18 21 0.0360102 0 37 0.0360102 1
gene 1 19 21 0.401736 0 38 0.401736 1
gene 1 1 22 0.845765 0 39 0.845765 1
gene 1 2 22 0.932689 0 40 0.932689 1
gene 1 3 22 -0.443347 0 41 -0.443347 1
gene 1 4 22 -0.287899 0 42 -0.287899 1
gene 1 5 22 -1.31425 0 43 -1.31425 1
gene 1 6 22 1.19566 0 44 1.19566 1
gene 1 7 22 -0.255855 0 45 -0.255855 1
gene 1 8 22 0.608495 0 46 0.608495 0
gene 1 9 22 0.0221801 0 47 0.0221801 1
gene 1 10 22 0.225733 0 48 0.225733 1
gene 1 11 22 0.211265 0 49 0.211265 1
gene 1 12 22 1.17452 0 50 1.17452 1
gene 1 13 22 0.818501 0 51 0.818501 1
gene 1 14 22 1.26221 0 52 1.26221 1
gene 1 15 22 -0.426282 0 53 -0.426282 1
gene 1 16 22 0.724912 0 54 0.724912 1
gene 1 17 22 -0.639052 0 55 -0.639052 1
gene 1 18 22 0.195243 0 56 0.195243 1
gene 1 19 22 0.259069 0 57 0.259069 1
gene 1 1 23 0.783471 0 58 0.783471 1
gene 1 2 23 0.466097 0 59 0.466097 1
gene 1 3 23 -0.207357 0 60 -0.207357 1
gene 1 4 23 -0.0584159 0 61 -0.0584159 1
gene 1 5 23 -0.579474 0 62 -0.579474 1
gene 1 6 23 0.772434 0 63 0.772434 1
gene 1 7 23 -0.320951 0 64 -0.320951 1
gene 1 8 23 -0.295151 0 65 -0.295151 1
gene 1 9 23 0.281493 0 66 0.281493 1
gene 1 10 23 0.0673642 0 67 0.0673642 1
gene 1 11 23 -0.679581 0 68 -0.679581 1
gene 1 12 23 -0.0385355 0 69 -0.0385355 1
gene 1 13 23 0.824995 0 70 0.824995 1
gene 1 14 23 -0.11416 0 71 -0.11416 1
gene 1 15 23 -0.351605 0 72 -0.351605 1
gene 1 16 23 0.0926372 0 73 0.0926372 1
gene 1 17 23 0.198323 0 74 0.198323 1
gene 1 18 23 0.0945905 0 75 0.0945905 1
gene 1 19 23 0.333247 0 76 0.333247 1
gene 1 8 26 1.4632 0 84 1.4632 1
gene 1 26 22 -0.619655 0 85 -0.619655 1
gene 1 4 26 -0.59403 0 102 -0.59403 1
gene 1 4 34 0.498653 0 113 0.498653 1
gene 1 34 22 -0.106869 0 114 -0.106869 1
gene 1 9 37 1 0 119 0 1
gene 1 37 21 -0.159809 0 120 0 1
gene 1 21 23 1.04694 0 123 1.04694 1
gene 1 14 37 -0.945395 0 165 -0.945395 1
genomeend 1573

genomestart 1573
trait 1 0 0.353847 0.145896 0.103339 0 0 0 0.242799 
node 1 1 1 1 0
node 2 1 1 1 0
node 3 1 1 1 0
node 4 1 1 1 0
node 5 1 1 1 0
node 6 1 1 1 0
node 7 1 1 1 0
node 8 1 1 1 0
node 9 1 1 1 0
node 10 1 1 1 0
node 11 1 1 1 0
node 12 1 1 1 0
node 13 1 1 1 0
node 14 1 1 1 0
node 15 1 1 1 0
node 16 1 1 1 0
node 17 1 1 1 0
node 18 1 1 1 0
node 19 1 1 3 0
node 20 1 0 2 0
node 21 1 0 2 0
node 22 1 0 2 0
node 23 1 0 2 0
node 26 1 0 0 0
node 34 1 0 0 0
node 37 1 0 0 0
gene 1 1 20 -0.751042 0 1 -0.751042 1
gene 1 2 20 -0.0890626 0 2 -0.0890626 1
gene 1 3 20 -0.814933 0 3 -0.814933 1
gene 1 4 20 -0.184431 0 4 -0.184431 1
gene 1 5 20 0.653491 0 5 0.653491 1
gene 1 6 20 -0.0200111 0 6 -0.0200111 1
gene 1 7 20 0.293168 0 7 0.293168 1
gene 1 8 20 0.736711 0 8 0.736711 1
gene 1 9 20 0.129848 0 9 0.129848 1
gene 1 10 20 1.55469 0 10 1.55469 1
gene 1 11 20 0.244628 0 11 0.244628 1
gene 1 12 20 -0.632747 0 12 -0.632747 1
gene 1 13 20 0.307362 0 13 0.307362 1
gene 1 14 20 -0.910066 0 14 -0.910066 1
gene 1 15 20 0.417623 0 15 0.417623 1
gene 1 16 20 -0.22792 0 16 -0.22792 1
gene 1 17 20 -0.302366 0 17 -0.302366 1
gene 1 18 20 0.0373942 0 18 0.0373942 1
gene 1 19 20 1.88411 0 19 1.88411 1
gene 1 1 21 -0.328445 0 20 -0.328445 1
gene 1 2 21 -0.575503 0 21 -0.575503 1
gene 1 3 21 1.44042 0 22 1.44042 1
gene 1 4 21 -0.506733 0 23 -0.506733 1
gene 1 5 21 -0.0319105 0 24 -0.0319105 1
gene 1 6 21 -0.24167 0 25 -0.24167 1
gene 1 7 21 -0.587385 0 26 -0.587385 1
gene 1 8 21 -1.51689 0 27 -1.51689 1
gene 1 9 21 -0.647017 0 28 -0.647017 1
gene 1 10 21 -0.113103 0 29 -0.113103 1
gene 1 11 21 1.06342 0 30 1.06342 1
gene 1 12 21 -0.986601 0 31 -0.986601 1
gene 1 13 21 -0.788505 0 32 -0.788505 1
gene 1 14 21 -0.129882 0 33 -0.129882 1
gene 1 15 21 1.29489 0 34 1.29489 1
gene 1 16 21 -0.954205 0 35 -0.954205 1
gene 1 17 21 0.380073 0 36 0.380073 1
gene 1 18 21 0.0360102 0 37 0.0360102 1
gene 1 19 21 0.401736 0 38 0.401736 1
gene 1 1 22 0.845765 0 39 0.845765 1
gene 1 2 22 0.932689 0 40 0.932689 1
gene 1 3 22 -0.443347 0 41 -0.443347 1
gene 1 4 22 -0.287899 0 42 -0.287899 1
gene 1 5 22 -1.31425 0 43 -1.31425 1
gene 1 6 22 1.19566 0 44 1.19566 1
gene 1 7 22 -0.255855 0 45 -0.255855 1
gene 1 8 22 0.608495 0 46 0.608495 0
gene 1 9 22 0.0221801 0 47 0.0221801 1
gene 1 10 22 0.225733 0 48 0.225733 1
gene 1 11 22 0.211265 0 49 0.211265 1
gene 1 12 22 1.17452 0 50 1.17452 1
gene 1 13 22 0.818501 0 51 0.818501 1
gene 1 14 22 1.26221 0 52 1.26221 1
gene 1 15 22 -0.426282 0 53 -0.426282 1
gene 1 16 22 0.724912 0 54 0.724912 1
gene 1 17 22 -0.639052 0 55 -0.639052 1
gene 1 18 22 0.195243 0 56 0.195243 1
gene 1 19 22 0.259069 0 57 0.259069 1
gene 1 1 23 0.783471 0 58 0.783471 1
gene 1 2 23 0.466097 0 59 0.466097 1
gene 1 3 23 -0.207357 0 60 -0.207357 1
gene 1 4 23 -0.0584159 0 61 -0.0584159 1
gene 1 5 23 -0.579474 0 62 -0.579474 1
gene 1 6 23 0.772434 0 63 0.772434 1
gene 1 7 23 -0.320951 0 64 -0.320951 1
gene 1 8 23 -0.295151 0 65 -0.295151 1
