genomestart 698
trait 1 0.115148 0 0.225597 0.353404 0.273356 0.118013 0 0.29531 
node 1 1 1 1 0
node 2 1 1 1 0
node 3 1 1 1 0
node 4 1 1 1 0
node 5 1 1 1 0
node 6 1 1 1 0
node 7 1 1 1 0
node 8 1 1 1 0
node 9 1 1 1 0
node 10 1 1 1 0
node 11 1 1 1 0
node 12 1 1 1 0
node 13 1 1 1 0
node 14 1 1 1 0
node 15 1 1 1 0
node 16 1 1 1 0
node 17 1 1 1 0
node 18 1 1 1 0
node 19 1 1 3 0
node 20 1 0 2 0
node 21 1 0 2 0
node 22 1 0 2 0
node 23 1 0 2 0
node 24 1 0 0 0
node 26 1 0 0 0
node 27 1 0 0 0
node 34 1 0 0 0
node 37 1 0 0 0
node 38 1 0 0 0
gene 1 1 20 1.40532 0 1 1.40532 1
gene 1 2 20 0.450854 0 2 0.450854 1
gene 1 3 20 1.14103 0 3 1.14103 1
gene 1 4 20 -0.00816197 0 4 -0.00816197 1
gene 1 5 20 -0.858469 0 5 -0.858469 1
gene 1 6 20 -0.147974 0 6 -0.147974 1
gene 1 7 20 -0.07403 0 7 -0.07403 1
gene 1 8 20 0.215337 0 8 0.215337 1
gene 1 9 20 -0.795743 0 9 -0.795743 1
gene 1 10 20 -0.858619 0 10 -0.858619 1
gene 1 11 20 0.40829 0 11 0.40829 1
gene 1 12 20 -0.0518961 0 12 -0.0518961 1
gene 1 13 20 -1.58374 0 13 -1.58374 1
gene 1 14 20 -1.25921 0 14 -1.25921 1
gene 1 15 20 -0.490323 0 15 -0.490323 1
gene 1 16 20 0.137049 0 16 0.137049 1
gene 1 17 20 -0.0193554 0 17 -0.0193554 1
gene 1 18 20 -0.188092 0 18 -0.188092 1
gene 1 19 20 0.258357 0 19 0.258357 1
gene 1 1 21 0.328717 0 20 0.328717 1
gene 1 2 21 -0.1428 0 21 -0.1428 1
gene 1 3 21 0.854925 0 22 0.854925 1
gene 1 4 21 0.0715526 0 23 0.0715526 1
gene 1 5 21 -1.07466 0 24 -1.07466 1
gene 1 6 21 -0.670834 0 25 -0.670834 1
gene 1 7 21 0.103581 0 26 0.103581 1
gene 1 8 21 -0.317859 0 27 -0.317859 1
gene 1 9 21 0.684764 0 28 0.684764 1
gene 1 10 21 0.165427 0 29 0.165427 1
gene 1 11 21 -0.0817112 0 30 -0.0817112 1
gene 1 12 21 -0.488354 0 31 -0.488354 1
gene 1 13 21 -0.341715 0 32 -0.341715 1
gene 1 14 21 -0.0287068 0 33 -0.0287068 1
gene 1 15 21 -0.339607 0 34 -0.339607 1
gene 1 16 21 -0.487021 0 35 -0.487021 1
gene 1 17 21 0.998412 0 36 0.998412 1
gene 1 18 21 -0.77877 0 37 -0.77877 1
gene 1 19 21 0.45355 0 38 0.45355 1
gene 1 1 22 -0.365018 0 39 -0.365018 1
gene 1 2 22 -0.369171 0 40 -0.369171 1
gene 1 3 22 0.353605 0 41 0.353605 1
gene 1 4 22 -0.425924 0 42 -0.425924 1
gene 1 5 22 -0.0565334 0 43 -0.0565334 1
gene 1 6 22 -0.0988414 0 44 -0.0988414 1
gene 1 7 22 -0.481209 0 45 -0.481209 1
gene 1 8 22 -0.392736 0 46 -0.392736 1
gene 1 9 22 0.439398 0 47 0.439398 1
gene 1 10 22 0.511475 0 48 0.511475 1
gene 1 11 22 0.00733239 0 49 0.00733239 1
gene 1 12 22 0.0276064 0 50 0.0276064 1
gene 1 13 22 0.755105 0 51 0.755105 1
gene 1 14 22 -0.693794 0 52 -0.693794 1
gene 1 15 22 0.337127 0 53 0.337127 1
gene 1 16 22 0.284712 0 54 0.284712 1
gene 1 17 22 0.0289272 0 55 0.0289272 1
gene 1 18 22 -0.239632 0 56 -0.239632 1
gene 1 19 22 0.495452 0 57 0.495452 1
gene 1 1 23 0.25096 0 58 0.25096 1
gene 1 2 23 -0.335586 0 59 -0.335586 1
gene 1 3 23 -0.0599272 0 60 -0.0599272 1
gene 1 4 23 0.363883 0 61 0.363883 1
gene 1 5 23 0.769837 0 62 0.769837 1
gene 1 6 23 0.0170771 0 63 0.0170771 1
gene 1 7 23 -0.381609 0 64 -0.381609 0
gene 1 8 23 -0.217845 0 65 -0.217845 1
gene 1 9 23 -0.54254 0 66 -0.54254 1
gene 1 10 23 -0.803745 0 67 -0.803745 1
gene 1 11 23 0.325823 0 68 0.325823 1
gene 1 12 23 -0.441363 0 69 -0.441363 1
gene 1 13 23 0.0456672 0 70 0.0456672 1
gene 1 14 23 -0.917945 0 71 -0.917945 1
gene 1 15 23 -0.662954 0 72 -0.662954 1
gene 1 16 23 0.889465 0 73 0.889465 1
gene 1 17 23 -0.327149 0 74 -0.327149 1
gene 1 18 23 0.0914677 0 75 0.0914677 1
gene 1 19 23 0.238452 0 76 0.238452 1
gene 1 7 24 0.889667 0 81 0.889667 1
gene 1 24 21 0.091543 0 82 0.091543 1
gene 1 21 23 0.234638 0 83 0.234638 1
gene 1 10 24 -0.631057 0 89 -0.631057 1
gene 1 2 26 0.8145 0 90 0.8145 1
gene 1 26 20 0.105223 0 91 0.105223 1
gene 1 6 27 -0.00298774 0 93 -0.00298774 1
gene 1 27 21 -0.122551 0 94 -0.122551 1
gene 1 9 27 -0.304392 0 111 -0.304392 1
gene 1 10 34 -0.0343798 0 112 -0.0343798 1
gene 1 34 24 0.445232 0 113 0.445232 1
gene 1 27 26 -0.231247 0 115 -0.231247 1
gene 1 8 37 0.703998 0 121 0.703998 1
gene 1 37 20 0.721716 0 122 0.721716 1
gene 1 7 38 0.249737 0 124 0.249737 1
gene 1 38 23 0.155547 0 125 0.155547 1
genomeend 698
